{
    "generation": 2,
    "bestFitness": 0.0,
    "averageFitness": 0.0,
    "worstFitness": 0.0,
    "networks": [
        {
            "layers": [
                8,
                8,
                6,
                4
            ],
            "flattenedWeights": [
                0.8927977681159973,
                -0.3230549097061157,
                -0.9108364582061768,
                -0.691969633102417,
                0.9424927234649658,
                0.7898757457733154,
                -0.5252373218536377,
                -0.6289770603179932,
                -0.5137319564819336,
                -0.28654181957244875,
                -0.07228291034698487,
                -0.6158621311187744,
                0.06386762112379074,
                0.07685792446136475,
                -0.18173539638519288,
                0.9186234474182129,
                0.3890065848827362,
                -0.9967963695526123,
                -0.21911561489105225,
                -0.793642520904541,
                -0.610567569732666,
                0.4145219326019287,
                -0.3593822717666626,
                -0.5085930824279785,
                -0.1836663782596588,
                -0.3987630605697632,
                0.31511449813842776,
                0.7223279476165772,
                0.16774523258209229,
                0.9444715976715088,
                0.6146271228790283,
                0.5164046287536621,
                0.4674563407897949,
                0.3741621673107147,
                0.16514194011688233,
                0.8384058475494385,
                -0.48670822381973269,
                -0.5552618503570557,
                -0.5188891887664795,
                -0.2999168634414673,
                -0.33619773387908938,
                -0.1948758363723755,
                -0.5954012870788574,
                -0.23052750527858735,
                -0.9593172073364258,
                -0.19178688526153565,
                -0.11635179817676544,
                0.7756280303001404,
                0.03723853826522827,
                0.7219910621643066,
                -0.8290870189666748,
                0.840822160243988,
                -0.4878925085067749,
                0.3920229971408844,
                -0.2625046372413635,
                -0.44873178005218508,
                0.39543136954307558,
                0.731797456741333,
                0.1943134218454361,
                -0.6357908248901367,
                -0.7829647064208984,
                -0.4644814729690552,
                0.6602756977081299,
                -0.45548880100250246,
                -0.9213327765464783,
                -0.25207316875457766,
                -0.6988565921783447,
                0.012241005897521973,
                0.12387502193450928,
                0.3941785991191864,
                -0.599245548248291,
                0.1321234405040741,
                -0.4406548738479614,
                0.284042090177536,
                0.6025860905647278,
                0.10464656352996826,
                0.0037955865263938905,
                0.298342764377594,
                -0.23844695091247559,
                0.4044910669326782,
                -0.2581695318222046,
                -0.7147687673568726,
                -0.6702964305877686,
                -0.3398555517196655,
                -0.46863093972206118,
                0.5127360820770264,
                0.014922499656677246,
                0.9200167655944824,
                -0.7814638614654541,
                0.39127442240715029,
                0.8237029314041138,
                0.9002463817596436,
                -0.3763080835342407,
                -0.782263994216919,
                0.28728508949279787,
                -0.4998413324356079,
                0.7964394688606262,
                0.21317532658576966,
                -0.810868501663208,
                0.18149493634700776,
                0.828019380569458,
                -0.8181383609771729,
                -0.250119686126709,
                -0.7722427845001221,
                0.010825254023075104,
                0.9297819137573242,
                -0.015281081199645996,
                -0.3312869966030121,
                0.5378987193107605,
                0.32611367106437685,
                0.44963881373405459,
                0.9525032043457031,
                1.1831607818603516,
                0.2834581136703491,
                0.9585244655609131,
                -0.4001479148864746,
                0.7558293342590332,
                0.9076204299926758,
                0.14089173078536988,
                -0.3219078481197357,
                -0.01687788963317871,
                -0.3958319425582886,
                -0.19102919101715089,
                0.2450190782546997,
                -0.3076667785644531,
                0.15731728076934815,
                0.32303282618522646,
                0.7048661708831787,
                -0.4281240701675415,
                0.469084233045578,
                -0.5535011291503906,
                -0.26207005977630618,
                0.9941225051879883,
                -0.17047202587127686,
                0.7744443416595459,
                0.675663948059082
            ],
            "fitness": 0.0,
            "timeAlive": 1.9485703706741334,
            "totalDistance": 3.0483345985412599,
            "successfulJumps": 0,
            "checkpointsReached": 0,
            "uniqueAreasVisited": 2,
            "activeWeightsCount": 135,
            "weightComplexity": 0.9926470518112183,
            "outputLockStatus": [
                false,
                false,
                false,
                false
            ],
            "correctJumps": 0,
            "incorrectJumps": 0,
            "explorationEfficiency": 0.6560959815979004
        },
        {
            "layers": [
                8,
                8,
                6,
                4
            ],
            "flattenedWeights": [
                -0.9128401279449463,
                -0.9040659666061401,
                0.6016969680786133,
                0.5772914290428162,
                -0.4678868055343628,
                -0.02547166869044304,
                0.231410950422287,
                -0.9829435348510742,
                0.31279656291007998,
                -0.39376717805862429,
                -0.8609208464622498,
                0.557075023651123,
                -0.18643152713775636,
                0.9482452869415283,
                0.18061363697052003,
                -0.8582878112792969,
                -0.30059295892715456,
                -0.02625662460923195,
                -0.07127956300973892,
                0.8807446956634522,
                -0.8378598690032959,
                -0.2767828702926636,
                0.14953148365020753,
                -0.673377275466919,
                0.2944597899913788,
                0.10838544368743897,
                0.4813668727874756,
                -0.524114191532135,
                -0.8099361658096314,
                0.6035792827606201,
                0.055538296699523929,
                -0.3087402582168579,
                -0.9173815250396729,
                -0.9196105003356934,
                0.5075132846832275,
                -0.8860514163970947,
                0.2431255578994751,
                0.8011703491210938,
                -0.3043741285800934,
                -0.968268632888794,
                -0.947148323059082,
                -0.8745263814926148,
                0.07649767398834229,
                0.8476812839508057,
                -0.7057085037231445,
                0.2556905448436737,
                0.8026452660560608,
                -0.13899505138397218,
                0.8531908988952637,
                -0.4655810594558716,
                0.5946328639984131,
                -0.2419608235359192,
                0.5923929810523987,
                0.8518323302268982,
                0.9437549114227295,
                0.8476361036300659,
                0.06117546558380127,
                -0.7670600414276123,
                0.8918132781982422,
                0.5961946845054627,
                0.6590225100517273,
                -0.8920652866363525,
                0.04390944540500641,
                0.10822188854217529,
                -0.7218639850616455,
                0.3414406478404999,
                0.7625417709350586,
                0.714299201965332,
                0.23067247867584229,
                -0.04244581609964371,
                -0.5735390186309815,
                0.35387322306632998,
                0.32160279154777529,
                -0.9428377151489258,
                0.9638814926147461,
                0.22142159938812257,
                -0.0021768808364868166,
                0.6761288642883301,
                0.20270651578903199,
                0.26329442858695986,
                -0.8985071182250977,
                0.9113583564758301,
                0.6279152631759644,
                0.316180944442749,
                -0.14491355419158936,
                0.8867475986480713,
                0.6186611652374268,
                -0.3573204278945923,
                -0.5203768014907837,
                -0.0005518198013305664,
                0.2329925298690796,
                0.9482021331787109,
                0.32663390040397646,
                0.6675472259521484,
                -0.8816821575164795,
                0.6884810924530029,
                -0.4671882390975952,
                0.5110218524932861,
                -0.7021505832672119,
                -0.2972525358200073,
                0.11317002773284912,
                0.09993207454681397,
                -0.38853681087493899,
                0.5734894275665283,
                -0.36243903636932375,
                0.34535858035087588,
                0.8307085037231445,
                -0.5978693962097168,
                0.7317447662353516,
                -0.008909091353416443,
                0.016921162605285646,
                -0.3544508218765259,
                1.4982693195343018,
                0.9114320278167725,
                0.9973621368408203,
                0.6456252336502075,
                -0.07187485694885254,
                -0.0657421350479126,
                0.4837290942668915,
                -0.9217615127563477,
                -0.024627208709716798,
                -0.09669744968414307,
                -0.8007979393005371,
                -0.33700501918792727,
                -0.2649703919887543,
                0.5352084636688232,
                -0.9713134765625,
                -0.9616177082061768,
                -0.27378010749816897,
                -0.9995768070220947,
                0.7248952388763428,
                0.3895333409309387,
                1.4570426940917969,
                -0.3968147039413452,
                -0.2922631502151489,
                0.7250645160675049
            ],
            "fitness": 0.0,
            "timeAlive": 0.7108153700828552,
            "totalDistance": 1.4147815704345704,
            "successfulJumps": 0,
            "checkpointsReached": 0,
            "uniqueAreasVisited": 1,
            "activeWeightsCount": 133,
            "weightComplexity": 0.9779411554336548,
            "outputLockStatus": [
                false,
                false,
                false,
                false
            ],
            "correctJumps": 0,
            "incorrectJumps": 0,
            "explorationEfficiency": 0.7068228721618652
        },
        {
            "layers": [
                8,
                8,
                6,
                4
            ],
            "flattenedWeights": [
                -0.29896628856658938,
                0.8897156715393066,
                -0.4121283292770386,
                -0.590911865234375,
                0.8722436428070068,
                -0.4202234447002411,
                -0.20592576265335084,
                0.17194712162017823,
                0.651838481426239,
                -0.46549808979034426,
                0.8756763935089111,
                0.8361774682998657,
                -0.5354505181312561,
                0.1251140683889389,
                0.07076060771942139,
                0.4551238715648651,
                -0.7354466915130615,
                0.09271728992462158,
                0.6565037369728088,
                -0.4508172273635864,
                0.9713430404663086,
                -0.09732997417449951,
                -0.6181261539459229,
                -0.6441797018051148,
                0.7254688739776611,
                0.5374078750610352,
                0.23435580730438233,
                0.22254788875579835,
                -0.6395695805549622,
                0.8565623760223389,
                -0.044640325009822848,
                0.3094366788864136,
                -0.5905022621154785,
                -0.6444947719573975,
                0.9206225872039795,
                0.7604057788848877,
                -0.05454862117767334,
                0.05527675151824951,
                -0.6213617920875549,
                -0.9069533348083496,
                -0.9230477809906006,
                -0.23813045024871827,
                -0.22668659687042237,
                0.4211866557598114,
                0.3239975571632385,
                -1.0661542415618897,
                0.20337188243865968,
                -0.30117255449295046,
                0.2484649419784546,
                0.8326793909072876,
                -0.4159640967845917,
                -0.40553510189056399,
                0.24357634782791139,
                0.07334363460540772,
                -0.7770808935165405,
                -0.7440502643585205,
                0.6190688610076904,
                0.964971661567688,
                0.8015711903572083,
                -0.26806461811065676,
                -0.58872389793396,
                0.8347916603088379,
                0.4479036033153534,
                -0.3633478879928589,
                -0.06707537174224854,
                0.8998274803161621,
                -0.9645847082138062,
                -0.7829384207725525,
                0.24978554248809815,
                -0.9743005633354187,
                0.6799342632293701,
                -0.17561638355255128,
                0.47505638003349306,
                0.7843012809753418,
                0.8943815231323242,
                -0.694805920124054,
                -0.2609494924545288,
                0.3268692195415497,
                0.15037700533866883,
                0.9473147392272949,
                -0.689032793045044,
                0.5610127449035645,
                -0.5863211750984192,
                0.0025838613510131838,
                -0.5810903906822205,
                0.09077751636505127,
                0.5864112377166748,
                -0.06127965450286865,
                -0.3433937430381775,
                -0.8463666439056397,
                -0.6501647233963013,
                0.8554754257202148,
                0.4485742747783661,
                -0.8417530655860901,
                -0.6456801295280457,
                0.6147916316986084,
                -0.9135894775390625,
                -0.2862945795059204,
                -0.9836380481719971,
                -0.24494805932044984,
                -0.9426710605621338,
                0.3967640697956085,
                0.011577852070331574,
                -0.23051583766937257,
                0.4765550196170807,
                0.37916848063468935,
                0.0007883086800575256,
                0.2563891112804413,
                0.03659401088953018,
                0.3357718884944916,
                -0.9727370142936707,
                -0.22281038761138917,
                0.6063374280929565,
                -0.39757049083709719,
                -0.5157227516174316,
                0.04265124350786209,
                1.1562089920043946,
                0.586735725402832,
                0.9881937503814697,
                -0.7110254764556885,
                0.871996283531189,
                -0.15743175148963929,
                0.7533977031707764,
                -0.42274123430252077,
                0.030796028673648835,
                0.46197912096977236,
                0.15935933589935304,
                0.7460789680480957,
                1.2913663387298585,
                0.08559811115264893,
                -0.5920248031616211,
                -0.9071407318115234,
                1.0108633041381837,
                -0.6516013145446777,
                0.8674983978271484,
                -0.17456352710723878
            ],
            "fitness": 0.0,
            "timeAlive": 2.762782573699951,
            "totalDistance": 4.9415788650512699,
            "successfulJumps": 0,
            "checkpointsReached": 0,
            "uniqueAreasVisited": 2,
            "activeWeightsCount": 134,
            "weightComplexity": 0.9852941036224365,
            "outputLockStatus": [
                false,
                false,
                false,
                false
            ],
            "correctJumps": 0,
            "incorrectJumps": 0,
            "explorationEfficiency": 0.4047289490699768
        },
        {
            "layers": [
                8,
                8,
                6,
                4
            ],
            "flattenedWeights": [
                -0.9128401279449463,
                0.8897156715393066,
                0.5607005953788757,
                0.5540916919708252,
                0.8399672508239746,
                -0.3428391218185425,
                -0.08743641525506973,
                -0.9829435348510742,
                0.7277870178222656,
                -0.24391192197799684,
                0.8756763935089111,
                0.8428939580917358,
                -0.6238152980804443,
                0.10350978374481201,
                0.07076060771942139,
                0.4551238715648651,
                -0.7354466915130615,
                0.1540313959121704,
                -0.06486141681671143,
                -0.4508172273635864,
                0.9713430404663086,
                -0.2767828702926636,
                -0.6181261539459229,
                -0.7550234794616699,
                0.7254688739776611,
                0.5374078750610352,
                0.33559828996658327,
                0.2921387851238251,
                -0.5861127376556397,
                0.9486007690429688,
                -0.11097824573516846,
                0.25254055857658389,
                -0.8333837985992432,
                -0.9196105003356934,
                0.5075132846832275,
                -0.8860514163970947,
                0.2431255578994751,
                0.762843668460846,
                -0.3004060983657837,
                -0.9182219505310059,
                -0.94038987159729,
                -0.23813045024871827,
                0.07649767398834229,
                0.4900698661804199,
                0.2832283675670624,
                -1.0448120832443238,
                0.7726988792419434,
                -0.218295156955719,
                0.2484649419784546,
                0.7886943817138672,
                0.5946328639984131,
                -0.27667152881622317,
                0.4234314262866974,
                0.7021276950836182,
                -0.8644561767578125,
                -0.7440502643585205,
                0.6190688610076904,
                0.9788613319396973,
                0.8918132781982422,
                -0.17238497734069825,
                0.6669886112213135,
                -0.8920652866363525,
                0.4479036033153534,
                0.10822188854217529,
                -0.06707537174224854,
                0.8998274803161621,
                -0.9964570999145508,
                0.714299201965332,
                0.2664204239845276,
                -0.9910790920257568,
                0.67330002784729,
                0.35387322306632998,
                0.47505638003349306,
                -0.9428377151489258,
                0.9638814926147461,
                0.14876645803451539,
                0.04122936725616455,
                0.3268692195415497,
                0.0796278715133667,
                0.8865407705307007,
                -0.8985071182250977,
                0.9871867895126343,
                -0.6231305003166199,
                0.24747860431671143,
                -0.14491355419158936,
                0.8867475986480713,
                0.6098906397819519,
                -0.06616312265396118,
                -0.4374583959579468,
                -0.0005518198013305664,
                -0.5129844546318054,
                0.8554754257202148,
                0.32663390040397646,
                -0.8585712909698486,
                -0.8816821575164795,
                0.6851144433021545,
                -0.9135894775390625,
                0.5420045852661133,
                -0.6917702555656433,
                -0.327170729637146,
                -0.9426710605621338,
                0.5022531747817993,
                -0.38853681087493899,
                -0.3271803557872772,
                -0.36243903636932375,
                0.43660733103752139,
                0.09135615825653076,
                0.2563891112804413,
                0.71973717212677,
                -0.0596037432551384,
                0.016921162605285646,
                -0.22281038761138917,
                0.6063374280929565,
                0.9114320278167725,
                0.9665723443031311,
                0.6570080518722534,
                1.2519160509109498,
                -0.0657421350479126,
                0.4837290942668915,
                -1.0089786052703858,
                0.8139150142669678,
                -0.08840233832597733,
                -0.801291286945343,
                -0.35520684719085696,
                -0.03451132774353027,
                0.5019805431365967,
                0.15935933589935304,
                -0.9616177082061768,
                1.2976622581481934,
                0.08559811115264893,
                -0.5920248031616211,
                -0.8073099255561829,
                1.4570426940917969,
                -0.6516013145446777,
                -0.2922631502151489,
                -0.1897938847541809
            ],
            "fitness": 0.0,
            "timeAlive": 2.381436824798584,
            "totalDistance": 4.66534423828125,
            "successfulJumps": 0,
            "checkpointsReached": 0,
            "uniqueAreasVisited": 2,
            "activeWeightsCount": 135,
            "weightComplexity": 0.9926470518112183,
            "outputLockStatus": [
                false,
                false,
                false,
                false
            ],
            "correctJumps": 0,
            "incorrectJumps": 0,
            "explorationEfficiency": 0.42869290709495547
        },
        {
            "layers": [
                8,
                8,
                6,
                4
            ],
            "flattenedWeights": [
                -0.9128401279449463,
                -0.3230549097061157,
                0.6016969680786133,
                0.46804580092430117,
                0.9424927234649658,
                0.7296559810638428,
                0.31650254130363467,
                -0.7053117752075195,
                0.39799511432647707,
                -0.30923426151275637,
                -0.07228291034698487,
                -0.6158621311187744,
                -0.22831344604492188,
                0.9482452869415283,
                0.12272863835096359,
                -0.8582878112792969,
                -0.29657354950904848,
                0.0007714033126831055,
                -0.06486141681671143,
                0.8941936492919922,
                -0.8378598690032959,
                -0.2767828702926636,
                0.14953148365020753,
                -0.6111938953399658,
                0.2944597899913788,
                0.10838544368743897,
                0.3843797445297241,
                -0.6440374255180359,
                0.16774523258209229,
                0.9444715976715088,
                0.6348023414611816,
                0.5164046287536621,
                -0.8333837985992432,
                0.3741621673107147,
                0.5075132846832275,
                -0.8860514163970947,
                0.2431255578994751,
                -0.6341421604156494,
                -0.43523672223091128,
                -0.9182219505310059,
                -0.33619773387908938,
                -0.1948758363723755,
                -0.615009069442749,
                -0.30048054456710818,
                -0.9593172073364258,
                -0.19178688526153565,
                -0.17144954204559327,
                -0.13899505138397218,
                0.9132927656173706,
                0.7219910621643066,
                -0.8290870189666748,
                -0.3637610077857971,
                0.4927501380443573,
                0.8658791780471802,
                -0.3098759651184082,
                0.8955237865447998,
                0.06117546558380127,
                0.6649185419082642,
                0.8949593305587769,
                -0.6357908248901367,
                -0.7829647064208984,
                -0.8920652866363525,
                0.6081018447875977,
                0.10822188854217529,
                -0.8649234175682068,
                0.3414406478404999,
                0.6276329755783081,
                0.012241005897521973,
                0.12387502193450928,
                0.3941785991191864,
                -0.5735390186309815,
                0.14499840140342713,
                0.2674274444580078,
                0.321810245513916,
                0.5860788822174072,
                0.1944352239370346,
                0.08063223212957382,
                0.6761288642883301,
                0.22276338934898377,
                0.33698269724845889,
                -0.2581695318222046,
                0.9180540442466736,
                -0.6166611909866333,
                0.24747860431671143,
                -0.40493762493133547,
                0.5127360820770264,
                0.5639119148254395,
                0.8202142715454102,
                -0.7254690527915955,
                0.4733879864215851,
                0.2788715958595276,
                0.9482021331787109,
                -0.3763080835342407,
                0.6675472259521484,
                0.33172520995140078,
                0.6884810924530029,
                -0.41636717319488528,
                0.30605050921440127,
                -0.7571920156478882,
                0.1226963922381401,
                0.15889184176921845,
                0.13383865356445313,
                -0.21572482585906983,
                0.5734894275665283,
                -0.45066913962364199,
                0.34535858035087588,
                -0.015281081199645996,
                -0.41256844997406008,
                0.7103444337844849,
                0.32611367106437685,
                0.44963881373405459,
                0.8935375213623047,
                1.203646183013916,
                0.8654479384422302,
                1.092103362083435,
                -0.2651129364967346,
                -0.07187485694885254,
                -0.0657421350479126,
                0.4323410093784332,
                -0.23394811153411866,
                -0.024627208709716798,
                -0.3958319425582886,
                -0.709287166595459,
                -0.33700501918792727,
                -0.3806611895561218,
                0.15731728076934815,
                -1.0173885822296143,
                0.7048661708831787,
                -0.4343140125274658,
                -0.9256861209869385,
                -0.5535011291503906,
                -0.26207005977630618,
                1.081547737121582,
                -0.2531888782978058,
                0.7744443416595459,
                0.7250645160675049
            ],
            "fitness": 0.0,
            "timeAlive": 1.9485703706741334,
            "totalDistance": 3.6101090908050539,
            "successfulJumps": 0,
            "checkpointsReached": 0,
            "uniqueAreasVisited": 2,
            "activeWeightsCount": 135,
            "weightComplexity": 0.9926470518112183,
            "outputLockStatus": [
                false,
                false,
                false,
                false
            ],
            "correctJumps": 0,
            "incorrectJumps": 0,
            "explorationEfficiency": 0.5539999008178711
        },
        {
            "layers": [
                8,
                8,
                6,
                4
            ],
            "flattenedWeights": [
                0.23201191425323487,
                -0.597938060760498,
                0.895895779132843,
                -0.47291743755340578,
                -0.02612173557281494,
                0.08278270810842514,
                0.7822051048278809,
                -0.9001709818840027,
                0.5973970890045166,
                0.06800258159637451,
                0.2368394136428833,
                0.3314276337623596,
                -0.197623610496521,
                0.6343810558319092,
                0.36625492572784426,
                -0.3844999074935913,
                0.23101842403411866,
                0.23538482189178468,
                0.5393819808959961,
                -0.38976433873176577,
                -0.47183555364608767,
                0.24439118802547456,
                -0.2695581018924713,
                -0.5240316390991211,
                -0.4416896104812622,
                -0.4571126103401184,
                0.06451187282800675,
                -0.6167399883270264,
                -0.5680606365203857,
                -0.6589524745941162,
                -0.32087063789367678,
                0.7158091068267822,
                -0.6350431442260742,
                0.8875026702880859,
                -0.8272712230682373,
                0.6929450035095215,
                0.422411173582077,
                -0.4973389804363251,
                -0.42781317234039309,
                -0.4189709424972534,
                0.25729939341545107,
                0.6288185119628906,
                0.24788057804107667,
                -0.550504207611084,
                -0.12566983699798585,
                0.9590920805931091,
                -0.18065321445465089,
                -0.5806961059570313,
                -0.7900021076202393,
                -0.34530359506607058,
                -0.0719166174530983,
                -0.16597020626068116,
                0.3390643298625946,
                0.2274247407913208,
                0.41979679465293887,
                0.11308300495147705,
                -0.28095686435699465,
                -0.3167799711227417,
                0.5954161286354065,
                -0.9766145944595337,
                -0.6282805800437927,
                0.03993993252515793,
                -0.3190270662307739,
                -0.5239465236663818,
                0.4560866057872772,
                -0.7381312251091003,
                -0.81766676902771,
                -0.9921128749847412,
                -0.003947615623474121,
                0.25192883610725405,
                -0.9574644565582275,
                0.8160927891731262,
                -0.8487575054168701,
                -0.11372142285108566,
                -0.051020026206970218,
                0.6692686080932617,
                0.6288590431213379,
                -0.8432736396789551,
                0.45000073313713076,
                -0.6703593730926514,
                0.01970207691192627,
                0.7821605205535889,
                -0.35462749004364016,
                -0.9819356203079224,
                0.09942376613616944,
                0.3756272792816162,
                -0.24531090259552003,
                -0.34116971492767336,
                0.2945842146873474,
                0.8153893947601318,
                0.07345783710479737,
                0.5067483186721802,
                0.8545522689819336,
                0.9609763622283936,
                0.5951666831970215,
                0.24685963988304139,
                0.8745795488357544,
                -0.428058385848999,
                -0.26527082920074465,
                -0.16641223430633546,
                -0.5439243912696838,
                -0.5728325843811035,
                -0.5619349479675293,
                0.6578636169433594,
                0.6214292049407959,
                0.8441133499145508,
                -0.8997067213058472,
                0.8232812881469727,
                -0.5450692176818848,
                -0.283690482378006,
                0.2969944179058075,
                0.9278557300567627,
                0.09250734001398087,
                -0.06685078144073487,
                -0.859682559967041,
                -0.8530209064483643,
                0.6021159291267395,
                0.9186015129089356,
                -0.33580511808395388,
                -0.1466505527496338,
                0.9071633815765381,
                -0.5771605968475342,
                -0.251973032951355,
                0.3885478675365448,
                -0.08510985225439072,
                -0.12051425129175186,
                -0.6377084851264954,
                -0.7874987125396729,
                0.11501941829919815,
                0.12952610850334168,
                0.7292364835739136,
                0.4409286081790924,
                1.3492321968078614,
                -0.6469330787658691,
                -0.9205007553100586,
                0.9152863025665283
            ],
            "fitness": 0.0,
            "timeAlive": 6.229138374328613,
            "totalDistance": 2.4035794734954836,
            "successfulJumps": 0,
            "checkpointsReached": 0,
            "uniqueAreasVisited": 1,
            "activeWeightsCount": 135,
            "weightComplexity": 0.9926470518112183,
            "outputLockStatus": [
                false,
                false,
                false,
                false
            ],
            "correctJumps": 0,
            "incorrectJumps": 0,
            "explorationEfficiency": 0.416046142578125
        },
        {
            "layers": [
                8,
                8,
                6,
                4
            ],
            "flattenedWeights": [
                0.9330873489379883,
                -0.9720944166183472,
                0.6016969680786133,
                -0.6726841330528259,
                0.9424927234649658,
                0.7438391447067261,
                -0.5610495209693909,
                -0.7053117752075195,
                0.3516518175601959,
                -0.30923426151275637,
                -0.9271295070648193,
                -0.6158621311187744,
                -0.02721583843231201,
                0.07685792446136475,
                -0.18173539638519288,
                -0.8582878112792969,
                0.3890065848827362,
                -0.9183024168014526,
                -0.21911561489105225,
                0.8807446956634522,
                -0.610567569732666,
                0.24776431918144227,
                -0.33115649223327639,
                -0.7550234794616699,
                -0.21940243244171143,
                -0.3987630605697632,
                0.4355420768260956,
                -0.5542017221450806,
                0.16774523258209229,
                0.6035792827606201,
                0.6633710861206055,
                0.610444962978363,
                -0.8333837985992432,
                -0.9083433747291565,
                0.5075132846832275,
                0.8384058475494385,
                0.2431255578994751,
                0.8011703491210938,
                -0.3004060983657837,
                -0.9182219505310059,
                -0.33619773387908938,
                -0.09737639874219895,
                -0.5764712691307068,
                -0.23579156398773194,
                -0.7057085037231445,
                0.2556905448436737,
                -0.17144954204559327,
                0.8716611862182617,
                0.05385696887969971,
                0.6830823421478272,
                0.5946328639984131,
                0.8096432685852051,
                -0.5563182830810547,
                0.7869672775268555,
                0.9524904489517212,
                -0.3547661304473877,
                0.571907103061676,
                -0.7670600414276123,
                0.28638577461242678,
                0.4308529794216156,
                -0.7829647064208984,
                -0.4644814729690552,
                0.03512108325958252,
                0.20564526319503785,
                -0.8922278881072998,
                -0.16346687078475953,
                -0.6988565921783447,
                0.714299201965332,
                0.23067247867584229,
                -0.026740193367004396,
                -0.599245548248291,
                0.35387322306632998,
                -0.4406548738479614,
                0.2054319679737091,
                0.5873211026191711,
                0.22142159938812257,
                -0.005059920251369476,
                0.22155368328094483,
                0.13020145893096925,
                0.3188234567642212,
                -0.2581695318222046,
                0.9440250396728516,
                0.6155921220779419,
                0.18381667137145997,
                -0.40493762493133547,
                0.5127360820770264,
                0.6224485039710999,
                0.8202142715454102,
                -0.7814638614654541,
                -0.0005518198013305664,
                0.7724645137786865,
                0.9683114290237427,
                0.233282208442688,
                -0.688470184803009,
                -0.8816821575164795,
                0.6884810924530029,
                -0.4671882390975952,
                0.5420045852661133,
                -0.6257452964782715,
                0.1761418730020523,
                0.11317002773284912,
                -0.7264291644096375,
                -0.38853681087493899,
                0.5734894275665283,
                -0.341280460357666,
                0.9297819137573242,
                -0.015281081199645996,
                -0.5978693962097168,
                0.6558894515037537,
                0.2536090910434723,
                0.016921162605285646,
                0.9525032043457031,
                1.4982693195343018,
                0.9114320278167725,
                0.8711411952972412,
                0.6455142498016357,
                -0.07187485694885254,
                -0.0657421350479126,
                0.4837290942668915,
                -0.9415425658226013,
                -0.0010433569550514222,
                -0.11278890073299408,
                -0.6740553975105286,
                0.2450190782546997,
                -0.36664217710494997,
                0.5635949373245239,
                0.32303282618522646,
                -0.8996331691741943,
                -0.27378010749816897,
                -1.0367323160171509,
                0.7248952388763428,
                0.34293457865715029,
                1.4570426940917969,
                -0.17047202587127686,
                -0.2922631502151489,
                0.7250645160675049
            ],
            "fitness": 0.0,
            "timeAlive": 2.212036371231079,
            "totalDistance": 5.0946526527404789,
            "successfulJumps": 1,
            "checkpointsReached": 0,
            "uniqueAreasVisited": 3,
            "activeWeightsCount": 133,
            "weightComplexity": 0.9779411554336548,
            "outputLockStatus": [
                false,
                false,
                false,
                false
            ],
            "correctJumps": 1,
            "incorrectJumps": 4,
            "explorationEfficiency": 0.5888527035713196
        },
        {
            "layers": [
                8,
                8,
                6,
                4
            ],
            "flattenedWeights": [
                -0.9128401279449463,
                -0.883453369140625,
                -0.8890206813812256,
                0.5540916919708252,
                -0.4069756269454956,
                -0.05877053737640381,
                -0.5252373218536377,
                -0.790152907371521,
                0.31279656291007998,
                -0.2562955617904663,
                -0.07228291034698487,
                0.5491710305213928,
                -0.02721583843231201,
                0.07685792446136475,
                -0.1647634655237198,
                0.8957657814025879,
                -0.1822281777858734,
                -0.9624345302581787,
                -0.02847766876220703,
                -0.793642520904541,
                -0.525306224822998,
                -0.20659440755844117,
                -0.3883937895298004,
                -0.5148119926452637,
                -0.21940243244171143,
                0.10838544368743897,
                0.38632023334503176,
                -0.5366486310958862,
                -0.7399213314056397,
                0.6035792827606201,
                0.6633710861206055,
                -0.2439936101436615,
                -0.831242561340332,
                -0.9196105003356934,
                0.5906121134757996,
                0.7741881608963013,
                0.2431255578994751,
                0.8011703491210938,
                -0.3004060983657837,
                -0.2999168634414673,
                -0.33619773387908938,
                -0.1948758363723755,
                0.14312991499900819,
                -0.23579156398773194,
                -0.9593172073364258,
                0.2556905448436737,
                -0.13588665425777436,
                0.8716611862182617,
                0.8688309192657471,
                0.7599923014640808,
                -0.8290870189666748,
                0.8096432685852051,
                -0.4878925085067749,
                0.7869672775268555,
                0.941727876663208,
                0.8955237865447998,
                0.06117546558380127,
                0.731797456741333,
                0.8918132781982422,
                0.5115771293640137,
                0.6669886112213135,
                -0.4644814729690552,
                0.03512108325958252,
                -0.5071126818656921,
                -0.7218639850616455,
                -0.1622123122215271,
                -0.6988565921783447,
                0.714299201965332,
                0.23067247867584229,
                -0.06087850406765938,
                -0.685296356678009,
                0.29575681686401369,
                0.32160279154777529,
                0.284042090177536,
                0.9638814926147461,
                0.10464656352996826,
                -0.0021768808364868166,
                0.6761288642883301,
                0.13020145893096925,
                0.33698269724845889,
                -0.2581695318222046,
                0.9440250396728516,
                0.5534622669219971,
                0.24747860431671143,
                -0.40493762493133547,
                0.5127360820770264,
                0.5934441685676575,
                0.8202142715454102,
                -0.7814638614654541,
                0.4348345100879669,
                0.2724746763706207,
                0.9767295122146606,
                -0.3763080835342407,
                0.7349810004234314,
                -0.8816821575164795,
                0.6884810924530029,
                -0.4671882390975952,
                0.30605050921440127,
                -0.8910597562789917,
                0.19512903690338136,
                0.7351546287536621,
                -0.8181383609771729,
                -0.21572482585906983,
                -0.7722427845001221,
                -0.08810055255889893,
                0.9297819137573242,
                0.7632236480712891,
                -0.41256844997406008,
                0.6156928539276123,
                0.019448373466730119,
                0.44963881373405459,
                -0.3544508218765259,
                1.207197904586792,
                0.9114320278167725,
                0.9728257656097412,
                -0.3031812906265259,
                -0.07187485694885254,
                0.9076204299926758,
                0.19698655605316163,
                -0.15177711844444276,
                -0.01687788963317871,
                -0.3958319425582886,
                -0.19102919101715089,
                -0.268159419298172,
                -0.3822357654571533,
                0.15731728076934815,
                -0.9713134765625,
                -0.9616177082061768,
                -0.27378010749816897,
                -1.0526800155639649,
                -0.5535011291503906,
                0.2882057726383209,
                1.081547737121582,
                -0.17752549052238465,
                -0.37600740790367129,
                0.7250645160675049
            ],
            "fitness": 0.0,
            "timeAlive": 0.8903594017028809,
            "totalDistance": 1.9785706996917725,
            "successfulJumps": 0,
            "checkpointsReached": 0,
            "uniqueAreasVisited": 1,
            "activeWeightsCount": 135,
            "weightComplexity": 0.9926470518112183,
            "outputLockStatus": [
                false,
                false,
                false,
                false
            ],
            "correctJumps": 0,
            "incorrectJumps": 1,
            "explorationEfficiency": 0.5054153203964233
        },
        {
            "layers": [
                8,
                8,
                6,
                4
            ],
            "flattenedWeights": [
                0.19851282238960267,
                0.6524152159690857,
                0.698136568069458,
                -0.30784356594085696,
                0.06373872607946396,
                -0.0037876367568969728,
                -0.49940744042396548,
                -0.4258178472518921,
                0.13877642154693604,
                -0.286554217338562,
                -0.7853078842163086,
                -0.7392747402191162,
                -0.49812740087509158,
                -0.8504796028137207,
                -0.35454171895980837,
                -0.47902604937553408,
                -0.635108232498169,
                -0.3568512201309204,
                -0.2989546060562134,
                -0.9751474857330322,
                -0.8749368190765381,
                0.7428035736083984,
                -0.881210207939148,
                0.8778083920478821,
                -0.08881843090057373,
                -0.7507293224334717,
                0.5375595092773438,
                -0.1700369119644165,
                0.8895096778869629,
                0.304338663816452,
                -0.12165144085884094,
                0.04938685894012451,
                0.4449407458305359,
                0.1472872495651245,
                0.842383861541748,
                -0.8291256427764893,
                -0.8916751742362976,
                0.17915165424346925,
                -0.03410470485687256,
                -0.601090669631958,
                0.897584080696106,
                0.12618494033813477,
                0.3681451976299286,
                -0.5477684140205383,
                -0.18689239025115968,
                -0.10150158405303955,
                0.9183696508407593,
                0.5356333255767822,
                -0.057650744915008548,
                0.7435441017150879,
                0.07491934299468994,
                -0.6287379264831543,
                0.8781394362449646,
                -0.5453982353210449,
                0.8131206035614014,
                -0.6392569541931152,
                -0.5168597102165222,
                0.567462682723999,
                -0.5112799406051636,
                0.9020755290985107,
                -0.6446893215179443,
                -0.605276346206665,
                -0.6433136463165283,
                -0.7944438457489014,
                0.1473144292831421,
                0.9733702540397644,
                0.09088504314422608,
                0.8189113140106201,
                0.4691445529460907,
                -0.8763082027435303,
                0.2784194052219391,
                -0.056335754692554477,
                -0.14131152629852296,
                0.8006770610809326,
                0.659274160861969,
                0.7053773403167725,
                -0.08904826641082764,
                -0.1372612714767456,
                0.3491952121257782,
                0.9039418697357178,
                -0.0530773401260376,
                0.7383716106414795,
                -0.5503301620483398,
                -0.947749137878418,
                -0.8198707103729248,
                -0.1052025556564331,
                0.5842393040657044,
                -0.653923511505127,
                0.08076387643814087,
                -0.9410042762756348,
                0.05598270893096924,
                -0.8826407790184021,
                -0.279797226190567,
                -0.5136845111846924,
                -0.298196941614151,
                0.32741138339042666,
                0.7833740711212158,
                -0.7778072357177734,
                -0.5675461292266846,
                -0.6785128116607666,
                -0.9181013107299805,
                -0.9760379195213318,
                0.6675863265991211,
                0.004269957542419434,
                -0.7658653259277344,
                0.4734630286693573,
                -0.5509040355682373,
                0.20363199710845948,
                -0.5917344093322754,
                0.8183019161224365,
                0.9335256218910217,
                0.22008086740970612,
                1.2173652648925782,
                -0.043715834617614749,
                0.7955660820007324,
                -0.7001526355743408,
                1.2251992225646973,
                -0.1205245852470398,
                -0.9236794710159302,
                -0.15745246410369874,
                0.6279149055480957,
                0.5280716419219971,
                -0.2474607229232788,
                -0.8637902736663818,
                0.0851266086101532,
                -0.7544090747833252,
                -0.4662822484970093,
                -0.3451014757156372,
                0.2312917709350586,
                -0.5360300540924072,
                -0.7541024684906006,
                -0.5560077428817749,
                0.9351292848587036,
                0.6025302410125732,
                0.43118593096733096,
                -0.7191672325134277
            ],
            "fitness": 0.0,
            "timeAlive": 0.9144677519798279,
            "totalDistance": 1.8302301168441773,
            "successfulJumps": 0,
            "checkpointsReached": 0,
            "uniqueAreasVisited": 1,
            "activeWeightsCount": 134,
            "weightComplexity": 0.9852941036224365,
            "outputLockStatus": [
                false,
                false,
                false,
                false
            ],
            "correctJumps": 0,
            "incorrectJumps": 0,
            "explorationEfficiency": 0.5463793873786926
        },
        {
            "layers": [
                8,
                8,
                6,
                4
            ],
            "flattenedWeights": [
                -0.9128401279449463,
                -0.883453369140625,
                0.6044744849205017,
                0.5540916919708252,
                -0.7138819694519043,
                0.6361072063446045,
                0.33457696437835696,
                -1.015750527381897,
                0.31279656291007998,
                0.1467658281326294,
                -0.9271295070648193,
                0.6691491603851318,
                0.9444804191589356,
                -0.843102216720581,
                0.7503342628479004,
                -0.9243266582489014,
                -0.22314444184303285,
                -0.12042105197906494,
                -0.470889687538147,
                0.31224295496940615,
                0.3178357779979706,
                -0.2767828702926636,
                0.14953148365020753,
                -0.7550234794616699,
                0.7982800006866455,
                0.10838544368743897,
                0.40425920486450198,
                -0.5461330413818359,
                -0.9110252261161804,
                -0.41469451785087588,
                0.5495827198028565,
                0.20078438520431519,
                -0.8333837985992432,
                -0.9196105003356934,
                0.5634542107582092,
                -0.9351624846458435,
                -0.26623308658599856,
                0.7061597108840942,
                -0.3004060983657837,
                -0.9182219505310059,
                0.5566181540489197,
                -0.9490029215812683,
                0.07649767398834229,
                0.874514639377594,
                -0.47799673676490786,
                0.6206989288330078,
                0.4090826213359833,
                -0.47191888093948367,
                0.8688309192657471,
                -0.10004889965057373,
                -0.7240243554115295,
                -0.27667152881622317,
                0.4927501380443573,
                0.8151689171791077,
                0.9959392547607422,
                0.8955237865447998,
                -0.4733985662460327,
                -0.7670600414276123,
                -0.08009692281484604,
                0.5115771293640137,
                -0.848781168460846,
                -0.8920652866363525,
                -0.05343296378850937,
                -0.13760912418365479,
                -0.7218639850616455,
                0.3414406478404999,
                0.7069873809814453,
                0.714299201965332,
                0.18108749389648438,
                -0.5721233487129211,
                -0.5427569150924683,
                -0.11977589130401612,
                0.32160279154777529,
                -0.2866773009300232,
                0.9638814926147461,
                0.7603157162666321,
                -0.7682583332061768,
                0.6761288642883301,
                0.8952758312225342,
                0.26329442858695986,
                -0.2115246057510376,
                -0.3096097707748413,
                -0.32233986258506777,
                0.39879730343818667,
                -0.14491355419158936,
                0.8779386878013611,
                -0.8567702770233154,
                0.03184616565704346,
                -0.8051449060440064,
                -0.0005518198013305664,
                0.2329925298690796,
                0.9482021331787109,
                -0.1453343629837036,
                0.6566224098205566,
                -0.5255327224731445,
                0.5256435871124268,
                0.33981582522392275,
                0.5420045852661133,
                -0.60999596118927,
                -0.2972525358200073,
                -0.8787912130355835,
                0.8717743754386902,
                -0.3969768285751343,
                0.25984013080596926,
                -0.35913053154945376,
                0.9254136085510254,
                0.9499456882476807,
                -0.5978693962097168,
                0.047442078590393069,
                -0.7469242215156555,
                0.8529995083808899,
                -0.056393980979919437,
                1.4982693195343018,
                0.9114320278167725,
                -0.356258749961853,
                0.48538658022880556,
                0.17472517490386964,
                0.8848545551300049,
                -0.5415952205657959,
                0.1495760679244995,
                -0.4707447290420532,
                -0.09669744968414307,
                -0.7644521594047546,
                -0.8900389671325684,
                -0.31337404251098635,
                0.4039570987224579,
                -0.9713134765625,
                -0.5580427646636963,
                -0.27378010749816897,
                -1.0493104457855225,
                0.7248952388763428,
                0.33790236711502077,
                1.4570426940917969,
                -0.6769487857818604,
                -0.22626757621765138,
                0.7377233505249023
            ],
            "fitness": 0.0,
            "timeAlive": 10.359092712402344,
            "totalDistance": 24.067480087280275,
            "successfulJumps": 0,
            "checkpointsReached": 0,
            "uniqueAreasVisited": 2,
            "activeWeightsCount": 135,
            "weightComplexity": 0.9926470518112183,
            "outputLockStatus": [
                false,
                false,
                false,
                false
            ],
            "correctJumps": 0,
            "incorrectJumps": 22,
            "explorationEfficiency": 0.08309968560934067
        }
    ],
    "timestamp": "2025-06-18 22:43:50",
    "populationSize": 16,
    "aliveNPCs": 1,
    "generationDuration": 22.431354522705079,
    "mutationRate": 0.32100000977516177,
    "eliteCount": 3,
    "globalLockStatus": [
        false,
        false,
        false,
        false
    ],
    "fitnessRange": 0.0,
    "diversityIndex": 0.0,
    "averageTimeAlive": 2.4886388778686525,
    "totalDistanceSum": 61.065650939941409,
    "totalSuccessfulJumps": 1,
    "populationDiversity": 0.0,
    "learningRate": 0.0,
    "convergenceRate": 1.0,
    "totalCheckpointsReached": 0,
    "averageDistance": 3.816603183746338,
    "totalDeaths": 15,
    "improvementRate": 0.0,
    "explorationBonus": 0.0,
    "efficiencyScore": 0.0,
    "activeBehaviors": 0,
    "aliveAtEnd": 1,
    "memoryUsage": 8.0
}