{
    "generation": 95,
    "bestFitness": 178.6378936767578,
    "averageFitness": 70.16948699951172,
    "worstFitness": 0.0,
    "networks": [
        {
            "layers": [
                8,
                8,
                6,
                4
            ],
            "flattenedWeights": [
                0.010997220873832703,
                1.281800627708435,
                -0.006553336977958679,
                0.21788260340690614,
                -0.5783945322036743,
                0.6166982650756836,
                -1.156503438949585,
                -0.8361693024635315,
                1.668763518333435,
                1.0168018341064454,
                -0.04627230763435364,
                -0.3417874872684479,
                -0.797076940536499,
                -0.522702157497406,
                -0.06629325449466706,
                -0.561281681060791,
                -0.25183573365211489,
                -1.056992769241333,
                -0.710715115070343,
                0.9690626859664917,
                0.8509861826896668,
                1.2403173446655274,
                0.058119338005781177,
                -0.60423743724823,
                0.09919589012861252,
                0.5020826458930969,
                0.21589228510856629,
                0.37387552857398989,
                0.06787282228469849,
                -1.1874377727508546,
                0.9762828350067139,
                -0.8699963092803955,
                -0.3255273699760437,
                -0.6574432849884033,
                1.4446964263916016,
                -0.33279892802238467,
                0.31334441900253298,
                -0.8473520278930664,
                -1.0220106840133668,
                0.10328090935945511,
                0.11259227991104126,
                0.8202713131904602,
                0.24207079410552979,
                -0.35444197058677676,
                0.10294515639543534,
                0.8817028403282166,
                -0.03626043349504471,
                0.5583033561706543,
                0.5331592559814453,
                -1.016520380973816,
                -0.4404522180557251,
                0.9501558542251587,
                0.25790318846702578,
                -0.2138320803642273,
                -0.5571422576904297,
                0.3511064648628235,
                -0.03853285312652588,
                -1.3485808372497559,
                0.08924765884876251,
                0.8475605845451355,
                0.6495528817176819,
                1.975895643234253,
                0.44751793146133425,
                0.5762993097305298,
                0.33697056770324709,
                0.37749823927879336,
                -0.07041139155626297,
                0.833411693572998,
                -2.271679401397705,
                -0.918318510055542,
                0.2112988978624344,
                0.4185791611671448,
                1.2507004737854005,
                1.1321659088134766,
                0.9222181439399719,
                0.48554328083992007,
                -0.001279987394809723,
                -0.8213885426521301,
                0.38287606835365298,
                -0.0958571657538414,
                -0.5422679781913757,
                0.23863810300827027,
                -1.5271482467651368,
                -0.5170653462409973,
                0.5803691744804382,
                0.1822735071182251,
                -1.8658716678619385,
                -0.4283870458602905,
                -0.4593445956707001,
                -0.5388199687004089,
                0.6470760107040405,
                -0.15917041897773744,
                0.13458377122879029,
                0.21021652221679688,
                -1.3053455352783204,
                1.2927520275115967,
                -0.4713976979255676,
                -0.36265990138053896,
                -0.010345883667469025,
                1.5885120630264283,
                0.15762822329998017,
                -0.46018707752227785,
                -0.4882655143737793,
                0.1766694188117981,
                -0.4171122610569,
                0.6073817610740662,
                -0.7964691519737244,
                -0.4085584878921509,
                -0.11698544770479202,
                0.708795428276062,
                0.39427319169044497,
                1.161136269569397,
                -0.7491697669029236,
                -0.8731095790863037,
                -0.4783060550689697,
                -0.6110244989395142,
                0.6340526342391968,
                1.1377921104431153,
                0.13866619765758515,
                -0.47599756717681887,
                1.004021406173706,
                -0.016455739736557008,
                0.6127178072929382,
                0.6779374480247498,
                0.6216257214546204,
                0.1483473777770996,
                0.20726841688156129,
                0.8933246731758118,
                -0.6799216270446777,
                0.1226169764995575,
                0.3219926953315735,
                0.9666957259178162,
                2.2319958209991457,
                -0.43083593249320986,
                1.3808588981628419,
                0.8611047863960266
            ],
            "fitness": 178.6378936767578,
            "timeAlive": 7.6263346672058109,
            "totalDistance": 15.693037986755371,
            "successfulJumps": 2,
            "checkpointsReached": 3,
            "uniqueAreasVisited": 4,
            "activeWeightsCount": 134,
            "weightComplexity": 0.9852941036224365,
            "outputLockStatus": [
                false,
                false,
                false,
                false
            ],
            "correctJumps": 2,
            "incorrectJumps": 0,
            "explorationEfficiency": 0.2548900842666626
        },
        {
            "layers": [
                8,
                8,
                6,
                4
            ],
            "flattenedWeights": [
                0.04142013192176819,
                1.3653690814971924,
                -0.2607697546482086,
                0.1877746284008026,
                -0.7117140293121338,
                0.9054096937179565,
                -1.1617212295532227,
                -0.8227019906044006,
                1.6258344650268555,
                0.828971803188324,
                -0.11641094088554383,
                -0.5377939343452454,
                -0.7249858975410461,
                -0.4547654986381531,
                0.14847993850708009,
                -0.8260449171066284,
                -0.2371285855770111,
                -1.039557695388794,
                -0.7613881230354309,
                1.1087199449539185,
                0.6932870745658875,
                1.1300996541976929,
                0.46570664644241335,
                -0.3105986416339874,
                0.2581435441970825,
                0.6281939148902893,
                0.15769311785697938,
                0.23816677927970887,
                0.172171950340271,
                -0.8749597072601318,
                0.6978452801704407,
                -0.5151037573814392,
                -0.24071207642555238,
                -0.9742574691772461,
                1.3218050003051758,
                -0.3867531418800354,
                0.6791156530380249,
                -0.7209120392799377,
                -1.015425682067871,
                0.1352366805076599,
                0.2467714548110962,
                0.4664798974990845,
                0.1433502733707428,
                -0.5127968788146973,
                0.3371020555496216,
                0.899793267250061,
                -0.316899836063385,
                0.6396373510360718,
                0.5873014330863953,
                -1.165060043334961,
                -0.43073537945747378,
                0.9439228177070618,
                0.22478774189949037,
                -0.07633675634860993,
                -0.5457744598388672,
                0.62619549036026,
                -0.11380370706319809,
                -1.2759661674499512,
                -0.02276366949081421,
                1.0889172554016114,
                1.2008485794067383,
                1.8821444511413575,
                0.05622626096010208,
                0.5772829651832581,
                0.6087033748626709,
                -0.20914897322654725,
                -0.2054646611213684,
                0.8924429416656494,
                -2.3049449920654299,
                -1.0993238687515259,
                -0.12741051614284516,
                0.38089311122894289,
                1.170892357826233,
                1.2906290292739869,
                0.6338298320770264,
                0.4118245840072632,
                0.09203068166971207,
                -0.38155877590179446,
                0.41690975427627566,
                0.013333272188901902,
                -0.4103759825229645,
                0.20644262433052064,
                -1.584073543548584,
                -0.6565476655960083,
                0.8203113675117493,
                0.3229310214519501,
                -1.897735595703125,
                -0.4890761375427246,
                -0.5842846632003784,
                -0.5105298161506653,
                0.5367200374603272,
                -0.09597433358430863,
                0.4269862473011017,
                0.6825230121612549,
                -1.2912657260894776,
                1.2352427244186402,
                -0.5333335399627686,
                -0.3735787272453308,
                -0.3106757700443268,
                1.180330514907837,
                -0.01073666661977768,
                -0.7081754803657532,
                -0.6130455732345581,
                0.4060259163379669,
                -0.8147990107536316,
                0.5505707263946533,
                -0.7716323733329773,
                -0.5081490278244019,
                -0.37903955578804018,
                0.771506130695343,
                0.2595621943473816,
                1.1319032907485963,
                -0.8476585745811462,
                -0.7531111240386963,
                -0.3829616606235504,
                -0.4793195426464081,
                0.5540146231651306,
                1.5261467695236207,
                0.3065745234489441,
                -0.3468770384788513,
                1.0631877183914185,
                -0.028182104229927064,
                0.43659862875938418,
                0.48075616359710696,
                0.4128395617008209,
                0.12321001291275025,
                0.3348686099052429,
                0.9603539705276489,
                -0.6481821537017822,
                0.3877476453781128,
                0.08006628602743149,
                0.8063725829124451,
                2.47281813621521,
                -0.5625951290130615,
                1.3404282331466675,
                0.8914174437522888
            ],
            "fitness": 137.38735961914063,
            "timeAlive": 7.03275728225708,
            "totalDistance": 13.368119239807129,
            "successfulJumps": 2,
            "checkpointsReached": 2,
            "uniqueAreasVisited": 3,
            "activeWeightsCount": 136,
            "weightComplexity": 1.0,
            "outputLockStatus": [
                false,
                false,
                false,
                false
            ],
            "correctJumps": 2,
            "incorrectJumps": 0,
            "explorationEfficiency": 0.22441451251506806
        },
        {
            "layers": [
                8,
                8,
                6,
                4
            ],
            "flattenedWeights": [
                0.11940747499465943,
                1.4060364961624146,
                -0.09532220661640167,
                0.036570049822330478,
                -0.5537376403808594,
                0.5886197686195374,
                -1.2374845743179322,
                -1.0658589601516724,
                1.5206735134124756,
                1.0165653228759766,
                -0.0867430716753006,
                -0.4417370557785034,
                -0.9211229085922241,
                -0.4229831099510193,
                -0.05398862808942795,
                -0.5337221622467041,
                -0.20830222964286805,
                -0.9324864149093628,
                -0.6268664598464966,
                1.102430820465088,
                0.7245675325393677,
                1.2067639827728272,
                0.07307861745357514,
                -0.5837934613227844,
                0.13800236582756043,
                0.461919903755188,
                0.19892537593841554,
                0.4714180827140808,
                0.07917662709951401,
                -1.164960265159607,
                0.9990065693855286,
                -0.8680275678634644,
                -0.42463573813438418,
                -0.7584881782531738,
                1.4563859701156617,
                -0.29161617159843447,
                0.24449217319488526,
                -0.7355469465255737,
                -0.9622886776924133,
                -0.015878826379776,
                0.0634017363190651,
                0.3313864469528198,
                0.3273210823535919,
                -0.19173675775527955,
                0.4169619083404541,
                0.9129123687744141,
                0.05231355130672455,
                0.7633026242256165,
                0.2694481909275055,
                -0.9017949104309082,
                -0.24431975185871125,
                1.1432605981826783,
                0.26996278762817385,
                -0.11646030098199845,
                -0.34483641386032107,
                0.2722265422344208,
                -0.055596720427274707,
                -1.3139230012893677,
                -0.030378513038158418,
                0.9871307611465454,
                0.6672027111053467,
                1.4444949626922608,
                0.43950355052948,
                0.6014275550842285,
                0.20165985822677613,
                0.42183318734169009,
                -0.20022571086883546,
                0.8987337350845337,
                -2.4175162315368654,
                -0.9089280366897583,
                0.10445179790258408,
                0.3830723762512207,
                1.3321232795715333,
                1.1730766296386719,
                0.9174966812133789,
                0.4511072635650635,
                0.04453134536743164,
                -0.764970600605011,
                0.4195996820926666,
                0.02611149102449417,
                -0.49666279554367068,
                0.20406806468963624,
                -1.5054889917373658,
                -0.492991179227829,
                0.6680627465248108,
                0.2781270146369934,
                -1.8658716678619385,
                -0.48983103036880495,
                -0.3672044575214386,
                -0.47350800037384035,
                0.5409029126167297,
                -0.21011465787887574,
                0.19620661437511445,
                0.5791487693786621,
                -1.3264048099517823,
                1.346795678138733,
                -0.6487537026405335,
                -0.211652934551239,
                0.04577568173408508,
                1.4986933469772339,
                -0.008967641741037369,
                -0.5985838770866394,
                -0.5897639989852905,
                0.31337490677833559,
                -0.4742424786090851,
                0.5297514796257019,
                -0.7531344294548035,
                -0.2802421748638153,
                -0.08584321290254593,
                0.832119345664978,
                0.4020383059978485,
                1.229272723197937,
                -0.6775609254837036,
                -0.9232075214385986,
                -0.5959367752075195,
                -0.5382550358772278,
                0.35796961188316347,
                1.114393711090088,
                0.22839567065238954,
                -0.2522186040878296,
                1.1482809782028199,
                -0.061616554856300357,
                0.5805667042732239,
                0.6300474405288696,
                0.6311283707618713,
                0.204126238822937,
                0.21967348456382752,
                0.9787060022354126,
                -0.6594797968864441,
                0.31052663922309878,
                0.3813587427139282,
                0.9279050827026367,
                2.2299301624298097,
                -0.46468856930732729,
                1.3407419919967652,
                0.7610672116279602
            ],
            "fitness": 122.37174224853516,
            "timeAlive": 6.4403395652771,
            "totalDistance": 12.905322074890137,
            "successfulJumps": 1,
            "checkpointsReached": 2,
            "uniqueAreasVisited": 3,
            "activeWeightsCount": 135,
            "weightComplexity": 0.9926470518112183,
            "outputLockStatus": [
                false,
                false,
                false,
                false
            ],
            "correctJumps": 1,
            "incorrectJumps": 0,
            "explorationEfficiency": 0.23246222734451295
        },
        {
            "layers": [
                8,
                8,
                6,
                4
            ],
            "flattenedWeights": [
                -0.02186698094010353,
                1.461553931236267,
                -0.014667600393295288,
                0.1742282211780548,
                -0.6917963624000549,
                0.5805332064628601,
                -1.1175117492675782,
                -0.9241479635238648,
                1.372870922088623,
                1.0129395723342896,
                -0.15501362085342408,
                -0.4201098382472992,
                -0.752293050289154,
                -0.5123734474182129,
                -0.03779848664999008,
                -0.5126124620437622,
                -0.1592579185962677,
                -0.841544508934021,
                -0.6576834917068481,
                0.9571563601493836,
                0.8534185290336609,
                1.138413667678833,
                0.04049764201045036,
                -0.6703441143035889,
                0.025120485574007036,
                0.5610879063606262,
                0.2508434057235718,
                0.3820439875125885,
                0.053985558450222018,
                -1.0701582431793213,
                1.0842564105987549,
                -0.758766233921051,
                -0.3735668957233429,
                -0.7580021023750305,
                1.4310152530670167,
                -0.45277559757232668,
                0.34591144323349,
                -0.8446289896965027,
                -1.0196506977081299,
                0.03107597306370735,
                0.0634017363190651,
                0.832206130027771,
                0.31809723377227785,
                -0.24148890376091004,
                0.21907472610473634,
                1.0509490966796876,
                0.003549039363861084,
                0.4601910710334778,
                0.2695853114128113,
                -0.9314982295036316,
                -0.2687261998653412,
                0.9136244058609009,
                0.16603317856788636,
                -0.11733334511518479,
                -0.4090213179588318,
                0.39830225706100466,
                -0.07573999464511872,
                -1.4041438102722169,
                0.17033222317695619,
                0.963533878326416,
                0.5941960215568543,
                1.4617477655410767,
                0.38461631536483767,
                0.5832975506782532,
                0.18352767825126649,
                0.33525368571281435,
                -0.12394724786281586,
                0.6613308191299439,
                -2.296827554702759,
                -1.1545405387878419,
                0.13817499577999116,
                0.39792388677597048,
                1.2502171993255616,
                1.128238320350647,
                1.0656150579452515,
                0.4180198609828949,
                0.04453134536743164,
                -0.842654824256897,
                0.4350433647632599,
                0.10222598910331726,
                -0.5561741590499878,
                0.15641379356384278,
                -1.5546616315841675,
                -0.6595502495765686,
                0.6413546800613403,
                0.24978867173194886,
                -2.0009474754333498,
                -0.3677869439125061,
                -0.3672044575214386,
                -0.3805776834487915,
                0.7418795824050903,
                -0.13568007946014405,
                0.04442969709634781,
                0.42937585711479189,
                -1.2845358848571778,
                1.255310297012329,
                -0.38147979974746706,
                -0.3974146544933319,
                -0.07141285389661789,
                1.4660892486572266,
                0.005354955792427063,
                -0.41420456767082217,
                -0.6068487763404846,
                0.3359217643737793,
                -0.8764394521713257,
                0.4134649932384491,
                -0.7988967299461365,
                -0.4404660761356354,
                -0.32427334785461428,
                0.9354376196861267,
                0.30686745047569277,
                1.568447470664978,
                -0.6752897500991821,
                -0.8432537317276001,
                -0.6986259818077087,
                -0.5497838258743286,
                0.35630255937576296,
                1.1789675951004029,
                0.44053226709365847,
                -0.47599756717681887,
                1.179274320602417,
                -0.10709172487258911,
                0.7072657942771912,
                0.7130287289619446,
                0.6340789198875427,
                0.07550794631242752,
                0.2630882263183594,
                0.9741448163986206,
                -0.6799216270446777,
                0.18576392531394959,
                0.35844743251800539,
                0.8988726139068604,
                2.2367146015167238,
                -0.6956310868263245,
                1.2576193809509278,
                0.8091283440589905
            ],
            "fitness": 122.28683471679688,
            "timeAlive": 6.242847919464111,
            "totalDistance": 12.661036491394043,
            "successfulJumps": 1,
            "checkpointsReached": 2,
            "uniqueAreasVisited": 3,
            "activeWeightsCount": 134,
            "weightComplexity": 0.9852941036224365,
            "outputLockStatus": [
                false,
                false,
                false,
                false
            ],
            "correctJumps": 1,
            "incorrectJumps": 0,
            "explorationEfficiency": 0.2369474321603775
        },
        {
            "layers": [
                8,
                8,
                6,
                4
            ],
            "flattenedWeights": [
                -0.03131058067083359,
                1.1978509426116944,
                0.04161941260099411,
                0.24234536290168763,
                -0.5303810238838196,
                0.9055782556533814,
                -1.4082114696502686,
                -0.9845823645591736,
                1.6813757419586182,
                0.821779727935791,
                -0.2481384575366974,
                -0.532427191734314,
                -0.8558303117752075,
                -0.5721660256385803,
                -0.038602232933044437,
                -0.7849336862564087,
                -0.16972382366657258,
                -1.147932529449463,
                -0.6603056192398071,
                1.1568771600723267,
                0.5495997667312622,
                0.9945836067199707,
                0.5312262177467346,
                -0.548783540725708,
                0.06825969368219376,
                0.5030449032783508,
                0.26371443271636965,
                0.3245941400527954,
                -0.015203986316919327,
                -0.9194612503051758,
                0.8386626839637756,
                -0.5632597804069519,
                -0.24922960996627809,
                -0.6526309847831726,
                1.330560564994812,
                -0.6717069745063782,
                0.3939565122127533,
                -1.0051101446151734,
                -0.9849522113800049,
                -0.05247432366013527,
                0.3151513934135437,
                0.8130061030387878,
                0.1288088709115982,
                -0.2511962950229645,
                0.4413861632347107,
                0.8502249121665955,
                -0.19004502892494203,
                0.6314384341239929,
                0.45389989018440249,
                -1.0853071212768555,
                -0.2328834980726242,
                0.9439228177070618,
                0.23097512125968934,
                -0.06788921356201172,
                -0.41368764638900759,
                0.36039555072784426,
                0.050927404314279559,
                -1.2189826965332032,
                -0.1513810157775879,
                1.1546860933303834,
                1.24740469455719,
                1.946902871131897,
                0.13217154145240785,
                0.49013400077819826,
                0.6282632350921631,
                -0.32830628752708437,
                0.022989630699157716,
                0.6510048508644104,
                -2.2374002933502199,
                -1.1235387325286866,
                -0.02644268050789833,
                0.601831316947937,
                1.123013973236084,
                1.083797574043274,
                0.8024432063102722,
                0.6007527709007263,
                0.12412671744823456,
                -0.40976986289024355,
                0.3537662923336029,
                0.21629348397254945,
                -0.264950692653656,
                0.21405091881752015,
                -1.5736846923828126,
                -0.7360042929649353,
                0.6546536684036255,
                0.32944661378860476,
                -1.897735595703125,
                -0.40979909896850588,
                -0.43335187435150149,
                -0.6470104455947876,
                0.6167017221450806,
                -0.056875430047512057,
                0.15738362073898316,
                0.5899666547775269,
                -1.2567601203918458,
                1.1568964719772339,
                -0.46303796768188479,
                -0.3797343373298645,
                -0.39068517088890078,
                1.1415762901306153,
                0.06710310280323029,
                -0.4774356186389923,
                -0.5685330629348755,
                0.36312827467918398,
                -0.7288385629653931,
                0.533087432384491,
                -0.7250163555145264,
                -0.48695313930511477,
                -0.2878621816635132,
                0.9922037720680237,
                0.2973664402961731,
                1.2901333570480347,
                -0.7039697170257568,
                -0.8351093530654907,
                -0.6575787663459778,
                -0.36920490860939028,
                0.9165537357330322,
                1.790327548980713,
                0.17764732241630555,
                -0.4056803286075592,
                1.116071343421936,
                -0.05063292384147644,
                0.31134501099586489,
                0.49976491928100588,
                0.32845157384872439,
                0.0158206969499588,
                0.3679857850074768,
                0.9711706638336182,
                -0.6527286767959595,
                0.29712194204330447,
                0.09425251930952072,
                0.9613561630249023,
                2.446631669998169,
                -0.6222107410430908,
                1.408935308456421,
                0.9142591953277588
            ],
            "fitness": 122.12239837646485,
            "timeAlive": 8.347193717956543,
            "totalDistance": 12.905098915100098,
            "successfulJumps": 1,
            "checkpointsReached": 2,
            "uniqueAreasVisited": 3,
            "activeWeightsCount": 136,
            "weightComplexity": 1.0,
            "outputLockStatus": [
                false,
                false,
                false,
                false
            ],
            "correctJumps": 1,
            "incorrectJumps": 0,
            "explorationEfficiency": 0.23246625065803529
        },
        {
            "layers": [
                8,
                8,
                6,
                4
            ],
            "flattenedWeights": [
                -0.1589214950799942,
                1.2846707105636597,
                0.11192440241575241,
                0.20319080352783204,
                -0.5963905453681946,
                0.9825461506843567,
                -1.1058911085128785,
                -1.1229511499404908,
                1.6873730421066285,
                0.786613404750824,
                0.1330450028181076,
                -0.5730316638946533,
                -0.6673601269721985,
                -0.4515637159347534,
                0.03134320676326752,
                -0.5575119853019714,
                -0.22791969776153565,
                -1.0509319305419922,
                -0.6831340789794922,
                1.1257517337799073,
                0.7915993928909302,
                1.0535751581192017,
                -0.03850178420543671,
                -0.5464038252830505,
                0.06825969368219376,
                0.5429462194442749,
                0.33531641960144045,
                0.30645257234573367,
                0.15636301040649415,
                -0.9047880172729492,
                0.7137536406517029,
                -0.6322454810142517,
                -0.24922960996627809,
                -1.056551456451416,
                1.3218050003051758,
                -0.33433642983436587,
                0.6788001656532288,
                -0.769938051700592,
                -1.0489411354064942,
                0.09824665635824204,
                0.19786018133163453,
                0.8257861733436585,
                0.08653486520051956,
                -0.5127968788146973,
                0.44327643513679507,
                0.8520318865776062,
                -0.1343577802181244,
                0.6416411399841309,
                0.42952826619148257,
                -1.1293108463287354,
                -0.20197273790836335,
                1.1328647136688233,
                0.194783017039299,
                -0.13769260048866273,
                -0.38585326075553896,
                0.2327038049697876,
                -0.2534043490886688,
                -1.336010217666626,
                -0.2021687626838684,
                1.1054290533065797,
                1.2569016218185425,
                1.6965513229370118,
                0.1682499200105667,
                0.6232661604881287,
                0.6125702261924744,
                -0.33769264817237856,
                -0.30074605345726015,
                0.7865082621574402,
                -2.2259621620178224,
                -1.1560750007629395,
                -0.05768320709466934,
                0.3005279004573822,
                1.054028868675232,
                1.219866394996643,
                0.8783928751945496,
                0.5784393548965454,
                0.12340041995048523,
                -0.5498530864715576,
                0.578028678894043,
                0.09733206033706665,
                -0.3465195894241333,
                0.2692655920982361,
                -1.5636781454086304,
                -0.6715505719184876,
                0.5478306412696838,
                0.3412396311759949,
                -1.347481608390808,
                -0.5253961086273193,
                -0.49435555934906008,
                -0.4352698028087616,
                0.7199109196662903,
                -0.11384859681129456,
                0.24864237010478974,
                0.5899666547775269,
                -1.2741284370422364,
                1.3364403247833253,
                -0.6471048593521118,
                -0.39124709367752077,
                -0.2808883786201477,
                1.1801304817199708,
                0.1943923383951187,
                -0.7099114656448364,
                -0.5392410159111023,
                0.20464792847633363,
                -0.7577014565467835,
                0.647720217704773,
                -0.7516782283782959,
                -0.43920987844467165,
                -0.06673770397901535,
                0.9812207221984863,
                0.541362464427948,
                1.3868298530578614,
                -0.7906056642532349,
                -0.9997383952140808,
                -0.6748530268669128,
                -0.668304443359375,
                0.8625670075416565,
                1.48672354221344,
                0.19330474734306336,
                -0.42032715678215029,
                0.9786977171897888,
                0.005412794649600983,
                0.7722197771072388,
                0.4494785964488983,
                0.3784586191177368,
                -0.019279584288597108,
                0.3572971224784851,
                0.784358024597168,
                -0.7302778363227844,
                0.316868394613266,
                0.3402068614959717,
                0.878327488899231,
                2.5440502166748049,
                -0.5371734499931336,
                1.3102103471755982,
                0.8642618656158447
            ],
            "fitness": 87.4885482788086,
            "timeAlive": 6.839310646057129,
            "totalDistance": 13.810907363891602,
            "successfulJumps": 1,
            "checkpointsReached": 1,
            "uniqueAreasVisited": 3,
            "activeWeightsCount": 135,
            "weightComplexity": 0.9926470518112183,
            "outputLockStatus": [
                false,
                false,
                false,
                false
            ],
            "correctJumps": 1,
            "incorrectJumps": 0,
            "explorationEfficiency": 0.21721962094306947
        },
        {
            "layers": [
                8,
                8,
                6,
                4
            ],
            "flattenedWeights": [
                0.07716913521289826,
                1.2740637063980103,
                -0.040508322417736056,
                0.25321364402770998,
                -0.7188156843185425,
                0.962478756904602,
                -1.380946397781372,
                -0.9840527772903442,
                1.671798825263977,
                0.881426215171814,
                -0.09516396373510361,
                -0.6689343452453613,
                -0.8608155250549316,
                -0.5268697142601013,
                -0.03840082883834839,
                -0.8322750926017761,
                -0.22591859102249146,
                -1.2089790105819703,
                -0.7430169582366943,
                1.1568771600723267,
                0.6809579730033875,
                1.3014509677886963,
                0.43668287992477419,
                -0.5180966854095459,
                0.1293283849954605,
                0.46334362030029299,
                0.28322142362594607,
                0.4702324867248535,
                0.06823276728391648,
                -1.1363317966461182,
                0.7178510427474976,
                -0.7137243747711182,
                -0.26113179326057436,
                -0.7373083829879761,
                1.402470350265503,
                -0.6152768731117249,
                0.35494914650917055,
                -0.9923071265220642,
                -0.9727045297622681,
                0.12458333373069763,
                0.3717581033706665,
                0.8522225022315979,
                0.34261441230773928,
                -0.2804516851902008,
                0.024481378495693208,
                0.7926037311553955,
                -0.030067741870880128,
                0.5043565630912781,
                0.5868493318557739,
                -0.9314982295036316,
                -0.4302152693271637,
                0.8778367638587952,
                0.2726661264896393,
                -0.1404953896999359,
                -0.4813932180404663,
                0.2667545974254608,
                -0.04921788349747658,
                -1.1922129392623902,
                -0.2021687626838684,
                0.8003467917442322,
                1.1074519157409669,
                1.9013495445251465,
                0.45359674096107485,
                0.7114948034286499,
                0.2494029700756073,
                0.3458312153816223,
                0.02066797763109207,
                0.6480557322502136,
                -2.3755478858947756,
                -1.1251496076583863,
                -0.09148010611534119,
                0.49130553007125857,
                1.2356679439544678,
                1.2143876552581788,
                0.8835398554801941,
                0.446892648935318,
                0.05481848120689392,
                -0.5216142535209656,
                0.3868348002433777,
                -0.014193862676620484,
                -0.20726245641708375,
                0.46058982610702517,
                -1.5677590370178223,
                -0.5899489521980286,
                0.60812908411026,
                0.09111984819173813,
                -1.8357487916946412,
                -0.37778037786483767,
                -0.4333510398864746,
                -0.522868812084198,
                0.633320689201355,
                -0.2016814649105072,
                0.34199923276901247,
                0.24916782975196839,
                -1.3525550365447999,
                1.2863255739212037,
                -0.4144856929779053,
                -0.3086076080799103,
                -0.2552267909049988,
                1.1932076215744019,
                0.05355249345302582,
                -0.5620909333229065,
                -0.49936291575431826,
                0.1766694188117981,
                -0.8588278889656067,
                0.5959498286247253,
                -0.8396815657615662,
                -0.34223756194114687,
                -0.26363489031791689,
                0.8440318703651428,
                0.22523441910743714,
                1.2416107654571534,
                -0.6799095869064331,
                -0.9024853110313416,
                -0.5525294542312622,
                -0.5143320560455322,
                0.789817214012146,
                1.6922475099563599,
                0.45377466082572939,
                -0.3327409029006958,
                0.9715633392333984,
                -0.05063292384147644,
                0.39072471857070925,
                0.7222188711166382,
                0.3893395662307739,
                0.15107131004333497,
                0.24075034260749818,
                0.9415572285652161,
                -0.7167744636535645,
                0.08661770075559616,
                0.23724523186683656,
                0.9149010181427002,
                2.3457584381103517,
                -0.5137553215026856,
                1.4032272100448609,
                0.8485427498817444
            ],
            "fitness": 86.36603546142578,
            "timeAlive": 5.840153217315674,
            "totalDistance": 11.234673500061036,
            "successfulJumps": 1,
            "checkpointsReached": 1,
            "uniqueAreasVisited": 3,
            "activeWeightsCount": 136,
            "weightComplexity": 1.0,
            "outputLockStatus": [
                false,
                false,
                false,
                false
            ],
            "correctJumps": 1,
            "incorrectJumps": 0,
            "explorationEfficiency": 0.2670304477214813
        },
        {
            "layers": [
                8,
                8,
                6,
                4
            ],
            "flattenedWeights": [
                0.07377155125141144,
                1.2740637063980103,
                -0.048422232270240787,
                0.1613820195198059,
                -0.6858691573143005,
                0.8652734160423279,
                -1.3535630702972413,
                -0.969810426235199,
                1.6535656452178956,
                0.9425853490829468,
                -0.18110916018486024,
                -0.6896411776542664,
                -0.9310048818588257,
                -0.46453237533569338,
                0.05959183722734451,
                -0.7330288887023926,
                -0.1913001388311386,
                -1.2297300100326539,
                -0.7413760423660278,
                1.1806316375732422,
                0.6729345917701721,
                1.002814769744873,
                0.5214325785636902,
                -0.518463671207428,
                0.1074734702706337,
                0.41427022218704226,
                0.22806350886821748,
                0.3153393566608429,
                0.008657742291688919,
                -0.8173766732215881,
                0.7020116448402405,
                -0.5379806160926819,
                -0.31189680099487307,
                -0.6782662868499756,
                1.3812748193740845,
                -0.7030786275863648,
                0.3749983608722687,
                -0.9953576326370239,
                -0.9341895580291748,
                -0.04927389696240425,
                0.3696369230747223,
                0.8140657544136047,
                0.21091070771217347,
                -0.25464823842048647,
                0.3219517767429352,
                0.738823652267456,
                -0.19452771544456483,
                0.633590042591095,
                0.4980296492576599,
                -1.0112500190734864,
                -0.2664727568626404,
                0.8846830129623413,
                0.16536638140678407,
                -0.17124831676483155,
                -0.5232362747192383,
                0.34284812211990359,
                -0.08430597186088562,
                -1.305175542831421,
                -0.2514807879924774,
                1.0889172554016114,
                1.1869096755981446,
                1.797603964805603,
                0.08532928675413132,
                0.5772829651832581,
                0.6444687843322754,
                -0.2319628894329071,
                0.07259473204612732,
                0.5446780323982239,
                -2.2054216861724855,
                -1.0746240615844727,
                -0.06201227754354477,
                0.601831316947937,
                1.1432498693466187,
                1.1365941762924195,
                0.8429855108261108,
                0.4772626757621765,
                0.1904212236404419,
                -0.4790245592594147,
                0.34500038623809817,
                0.1784585416316986,
                -0.33651670813560488,
                0.22558175027370454,
                -1.723218321800232,
                -0.6748631596565247,
                0.7147272825241089,
                0.3117435574531555,
                -1.9299631118774415,
                -0.5969992280006409,
                -0.512003481388092,
                -0.7117464542388916,
                0.7335782647132874,
                -0.16068896651268006,
                0.17888286709785462,
                0.5396984815597534,
                -1.3407020568847657,
                1.1457984447479249,
                -0.5743079781532288,
                -0.31659752130508425,
                -0.36522218585014346,
                1.0877351760864258,
                0.04284265637397766,
                -0.5370936989784241,
                -0.464240163564682,
                0.3099302053451538,
                -0.8276768922805786,
                0.5275866389274597,
                -0.887860119342804,
                -0.36793163418769839,
                -0.39540061354637148,
                1.022203803062439,
                0.2526532709598541,
                1.3530941009521485,
                -0.7314155101776123,
                -0.7731825113296509,
                -0.7864661812782288,
                -0.48461899161338808,
                0.8809735774993897,
                1.855664849281311,
                0.13137254118919373,
                -0.25500673055648806,
                0.9942561984062195,
                -0.023501109331846238,
                0.37739238142967226,
                0.4200616776943207,
                0.4579528272151947,
                0.059264056384563449,
                0.41615360975265505,
                0.9603539705276489,
                -0.7449264526367188,
                0.3421136438846588,
                0.18272070586681367,
                0.9261420369148254,
                2.3596036434173586,
                -0.5036662220954895,
                1.3325657844543458,
                0.7482352256774902
            ],
            "fitness": 86.02623748779297,
            "timeAlive": 7.9848175048828129,
            "totalDistance": 11.074441909790039,
            "successfulJumps": 1,
            "checkpointsReached": 1,
            "uniqueAreasVisited": 3,
            "activeWeightsCount": 135,
            "weightComplexity": 0.9926470518112183,
            "outputLockStatus": [
                false,
                false,
                false,
                false
            ],
            "correctJumps": 1,
            "incorrectJumps": 0,
            "explorationEfficiency": 0.27089402079582217
        },
        {
            "layers": [
                8,
                8,
                6,
                4
            ],
            "flattenedWeights": [
                -0.238185852766037,
                1.4190441370010377,
                -0.14031103253364564,
                0.250173956155777,
                -0.6339819431304932,
                0.8164973855018616,
                -1.3544594049453736,
                -0.860020101070404,
                1.4328904151916505,
                0.7594715356826782,
                0.081089086830616,
                -0.5140247941017151,
                -0.9227002859115601,
                -0.30476492643356326,
                -0.058522216975688937,
                -0.8042070865631104,
                -0.061332471668720248,
                -0.9905868768692017,
                -0.6630816459655762,
                0.980099081993103,
                0.820355236530304,
                1.0835002660751343,
                0.408822625875473,
                -0.4607669413089752,
                0.12976303696632386,
                0.6892393827438355,
                0.24982857704162599,
                0.22189989686012269,
                -0.05589333921670914,
                -1.0695832967758179,
                0.8037221431732178,
                -0.6025999784469605,
                -0.13732096552848817,
                -0.8833003640174866,
                1.494828701019287,
                -0.4162352979183197,
                0.6395295262336731,
                -0.8511595726013184,
                -0.8669301867485046,
                0.217233806848526,
                0.17084838449954987,
                0.5946507453918457,
                0.0789734274148941,
                -0.23112544417381288,
                0.16210782527923585,
                1.1309908628463746,
                -0.31236112117767336,
                0.6646474599838257,
                0.3549726605415344,
                -1.2412083148956299,
                -0.4005967974662781,
                0.9245073795318604,
                0.39473962783813479,
                -0.008673738688230515,
                -0.303517609834671,
                0.4849703013896942,
                -0.047735556960105899,
                -1.1840834617614747,
                0.05880247801542282,
                0.688639760017395,
                1.1767653226852418,
                1.831214189529419,
                0.3331546187400818,
                0.7542819380760193,
                0.5451189875602722,
                -0.2043599933385849,
                -0.16062116622924806,
                0.6745533347129822,
                -2.312211513519287,
                -1.1577003002166749,
                0.2190743088722229,
                0.5891858339309692,
                1.0900336503982545,
                1.152465581893921,
                0.8460653424263,
                0.5590999722480774,
                -0.15589842200279237,
                -0.41459691524505618,
                0.4536730647087097,
                -0.04081626608967781,
                -0.35432058572769167,
                0.29459622502326968,
                -1.7343180179595948,
                -0.7576451897621155,
                0.6982126235961914,
                0.27996155619621279,
                -1.7185038328170777,
                -0.415904700756073,
                -0.48656946420669558,
                -0.43654558062553408,
                0.6615921854972839,
                -0.14608311653137208,
                0.254501074552536,
                0.31270653009414675,
                -1.2077267169952393,
                1.2724814414978028,
                -0.5602761507034302,
                -0.2777838408946991,
                -0.2248317003250122,
                1.0438722372055054,
                0.28980159759521487,
                -0.6009361743927002,
                -0.6390570998191834,
                0.022133678197860719,
                -0.7728180289268494,
                0.7563053965568543,
                -0.8534088134765625,
                -0.48190122842788699,
                -0.341777503490448,
                0.8128958940505981,
                0.30986669659614565,
                1.456302523612976,
                -0.69468754529953,
                -0.8624394536018372,
                -0.5587805509567261,
                -0.6472005248069763,
                0.754618763923645,
                1.3176112174987794,
                0.17343689501285554,
                -0.6549808979034424,
                1.044438362121582,
                0.0535815954208374,
                0.7618587613105774,
                0.2542610466480255,
                0.3539009690284729,
                0.20929443836212159,
                0.5587759613990784,
                0.9068087935447693,
                -0.3916054964065552,
                0.12538504600524903,
                0.23234017193317414,
                0.9787551760673523,
                2.509152889251709,
                -0.5499787926673889,
                1.4383540153503419,
                0.9463464617729187
            ],
            "fitness": 76.15092468261719,
            "timeAlive": 9.046462059020996,
            "totalDistance": 17.163000106811525,
            "successfulJumps": 1,
            "checkpointsReached": 2,
            "uniqueAreasVisited": 3,
            "activeWeightsCount": 135,
            "weightComplexity": 0.9926470518112183,
            "outputLockStatus": [
                false,
                false,
                false,
                false
            ],
            "correctJumps": 1,
            "incorrectJumps": 1,
            "explorationEfficiency": 0.17479461431503297
        },
        {
            "layers": [
                8,
                8,
                6,
                4
            ],
            "flattenedWeights": [
                0.2939590513706207,
                1.241926908493042,
                0.003997549414634705,
                0.18661388754844666,
                -0.5852494239807129,
                0.8569212555885315,
                -1.3301589488983155,
                -0.8457210659980774,
                1.6642935276031495,
                0.8809460997581482,
                -0.3059670031070709,
                -0.46875447034835818,
                -0.85715252161026,
                -0.4659939706325531,
                -0.166580468416214,
                -0.509958803653717,
                0.09187051653862,
                -1.1052441596984864,
                -0.7323574423789978,
                1.1654105186462403,
                0.8882502913475037,
                1.064704418182373,
                0.4470278024673462,
                -0.4872998893260956,
                -0.010216698050498963,
                0.45604372024536135,
                0.23079341650009156,
                0.34955790638923647,
                0.07667842507362366,
                -0.9956112504005432,
                0.6908950209617615,
                -0.4769695997238159,
                -0.24922960996627809,
                -0.78562992811203,
                1.2702490091323853,
                -0.66253262758255,
                0.3700011670589447,
                -1.010567545890808,
                -0.9248719811439514,
                0.07963185757398606,
                0.28621721267700198,
                0.6763426065444946,
                0.37443873286247256,
                -0.04729005694389343,
                0.07972466200590134,
                1.0060852766036988,
                -0.025966987013816835,
                0.58489590883255,
                0.5248456597328186,
                -1.0448617935180665,
                -0.2141551375389099,
                0.9059175252914429,
                0.20352567732334138,
                0.3401355743408203,
                -0.5076000094413757,
                0.344653844833374,
                0.01999109610915184,
                -1.385521411895752,
                -0.29769402742385867,
                1.114240050315857,
                1.1598801612854005,
                1.834358811378479,
                0.16399911046028138,
                0.8696444034576416,
                0.5882391929626465,
                -0.39252611994743349,
                0.09879884123802185,
                0.6345866918563843,
                -2.1025350093841554,
                -1.0586923360824586,
                -0.035037342458963397,
                0.3775642216205597,
                1.1398768424987794,
                1.2463997602462769,
                0.8835398554801941,
                0.5656932592391968,
                0.18876110017299653,
                -0.5292049646377564,
                0.3013356626033783,
                0.26853877305984499,
                -0.3007272481918335,
                0.20140260457992555,
                -1.5296322107315064,
                -0.6602051854133606,
                0.8034136891365051,
                0.327444851398468,
                -1.7063546180725098,
                -0.5178859829902649,
                -0.45376306772232058,
                -0.7062531113624573,
                0.6320371627807617,
                -0.2108357846736908,
                0.31292158365249636,
                0.04165695607662201,
                -1.4459848403930665,
                1.2552562952041627,
                -0.6062898635864258,
                -0.39046376943588259,
                -0.10463190823793411,
                1.1145505905151368,
                0.13560894131660462,
                -0.4590783715248108,
                -0.5837190747261047,
                0.3879227936267853,
                -0.7860723733901978,
                0.4141331613063812,
                -0.8838845491409302,
                -0.36824101209640505,
                -0.16851001977920533,
                0.7562589645385742,
                0.2725014388561249,
                1.3493901491165162,
                -0.6891056299209595,
                -0.8708634972572327,
                -0.44681987166404726,
                -0.5496634840965271,
                0.6406711339950562,
                1.7503632307052613,
                0.19570650160312653,
                -0.31740865111351015,
                1.1099228858947755,
                -0.011199519038200379,
                0.36208370327949526,
                0.5936727523803711,
                0.3789788782596588,
                0.059264056384563449,
                0.1688305139541626,
                0.8447162508964539,
                -0.6527286767959595,
                0.46970516443252566,
                0.21102440357208253,
                0.9149835705757141,
                2.406125068664551,
                -0.613943874835968,
                1.4843875169754029,
                0.856002688407898
            ],
            "fitness": 49.77486801147461,
            "timeAlive": 5.197787761688232,
            "totalDistance": 8.020279884338379,
            "successfulJumps": 0,
            "checkpointsReached": 1,
            "uniqueAreasVisited": 3,
            "activeWeightsCount": 135,
            "weightComplexity": 0.9926470518112183,
            "outputLockStatus": [
                false,
                false,
                false,
                false
            ],
            "correctJumps": 0,
            "incorrectJumps": 0,
            "explorationEfficiency": 0.3740517795085907
        }
    ],
    "timestamp": "2025-06-19 05:57:49",
    "populationSize": 23,
    "aliveNPCs": 0,
    "generationDuration": 0.16845703125,
    "mutationRate": 0.847000002861023,
    "eliteCount": 2,
    "globalLockStatus": [
        false,
        false,
        false,
        false
    ],
    "fitnessRange": 178.6378936767578,
    "diversityIndex": 55.13252639770508,
    "averageTimeAlive": 6.462839126586914,
    "totalDistanceSum": 190.02841186523438,
    "totalSuccessfulJumps": 11,
    "populationDiversity": 0.784587025642395,
    "learningRate": 0.0,
    "convergenceRate": 0.0005594784743152559,
    "totalCheckpointsReached": 19,
    "averageDistance": 11.876775741577149,
    "totalDeaths": 16,
    "improvementRate": 0.0,
    "explorationBonus": 112.27117919921875,
    "efficiencyScore": 10.857378005981446,
    "activeBehaviors": 8,
    "aliveAtEnd": 0,
    "memoryUsage": 8.0
}