{
    "generation": 50,
    "bestFitness": 95.67630767822266,
    "averageFitness": 65.4045181274414,
    "worstFitness": 8.394935607910157,
    "networks": [
        {
            "layers": [
                8,
                8,
                6,
                4
            ],
            "flattenedWeights": [
                0.20825591683387757,
                1.1813058853149415,
                -0.6205794811248779,
                0.1785978376865387,
                -0.3752766251564026,
                1.0325689315795899,
                -1.220145344734192,
                -1.1356220245361329,
                1.0284717082977296,
                1.203330397605896,
                -0.01721784472465515,
                -0.7862699031829834,
                -0.5073633790016174,
                -0.3155931234359741,
                0.5117543935775757,
                -1.0070796012878419,
                -0.16116048395633698,
                -0.4389371871948242,
                -1.1025034189224244,
                0.9730138778686523,
                1.068892002105713,
                1.0424973964691163,
                0.424950510263443,
                -0.48483648896217348,
                0.2237645387649536,
                0.7189910411834717,
                -0.20915523171424867,
                0.6800181269645691,
                0.19204726815223695,
                -0.8574582934379578,
                0.7675864100456238,
                -0.24928343296051026,
                -0.49848031997680666,
                -0.11713020503520966,
                1.2110503911972047,
                -0.9481796026229858,
                0.16124743223190309,
                -0.825473964214325,
                -0.9915432333946228,
                0.20213153958320619,
                0.4977649450302124,
                0.3037869334220886,
                -0.048337019979953769,
                -0.5637567043304443,
                0.5701006650924683,
                1.1431699991226197,
                -0.020337902009487153,
                0.8211507201194763,
                0.7873958349227905,
                -0.76980060338974,
                -0.12905988097190858,
                0.8121997117996216,
                0.17502237856388093,
                0.07792031764984131,
                -0.07865778356790543,
                0.7889857292175293,
                -0.08230913430452347,
                -0.8497547507286072,
                -0.16056343913078309,
                0.8446803689002991,
                0.8047995567321777,
                1.0491526126861573,
                0.5498030185699463,
                0.24746647477149964,
                0.18622902035713197,
                0.38410526514053347,
                -0.10563989728689194,
                0.8136960864067078,
                -2.3107149600982668,
                -1.3055458068847657,
                -0.19336014986038209,
                0.41690075397491457,
                0.809040367603302,
                1.5059105157852173,
                0.6115230321884155,
                0.19807754456996919,
                -0.029692046344280244,
                -0.19382920861244203,
                0.5799959897994995,
                -0.1246490627527237,
                -0.5725477933883667,
                0.34334754943847659,
                -1.0658371448516846,
                -0.4647011458873749,
                0.46171948313713076,
                0.3820260763168335,
                -1.1219837665557862,
                -0.6738759875297546,
                -0.5804808735847473,
                -0.4743291735649109,
                0.6686250567436218,
                -0.323147714138031,
                -0.043807677924633029,
                0.1733924150466919,
                -1.0243266820907593,
                1.311645746231079,
                -0.2755037546157837,
                -0.2791528105735779,
                -0.09253440052270889,
                0.5180000066757202,
                0.36421796679496767,
                -0.12167985737323761,
                -0.6746838092803955,
                0.30722224712371828,
                -0.3339967727661133,
                0.3026377856731415,
                -1.024026870727539,
                -0.3949074149131775,
                -0.4397669732570648,
                0.47720006108283999,
                0.3071426749229431,
                0.847629964351654,
                -0.6269763112068176,
                -0.6444944143295288,
                -0.22925299406051637,
                -0.5025120377540588,
                1.198632836341858,
                1.282242774963379,
                0.3941800892353058,
                -0.6099693179130554,
                0.6955645084381104,
                0.33697986602783205,
                0.9043260812759399,
                0.13233733177185059,
                0.08199025690555573,
                0.20310696959495545,
                0.3038327097892761,
                1.100021243095398,
                -0.7772563695907593,
                0.7915594577789307,
                0.46157288551330569,
                0.6184751391410828,
                1.548134684562683,
                -0.1770269274711609,
                1.0735090970993043,
                0.6468786001205444
            ],
            "fitness": 95.67630767822266,
            "timeAlive": 9.470747947692871,
            "totalDistance": 18.71919822692871,
            "successfulJumps": 0,
            "checkpointsReached": 2,
            "uniqueAreasVisited": 4,
            "activeWeightsCount": 136,
            "weightComplexity": 1.0,
            "outputLockStatus": [
                false,
                false,
                false,
                false
            ],
            "correctJumps": 0,
            "incorrectJumps": 0,
            "explorationEfficiency": 0.21368436515331269
        },
        {
            "layers": [
                8,
                8,
                6,
                4
            ],
            "flattenedWeights": [
                0.20825591683387757,
                1.1813058853149415,
                -0.5596613883972168,
                0.27541837096214297,
                -0.2814873158931732,
                0.988793134689331,
                -1.2420214414596558,
                -1.1749597787857056,
                1.0351953506469727,
                1.1476459503173829,
                -0.01721784472465515,
                -0.6579449772834778,
                -0.45190975069999697,
                -0.36409085988998415,
                0.5981889367103577,
                -0.9092664122581482,
                -0.07463681697845459,
                -0.35878998041152956,
                -1.067358136177063,
                0.8427156805992127,
                1.0500636100769044,
                1.0485800504684449,
                0.4657714366912842,
                -0.5503144860267639,
                -0.01932637393474579,
                0.6556574106216431,
                -0.20915523171424867,
                0.49582499265670779,
                0.20933644473552705,
                -0.8865796327590942,
                0.8107426762580872,
                -0.24928343296051026,
                -0.5311822295188904,
                -0.09086954593658447,
                1.1150455474853516,
                -0.9481796026229858,
                0.060484640300273898,
                -0.9043763279914856,
                -1.0237998962402344,
                0.11633869260549545,
                0.4977649450302124,
                0.2918148338794708,
                -0.11958431452512741,
                -0.5881015658378601,
                0.5701006650924683,
                1.115828514099121,
                0.05604109168052673,
                0.6301141977310181,
                0.8038014769554138,
                -0.7753597497940064,
                -0.20577022433280946,
                0.9159478545188904,
                0.2362566888332367,
                0.2764696180820465,
                0.011200040578842163,
                0.7060906887054443,
                -0.03412774205207825,
                -0.7800390720367432,
                -0.0876314714550972,
                0.8446803689002991,
                0.7182931900024414,
                1.1830710172653199,
                0.5498030185699463,
                0.23803406953811646,
                0.20484986901283265,
                0.45186689496040347,
                -0.10604863613843918,
                0.8251178860664368,
                -2.266728162765503,
                -1.2236061096191407,
                -0.2093553990125656,
                0.41690075397491457,
                0.7820717692375183,
                1.5059105157852173,
                0.5922012329101563,
                0.16799268126487733,
                0.02530072256922722,
                -0.12679582834243775,
                0.5799959897994995,
                -0.1246490627527237,
                -0.38541752099990847,
                0.34334754943847659,
                -1.1191458702087403,
                -0.4647011458873749,
                0.6313575506210327,
                0.3523317277431488,
                -1.2509688138961793,
                -0.6738759875297546,
                -0.7436350584030151,
                -0.4743291735649109,
                0.762391984462738,
                -0.323147714138031,
                0.10211275517940521,
                0.0942186713218689,
                -1.0475009679794312,
                1.3109339475631714,
                -0.3153710961341858,
                -0.2791528105735779,
                -0.06696183979511261,
                0.5180000066757202,
                0.39491167664527895,
                -0.468747615814209,
                -0.6402644515037537,
                0.33588144183158877,
                -0.4464055597782135,
                0.300701379776001,
                -1.1454037427902222,
                -0.2762949764728546,
                -0.3889586329460144,
                0.47720006108283999,
                0.37731513381004336,
                0.5244291424751282,
                -0.9318152666091919,
                -0.6447843313217163,
                -0.21841654181480409,
                -0.4426124691963196,
                1.2815899848937989,
                1.282242774963379,
                0.4631008505821228,
                -0.6099693179130554,
                0.7653170228004456,
                0.31142333149909975,
                0.9043260812759399,
                0.2035573124885559,
                0.048790425062179568,
                0.1535010039806366,
                0.23002839088439942,
                1.178612232208252,
                -0.7772563695907593,
                0.7836248874664307,
                0.46157288551330569,
                0.6481451392173767,
                1.749428391456604,
                -0.11084877699613571,
                1.0735090970993043,
                0.6890223026275635
            ],
            "fitness": 95.56813049316406,
            "timeAlive": 9.49147891998291,
            "totalDistance": 18.563907623291017,
            "successfulJumps": 0,
            "checkpointsReached": 2,
            "uniqueAreasVisited": 4,
            "activeWeightsCount": 136,
            "weightComplexity": 1.0,
            "outputLockStatus": [
                false,
                false,
                false,
                false
            ],
            "correctJumps": 0,
            "incorrectJumps": 0,
            "explorationEfficiency": 0.21547187864780427
        },
        {
            "layers": [
                8,
                8,
                6,
                4
            ],
            "flattenedWeights": [
                0.20825591683387757,
                1.2487187385559083,
                -0.5596613883972168,
                0.1785978376865387,
                -0.2814873158931732,
                1.0048415660858155,
                -1.2420214414596558,
                -1.1749597787857056,
                1.0351953506469727,
                1.1476459503173829,
                -0.01721784472465515,
                -0.7862699031829834,
                -0.45190975069999697,
                -0.36409085988998415,
                0.6333333253860474,
                -0.9092664122581482,
                -0.07463681697845459,
                -0.35878998041152956,
                -1.067358136177063,
                0.9947739839553833,
                0.9852740168571472,
                1.0424973964691163,
                0.4969433546066284,
                -0.5503144860267639,
                -0.01932637393474579,
                0.6556574106216431,
                -0.20915523171424867,
                0.49582499265670779,
                0.20933644473552705,
                -0.8530535697937012,
                0.7660266160964966,
                -0.24928343296051026,
                -0.44689711928367617,
                -0.09086954593658447,
                1.2110503911972047,
                -0.9481796026229858,
                0.060484640300273898,
                -0.9043763279914856,
                -1.0237998962402344,
                0.11633869260549545,
                0.4977649450302124,
                0.3901902437210083,
                -0.11958431452512741,
                -0.5158795714378357,
                0.5701006650924683,
                1.1113965511322022,
                0.05604109168052673,
                0.6301141977310181,
                0.8038014769554138,
                -0.76980060338974,
                -0.12905988097190858,
                0.8926567435264587,
                0.17502237856388093,
                0.2764696180820465,
                -0.021410364657640458,
                0.7889857292175293,
                0.02520725503563881,
                -0.8497547507286072,
                -0.0876314714550972,
                0.942404568195343,
                0.8699719309806824,
                1.1830710172653199,
                0.5498030185699463,
                0.23803406953811646,
                0.20484986901283265,
                0.45186689496040347,
                -0.10604863613843918,
                0.8354343771934509,
                -2.266728162765503,
                -1.2236061096191407,
                -0.2093553990125656,
                0.41690075397491457,
                0.809040367603302,
                1.5059105157852173,
                0.5335640907287598,
                0.11628837138414383,
                0.02530072256922722,
                -0.12679582834243775,
                0.5799959897994995,
                -0.1246490627527237,
                -0.47732630372047427,
                0.34334754943847659,
                -1.1191458702087403,
                -0.4647011458873749,
                0.5617987513542175,
                0.3523317277431488,
                -1.2790660858154297,
                -0.6738759875297546,
                -0.5804808735847473,
                -0.4743291735649109,
                0.762391984462738,
                -0.323147714138031,
                0.10211275517940521,
                0.10597660392522812,
                -1.0475009679794312,
                1.3109339475631714,
                -0.3153710961341858,
                -0.25895020365715029,
                -0.08994624763727188,
                0.5277418494224548,
                0.39491167664527895,
                -0.468747615814209,
                -0.7747828364372253,
                0.4063090682029724,
                -0.40228381752967837,
                0.300701379776001,
                -1.1524170637130738,
                -0.2762949764728546,
                -0.3889586329460144,
                0.47720006108283999,
                0.37731513381004336,
                0.5244291424751282,
                -0.9402226805686951,
                -0.6447843313217163,
                -0.21841654181480409,
                -0.5263234972953796,
                1.2815899848937989,
                1.282242774963379,
                0.3251991868019104,
                -0.5646970272064209,
                0.7653170228004456,
                0.31142333149909975,
                0.9043260812759399,
                0.2035573124885559,
                0.048790425062179568,
                0.1535010039806366,
                0.23002839088439942,
                1.178612232208252,
                -0.7772563695907593,
                0.7836248874664307,
                0.46157288551330569,
                0.6481451392173767,
                1.749428391456604,
                -0.11084877699613571,
                1.0735090970993043,
                0.6890223026275635
            ],
            "fitness": 95.52448272705078,
            "timeAlive": 9.470747947692871,
            "totalDistance": 18.33445167541504,
            "successfulJumps": 0,
            "checkpointsReached": 2,
            "uniqueAreasVisited": 4,
            "activeWeightsCount": 136,
            "weightComplexity": 1.0,
            "outputLockStatus": [
                false,
                false,
                false,
                false
            ],
            "correctJumps": 0,
            "incorrectJumps": 0,
            "explorationEfficiency": 0.21816851198673249
        },
        {
            "layers": [
                8,
                8,
                6,
                4
            ],
            "flattenedWeights": [
                0.20825591683387757,
                1.1813058853149415,
                -0.6205794811248779,
                0.1785978376865387,
                -0.3752766251564026,
                1.0048415660858155,
                -1.2420214414596558,
                -1.2051846981048585,
                1.0618263483047486,
                1.203330397605896,
                -0.01721784472465515,
                -0.7862699031829834,
                -0.5073633790016174,
                -0.3155931234359741,
                0.5117543935775757,
                -1.091893196105957,
                -0.1585257649421692,
                -0.6492767333984375,
                -1.1025034189224244,
                1.0023950338363648,
                1.1474708318710328,
                1.0424973964691163,
                0.41560590267181399,
                -0.48483648896217348,
                0.2237645387649536,
                0.7189910411834717,
                -0.07923095673322678,
                0.5335537791252136,
                0.19204726815223695,
                -0.8574582934379578,
                0.7675864100456238,
                -0.167249858379364,
                -0.5046820640563965,
                -0.11713020503520966,
                1.2110503911972047,
                -0.9481796026229858,
                0.14794564247131349,
                -0.9043763279914856,
                -0.9931440949440002,
                0.20213153958320619,
                0.5780759453773499,
                0.3037869334220886,
                -0.029767535626888276,
                -0.5158795714378357,
                0.5502172112464905,
                1.1431699991226197,
                -0.04992065206170082,
                0.7737907767295837,
                0.7328704595565796,
                -0.76980060338974,
                -0.21386700868606568,
                0.768406093120575,
                0.17502237856388093,
                0.1397600769996643,
                -0.07865778356790543,
                0.8364476561546326,
                -0.006124377250671387,
                -0.5711848735809326,
                -0.17149700224399568,
                0.9329598546028137,
                0.8047995567321777,
                1.1830710172653199,
                0.5498030185699463,
                0.24746647477149964,
                0.24074840545654298,
                0.38410526514053347,
                -0.10563989728689194,
                0.8251178860664368,
                -2.3107149600982668,
                -1.1905739307403565,
                -0.2093553990125656,
                0.4132044315338135,
                0.7840776443481445,
                1.5059105157852173,
                0.6115230321884155,
                0.18521937727928163,
                -0.00861109048128128,
                -0.16648083925247193,
                0.5799959897994995,
                -0.1246490627527237,
                -0.5725477933883667,
                0.31728750467300417,
                -1.0658371448516846,
                -0.4647011458873749,
                0.43156418204307558,
                0.29524752497673037,
                -1.1219837665557862,
                -0.7062062621116638,
                -0.5804808735847473,
                -0.4743291735649109,
                0.6686250567436218,
                -0.2677408456802368,
                -0.11196783185005188,
                0.22583529353141786,
                -1.0257352590560914,
                1.311645746231079,
                -0.2755037546157837,
                -0.1903686821460724,
                -0.09253440052270889,
                0.5180000066757202,
                0.39491167664527895,
                -0.468747615814209,
                -0.733440101146698,
                0.44976943731307986,
                -0.3339967727661133,
                0.300701379776001,
                -1.1419891119003297,
                -0.2762949764728546,
                -0.3889586329460144,
                0.47720006108283999,
                0.46949875354766848,
                0.8440543413162231,
                -0.9318152666091919,
                -0.5549025535583496,
                -0.22925299406051637,
                -0.5025120377540588,
                1.0792334079742432,
                1.282242774963379,
                0.4871027171611786,
                -0.5215471982955933,
                0.6955645084381104,
                0.39903897047042849,
                0.9043260812759399,
                0.13233733177185059,
                0.1474020779132843,
                0.17138651013374329,
                0.3038327097892761,
                1.0217349529266358,
                -0.7772563695907593,
                0.8729071617126465,
                0.5893192291259766,
                0.6481451392173767,
                1.6060400009155274,
                -0.1770269274711609,
                0.9824364185333252,
                0.5633947849273682
            ],
            "fitness": 95.50723266601563,
            "timeAlive": 9.296260833740235,
            "totalDistance": 18.264257431030275,
            "successfulJumps": 0,
            "checkpointsReached": 2,
            "uniqueAreasVisited": 4,
            "activeWeightsCount": 134,
            "weightComplexity": 0.9852941036224365,
            "outputLockStatus": [
                false,
                false,
                false,
                false
            ],
            "correctJumps": 0,
            "incorrectJumps": 0,
            "explorationEfficiency": 0.2190069854259491
        },
        {
            "layers": [
                8,
                8,
                6,
                4
            ],
            "flattenedWeights": [
                0.20825591683387757,
                1.1772465705871583,
                -0.6205794811248779,
                0.1785978376865387,
                -0.3752766251564026,
                1.0325689315795899,
                -1.024193525314331,
                -1.2051846981048585,
                1.0618263483047486,
                1.203330397605896,
                -0.01721784472465515,
                -0.7862699031829834,
                -0.5073633790016174,
                -0.3155931234359741,
                0.6067410707473755,
                -1.091893196105957,
                -0.1940263956785202,
                -0.6492767333984375,
                -1.1025034189224244,
                1.0023950338363648,
                1.1474708318710328,
                1.0424973964691163,
                0.424950510263443,
                -0.48483648896217348,
                0.2237645387649536,
                0.7189910411834717,
                -0.07923095673322678,
                0.5335537791252136,
                0.19204726815223695,
                -0.8574582934379578,
                0.7675864100456238,
                -0.167249858379364,
                -0.5046820640563965,
                -0.11713020503520966,
                1.2843736410140992,
                -0.9481796026229858,
                0.14794564247131349,
                -0.9043763279914856,
                -0.9524770975112915,
                0.20213153958320619,
                0.4977649450302124,
                0.39997172355651858,
                0.02037813514471054,
                -0.5158795714378357,
                0.6524404287338257,
                1.1431699991226197,
                -0.020337902009487153,
                0.7737907767295837,
                0.9281731843948364,
                -0.76980060338974,
                -0.21386700868606568,
                0.8121997117996216,
                0.17502237856388093,
                0.07792031764984131,
                -0.07865778356790543,
                0.9154086709022522,
                -0.006124377250671387,
                -0.6583725810050964,
                -0.2173224687576294,
                1.0306003093719483,
                0.8356008529663086,
                1.1830710172653199,
                0.5498030185699463,
                0.24746647477149964,
                0.24074840545654298,
                0.38410526514053347,
                -0.10563989728689194,
                0.8251178860664368,
                -2.295248031616211,
                -1.1905739307403565,
                -0.19336014986038209,
                0.4132044315338135,
                0.8819194436073303,
                1.5059105157852173,
                0.6115230321884155,
                0.19807754456996919,
                -0.029692046344280244,
                -0.16648083925247193,
                0.5799959897994995,
                -0.1246490627527237,
                -0.5725477933883667,
                0.31728750467300417,
                -1.1461074352264405,
                -0.4647011458873749,
                0.46171948313713076,
                0.29524752497673037,
                -1.1219837665557862,
                -0.7198686599731445,
                -0.5804808735847473,
                -0.4743291735649109,
                0.6686250567436218,
                -0.2677408456802368,
                -0.043807677924633029,
                0.22583529353141786,
                -1.0257352590560914,
                1.311645746231079,
                -0.30081629753112795,
                -0.1903686821460724,
                -0.09253440052270889,
                0.5180000066757202,
                0.39491167664527895,
                -0.14977706968784333,
                -0.733440101146698,
                0.4063090682029724,
                -0.3339967727661133,
                0.309846431016922,
                -1.1419891119003297,
                -0.3949074149131775,
                -0.3889586329460144,
                0.47720006108283999,
                0.5650722980499268,
                0.847629964351654,
                -0.6269763112068176,
                -0.6444944143295288,
                -0.22925299406051637,
                -0.5025120377540588,
                1.0792334079742432,
                1.282242774963379,
                0.3941800892353058,
                -0.5215471982955933,
                0.6955645084381104,
                0.39903897047042849,
                0.9043260812759399,
                0.13233733177185059,
                0.08199025690555573,
                0.17138651013374329,
                0.3038327097892761,
                1.167230248451233,
                -0.7772563695907593,
                0.8729071617126465,
                0.6297171711921692,
                0.6481451392173767,
                1.548134684562683,
                -0.1770269274711609,
                1.0735090970993043,
                0.5633947849273682
            ],
            "fitness": 95.5031967163086,
            "timeAlive": 9.296260833740235,
            "totalDistance": 18.253341674804689,
            "successfulJumps": 0,
            "checkpointsReached": 2,
            "uniqueAreasVisited": 4,
            "activeWeightsCount": 135,
            "weightComplexity": 0.9926470518112183,
            "outputLockStatus": [
                false,
                false,
                false,
                false
            ],
            "correctJumps": 0,
            "incorrectJumps": 0,
            "explorationEfficiency": 0.21913795173168183
        },
        {
            "layers": [
                8,
                8,
                6,
                4
            ],
            "flattenedWeights": [
                0.20825591683387757,
                1.1772465705871583,
                -0.6205794811248779,
                0.1785978376865387,
                -0.3752766251564026,
                1.0325689315795899,
                -1.024193525314331,
                -1.2051846981048585,
                1.0271607637405396,
                1.1107434034347535,
                -0.01721784472465515,
                -0.7862699031829834,
                -0.5073633790016174,
                -0.3155931234359741,
                0.4168872833251953,
                -1.091893196105957,
                -0.1585257649421692,
                -0.6492767333984375,
                -1.1025034189224244,
                1.0940018892288209,
                1.1474708318710328,
                1.0424973964691163,
                0.424950510263443,
                -0.48483648896217348,
                0.2237645387649536,
                0.7189910411834717,
                -0.07923095673322678,
                0.5335537791252136,
                0.19204726815223695,
                -0.8574582934379578,
                0.7675864100456238,
                -0.167249858379364,
                -0.5046820640563965,
                -0.11713020503520966,
                1.1403934955596924,
                -0.9481796026229858,
                0.14794564247131349,
                -0.9442782402038574,
                -0.9524770975112915,
                0.20213153958320619,
                0.4977649450302124,
                0.3037869334220886,
                -0.029767535626888276,
                -0.5158795714378357,
                0.5701006650924683,
                1.0738086700439454,
                -0.020337902009487153,
                0.7737907767295837,
                0.8290271759033203,
                -0.76980060338974,
                -0.21386700868606568,
                0.8121997117996216,
                0.17502237856388093,
                0.07792031764984131,
                -0.07865778356790543,
                0.9154086709022522,
                -0.006124377250671387,
                -0.6583725810050964,
                -0.2173224687576294,
                1.0306003093719483,
                0.8356008529663086,
                1.1830710172653199,
                0.5498030185699463,
                0.24746647477149964,
                0.24074840545654298,
                0.38410526514053347,
                -0.10563989728689194,
                0.8251178860664368,
                -2.295248031616211,
                -1.1905739307403565,
                -0.19336014986038209,
                0.4132044315338135,
                0.8819194436073303,
                1.5059105157852173,
                0.6115230321884155,
                0.19807754456996919,
                -0.029692046344280244,
                -0.16648083925247193,
                0.5799959897994995,
                -0.1246490627527237,
                -0.5725477933883667,
                0.31728750467300417,
                -1.1461074352264405,
                -0.4647011458873749,
                0.46171948313713076,
                0.29524752497673037,
                -1.1219837665557862,
                -0.7198686599731445,
                -0.5804808735847473,
                -0.4743291735649109,
                0.6686250567436218,
                -0.2226962149143219,
                -0.043807677924633029,
                0.22583529353141786,
                -1.0257352590560914,
                1.311645746231079,
                -0.2755037546157837,
                -0.1903686821460724,
                -0.09253440052270889,
                0.5180000066757202,
                0.39491167664527895,
                -0.12167985737323761,
                -0.733440101146698,
                0.4063090682029724,
                -0.3339967727661133,
                0.309846431016922,
                -1.0692168474197388,
                -0.3949074149131775,
                -0.3889586329460144,
                0.47720006108283999,
                0.46949875354766848,
                0.847629964351654,
                -0.6136801242828369,
                -0.6444944143295288,
                -0.22925299406051637,
                -0.5025120377540588,
                1.0792334079742432,
                1.282242774963379,
                0.3941800892353058,
                -0.5215471982955933,
                0.6955645084381104,
                0.36103880405426028,
                0.9043260812759399,
                0.13233733177185059,
                0.08199025690555573,
                0.17138651013374329,
                0.30653172731399538,
                1.167230248451233,
                -0.7772563695907593,
                0.8729071617126465,
                0.6297171711921692,
                0.6481451392173767,
                1.6185821294784547,
                -0.1770269274711609,
                1.0735090970993043,
                0.5633947849273682
            ],
            "fitness": 95.47330474853516,
            "timeAlive": 9.296260833740235,
            "totalDistance": 18.408607482910158,
            "successfulJumps": 0,
            "checkpointsReached": 2,
            "uniqueAreasVisited": 4,
            "activeWeightsCount": 135,
            "weightComplexity": 0.9926470518112183,
            "outputLockStatus": [
                false,
                false,
                false,
                false
            ],
            "correctJumps": 0,
            "incorrectJumps": 0,
            "explorationEfficiency": 0.21728965640068055
        },
        {
            "layers": [
                8,
                8,
                6,
                4
            ],
            "flattenedWeights": [
                0.20825591683387757,
                1.1813058853149415,
                -0.6205794811248779,
                0.1785978376865387,
                -0.34441813826560976,
                1.0048415660858155,
                -1.0588958263397217,
                -1.1356220245361329,
                1.0618263483047486,
                1.203330397605896,
                -0.01721784472465515,
                -0.7862699031829834,
                -0.5463284850120544,
                -0.40252578258514407,
                0.4924038052558899,
                -1.0070796012878419,
                -0.1745765507221222,
                -0.35878998041152956,
                -1.1509056091308594,
                0.7897281050682068,
                1.1193379163742066,
                1.0424973964691163,
                0.4657714366912842,
                -0.48483648896217348,
                0.2237645387649536,
                0.7189910411834717,
                -0.20915523171424867,
                0.6800181269645691,
                0.3412865400314331,
                -0.8574582934379578,
                0.8315371870994568,
                -0.167249858379364,
                -0.49848031997680666,
                -0.11713020503520966,
                1.2110503911972047,
                -0.9481796026229858,
                0.16124743223190309,
                -0.825473964214325,
                -0.9915432333946228,
                0.20213153958320619,
                0.4977649450302124,
                0.3037869334220886,
                -0.029767535626888276,
                -0.5158795714378357,
                0.5701006650924683,
                1.1431699991226197,
                0.05053301155567169,
                0.8211507201194763,
                0.8298457264900208,
                -0.76980060338974,
                -0.12905988097190858,
                0.7459173202514648,
                0.17502237856388093,
                0.07792031764984131,
                0.0018186867237091065,
                0.7889857292175293,
                -0.006124377250671387,
                -0.7800390720367432,
                -0.02291320264339447,
                0.8446803689002991,
                0.8282387852668762,
                1.0491526126861573,
                0.4893614947795868,
                0.23803406953811646,
                0.18622902035713197,
                0.3860560655593872,
                -0.10604863613843918,
                0.8251178860664368,
                -2.280785083770752,
                -1.399696946144104,
                -0.2093553990125656,
                0.41690075397491457,
                0.809040367603302,
                1.2681459188461304,
                0.5335640907287598,
                0.19807754456996919,
                -0.029692046344280244,
                -0.19382920861244203,
                0.6717338562011719,
                -0.1246490627527237,
                -0.4962528645992279,
                0.34334754943847659,
                -1.077323079109192,
                -0.4647011458873749,
                0.6313575506210327,
                0.2981989085674286,
                -1.1302540302276612,
                -0.6244325041770935,
                -0.5804808735847473,
                -0.4743291735649109,
                0.762391984462738,
                -0.323147714138031,
                -0.06375234574079514,
                0.1733924150466919,
                -1.0475009679794312,
                1.311645746231079,
                -0.2755037546157837,
                -0.2791528105735779,
                -0.06696183979511261,
                0.7081304788589478,
                0.39491167664527895,
                -0.468747615814209,
                -0.6746838092803955,
                0.4063090682029724,
                -0.29224643111228945,
                0.300701379776001,
                -1.1724520921707154,
                -0.3110930025577545,
                -0.3889586329460144,
                0.47720006108283999,
                0.37731513381004336,
                0.847629964351654,
                -0.9318152666091919,
                -0.6447843313217163,
                -0.21841654181480409,
                -0.5025120377540588,
                1.1754021644592286,
                1.282242774963379,
                0.3941800892353058,
                -0.6099693179130554,
                0.6955645084381104,
                0.39903897047042849,
                0.9043260812759399,
                0.13233733177185059,
                0.048790425062179568,
                0.2357887178659439,
                0.21216225624084474,
                1.100021243095398,
                -0.7772563695907593,
                0.7984391450881958,
                0.46157288551330569,
                0.6184751391410828,
                1.548134684562683,
                -0.18681353330612184,
                1.005357027053833,
                0.6468786001205444
            ],
            "fitness": 95.45760345458985,
            "timeAlive": 9.296260833740235,
            "totalDistance": 18.145977020263673,
            "successfulJumps": 0,
            "checkpointsReached": 2,
            "uniqueAreasVisited": 4,
            "activeWeightsCount": 134,
            "weightComplexity": 0.9852941036224365,
            "outputLockStatus": [
                false,
                false,
                false,
                false
            ],
            "correctJumps": 0,
            "incorrectJumps": 0,
            "explorationEfficiency": 0.2204345315694809
        },
        {
            "layers": [
                8,
                8,
                6,
                4
            ],
            "flattenedWeights": [
                0.20825591683387757,
                1.1772465705871583,
                -0.6205794811248779,
                0.1785978376865387,
                -0.3752766251564026,
                1.0325689315795899,
                -1.024193525314331,
                -1.2051846981048585,
                1.0618263483047486,
                1.203330397605896,
                -0.01721784472465515,
                -0.7862699031829834,
                -0.5073633790016174,
                -0.3155931234359741,
                0.5117543935775757,
                -1.091893196105957,
                -0.1585257649421692,
                -0.6492767333984375,
                -1.1025034189224244,
                1.0023950338363648,
                1.1474708318710328,
                1.067696213722229,
                0.424950510263443,
                -0.48483648896217348,
                0.2237645387649536,
                0.7189910411834717,
                -0.07923095673322678,
                0.5335537791252136,
                0.19204726815223695,
                -0.8574582934379578,
                0.7675864100456238,
                -0.167249858379364,
                -0.5046820640563965,
                -0.11713020503520966,
                1.2110503911972047,
                -0.9481796026229858,
                0.1396467387676239,
                -0.9089559316635132,
                -0.9524770975112915,
                0.20213153958320619,
                0.4977649450302124,
                0.3037869334220886,
                -0.029767535626888276,
                -0.5158795714378357,
                0.5701006650924683,
                1.1431699991226197,
                -0.020337902009487153,
                0.7737907767295837,
                0.8290271759033203,
                -0.76980060338974,
                -0.21386700868606568,
                0.8121997117996216,
                0.17502237856388093,
                0.07792031764984131,
                -0.07865778356790543,
                0.9154086709022522,
                -0.04291814938187599,
                -0.6583725810050964,
                -0.2173224687576294,
                1.0306003093719483,
                0.8356008529663086,
                1.1830710172653199,
                0.5498030185699463,
                0.24746647477149964,
                0.24074840545654298,
                0.38410526514053347,
                -0.10563989728689194,
                0.8251178860664368,
                -2.295248031616211,
                -1.1905739307403565,
                -0.19336014986038209,
                0.4132044315338135,
                0.8819194436073303,
                1.5835824012756348,
                0.6115230321884155,
                0.19807754456996919,
                -0.029692046344280244,
                -0.16648083925247193,
                0.5799959897994995,
                -0.1246490627527237,
                -0.5725477933883667,
                0.31728750467300417,
                -1.1461074352264405,
                -0.4647011458873749,
                0.46171948313713076,
                0.29524752497673037,
                -1.1219837665557862,
                -0.7198686599731445,
                -0.5804808735847473,
                -0.4743291735649109,
                0.6686250567436218,
                -0.2677408456802368,
                -0.043807677924633029,
                0.22583529353141786,
                -1.0257352590560914,
                1.311645746231079,
                -0.2755037546157837,
                -0.1903686821460724,
                -0.01860661804676056,
                0.5180000066757202,
                0.39491167664527895,
                -0.12167985737323761,
                -0.733440101146698,
                0.4063090682029724,
                -0.3339967727661133,
                0.309846431016922,
                -1.1419891119003297,
                -0.3949074149131775,
                -0.3889586329460144,
                0.47720006108283999,
                0.5607015490531921,
                0.847629964351654,
                -0.6269763112068176,
                -0.6444944143295288,
                -0.22925299406051637,
                -0.5025120377540588,
                1.0792334079742432,
                1.282242774963379,
                0.3941800892353058,
                -0.5215471982955933,
                0.6955645084381104,
                0.39903897047042849,
                0.9043260812759399,
                0.13233733177185059,
                0.08199025690555573,
                0.17138651013374329,
                0.3038327097892761,
                1.167230248451233,
                -0.7772563695907593,
                0.8729071617126465,
                0.6297171711921692,
                0.6481451392173767,
                1.548134684562683,
                -0.1770269274711609,
                1.0735090970993043,
                0.5633947849273682
            ],
            "fitness": 95.38997650146485,
            "timeAlive": 9.100086212158204,
            "totalDistance": 18.0980224609375,
            "successfulJumps": 0,
            "checkpointsReached": 2,
            "uniqueAreasVisited": 4,
            "activeWeightsCount": 136,
            "weightComplexity": 1.0,
            "outputLockStatus": [
                false,
                false,
                false,
                false
            ],
            "correctJumps": 0,
            "incorrectJumps": 0,
            "explorationEfficiency": 0.22101862728595735
        },
        {
            "layers": [
                8,
                8,
                6,
                4
            ],
            "flattenedWeights": [
                0.23725903034210206,
                1.1772465705871583,
                -0.6205794811248779,
                0.1785978376865387,
                -0.3752766251564026,
                1.0325689315795899,
                -1.024193525314331,
                -1.2051846981048585,
                1.0618263483047486,
                1.203330397605896,
                -0.01721784472465515,
                -0.7481580972671509,
                -0.5073633790016174,
                -0.3155931234359741,
                0.5117543935775757,
                -1.091893196105957,
                -0.1585257649421692,
                -0.6492767333984375,
                -1.1025034189224244,
                1.0023950338363648,
                1.1474708318710328,
                1.0424973964691163,
                0.4383137822151184,
                -0.48483648896217348,
                0.2237645387649536,
                0.7189910411834717,
                -0.14016257226467133,
                0.5335537791252136,
                0.19204726815223695,
                -0.8574582934379578,
                0.7675864100456238,
                -0.167249858379364,
                -0.5046820640563965,
                -0.11713020503520966,
                1.2110503911972047,
                -0.9481796026229858,
                0.14794564247131349,
                -0.9043763279914856,
                -0.8786231279373169,
                0.20213153958320619,
                0.4977649450302124,
                0.3037869334220886,
                -0.029767535626888276,
                -0.5158795714378357,
                0.5701006650924683,
                1.1431699991226197,
                -0.020337902009487153,
                0.7737907767295837,
                0.8290271759033203,
                -0.76980060338974,
                -0.21386700868606568,
                0.8121997117996216,
                0.17502237856388093,
                0.07792031764984131,
                -0.07865778356790543,
                0.9154086709022522,
                -0.006124377250671387,
                -0.6583725810050964,
                -0.2173224687576294,
                1.0306003093719483,
                0.8356008529663086,
                1.1830710172653199,
                0.5498030185699463,
                0.24746647477149964,
                0.24074840545654298,
                0.38410526514053347,
                -0.10563989728689194,
                0.8251178860664368,
                -2.295248031616211,
                -1.1905739307403565,
                -0.19336014986038209,
                0.4132044315338135,
                0.8819194436073303,
                1.5059105157852173,
                0.6112865805625916,
                0.19807754456996919,
                -0.029692046344280244,
                -0.16648083925247193,
                0.5799959897994995,
                -0.1246490627527237,
                -0.5725477933883667,
                0.31728750467300417,
                -1.1461074352264405,
                -0.4900442957878113,
                0.46171948313713076,
                0.29524752497673037,
                -1.1219837665557862,
                -0.7198686599731445,
                -0.5804808735847473,
                -0.4743291735649109,
                0.6324371099472046,
                -0.36288702487945559,
                -0.043807677924633029,
                0.22583529353141786,
                -1.0257352590560914,
                1.311645746231079,
                -0.2755037546157837,
                -0.12573695182800294,
                -0.09253440052270889,
                0.5180000066757202,
                0.39491167664527895,
                -0.12167985737323761,
                -0.733440101146698,
                0.4063090682029724,
                -0.3339967727661133,
                0.309846431016922,
                -1.1419891119003297,
                -0.3949074149131775,
                -0.3889586329460144,
                0.47720006108283999,
                0.46949875354766848,
                0.847629964351654,
                -0.6269763112068176,
                -0.6444944143295288,
                -0.22925299406051637,
                -0.5025120377540588,
                1.0792334079742432,
                1.282242774963379,
                0.3941800892353058,
                -0.5215471982955933,
                0.6955645084381104,
                0.39903897047042849,
                0.9043260812759399,
                0.13233733177185059,
                0.08199025690555573,
                0.17138651013374329,
                0.3038327097892761,
                1.167230248451233,
                -0.7772563695907593,
                0.8729071617126465,
                0.6297171711921692,
                0.6481451392173767,
                1.548134684562683,
                -0.1770269274711609,
                1.0735090970993043,
                0.5411957502365112
            ],
            "fitness": 95.23644256591797,
            "timeAlive": 9.100086212158204,
            "totalDistance": 17.890119552612306,
            "successfulJumps": 0,
            "checkpointsReached": 2,
            "uniqueAreasVisited": 4,
            "activeWeightsCount": 135,
            "weightComplexity": 0.9926470518112183,
            "outputLockStatus": [
                false,
                false,
                false,
                false
            ],
            "correctJumps": 0,
            "incorrectJumps": 0,
            "explorationEfficiency": 0.22358709573745728
        },
        {
            "layers": [
                8,
                8,
                6,
                4
            ],
            "flattenedWeights": [
                0.20825591683387757,
                1.1154941320419312,
                -0.6205794811248779,
                0.1785978376865387,
                -0.3752766251564026,
                1.0325689315795899,
                -1.024193525314331,
                -1.2051846981048585,
                1.0284717082977296,
                1.203330397605896,
                -0.01721784472465515,
                -0.7862699031829834,
                -0.5073633790016174,
                -0.3155931234359741,
                0.45104366540908816,
                -1.0070796012878419,
                -0.1585257649421692,
                -0.6534734964370728,
                -1.1025034189224244,
                1.0023950338363648,
                1.1474708318710328,
                1.0424973964691163,
                0.424950510263443,
                -0.4760146141052246,
                0.2237645387649536,
                0.7189910411834717,
                -0.20915523171424867,
                0.5335537791252136,
                0.19204726815223695,
                -0.8574582934379578,
                0.7675864100456238,
                -0.24928343296051026,
                -0.49848031997680666,
                -0.11713020503520966,
                1.2110503911972047,
                -0.9481796026229858,
                0.16124743223190309,
                -0.825473964214325,
                -0.9915432333946228,
                0.20213153958320619,
                0.4977649450302124,
                0.3037869334220886,
                -0.029767535626888276,
                -0.5158795714378357,
                0.5701006650924683,
                1.1431699991226197,
                -0.020337902009487153,
                0.7737907767295837,
                0.8298457264900208,
                -0.76980060338974,
                -0.12905988097190858,
                0.8121997117996216,
                0.17502237856388093,
                0.07792031764984131,
                -0.07865778356790543,
                0.7889857292175293,
                -0.006124377250671387,
                -0.8497547507286072,
                -0.2173224687576294,
                0.8446803689002991,
                0.8356008529663086,
                1.1830710172653199,
                0.5498030185699463,
                0.24746647477149964,
                0.18622902035713197,
                0.38410526514053347,
                -0.10563989728689194,
                0.8251178860664368,
                -2.3107149600982668,
                -1.3055458068847657,
                -0.19336014986038209,
                0.41690075397491457,
                0.809040367603302,
                1.5059105157852173,
                0.6115230321884155,
                0.19807754456996919,
                -0.029692046344280244,
                -0.19382920861244203,
                0.5799959897994995,
                -0.1246490627527237,
                -0.4987429082393646,
                0.31728750467300417,
                -1.0658371448516846,
                -0.3837198317050934,
                0.46171948313713076,
                0.3820260763168335,
                -1.1219837665557862,
                -0.6738759875297546,
                -0.5804808735847473,
                -0.4743291735649109,
                0.6686250567436218,
                -0.2677408456802368,
                -0.043807677924633029,
                0.1733924150466919,
                -1.0850437879562379,
                1.311645746231079,
                -0.2755037546157837,
                -0.1903686821460724,
                -0.09253440052270889,
                0.5180000066757202,
                0.39491167664527895,
                -0.12167985737323761,
                -0.733440101146698,
                0.4063090682029724,
                -0.41285592317581179,
                0.2173008918762207,
                -1.1419891119003297,
                -0.3949074149131775,
                -0.3889586329460144,
                0.47720006108283999,
                0.46949875354766848,
                0.847629964351654,
                -0.6269763112068176,
                -0.6444944143295288,
                -0.22925299406051637,
                -0.5025120377540588,
                1.0792334079742432,
                1.282242774963379,
                0.3941800892353058,
                -0.5215471982955933,
                0.6955645084381104,
                0.33697986602783205,
                0.9043260812759399,
                0.13233733177185059,
                0.08199025690555573,
                0.17138651013374329,
                0.3038327097892761,
                1.100021243095398,
                -0.7064685821533203,
                0.7915594577789307,
                0.46157288551330569,
                0.6184751391410828,
                1.548134684562683,
                -0.1770269274711609,
                1.0735090970993043,
                0.6468786001205444
            ],
            "fitness": 53.747650146484378,
            "timeAlive": 6.6632795333862309,
            "totalDistance": 13.226248741149903,
            "successfulJumps": 0,
            "checkpointsReached": 1,
            "uniqueAreasVisited": 3,
            "activeWeightsCount": 135,
            "weightComplexity": 0.9926470518112183,
            "outputLockStatus": [
                false,
                false,
                false,
                false
            ],
            "correctJumps": 0,
            "incorrectJumps": 0,
            "explorationEfficiency": 0.2268216758966446
        }
    ],
    "timestamp": "2025-06-19 05:47:29",
    "populationSize": 23,
    "aliveNPCs": 0,
    "generationDuration": 0.146240234375,
    "mutationRate": 0.0817551389336586,
    "eliteCount": 3,
    "globalLockStatus": [
        false,
        false,
        false,
        false
    ],
    "fitnessRange": 87.2813720703125,
    "diversityIndex": 36.327945709228519,
    "averageTimeAlive": 9.020988464355469,
    "totalDistanceSum": 274.7048645019531,
    "totalSuccessfulJumps": 0,
    "populationDiversity": 0.5545868277549744,
    "learningRate": 0.0,
    "convergenceRate": 0.08869558572769165,
    "totalCheckpointsReached": 27,
    "averageDistance": 17.16905403137207,
    "totalDeaths": 16,
    "improvementRate": 0.0,
    "explorationBonus": 104.64723205566406,
    "efficiencyScore": 7.250260829925537,
    "activeBehaviors": 6,
    "aliveAtEnd": 0,
    "memoryUsage": 8.0
}