{
    "generation": 500,
    "bestFitness": 0.0,
    "averageFitness": 0.0,
    "worstFitness": 0.0,
    "networks": [
        {
            "layers": [
                8,
                8,
                6,
                4
            ],
            "flattenedWeights": [
                -0.10844191908836365,
                0.4941106140613556,
                0.5069006085395813,
                -0.520770788192749,
                0.8839080333709717,
                -0.14622849225997926,
                0.36007100343704226,
                -0.30925995111465456,
                -1.9527019262313843,
                1.0685639381408692,
                -0.8836382031440735,
                1.475972294807434,
                1.0552046298980713,
                -0.1433965265750885,
                0.669744610786438,
                0.7671351432800293,
                -1.3898506164550782,
                1.2155941724777222,
                -0.10717351734638214,
                0.6635264158248901,
                1.2813655138015748,
                -0.011098943650722504,
                0.754945695400238,
                1.8160420656204224,
                1.4142279624938965,
                -1.0705156326293946,
                0.5255126953125,
                -1.4826475381851197,
                0.06136193126440048,
                0.7449650764465332,
                -1.928320288658142,
                -0.7316919565200806,
                -0.00021282583475112915,
                0.39540788531303408,
                0.7557628154754639,
                -0.9951713681221008,
                -1.0699857473373414,
                0.9371457695960999,
                -0.07975592464208603,
                0.08380953967571259,
                -1.3427376747131348,
                -2.2940471172332765,
                0.16987958550453187,
                -0.7338427901268005,
                1.9361975193023682,
                0.7175865769386292,
                -0.8418046236038208,
                -0.8250421285629273,
                1.8736424446105958,
                1.1002552509307862,
                -0.5670678019523621,
                -1.7216761112213135,
                0.08333666622638703,
                -2.161299467086792,
                0.26611006259918215,
                1.9407339096069337,
                -0.0927538201212883,
                -0.3336452543735504,
                0.07162171602249146,
                0.7506634593009949,
                -0.7898557186126709,
                -2.143674850463867,
                -1.173079013824463,
                0.06602123379707337,
                0.16423144936561585,
                -0.5619996786117554,
                -0.8268901705741882,
                -0.5114374160766602,
                1.2136017084121705,
                0.8828259706497192,
                0.8984519243240356,
                0.48314839601516726,
                0.8954135775566101,
                1.5938359498977662,
                0.45629632472991946,
                -1.0423356294631959,
                -0.8929345607757568,
                -0.5443128347396851,
                -0.40681836009025576,
                -0.5304783582687378,
                0.041132476180791858,
                0.9290323853492737,
                0.7948746085166931,
                0.4659631848335266,
                2.727839231491089,
                -0.04828745871782303,
                0.6467536687850952,
                -0.13384830951690675,
                -0.4150239825248718,
                -0.9318409562110901,
                -1.66006600856781,
                -0.0523613765835762,
                -0.611014187335968,
                -2.0642030239105226,
                -2.5137836933135988,
                0.64469975233078,
                -0.058413706719875339,
                -0.7923367619514465,
                -2.2564589977264406,
                -0.19993856549263,
                -1.3096174001693726,
                0.8642676472663879,
                -1.4783906936645508,
                1.6912623643875123,
                -0.5785767436027527,
                -0.8440279364585877,
                -0.7020902037620544,
                1.3459289073944092,
                0.5457693934440613,
                1.5014218091964722,
                1.1359431743621827,
                0.0523533821105957,
                2.061680555343628,
                1.359245777130127,
                1.4389023780822755,
                0.5206330418586731,
                0.1910034418106079,
                0.6177325248718262,
                0.3851156532764435,
                -0.9995887875556946,
                -0.041064828634262088,
                3.2437329292297365,
                -0.7564208507537842,
                0.07276888191699982,
                0.9409360289573669,
                -0.1815592646598816,
                -0.7619903683662415,
                -0.5529087781906128,
                2.3786044120788576,
                0.32679030299186709,
                -0.016956955194473268,
                -1.9551514387130738,
                0.6419840455055237,
                0.6069760322570801,
                0.8711565732955933,
                0.14209520816802979
            ],
            "fitness": 0.0,
            "npcType": 0
        },
        {
            "layers": [
                8,
                8,
                6,
                4
            ],
            "flattenedWeights": [
                -0.3881773352622986,
                0.4402214586734772,
                0.7915664315223694,
                -0.05852051079273224,
                0.33604973554611208,
                0.537044882774353,
                1.0152572393417359,
                -0.15738338232040406,
                -2.0150625705718996,
                0.9945986270904541,
                -0.9802731871604919,
                1.3619623184204102,
                1.1428216695785523,
                -0.11693698167800904,
                0.591433048248291,
                0.6817513108253479,
                -1.383901834487915,
                1.0589500665664673,
                -0.04590081423521042,
                0.622844398021698,
                1.7863471508026124,
                0.06300072371959686,
                0.950294554233551,
                1.8784961700439454,
                1.4204444885253907,
                -1.135278344154358,
                0.36033138632774355,
                -1.299709677696228,
                0.8292098641395569,
                1.272056221961975,
                -1.552728533744812,
                -0.8227401375770569,
                -0.16471871733665467,
                0.5556151270866394,
                0.5900054574012756,
                -0.8284540772438049,
                -0.8653215169906616,
                1.1966731548309327,
                -0.1629917025566101,
                0.18027018010616303,
                -1.3159273862838746,
                -2.280820608139038,
                -0.023661062121391298,
                -1.4517933130264283,
                2.025796890258789,
                0.6767365336418152,
                -1.0866756439208985,
                -0.956777036190033,
                1.6603903770446778,
                1.2972636222839356,
                -0.6541558504104614,
                -1.6648235321044922,
                -0.07369940727949143,
                -1.9190945625305176,
                0.3703256845474243,
                1.910931944847107,
                -0.035775765776634219,
                -0.37899941205978396,
                -0.012721262872219086,
                0.6958770155906677,
                -0.7892516851425171,
                -1.7988296747207642,
                -1.51297128200531,
                -0.10943906009197235,
                0.1089840903878212,
                -0.5547931790351868,
                -0.882508397102356,
                -1.5895531177520753,
                1.235633373260498,
                1.1360552310943604,
                0.8984519243240356,
                0.4705943465232849,
                0.7572318911552429,
                1.5339102745056153,
                0.5033743381500244,
                -1.1820029020309449,
                -1.0733140707015992,
                -0.658450722694397,
                -0.3051135241985321,
                -0.9557374119758606,
                0.033291012048721316,
                1.008170485496521,
                0.86190265417099,
                0.6763343214988709,
                2.5029118061065676,
                -0.3284674286842346,
                0.754901647567749,
                -0.7896620035171509,
                -0.24318796396255494,
                -0.8478423953056336,
                -1.66006600856781,
                0.1035337895154953,
                -0.8282039165496826,
                -1.898724913597107,
                -2.118333101272583,
                0.6368211507797241,
                0.07244651764631272,
                -0.8843621015548706,
                -2.227898597717285,
                -0.2418385148048401,
                -1.0461957454681397,
                0.9636672139167786,
                -0.9384843111038208,
                1.7082947492599488,
                -0.6877884864807129,
                -0.6511501669883728,
                -0.5702954530715942,
                1.3474756479263306,
                0.5564175844192505,
                1.2631298303604127,
                1.2010482549667359,
                -0.06629719585180283,
                1.9677283763885499,
                1.316781759262085,
                1.6270650625228882,
                0.007931329309940339,
                -0.11028500646352768,
                0.5115920305252075,
                0.4174843728542328,
                -0.926732063293457,
                0.1650349497795105,
                2.481550455093384,
                -1.016187310218811,
                0.015539862215518952,
                1.1013845205307007,
                -0.32071584463119509,
                -0.7504242658615112,
                -0.6562409996986389,
                2.461538076400757,
                0.6297349333763123,
                -0.016956955194473268,
                -2.154928684234619,
                0.6041858196258545,
                0.5465102195739746,
                0.7610499858856201,
                0.02489718422293663
            ],
            "fitness": 0.0,
            "npcType": 0
        },
        {
            "layers": [
                8,
                8,
                6,
                4
            ],
            "flattenedWeights": [
                -0.1067124605178833,
                0.42297691106796267,
                0.8800464868545532,
                -0.1364687979221344,
                0.5861014127731323,
                0.7881932854652405,
                0.869951605796814,
                -0.3109031021595001,
                -2.0329060554504396,
                1.1458736658096314,
                -0.7109673619270325,
                0.9471316337585449,
                1.0523481369018555,
                -0.11391203105449677,
                0.5774371027946472,
                0.5529904365539551,
                -1.1909923553466797,
                1.0520697832107545,
                -0.06698277592658997,
                0.6792584657669067,
                1.3640027046203614,
                0.1916324347257614,
                0.9576405882835388,
                2.0769617557525636,
                1.4255046844482422,
                -0.6450179219245911,
                0.7650627493858337,
                -1.6527076959609986,
                0.8216434717178345,
                1.2359964847564698,
                -1.9182182550430298,
                -0.7719006538391113,
                -0.07080069929361344,
                0.314986914396286,
                0.9037251472473145,
                -0.9842767715454102,
                -1.0669221878051758,
                1.1632388830184937,
                -0.1239762231707573,
                -0.04860936477780342,
                -1.2145066261291505,
                -2.312692880630493,
                0.023619934916496278,
                -1.2265254259109498,
                1.944698452949524,
                0.7412188053131104,
                -1.0345776081085206,
                -0.8192446827888489,
                1.6603903770446778,
                1.1002552509307862,
                -0.6619258522987366,
                -1.512088656425476,
                0.29206979274749758,
                -1.8707334995269776,
                0.2850292921066284,
                1.6586657762527466,
                -0.026462554931640626,
                -0.3633652627468109,
                -0.0012714490294456483,
                1.0793362855911255,
                -0.8659543991088867,
                -1.8889286518096924,
                -1.27947998046875,
                -0.08003085851669312,
                0.4961872696876526,
                -0.9579936265945435,
                -0.9894651770591736,
                -1.681032657623291,
                1.254533052444458,
                1.1609458923339844,
                0.9344530701637268,
                0.2878844439983368,
                0.8113645911216736,
                1.3900378942489625,
                0.4699776768684387,
                -1.1570825576782227,
                -1.236066460609436,
                -0.6417216062545776,
                -0.000022027641534805298,
                -0.9836539626121521,
                0.01777605712413788,
                0.9240821599960327,
                0.8996473550796509,
                0.5376843810081482,
                3.0121712684631349,
                -0.2644493579864502,
                0.7931363582611084,
                -0.11802013963460922,
                -0.25917473435401919,
                -0.683547854423523,
                -1.568004846572876,
                -0.05679742991924286,
                -0.716752290725708,
                -2.156193733215332,
                -2.087113618850708,
                0.5289967060089111,
                -0.04580863565206528,
                -0.8987746238708496,
                -2.283801317214966,
                -0.2034357190132141,
                -1.0050231218338013,
                0.7613204121589661,
                -1.101055383682251,
                1.8206228017807007,
                -0.376376748085022,
                -0.6803359985351563,
                -0.6537274122238159,
                1.1603634357452393,
                0.48053431510925295,
                1.5549992322921754,
                1.3863781690597535,
                -0.06462541222572327,
                2.048227310180664,
                1.0610946416854859,
                1.3702027797698975,
                0.16365554928779603,
                0.13110357522964478,
                0.5115920305252075,
                0.295364648103714,
                -0.8303855657577515,
                0.10439378768205643,
                2.8516957759857179,
                -0.7396093606948853,
                -0.06591936945915222,
                0.9953153729438782,
                0.10226324200630188,
                -0.709471583366394,
                -0.7556499242782593,
                2.001854658126831,
                0.36589139699935915,
                -0.16275154054164887,
                -2.070265293121338,
                1.0999664068222047,
                1.0316836833953858,
                0.7610499858856201,
                -0.0025401562452316286
            ],
            "fitness": 0.0,
            "npcType": 0
        },
        {
            "layers": [
                8,
                8,
                6,
                4
            ],
            "flattenedWeights": [
                -0.1067124605178833,
                0.3501575291156769,
                0.8583454489707947,
                0.024473700672388078,
                0.6111721992492676,
                0.5467761754989624,
                0.36007100343704226,
                -0.2506275475025177,
                -2.020460605621338,
                0.8000411987304688,
                -0.7689540386199951,
                0.9344184398651123,
                0.8163358569145203,
                -0.21730518341064454,
                0.6741269826889038,
                0.47111159563064577,
                -1.2012172937393189,
                1.1193363666534424,
                -0.19208216667175294,
                0.7293925881385803,
                1.4544605016708375,
                0.07279517501592636,
                0.9962214231491089,
                1.7734016180038453,
                1.3345354795455933,
                -1.0080727338790894,
                0.804207444190979,
                -1.322156548500061,
                0.13546128571033479,
                1.22064208984375,
                -1.48984956741333,
                -0.7990517020225525,
                -0.0011433474719524384,
                -0.08960049599409104,
                0.6708350777626038,
                -0.9778251051902771,
                -1.156998872756958,
                1.1354845762252808,
                -0.19431975483894349,
                0.1783684492111206,
                -1.2685431241989136,
                -2.314852476119995,
                0.20307181775569917,
                -1.2778754234313965,
                2.0212607383728029,
                0.7073689103126526,
                -1.18369722366333,
                -0.5366383790969849,
                1.6603903770446778,
                1.0260688066482545,
                -0.6511668562889099,
                -1.4580743312835694,
                0.08388220518827439,
                -2.1094746589660646,
                0.1853998899459839,
                1.7045724391937256,
                0.061457328498363498,
                -0.48049184679985049,
                -0.031727999448776248,
                0.8711839914321899,
                -0.6546007394790649,
                -1.8312119245529175,
                -1.2437644004821778,
                0.09666702151298523,
                0.21846240758895875,
                -0.8968302607536316,
                -0.9817123413085938,
                -1.4480196237564088,
                1.1457269191741944,
                0.9760833382606506,
                0.9593871831893921,
                0.8041433095932007,
                0.3641919791698456,
                1.4899027347564698,
                0.9596715569496155,
                -1.1683082580566407,
                -1.2406384944915772,
                -0.7680079340934753,
                -0.4031440317630768,
                -0.5782445073127747,
                0.010558340698480606,
                0.9488440752029419,
                0.7125892043113709,
                0.4659631848335266,
                2.657364845275879,
                -0.10941576957702637,
                0.7715715765953064,
                -0.36538103222846987,
                -0.10175071656703949,
                -0.7249003052711487,
                -1.5457093715667725,
                0.06345278024673462,
                -0.7969276309013367,
                -1.8990471363067628,
                -2.172687292098999,
                0.612007737159729,
                0.10819961130619049,
                -0.8295477032661438,
                -1.7490417957305909,
                -0.06105467677116394,
                -0.9907767176628113,
                1.0501192808151246,
                -1.1044788360595704,
                1.7046078443527222,
                -0.6062893271446228,
                -0.8320026397705078,
                -0.6679842472076416,
                1.1632803678512574,
                0.16364997625350953,
                1.5447028875350953,
                1.3207341432571412,
                0.006859142333269119,
                1.8090240955352784,
                1.259082555770874,
                1.063090205192566,
                0.4037500321865082,
                0.13110357522964478,
                0.015938587486743928,
                0.37070026993751528,
                -0.7114771604537964,
                0.06949262320995331,
                2.886610507965088,
                -0.9860646724700928,
                -0.006885312497615814,
                0.9953153729438782,
                -0.3903929591178894,
                -0.6923336982727051,
                -0.5971329212188721,
                2.6021416187286379,
                0.733609676361084,
                -0.0891803503036499,
                -2.2012040615081789,
                0.734606146812439,
                1.0509697198867798,
                0.898921012878418,
                -0.0011492297053337098
            ],
            "fitness": 0.0,
            "npcType": 0
        },
        {
            "layers": [
                8,
                8,
                6,
                4
            ],
            "flattenedWeights": [
                -0.13506270945072175,
                0.3025375306606293,
                0.6350658535957336,
                -0.10892701148986817,
                0.4607454538345337,
                -0.2340318262577057,
                0.5811601281166077,
                0.10945206880569458,
                -2.123887538909912,
                1.0685639381408692,
                -0.8238130807876587,
                1.4753649234771729,
                1.0284498929977418,
                -0.19084078073501588,
                0.5988831520080566,
                0.7671351432800293,
                -1.2488082647323609,
                1.064876675605774,
                -0.09967334568500519,
                0.34415403008461,
                1.2813655138015748,
                -0.0097341388463974,
                0.9434843063354492,
                2.148361921310425,
                1.159490704536438,
                -1.0080727338790894,
                0.5773865580558777,
                -1.6522620916366578,
                0.14495283365249635,
                1.1300709247589112,
                -1.6012778282165528,
                -1.005815029144287,
                -0.1860504150390625,
                0.30067792534828188,
                0.711480975151062,
                -0.8973560929298401,
                -0.9440228939056397,
                1.0186898708343506,
                0.1364351511001587,
                -0.014145851135253907,
                -1.1144556999206544,
                -2.4359636306762697,
                0.19985684752464295,
                -1.3525474071502686,
                1.9571163654327393,
                0.7515319585800171,
                -0.8760033249855042,
                -0.46719518303871157,
                2.245037317276001,
                1.0788031816482545,
                -0.721228837966919,
                -1.5449920892715455,
                0.3963479697704315,
                -2.118497371673584,
                0.3287116587162018,
                1.7257394790649415,
                -0.01110108196735382,
                -0.47218936681747439,
                0.019429974257946016,
                0.7812541127204895,
                -0.7504870891571045,
                -2.0507121086120607,
                -1.0704563856124879,
                -0.08922689408063889,
                0.3070193827152252,
                -1.1080955266952515,
                -0.8062884211540222,
                -1.2282143831253052,
                1.2136017084121705,
                1.0719726085662842,
                0.9261440634727478,
                0.402323842048645,
                0.4603042006492615,
                1.5572396516799927,
                0.41669076681137087,
                -0.8670130372047424,
                -1.243456482887268,
                -0.5243110656738281,
                -0.36377406120300295,
                -0.6547761559486389,
                0.09717545658349991,
                0.8954057097434998,
                0.8141058683395386,
                0.9359938502311707,
                2.6737043857574465,
                -0.04279809445142746,
                0.5441641807556152,
                -0.46224644780158999,
                -0.41500943899154665,
                -1.027629017829895,
                -1.6427079439163209,
                0.07756728678941727,
                -0.7882615327835083,
                -1.776910662651062,
                -1.8866240978240967,
                0.451257586479187,
                -0.14651456475257874,
                -0.7871876955032349,
                -2.169149160385132,
                -0.2669903337955475,
                -1.3293874263763428,
                0.91607266664505,
                -1.0575236082077027,
                1.6872920989990235,
                -0.7090233564376831,
                -0.7538470029830933,
                -0.8577746748924255,
                1.4086164236068726,
                0.14657029509544373,
                1.471623182296753,
                1.4426932334899903,
                -0.3420083522796631,
                1.9294697046279908,
                1.2625700235366822,
                1.4456478357315064,
                0.2767426669597626,
                0.24800963699817658,
                0.24418936669826508,
                0.1009797677397728,
                -0.7936099767684937,
                0.2766643762588501,
                2.677309989929199,
                -0.6171327829360962,
                -0.10138563066720963,
                1.1899170875549317,
                -0.32071584463119509,
                -0.6323317885398865,
                -0.5840526819229126,
                2.3808958530426027,
                0.47057557106018069,
                0.0139533132314682,
                -2.1322243213653566,
                1.2215129137039185,
                0.9364863634109497,
                0.7803279161453247,
                -0.20740443468093873
            ],
            "fitness": 0.0,
            "npcType": 0
        },
        {
            "layers": [
                8,
                8,
                6,
                4
            ],
            "flattenedWeights": [
                -0.0513092540204525,
                0.46981391310691836,
                0.6826261878013611,
                -0.01931113749742508,
                0.5946287512779236,
                0.6605972051620483,
                0.9877872467041016,
                -0.21289721131324769,
                -2.0935022830963136,
                0.8000411987304688,
                -0.952278196811676,
                1.3619623184204102,
                1.0308020114898682,
                -0.14306479692459107,
                0.6734414100646973,
                0.6158849000930786,
                -1.4091012477874756,
                0.9687174558639526,
                -0.12104666233062744,
                0.6679176688194275,
                1.7045305967330933,
                -0.4569091200828552,
                0.9497327208518982,
                2.0432286262512209,
                1.3314502239227296,
                -1.0182589292526246,
                0.5594980120658875,
                -1.526982307434082,
                0.8292098641395569,
                1.1686705350875855,
                -1.5806976556777955,
                -0.9995461106300354,
                0.01830577850341797,
                -0.14039170742034913,
                0.6363850831985474,
                -1.001265525817871,
                -0.9567770957946777,
                1.1632388830184937,
                0.007855154573917389,
                -0.04534010961651802,
                -1.2123868465423585,
                -2.391923666000366,
                0.035294219851493838,
                -0.7338427901268005,
                2.0212607383728029,
                0.6767365336418152,
                -1.193833827972412,
                -0.7942656874656677,
                1.6603903770446778,
                1.2972636222839356,
                -0.6541558504104614,
                -1.6915065050125123,
                -0.0018647685647010804,
                -2.035980701446533,
                0.3387966752052307,
                2.004782199859619,
                -0.12979668378829957,
                -0.3936625123023987,
                -0.012721262872219086,
                0.714178204536438,
                -0.9337448477745056,
                -1.983893871307373,
                -1.4304735660552979,
                -0.14565744996070863,
                0.18563926219940186,
                -1.117894172668457,
                -0.8101956248283386,
                -1.5895531177520753,
                1.4755973815917969,
                0.9291446805000305,
                0.8984519243240356,
                0.4388977885246277,
                0.7045198678970337,
                1.3418196439743043,
                0.5439551472663879,
                -0.9423434138298035,
                -1.1701409816741944,
                -0.7091960906982422,
                -0.41779625415802,
                -0.9109887480735779,
                -0.0671270340681076,
                0.9488440752029419,
                0.6748703718185425,
                0.6806776523590088,
                2.5029118061065676,
                -0.3284674286842346,
                0.9483530521392822,
                -0.20735687017440797,
                -0.19968178868293763,
                -0.7694817781448364,
                -1.6131675243377686,
                0.049765489995479587,
                -0.6451688408851624,
                -2.1241543292999269,
                -2.128762722015381,
                0.6523737907409668,
                -0.2136743664741516,
                -1.0343046188354493,
                -2.227898597717285,
                -0.2755570113658905,
                -1.2834304571151734,
                0.9636672139167786,
                -1.101055383682251,
                1.6601701974868775,
                -0.6877884864807129,
                -0.8090478777885437,
                -0.606807291507721,
                0.9430984258651733,
                0.21244731545448304,
                1.4258052110671998,
                1.1087555885314942,
                -0.22086909413337708,
                2.019362449645996,
                1.4636616706848145,
                1.6961250305175782,
                0.47627779841423037,
                -0.18084388971328736,
                0.5115920305252075,
                0.18825951218605042,
                -0.8047784566879273,
                0.10584469884634018,
                2.7687788009643556,
                -0.9948850274085999,
                0.015539862215518952,
                1.099084734916687,
                -0.32071584463119509,
                -0.6507709622383118,
                -0.6468615531921387,
                2.1418678760528566,
                0.6297349333763123,
                -0.13118359446525575,
                -2.033822536468506,
                1.0788438320159913,
                0.5465102195739746,
                0.8797804713249207,
                -0.04453132674098015
            ],
            "fitness": 0.0,
            "npcType": 0
        },
        {
            "layers": [
                8,
                8,
                6,
                4
            ],
            "flattenedWeights": [
                -0.13506270945072175,
                0.42780306935310366,
                0.8440218567848206,
                -0.08554881811141968,
                0.5994623899459839,
                0.6545550227165222,
                0.9877872467041016,
                -0.2506275475025177,
                -1.9930977821350098,
                1.12344491481781,
                -0.952278196811676,
                1.2341660261154175,
                0.9444715976715088,
                -0.1433965265750885,
                0.591433048248291,
                0.5371831059455872,
                -1.3262094259262086,
                1.0598782300949097,
                0.008630990982055664,
                0.6635264158248901,
                1.610554575920105,
                -0.4569091200828552,
                0.7695679068565369,
                1.8784961700439454,
                1.3203927278518677,
                -1.0080727338790894,
                0.49468281865119936,
                -1.681545376777649,
                0.8292098641395569,
                0.72945237159729,
                -1.8024829626083375,
                -0.8193610906600952,
                0.005332484841346741,
                -0.00693541020154953,
                0.6363850831985474,
                -0.9243830442428589,
                -0.7875207662582398,
                0.828886091709137,
                -0.13504108786582948,
                -0.04860936477780342,
                -1.3427376747131348,
                -2.265859365463257,
                0.09575086086988449,
                -0.795747697353363,
                2.0212607383728029,
                0.6406996846199036,
                -0.8760033249855042,
                -0.8091394901275635,
                1.6603903770446778,
                1.1002552509307862,
                -0.5820308923721314,
                -1.6915065050125123,
                -0.0018647685647010804,
                -2.0213160514831545,
                0.4715314209461212,
                1.6435359716415406,
                -0.11973848938941956,
                -0.5072727203369141,
                0.055325351655483249,
                0.7812541127204895,
                -0.9371520280838013,
                -1.8956748247146607,
                -1.4304735660552979,
                0.0014234855771064759,
                0.45873692631721499,
                -1.020536184310913,
                -0.9894651770591736,
                -0.5661302208900452,
                1.4755973815917969,
                0.9050253033638,
                0.9570686221122742,
                0.23608450591564179,
                0.5041148662567139,
                1.4114739894866944,
                0.5606107711791992,
                -0.9423434138298035,
                -1.1963216066360474,
                -0.5823699235916138,
                -0.3916865289211273,
                -0.5275284051895142,
                -0.07864917069673538,
                0.9488440752029419,
                0.763019323348999,
                0.4659631848335266,
                2.5029118061065676,
                -0.3265800178050995,
                0.5462292432785034,
                -0.24030378460884095,
                -0.24318796396255494,
                -0.7694817781448364,
                -1.5441179275512696,
                0.011229738593101502,
                -0.6451688408851624,
                -2.135690689086914,
                -2.2087883949279787,
                0.6523737907409668,
                -0.1270398199558258,
                -0.7923367619514465,
                -2.266223907470703,
                -0.15087416768074037,
                -1.0123282670974732,
                0.7472978234291077,
                -1.4636790752410889,
                1.833572506904602,
                -0.6333469152450562,
                -0.8090478777885437,
                -0.5251230001449585,
                0.9548331499099731,
                0.5564175844192505,
                1.5014218091964722,
                1.3713829517364503,
                0.0430084690451622,
                1.9677283763885499,
                1.554997205734253,
                1.6961250305175782,
                0.3139532506465912,
                0.13110357522964478,
                0.5372541546821594,
                0.3585233688354492,
                -0.9047729969024658,
                0.07049322128295899,
                2.884843349456787,
                -0.9653937220573425,
                0.03405418246984482,
                0.9360406994819641,
                -0.3430088758468628,
                -0.6310018301010132,
                -0.6723888516426086,
                2.1418678760528566,
                0.5979576706886292,
                -0.05462395399808884,
                -2.033822536468506,
                0.7840250730514526,
                0.8871764540672302,
                0.8871271014213562,
                -0.006552018225193024
            ],
            "fitness": 0.0,
            "npcType": 0
        },
        {
            "layers": [
                8,
                8,
                6,
                4
            ],
            "flattenedWeights": [
                -0.2815728485584259,
                0.3547811806201935,
                0.7433618307113648,
                0.005695663392543793,
                0.8028329610824585,
                -0.033543188124895099,
                0.3563758432865143,
                0.11697003245353699,
                -2.081727981567383,
                0.7551743388175964,
                -0.951777458190918,
                1.5534225702285767,
                1.0754115581512452,
                -0.23093712329864503,
                0.6734414100646973,
                0.48827147483825686,
                -0.949122965335846,
                1.0450878143310547,
                -0.05848204344511032,
                0.5956341624259949,
                1.4584236145019532,
                0.16988560557365418,
                0.9710860252380371,
                2.117872476577759,
                1.2538340091705323,
                -0.8260370492935181,
                0.6224430203437805,
                -1.738174319267273,
                0.3344460129737854,
                1.0007773637771607,
                -1.5509530305862427,
                -0.7269970774650574,
                0.16788262128829957,
                0.36367061734199526,
                0.5545023083686829,
                -1.2481153011322022,
                -1.1649950742721558,
                1.0858596563339234,
                -0.03002307564020157,
                0.11407890170812607,
                -1.2748920917510987,
                -2.302394151687622,
                0.11383501440286637,
                -1.219026803970337,
                1.9795702695846558,
                0.45666366815567019,
                -1.1185400485992432,
                -0.5272303223609924,
                1.5748968124389649,
                1.1750646829605103,
                -0.6846535205841065,
                -1.4161009788513184,
                0.12070651352405548,
                -1.7359026670455933,
                0.03372754529118538,
                1.7495346069335938,
                0.06305649876594544,
                -0.4207824468612671,
                -0.010110192000865937,
                0.7812541127204895,
                -0.9662100076675415,
                -2.060514450073242,
                -1.075809359550476,
                -0.03913559019565582,
                0.3848769962787628,
                -0.7849957346916199,
                -1.018637776374817,
                -0.5837451815605164,
                1.207077980041504,
                0.9148088693618774,
                0.9175302386283875,
                0.67574143409729,
                0.8758115172386169,
                1.4192613363265992,
                0.49097776412963869,
                -0.8670130372047424,
                -1.0133484601974488,
                -0.5263688564300537,
                -0.19625303149223329,
                -1.0658725500106812,
                -0.11350403726100922,
                0.8650144934654236,
                0.7778090834617615,
                0.39812639355659487,
                3.153825521469116,
                -0.2644493579864502,
                0.5797027349472046,
                -0.6731881499290466,
                -0.24318796396255494,
                -0.7680618762969971,
                -1.677037239074707,
                -0.07968120276927948,
                -0.5366862416267395,
                -1.9721535444259644,
                -2.069319486618042,
                0.37366652488708498,
                -0.14797714352607728,
                -0.7058150172233582,
                -2.0713741779327394,
                -0.07774389535188675,
                -1.0480570793151856,
                0.7544700503349304,
                -1.0797898769378663,
                1.9195924997329713,
                -0.5698647499084473,
                -0.7783541679382324,
                -0.8665328621864319,
                1.3758028745651246,
                0.20445255935192109,
                1.3700175285339356,
                1.2923744916915894,
                0.029927752912044526,
                2.008261203765869,
                1.2301998138427735,
                1.4203369617462159,
                0.43731287121772768,
                0.31420063972473147,
                0.2465066760778427,
                0.33335360884666445,
                -0.2121504843235016,
                0.05249924212694168,
                2.915952444076538,
                -0.9653937220573425,
                -0.026505224406719209,
                0.7398900985717773,
                -0.32071584463119509,
                -0.568145751953125,
                -0.6597772836685181,
                2.514028310775757,
                0.45112818479537966,
                -0.13032850623130799,
                -2.063624143600464,
                0.8751458525657654,
                0.9418303966522217,
                0.5239407420158386,
                -0.10792256146669388
            ],
            "fitness": 0.0,
            "npcType": 0
        },
        {
            "layers": [
                8,
                8,
                6,
                4
            ],
            "flattenedWeights": [
                -0.10030436515808106,
                0.35130101442337038,
                0.6475494503974915,
                -0.14821280539035798,
                0.7451263070106506,
                -0.10831243544816971,
                0.32650893926620486,
                -0.22445574402809144,
                -1.9886382818222047,
                0.7536891102790833,
                -0.8554718494415283,
                1.5407313108444214,
                1.0626356601715088,
                -0.2648848593235016,
                0.7110875248908997,
                0.38156235218048098,
                -1.1519526243209839,
                0.9715564846992493,
                -0.01740269362926483,
                0.427908718585968,
                1.5474193096160889,
                0.00652892142534256,
                0.922406017780304,
                2.117872476577759,
                1.2819385528564454,
                -0.5857260823249817,
                0.5460463762283325,
                -1.7494916915893555,
                0.2673557698726654,
                1.2496145963668824,
                -1.8995970487594605,
                -1.1438703536987305,
                0.29317089915275576,
                0.18939658999443055,
                0.7996076345443726,
                -1.1101601123809815,
                -1.02634596824646,
                1.0545337200164796,
                -0.05955817922949791,
                -0.0010781511664390565,
                -0.8547376394271851,
                -2.4216468334198,
                0.11231889575719834,
                -1.251273512840271,
                1.7947252988815308,
                0.3245397210121155,
                -1.0475847721099854,
                -0.47047847509384158,
                1.918015480041504,
                1.1002552509307862,
                -0.7271134853363037,
                -1.4261822700500489,
                0.333609938621521,
                -1.674786925315857,
                0.1277393102645874,
                1.5188144445419312,
                0.007811795920133591,
                -0.5414912104606628,
                -0.017684385180473329,
                0.991349458694458,
                -0.6546007394790649,
                -1.8230130672454835,
                -1.598467230796814,
                -0.2096807062625885,
                0.3406906723976135,
                -0.7822996377944946,
                -0.9565448760986328,
                -1.5065555572509766,
                1.4248430728912354,
                0.8879074454307556,
                0.948356032371521,
                0.7067171335220337,
                0.42445436120033266,
                1.626644253730774,
                0.810915470123291,
                -1.1393824815750123,
                -1.3346914052963257,
                -0.7089420557022095,
                -0.134579598903656,
                -1.0658725500106812,
                -0.04151361435651779,
                0.9751602411270142,
                0.7778090834617615,
                0.37633782625198367,
                2.9390788078308107,
                -0.1128905788064003,
                0.7578654885292053,
                -0.39316779375076296,
                -0.08921321481466294,
                -0.7222346067428589,
                -1.5716031789779664,
                0.1382623016834259,
                -0.7674221396446228,
                -2.04974102973938,
                -1.8944859504699708,
                0.37366652488708498,
                -0.1022944524884224,
                -0.6908858418464661,
                -2.1879539489746095,
                -0.3425271213054657,
                -0.9167383313179016,
                0.7697712779045105,
                -0.886829674243927,
                1.7664214372634888,
                -0.5493630766868591,
                -0.6186701059341431,
                -0.5459557771682739,
                0.9548331499099731,
                0.5969693064689636,
                1.4803353548049927,
                1.39714515209198,
                -0.02063189446926117,
                1.8729181289672852,
                1.2301998138427735,
                1.0462874174118043,
                -0.1562763750553131,
                0.19462278485298158,
                0.4452771544456482,
                0.06538314372301102,
                -0.2978335916996002,
                -0.008702568709850312,
                2.7867414951324465,
                -0.7877457141876221,
                0.3517833650112152,
                0.9315053820610046,
                -0.24037355184555055,
                -0.805808424949646,
                -0.516277015209198,
                2.514028310775757,
                0.6591676473617554,
                -0.05814339965581894,
                -2.0658068656921388,
                0.8796063661575317,
                1.058707594871521,
                0.738598108291626,
                -0.20744867622852326
            ],
            "fitness": 0.0,
            "npcType": 0
        },
        {
            "layers": [
                8,
                8,
                6,
                4
            ],
            "flattenedWeights": [
                -0.3881773352622986,
                0.2863258123397827,
                0.7915664315223694,
                -0.05852051079273224,
                0.2939460277557373,
                0.5872099995613098,
                1.0152572393417359,
                -0.17101269960403443,
                -2.1191420555114748,
                1.0685639381408692,
                -0.9639280438423157,
                0.9289171695709229,
                0.7085307240486145,
                -0.11693698167800904,
                0.591433048248291,
                0.5937559604644775,
                -1.1534581184387208,
                1.0341734886169434,
                -0.09833581745624542,
                0.6446552872657776,
                1.7281441688537598,
                0.16180726885795594,
                0.9640246033668518,
                2.2647242546081545,
                1.3203927278518677,
                -0.6166275143623352,
                0.7703965306282044,
                -1.4451682567596436,
                0.6790886521339417,
                1.1862156391143799,
                -1.8347721099853516,
                -0.7539237141609192,
                -0.07225418090820313,
                -0.11560815572738648,
                0.8790208697319031,
                -0.9535926580429077,
                -0.7867047786712647,
                1.2283867597579957,
                -0.12404666841030121,
                0.14637348055839539,
                -1.2706595659255982,
                -2.4235565662384035,
                -0.023661062121391298,
                -1.4517933130264283,
                1.9795702695846558,
                0.8618897199630737,
                -1.1641623973846436,
                -0.956777036190033,
                1.9666048288345338,
                1.1869654655456544,
                -0.8151776194572449,
                -1.5251420736312867,
                0.14446347951889039,
                -1.9190945625305176,
                0.3703256845474243,
                2.0604374408721926,
                -0.035775765776634219,
                -0.1768762618303299,
                0.15319323539733888,
                0.9895501136779785,
                -0.7990051507949829,
                -1.8728526830673218,
                -1.51297128200531,
                0.11216134577989578,
                0.1089840903878212,
                -0.9088755249977112,
                -0.882508397102356,
                -0.5484780669212341,
                1.3351298570632935,
                1.1360552310943604,
                0.9442467093467712,
                0.4787539541721344,
                0.41556692123413088,
                1.5339102745056153,
                0.7768223881721497,
                -1.1434965133666993,
                -1.0733140707015992,
                -0.658450722694397,
                -0.2791762948036194,
                -0.900206983089447,
                0.06625673919916153,
                0.9440391659736633,
                0.866052508354187,
                0.773545503616333,
                2.615325450897217,
                -0.09673319011926651,
                0.711053192615509,
                -0.20548731088638307,
                -0.25462964177131655,
                -0.9424357414245606,
                -1.3601319789886475,
                0.17615807056427003,
                -0.8997248411178589,
                -2.1920127868652345,
                -2.118333101272583,
                0.4848785698413849,
                -0.013159200549125672,
                -0.9529403448104858,
                -2.2561116218566896,
                -0.10495590418577194,
                -1.0123282670974732,
                0.8895944952964783,
                -0.9384843111038208,
                1.708447813987732,
                -0.4673922061920166,
                -0.771419882774353,
                -0.5818928480148315,
                1.298427939414978,
                0.6929928064346314,
                1.2631298303604127,
                1.3279856443405152,
                0.143530935049057,
                1.9261527061462403,
                1.3687591552734376,
                1.617120623588562,
                0.01269763708114624,
                0.16465172171592713,
                0.33049407601356509,
                0.4176599383354187,
                -0.8735763430595398,
                0.19781407713890077,
                2.917328357696533,
                -0.7377583980560303,
                0.0917949378490448,
                1.0590453147888184,
                -0.32071584463119509,
                -0.6307365894317627,
                -0.6259317994117737,
                2.4073262214660646,
                0.6589617133140564,
                -0.1712331771850586,
                -2.149423122406006,
                0.6138240098953247,
                0.4563375413417816,
                0.7610499858856201,
                0.02489718422293663
            ],
            "fitness": 0.0,
            "npcType": 0
        }
    ],
    "timestamp": "2025-06-15 05:55:10"
}