{
    "generation": 90,
    "bestFitness": 184.23094177246095,
    "averageFitness": 66.9314193725586,
    "worstFitness": 0.0,
    "networks": [
        {
            "layers": [
                8,
                8,
                6,
                4
            ],
            "flattenedWeights": [
                0.28320473432540896,
                1.1336095333099366,
                -0.08587822318077088,
                0.26337382197380068,
                -0.7367361187934876,
                0.8754215240478516,
                -1.0693963766098023,
                -0.8534166216850281,
                1.2708265781402588,
                1.0781219005584717,
                -0.05689477175474167,
                -0.674073338508606,
                -0.8364482522010803,
                -0.5127830505371094,
                -0.1154981181025505,
                -0.6640018820762634,
                -0.10944663733243942,
                -0.9242281913757324,
                -0.7902588248252869,
                1.028918981552124,
                0.842471182346344,
                1.2436379194259644,
                0.07293292135000229,
                -0.7004528045654297,
                0.09909679740667343,
                0.5790891647338867,
                0.33829644322395327,
                0.32021698355674746,
                0.5246642231941223,
                -0.7873041033744812,
                0.7967135310173035,
                -0.6084161996841431,
                -0.5225119590759277,
                -0.9667139053344727,
                1.3717155456542969,
                -0.6686823964118958,
                0.3398125469684601,
                -0.8831992745399475,
                -0.8785531520843506,
                -0.013293370604515076,
                0.2254135012626648,
                0.5224049091339111,
                0.367846816778183,
                -0.20421108603477479,
                0.2323298156261444,
                0.829890251159668,
                -0.07814834266901016,
                0.5292980074882507,
                0.4509902894496918,
                -1.171102523803711,
                -0.3726862967014313,
                0.945503294467926,
                0.39624929428100588,
                0.09919903427362442,
                -0.3242442309856415,
                0.5216972231864929,
                -0.10054311156272888,
                -1.146285057067871,
                -0.19534575939178468,
                0.7807633280754089,
                0.7926573157310486,
                1.4965450763702393,
                0.44396910071372988,
                0.941679835319519,
                0.356781542301178,
                0.23483459651470185,
                -0.07328543066978455,
                0.8008114099502564,
                -2.2343063354492189,
                -1.1522554159164429,
                0.010834448039531708,
                0.4781695008277893,
                1.172324299812317,
                1.2887555360794068,
                0.8831245303153992,
                0.38873159885406496,
                -0.053759023547172549,
                -0.392143189907074,
                0.2279575765132904,
                0.043341509997844699,
                -0.3993760943412781,
                0.40413278341293337,
                -1.3999024629592896,
                -0.4137848913669586,
                0.8749558925628662,
                0.19931361079216004,
                -1.6599174737930298,
                -0.5563622713088989,
                -0.42811357975006106,
                -0.6724220514297485,
                0.5015620589256287,
                -0.2449893057346344,
                0.4667063057422638,
                0.3799085319042206,
                -1.2431198358535767,
                1.2614479064941407,
                -0.6132446527481079,
                0.015685267746448518,
                -0.17361070215702058,
                1.1915031671524048,
                0.10101627558469773,
                -0.4585375487804413,
                -0.5769984126091003,
                0.6105623245239258,
                -0.44018322229385378,
                0.5235973000526428,
                -0.8541103005409241,
                -0.35062146186828616,
                -0.21447063982486726,
                0.8993135094642639,
                0.43304893374443056,
                1.3001242876052857,
                -0.8137114644050598,
                -0.6915686130523682,
                -0.5385494232177734,
                -0.6117261648178101,
                0.5485849380493164,
                1.498532772064209,
                0.24569633603096009,
                -0.3133101165294647,
                1.0544962882995606,
                0.008440665900707245,
                0.5573356747627258,
                0.5675162076950073,
                0.48179829120635989,
                0.18074777722358704,
                0.19656144082546235,
                0.817155122756958,
                -0.6753443479537964,
                0.3779001235961914,
                0.2785736322402954,
                0.9025078415870667,
                2.336789131164551,
                -0.5424162745475769,
                1.3263665437698365,
                0.7073467373847961
            ],
            "fitness": 184.23094177246095,
            "timeAlive": 8.72738265991211,
            "totalDistance": 17.71745491027832,
            "successfulJumps": 2,
            "checkpointsReached": 3,
            "uniqueAreasVisited": 5,
            "activeWeightsCount": 135,
            "weightComplexity": 0.9926470518112183,
            "outputLockStatus": [
                false,
                false,
                false,
                false
            ],
            "correctJumps": 2,
            "incorrectJumps": 0,
            "explorationEfficiency": 0.28220757842063906
        },
        {
            "layers": [
                8,
                8,
                6,
                4
            ],
            "flattenedWeights": [
                0.1448240876197815,
                1.263451337814331,
                -0.07566099613904953,
                0.10826622694730759,
                -0.6973543167114258,
                0.996975302696228,
                -1.2524712085723878,
                -0.9395599961280823,
                1.2164331674575806,
                1.0754156112670899,
                -0.006587877869606018,
                -0.659081757068634,
                -0.722234308719635,
                -0.36976978182792666,
                -0.07283761352300644,
                -0.6504252552986145,
                -0.1640198826789856,
                -1.0778037309646607,
                -0.745743989944458,
                0.9546043872833252,
                0.799079954624176,
                1.103706955909729,
                0.15719150006771089,
                -0.43936485052108767,
                -0.006884828209877014,
                0.518073558807373,
                0.275419145822525,
                0.27942949533462527,
                0.1337869018316269,
                -0.9810865521430969,
                0.785946786403656,
                -0.6177123785018921,
                -0.41713947057724,
                -0.9124255776405335,
                1.45871901512146,
                -0.5139276385307312,
                0.4670409560203552,
                -0.965154230594635,
                -0.9748979210853577,
                0.07218589633703232,
                0.2620319724082947,
                0.7622236013412476,
                0.23695755004882813,
                -0.2782215476036072,
                0.2874818444252014,
                0.8565273284912109,
                -0.1147710308432579,
                0.5274825692176819,
                0.4572036862373352,
                -1.0443847179412842,
                -0.3937638998031616,
                0.9927102327346802,
                0.193549245595932,
                0.02002381533384323,
                -0.4145136773586273,
                0.418645441532135,
                0.004205629229545593,
                -0.9982545375823975,
                0.03470775485038757,
                0.7472749948501587,
                1.066213607788086,
                1.6444734334945679,
                0.3410893678665161,
                0.5297727584838867,
                0.5192602872848511,
                -0.19875937700271607,
                -0.19438275694847108,
                0.7711893916130066,
                -2.189420461654663,
                -1.1119623184204102,
                -0.008832447230815888,
                0.5949723720550537,
                0.9997690916061401,
                1.1415408849716187,
                0.8831245303153992,
                0.5091559886932373,
                0.10003230720758438,
                -0.5230759382247925,
                0.5007233023643494,
                -0.053198397159576419,
                -0.30575138330459597,
                0.44337356090545657,
                -0.7347897291183472,
                -0.6265004277229309,
                0.7923235297203064,
                0.2989198565483093,
                -1.7580989599227906,
                -0.48906370997428896,
                -0.5031360983848572,
                -0.5683275461196899,
                0.6181590557098389,
                -0.12340536713600159,
                0.49850577116012576,
                0.061896443367004397,
                -1.180981159210205,
                1.259672999382019,
                -0.6712039709091187,
                -0.221636563539505,
                -0.5054103136062622,
                1.2903151512145997,
                0.1432405710220337,
                -0.5743936896324158,
                -0.5967621207237244,
                0.14124247431755067,
                -0.37857311964035036,
                0.4844503104686737,
                -0.8238980770111084,
                -0.039264000952243808,
                -0.29069840908050539,
                0.8717004060745239,
                0.2733287513256073,
                1.2561149597167969,
                -0.7425642013549805,
                -0.6302591562271118,
                -0.4393361508846283,
                -0.5662832856178284,
                0.7121648192405701,
                1.3842487335205079,
                0.2358425259590149,
                -0.3540850281715393,
                1.0314459800720215,
                -0.023616880178451539,
                0.6195221543312073,
                0.4948226511478424,
                0.5562341213226318,
                0.18074777722358704,
                0.43556782603263857,
                0.8444045186042786,
                -0.5861252546310425,
                0.35014820098876955,
                0.16490289568901063,
                0.9304183125495911,
                2.381375312805176,
                -0.5324447154998779,
                1.1962831020355225,
                0.7351923584938049
            ],
            "fitness": 122.39945220947266,
            "timeAlive": 6.79067325592041,
            "totalDistance": 13.128693580627442,
            "successfulJumps": 1,
            "checkpointsReached": 2,
            "uniqueAreasVisited": 3,
            "activeWeightsCount": 132,
            "weightComplexity": 0.970588207244873,
            "outputLockStatus": [
                false,
                false,
                false,
                false
            ],
            "correctJumps": 1,
            "incorrectJumps": 0,
            "explorationEfficiency": 0.2285071164369583
        },
        {
            "layers": [
                8,
                8,
                6,
                4
            ],
            "flattenedWeights": [
                -0.13166844844818116,
                1.2199058532714844,
                -0.03385292738676071,
                0.1760968565940857,
                -0.7156391739845276,
                0.9122040271759033,
                -1.2114272117614747,
                -0.9453200101852417,
                1.252213716506958,
                1.1473760604858399,
                -0.11097760498523712,
                -0.610163152217865,
                -0.7768977880477905,
                -0.15365871787071229,
                0.18216189742088319,
                -0.6529833674430847,
                -0.23718015849590302,
                -1.0485552549362183,
                -0.8433170318603516,
                0.8613782525062561,
                0.8793051838874817,
                1.2950680255889893,
                0.07678405195474625,
                -0.5345330834388733,
                -0.03746557608246803,
                0.4993821084499359,
                0.45560383796691897,
                0.295440137386322,
                0.10861163586378098,
                -0.9713451862335205,
                0.8985905051231384,
                -0.15181449055671693,
                -0.47160738706588747,
                -1.0690125226974488,
                1.3512738943099976,
                -0.562951385974884,
                0.501842200756073,
                -1.0825103521347047,
                -0.8897897601127625,
                0.06410142034292221,
                0.23289531469345094,
                0.7314183115959168,
                0.4330771267414093,
                -0.2434530258178711,
                0.3751736581325531,
                0.914431095123291,
                -0.17894069850444795,
                0.5369623899459839,
                0.3264240026473999,
                -1.313798427581787,
                -0.40356069803237917,
                0.7961915135383606,
                0.4040490984916687,
                0.09442617744207382,
                -0.6083328723907471,
                0.5003310441970825,
                0.006137125194072723,
                -1.1786446571350098,
                0.05254214257001877,
                0.7976652383804321,
                0.8559232354164124,
                1.6064118146896363,
                0.3484366536140442,
                0.7352731227874756,
                0.39726299047470095,
                -0.17014962434768678,
                -0.016874879598617555,
                0.9552607536315918,
                -2.2082748413085939,
                -0.9982944130897522,
                -0.029493484646081926,
                0.2278825044631958,
                1.0859224796295167,
                1.154259443283081,
                0.8149821758270264,
                0.49169865250587466,
                0.019043833017349244,
                -0.40122753381729128,
                0.5440141558647156,
                0.062031470239162448,
                -0.3795035183429718,
                0.4159862995147705,
                -1.4803078174591065,
                -0.53028404712677,
                0.9128655195236206,
                0.3724006414413452,
                -1.868847131729126,
                -0.4985683560371399,
                -0.47077813744544985,
                -0.4930868148803711,
                0.6504692435264587,
                -0.18343663215637208,
                0.2873164117336273,
                0.03655869513750076,
                -1.3093980550765992,
                1.3043222427368165,
                -0.6712039709091187,
                -0.17029336094856263,
                -0.42889752984046938,
                1.3649847507476807,
                0.08979382365942002,
                -0.6606712341308594,
                -0.5732219815254211,
                0.40004247426986697,
                -0.29032331705093386,
                0.6219688653945923,
                -0.9118907451629639,
                -0.26779934763908389,
                -0.25920921564102175,
                0.8748829364776611,
                0.14920803904533387,
                1.2435376644134522,
                -0.7889255285263062,
                -0.9369939565658569,
                -0.4062776267528534,
                -0.6319366693496704,
                0.5656313896179199,
                1.4168379306793213,
                0.31699010729789736,
                -0.3803766071796417,
                0.9914775490760803,
                0.010568633675575257,
                0.6986377835273743,
                0.5759777426719666,
                0.5840990543365479,
                0.08272626250982285,
                0.4127660095691681,
                0.8779544830322266,
                -0.4678524434566498,
                0.5205462574958801,
                0.22890888154506684,
                0.9515694379806519,
                2.260164260864258,
                -0.45791351795196535,
                1.1275140047073365,
                0.643585205078125
            ],
            "fitness": 122.3907241821289,
            "timeAlive": 6.230772018432617,
            "totalDistance": 12.781197547912598,
            "successfulJumps": 1,
            "checkpointsReached": 2,
            "uniqueAreasVisited": 3,
            "activeWeightsCount": 135,
            "weightComplexity": 0.9926470518112183,
            "outputLockStatus": [
                false,
                false,
                false,
                false
            ],
            "correctJumps": 1,
            "incorrectJumps": 0,
            "explorationEfficiency": 0.23471978306770326
        },
        {
            "layers": [
                8,
                8,
                6,
                4
            ],
            "flattenedWeights": [
                0.37414905428886416,
                1.2045860290527344,
                -0.07832970470190048,
                0.13709504902362824,
                -0.8624261617660523,
                0.5615711808204651,
                -1.0164166688919068,
                -0.742321252822876,
                1.3592028617858887,
                1.247123122215271,
                -0.05262211710214615,
                -0.8524178266525269,
                -0.8489063382148743,
                -0.1113668754696846,
                0.019346266984939576,
                -0.3837331533432007,
                -0.06606056541204453,
                -0.9180362224578857,
                -0.8615811467170715,
                1.0453832149505616,
                0.992310643196106,
                1.090840220451355,
                0.10809149593114853,
                -0.5031346678733826,
                0.0681278258562088,
                0.6387840509414673,
                0.2042061984539032,
                0.67584228515625,
                0.2333797812461853,
                -0.9082140326499939,
                0.6770017147064209,
                -0.5269951224327087,
                -0.42387959361076357,
                -1.0981189012527466,
                1.2695354223251343,
                -0.6011784672737122,
                0.645900547504425,
                -1.0755397081375123,
                -0.9701488614082336,
                0.03174986690282822,
                0.18983447551727296,
                0.5033417344093323,
                0.26070886850357058,
                -0.20898020267486573,
                1.232513189315796,
                0.950047492980957,
                -0.07725231349468231,
                0.7787917256355286,
                0.7004923224449158,
                -1.1609628200531006,
                -0.37705501914024355,
                0.9982658624649048,
                0.41797104477882388,
                -0.11118318885564804,
                -0.1442795842885971,
                0.5785772204399109,
                -0.06294313073158264,
                -1.1229698657989503,
                0.18079087138175965,
                0.8775752186775208,
                0.6785731315612793,
                1.8799344301223755,
                0.42722970247268679,
                0.6674705743789673,
                0.411651611328125,
                0.18180516362190247,
                -0.28564661741256716,
                1.083754539489746,
                -2.0603396892547609,
                -1.0652555227279664,
                0.004954952746629715,
                0.6475244164466858,
                0.9268211126327515,
                1.3032172918319703,
                0.8181759119033814,
                0.47480636835098269,
                -0.038918234407901767,
                -0.47289252281188967,
                0.5520069599151611,
                -0.07180391252040863,
                -0.49897533655166628,
                0.41619327664375307,
                -1.6486083269119263,
                -0.2364228367805481,
                0.5754713416099548,
                0.2676083445549011,
                -1.7472800016403199,
                -0.6260671615600586,
                0.025094568729400636,
                -0.5307233333587647,
                1.029172420501709,
                -0.18102392554283143,
                0.4619489908218384,
                0.2009270191192627,
                -1.5061508417129517,
                1.3125603199005128,
                -0.6172833442687988,
                -0.18024469912052155,
                -0.46917176246643069,
                1.3355649709701539,
                0.21847355365753175,
                -0.5404865145683289,
                -0.6510270237922669,
                0.4222533702850342,
                -0.759475588798523,
                0.599372386932373,
                -0.969484269618988,
                -0.3984438478946686,
                -0.5031401515007019,
                0.8680335879325867,
                0.3655172884464264,
                0.908405601978302,
                -0.7689107060432434,
                -0.7074798941612244,
                -0.23778444528579713,
                -0.45275741815567019,
                0.8420682549476624,
                1.397055745124817,
                0.2996533215045929,
                -0.4922027885913849,
                1.102242350578308,
                -0.04659012705087662,
                0.6140358448028565,
                0.4320151209831238,
                0.5935422778129578,
                0.2066720426082611,
                0.2725481390953064,
                1.2987090349197388,
                -0.6999897360801697,
                0.45630720257759097,
                0.13539919257164002,
                1.1065818071365357,
                2.5184714794158937,
                -0.5093311667442322,
                1.2715665102005005,
                0.7132877707481384
            ],
            "fitness": 122.29667663574219,
            "timeAlive": 6.230772018432617,
            "totalDistance": 12.642998695373536,
            "successfulJumps": 1,
            "checkpointsReached": 2,
            "uniqueAreasVisited": 3,
            "activeWeightsCount": 135,
            "weightComplexity": 0.9926470518112183,
            "outputLockStatus": [
                false,
                false,
                false,
                false
            ],
            "correctJumps": 1,
            "incorrectJumps": 0,
            "explorationEfficiency": 0.23728547990322114
        },
        {
            "layers": [
                8,
                8,
                6,
                4
            ],
            "flattenedWeights": [
                0.2811802923679352,
                1.3294436931610108,
                -0.225987046957016,
                0.13900235295295716,
                -0.9247000217437744,
                0.598669171333313,
                -1.1074581146240235,
                -0.7769259810447693,
                1.558325171470642,
                1.1675653457641602,
                -0.07100532203912735,
                -0.5720735192298889,
                -1.0482521057128907,
                -0.2451164424419403,
                -0.026617489755153657,
                -0.41851016879081728,
                -0.06476979702711106,
                -0.9732832312583923,
                -0.7844986319541931,
                0.9479696154594421,
                0.9165793657302856,
                1.3366706371307374,
                0.2892691493034363,
                -0.5655906200408936,
                0.08059391379356384,
                0.5805416107177734,
                0.2509186267852783,
                0.8251168131828308,
                0.09416108578443527,
                -0.7861953973770142,
                1.045322060585022,
                -0.6033610105514526,
                -0.34551891684532168,
                -0.9092973470687866,
                1.3551164865493775,
                -0.5565098524093628,
                0.6973491311073303,
                -0.9545673727989197,
                -1.0435492992401124,
                0.015516102313995362,
                0.0822305679321289,
                0.46285611391067507,
                0.17447052896022798,
                -0.31537821888923647,
                1.278654932975769,
                0.9182425141334534,
                0.0326022170484066,
                0.4079605042934418,
                0.7447624206542969,
                -0.9937529563903809,
                -0.3418733477592468,
                0.7828067541122437,
                0.35338857769966128,
                -0.004665590822696686,
                -0.09705859422683716,
                0.43891412019729617,
                -0.03153998404741287,
                -1.1522583961486817,
                0.0892767384648323,
                0.977921724319458,
                0.688589334487915,
                1.7553982734680176,
                0.3214217722415924,
                0.8019810914993286,
                0.39912480115890505,
                0.4205438792705536,
                -0.2105584740638733,
                1.0765244960784913,
                -2.204052209854126,
                -1.082840085029602,
                -0.05807964503765106,
                0.5245776176452637,
                1.0571873188018799,
                1.1733382940292359,
                0.809725284576416,
                0.4670916199684143,
                0.17241033911705018,
                -0.42667075991630556,
                0.48115968704223635,
                0.05783059448003769,
                -0.5219888091087341,
                0.3056626319885254,
                -1.6537258625030518,
                -0.26630306243896487,
                0.6920264363288879,
                0.278228759765625,
                -1.7134212255477906,
                -0.535495400428772,
                -0.08163177967071533,
                -0.557492196559906,
                0.9878944754600525,
                -0.11367958039045334,
                0.33140796422958376,
                0.30397430062294009,
                -1.1085861921310425,
                1.3123033046722413,
                -0.7390878200531006,
                -0.2567874491214752,
                -0.5776622891426086,
                0.8966448903083801,
                0.2069023996591568,
                -0.5707491636276245,
                -0.7872137427330017,
                0.22255048155784608,
                -0.7071821689605713,
                0.5597136616706848,
                -0.92514967918396,
                -0.2837870717048645,
                -0.4435308873653412,
                0.7031522393226624,
                0.2471041977405548,
                1.3162013292312623,
                -0.8632873296737671,
                -0.8610327243804932,
                -0.415394127368927,
                -0.5245299935340881,
                0.7230671048164368,
                1.2401018142700196,
                0.3440931737422943,
                -0.5334515571594238,
                1.021329402923584,
                0.0657808780670166,
                0.607247531414032,
                0.39765405654907229,
                0.4544488787651062,
                0.2999146580696106,
                0.2725481390953064,
                0.9929016828536987,
                -0.6530845165252686,
                0.41893354058265688,
                0.05952491611242294,
                0.9339686632156372,
                2.6095752716064455,
                -0.47801679372787478,
                1.237514615058899,
                0.8225224018096924
            ],
            "fitness": 122.28839111328125,
            "timeAlive": 6.230772018432617,
            "totalDistance": 12.681817054748536,
            "successfulJumps": 1,
            "checkpointsReached": 2,
            "uniqueAreasVisited": 3,
            "activeWeightsCount": 135,
            "weightComplexity": 0.9926470518112183,
            "outputLockStatus": [
                false,
                false,
                false,
                false
            ],
            "correctJumps": 1,
            "incorrectJumps": 0,
            "explorationEfficiency": 0.2365591675043106
        },
        {
            "layers": [
                8,
                8,
                6,
                4
            ],
            "flattenedWeights": [
                0.34314730763435366,
                1.2852442264556885,
                -0.33947908878326418,
                0.06354313343763352,
                -0.8706398606300354,
                0.5813007354736328,
                -1.1310062408447266,
                -0.8087949752807617,
                1.5259369611740113,
                1.163883090019226,
                -0.07100532203912735,
                -0.5454220175743103,
                -1.034853458404541,
                -0.19293618202209474,
                0.07620842754840851,
                -0.394604355096817,
                -0.14338548481464387,
                -1.0693588256835938,
                -0.7734547853469849,
                0.9498392343521118,
                0.9537712335586548,
                1.2935224771499634,
                0.2892691493034363,
                -0.6278144717216492,
                0.1158810555934906,
                0.49122801423072817,
                0.1779129058122635,
                0.7365677356719971,
                0.173061341047287,
                -0.8688938021659851,
                1.0658682584762574,
                -0.5606833100318909,
                -0.2574211657047272,
                -1.003121256828308,
                1.2777454853057862,
                -0.5390888452529907,
                0.6249719858169556,
                -0.964231014251709,
                -0.9966651797294617,
                0.10148230940103531,
                0.12353894114494324,
                0.37407997250556948,
                0.30963218212127688,
                -0.19141742587089539,
                1.2300329208374024,
                0.8627781867980957,
                -0.0520843081176281,
                0.37260469794273379,
                0.5825784206390381,
                -1.0884579420089722,
                -0.46083149313926699,
                0.8247867822647095,
                0.35645169019699099,
                -0.1312064826488495,
                -0.03151555359363556,
                0.4758094847202301,
                -0.022271566092967988,
                -1.1051793098449708,
                0.17969244718551637,
                0.8365663886070252,
                0.5906110405921936,
                1.6557588577270508,
                0.5041317939758301,
                0.8677657842636108,
                0.4286560118198395,
                0.35774505138397219,
                -0.20422711968421937,
                1.0765244960784913,
                -2.259307861328125,
                -1.0123111009597779,
                -0.025265634059906007,
                0.5449604988098145,
                1.1384906768798829,
                1.230971097946167,
                0.8560324311256409,
                0.5085020661354065,
                0.2085602581501007,
                -0.3841681480407715,
                0.4908488094806671,
                0.15427973866462708,
                -0.5159816741943359,
                0.26247864961624148,
                -1.5226507186889649,
                -0.22089919447898866,
                0.6101065278053284,
                0.3661903440952301,
                -1.6805214881896973,
                -0.5177082419395447,
                -0.09534843266010285,
                -0.5924547910690308,
                1.0183415412902833,
                -0.1390324980020523,
                0.25900036096572878,
                0.15223906934261323,
                -1.2184454202651978,
                1.2594135999679566,
                -0.7428784966468811,
                -0.3113739490509033,
                -0.4556627869606018,
                0.9391782283782959,
                0.15419214963912965,
                -0.7340247631072998,
                -0.6059319972991943,
                0.33396586775779726,
                -0.6277310848236084,
                0.6355040669441223,
                -0.9347541928291321,
                -0.2151871919631958,
                -0.4435308873653412,
                0.6157535314559937,
                0.38445186614990237,
                1.2809486389160157,
                -0.9230213165283203,
                -0.8332093358039856,
                -0.3703887164592743,
                -0.5005016922950745,
                0.7735410928726196,
                1.266922950744629,
                0.26390355825424197,
                -0.5068553686141968,
                1.0171432495117188,
                -0.010133299976587296,
                0.6300888061523438,
                0.37428924441337588,
                0.36985862255096438,
                0.37605345249176028,
                0.18784695863723756,
                1.1191415786743165,
                -0.700090229511261,
                0.362799733877182,
                0.13152067363262177,
                0.7515998482704163,
                2.5866618156433107,
                -0.4130830764770508,
                1.2672538757324219,
                0.6701369881629944
            ],
            "fitness": 87.0418930053711,
            "timeAlive": 5.646798610687256,
            "totalDistance": 11.400686264038086,
            "successfulJumps": 1,
            "checkpointsReached": 1,
            "uniqueAreasVisited": 3,
            "activeWeightsCount": 136,
            "weightComplexity": 1.0,
            "outputLockStatus": [
                false,
                false,
                false,
                false
            ],
            "correctJumps": 1,
            "incorrectJumps": 0,
            "explorationEfficiency": 0.26314204931259158
        },
        {
            "layers": [
                8,
                8,
                6,
                4
            ],
            "flattenedWeights": [
                -0.07280826568603516,
                1.3010382652282715,
                0.09774100035429001,
                0.2350078970193863,
                -0.7466492056846619,
                0.9379623532295227,
                -1.2053122520446778,
                -1.0911593437194825,
                1.2808622121810914,
                1.1660687923431397,
                0.28643667697906496,
                -1.0631184577941895,
                -0.6908392310142517,
                -0.3004210591316223,
                -0.1756763607263565,
                -0.42969390749931338,
                -0.18122464418411256,
                -1.0244404077529908,
                -0.960746705532074,
                0.9089813232421875,
                0.9172087907791138,
                1.2482942342758179,
                0.06088671833276749,
                -0.7461563944816589,
                0.16009502112865449,
                0.5350759625434876,
                0.2180691361427307,
                0.2900034189224243,
                -0.05854293331503868,
                -0.7679315805435181,
                0.8008887767791748,
                -0.11275629699230194,
                -0.5049851536750794,
                -0.903420627117157,
                1.408626914024353,
                -0.7084700465202332,
                0.4091205894947052,
                -1.1678578853607178,
                -0.7921607494354248,
                0.07885464280843735,
                0.03303036838769913,
                0.7391534447669983,
                0.36820051074028017,
                -0.23470725119113923,
                0.23334234952926637,
                0.8045205473899841,
                -0.11895120143890381,
                0.6177911758422852,
                0.4580017328262329,
                -0.9596331715583801,
                -0.40356069803237917,
                0.7695099115371704,
                0.4030512869358063,
                0.01704968512058258,
                -0.6017082333564758,
                0.45013830065727236,
                -0.09264174103736878,
                -1.1892489194869996,
                0.054988913238048556,
                0.7496510744094849,
                0.8932600021362305,
                1.5614409446716309,
                0.2768977880477905,
                0.7417883276939392,
                0.3294455409049988,
                0.2798314690589905,
                -0.07409145683050156,
                0.9220618605613709,
                -2.3727877140045168,
                -1.1711047887802125,
                -0.06904871016740799,
                0.27465498447418215,
                1.115403413772583,
                1.13981294631958,
                0.935516893863678,
                0.5940023064613342,
                0.009830653667449952,
                -0.6276264786720276,
                0.27276092767715456,
                -0.034186504781246188,
                -0.3134121596813202,
                0.49089515209198,
                -1.6137280464172364,
                -0.2703763544559479,
                0.515036404132843,
                0.43210569024086,
                -1.7183235883712769,
                -0.38119256496429446,
                -0.46407443284988406,
                -0.5538357496261597,
                0.9548202157020569,
                -0.25996145606040957,
                0.401548832654953,
                0.01706457883119583,
                -1.2098236083984376,
                1.2781974077224732,
                -0.6324671506881714,
                -0.19320330023765565,
                -0.22157016396522523,
                0.8744263648986816,
                0.22995001077651978,
                -0.6004390120506287,
                -0.5585176348686218,
                0.38240283727645876,
                -0.3423214852809906,
                0.5406205058097839,
                -1.0061111450195313,
                -0.2139318436384201,
                -0.25920921564102175,
                0.8662399053573608,
                0.4248124957084656,
                1.212037444114685,
                -0.817467987537384,
                -0.7903149127960205,
                -0.5752639770507813,
                -0.6220386028289795,
                0.5156710147857666,
                1.4202970266342164,
                0.24911192059516908,
                -0.23086944222450257,
                1.0045011043548585,
                0.08639064431190491,
                0.7012388110160828,
                0.5719578266143799,
                0.4144415557384491,
                0.23843178153038026,
                0.48283296823501589,
                1.0226227045059205,
                -0.6323047280311585,
                0.5000269412994385,
                0.2491210699081421,
                0.8392483592033386,
                2.237138271331787,
                -0.4073340594768524,
                1.2191611528396607,
                0.5614082217216492
            ],
            "fitness": 85.07292175292969,
            "timeAlive": 3.9681520462036135,
            "totalDistance": 8.320364952087403,
            "successfulJumps": 1,
            "checkpointsReached": 1,
            "uniqueAreasVisited": 3,
            "activeWeightsCount": 135,
            "weightComplexity": 0.9926470518112183,
            "outputLockStatus": [
                false,
                false,
                false,
                false
            ],
            "correctJumps": 1,
            "incorrectJumps": 0,
            "explorationEfficiency": 0.3605611026287079
        },
        {
            "layers": [
                8,
                8,
                6,
                4
            ],
            "flattenedWeights": [
                0.18978041410446168,
                1.2300163507461548,
                -0.037718504667282107,
                0.23573628067970277,
                -0.6971177458763123,
                0.9019326567649841,
                -1.0437419414520264,
                -1.1226915121078492,
                1.1246038675308228,
                1.200520634651184,
                -0.07815199345350266,
                -0.6050803065299988,
                -0.7934747338294983,
                -0.3244806230068207,
                0.06512340158224106,
                -0.31237709522247317,
                -0.18172773718833924,
                -0.8513960838317871,
                -0.7497893571853638,
                0.9546043872833252,
                0.799079954624176,
                1.2665762901306153,
                -0.11343178153038025,
                -0.7601803541183472,
                0.04190871864557266,
                0.659791886806488,
                0.35332000255584719,
                0.29424941539764407,
                0.3468642234802246,
                -0.9795345664024353,
                0.8456554412841797,
                -0.5881797075271606,
                -0.3696569800376892,
                -0.9198204278945923,
                1.5579006671905518,
                -0.7286672592163086,
                0.40626251697540285,
                -0.9617412686347961,
                -0.8448337316513062,
                0.07069055736064911,
                0.22054865956306458,
                0.48432859778404238,
                0.4346325993537903,
                -0.0903828889131546,
                0.2716566324234009,
                0.8359190225601196,
                -0.08423992246389389,
                0.360850989818573,
                0.490580290555954,
                -1.0401352643966675,
                -0.4996415972709656,
                0.8523560762405396,
                0.36411768198013308,
                -0.006831169128417969,
                -0.34250983595848086,
                0.44995471835136416,
                -0.09909998625516892,
                -0.9998660683631897,
                -0.051829032599925998,
                0.6439009308815002,
                0.8880212903022766,
                1.5910392999649048,
                0.3640664517879486,
                0.7845526337623596,
                0.3823050856590271,
                0.27006036043167117,
                0.018231622874736787,
                0.547071099281311,
                -2.1496615409851076,
                -1.120143175125122,
                -0.0992012694478035,
                0.4373747706413269,
                1.1381300687789918,
                1.296622633934021,
                0.8143702745437622,
                0.5126155614852905,
                -0.12985780835151673,
                -0.41236916184425356,
                0.5743492841720581,
                0.22219908237457276,
                -0.35203903913497927,
                0.3615444004535675,
                -1.3619353771209717,
                -0.5672787427902222,
                0.8775385022163391,
                0.2521677315235138,
                -1.5251712799072266,
                -0.5101314187049866,
                -0.4910476505756378,
                -0.7004493474960327,
                0.6025746464729309,
                -0.3002726137638092,
                0.35775214433670046,
                0.4525606036186218,
                -1.374998688697815,
                1.280767560005188,
                -0.7039788961410523,
                0.018094345927238466,
                -0.09700662642717362,
                1.212194800376892,
                0.06278243660926819,
                -0.5689672231674194,
                -0.6587156057357788,
                0.6271722912788391,
                -0.42006513476371767,
                0.5155536532402039,
                -0.8774362206459045,
                -0.31538522243499758,
                -0.21501228213310243,
                0.8318628072738648,
                0.3438150882720947,
                1.4587081670761109,
                -0.624771773815155,
                -0.9787065982818604,
                -0.5045467615127564,
                -0.6717187166213989,
                0.8315590023994446,
                1.5795994997024537,
                0.36301058530807497,
                -0.35601624846458437,
                1.1361711025238038,
                0.08544640988111496,
                0.6141299605369568,
                0.5419216156005859,
                0.501934826374054,
                0.1709306836128235,
                0.21149328351020814,
                0.7619234323501587,
                -0.5902087688446045,
                0.3636274039745331,
                0.2414838671684265,
                0.9008954167366028,
                2.2316319942474367,
                -0.5625362396240234,
                1.232849359512329,
                0.7101278305053711
            ],
            "fitness": 58.36492919921875,
            "timeAlive": 6.419800758361816,
            "totalDistance": 12.788753509521485,
            "successfulJumps": 1,
            "checkpointsReached": 1,
            "uniqueAreasVisited": 3,
            "activeWeightsCount": 135,
            "weightComplexity": 0.9926470518112183,
            "outputLockStatus": [
                false,
                false,
                false,
                false
            ],
            "correctJumps": 1,
            "incorrectJumps": 1,
            "explorationEfficiency": 0.2345811128616333
        },
        {
            "layers": [
                8,
                8,
                6,
                4
            ],
            "flattenedWeights": [
                0.1592995822429657,
                1.2715414762496949,
                0.016346126794815065,
                0.18213292956352235,
                -0.8758355975151062,
                0.9878309369087219,
                -1.158370018005371,
                -1.0841140747070313,
                1.2099785804748536,
                1.1681172847747803,
                0.24286288022994996,
                -1.0566232204437256,
                -0.6568515300750732,
                -0.34466439485549929,
                0.0737515538930893,
                -0.471974641084671,
                -0.13412746787071229,
                -1.1127564907073975,
                -0.9953621625900269,
                1.055059790611267,
                0.8540075421333313,
                1.131577491760254,
                0.0452994704246521,
                -0.5385742783546448,
                0.168063223361969,
                0.5544700026512146,
                0.43761032819747927,
                0.2853551506996155,
                0.02884363755583763,
                -0.9693908095359802,
                0.7350072860717773,
                -0.701797604560852,
                -0.4806259274482727,
                -0.9207108616828919,
                1.4157851934432984,
                -0.6699732542037964,
                0.27941787242889407,
                -1.0315335988998414,
                -0.9026058316230774,
                0.048553407192230228,
                0.1685473620891571,
                0.6022137999534607,
                0.2580575942993164,
                -0.34068647027015688,
                0.395998477935791,
                1.0032098293304444,
                -0.26329338550567629,
                0.5997148156166077,
                0.3978397250175476,
                -0.8734708428382874,
                -0.37959837913513186,
                0.851198136806488,
                0.29567423462867739,
                0.0681181252002716,
                -0.5807889699935913,
                0.4564792215824127,
                0.0031616613268852236,
                -1.1198468208312989,
                0.01588747650384903,
                0.7814704775810242,
                0.8988993167877197,
                1.5991666316986085,
                0.34301790595054629,
                0.9802777171134949,
                0.46428513526916506,
                0.25423696637153628,
                0.04709088057279587,
                0.9298501014709473,
                -2.2474348545074465,
                -1.1019470691680909,
                -0.06234222650527954,
                0.5628499984741211,
                1.0859224796295167,
                1.2115614414215088,
                0.6923460960388184,
                0.38671207427978518,
                0.13900768756866456,
                -0.5418797135353088,
                0.2246873378753662,
                -0.0666852816939354,
                -0.4628031849861145,
                0.5045132040977478,
                -1.544884443283081,
                -0.14309197664260865,
                0.9278215765953064,
                0.45161038637161257,
                -1.7580989599227906,
                -0.4030812978744507,
                -0.4549557864665985,
                -0.5117499828338623,
                0.7574788928031921,
                -0.083530955016613,
                0.3153581917285919,
                -0.028819940984249116,
                -1.210822343826294,
                1.2037581205368043,
                -0.6063051223754883,
                -0.20118701457977296,
                -0.5297778248786926,
                0.9159520268440247,
                0.16519933938980103,
                -0.6352627277374268,
                -0.4423289895057678,
                0.3771180808544159,
                -0.3710781931877136,
                0.5870696902275086,
                -0.8898856043815613,
                -0.31851163506507876,
                -0.2561500072479248,
                0.9014078378677368,
                0.44659391045570376,
                1.2772445678710938,
                -0.8979184031486511,
                -0.9245239496231079,
                -0.4503445029258728,
                -0.6220386028289795,
                0.5130875110626221,
                1.4039173126220704,
                0.22482538223266602,
                -0.2872907817363739,
                1.0196782350540162,
                0.13888102769851685,
                0.7423311471939087,
                0.5104160904884338,
                0.5238674879074097,
                0.18074777722358704,
                0.37861374020576479,
                0.8779544830322266,
                -0.6758086085319519,
                0.6220528483390808,
                0.26170840859413149,
                0.8580607771873474,
                2.3815419673919679,
                -0.570711612701416,
                1.2172446250915528,
                0.46671488881111147
            ],
            "fitness": 50.068180084228519,
            "timeAlive": 4.453398704528809,
            "totalDistance": 8.474318504333496,
            "successfulJumps": 0,
            "checkpointsReached": 1,
            "uniqueAreasVisited": 3,
            "activeWeightsCount": 135,
            "weightComplexity": 0.9926470518112183,
            "outputLockStatus": [
                false,
                false,
                false,
                false
            ],
            "correctJumps": 0,
            "incorrectJumps": 0,
            "explorationEfficiency": 0.35401076078414919
        },
        {
            "layers": [
                8,
                8,
                6,
                4
            ],
            "flattenedWeights": [
                -0.23573890328407288,
                1.130477786064148,
                0.018958434462547303,
                0.2624700367450714,
                -0.7690577507019043,
                0.8993425369262695,
                -1.0301711559295655,
                -0.9771040081977844,
                1.2634985446929932,
                1.126142978668213,
                -0.05689477175474167,
                -1.035693645477295,
                -0.7655571699142456,
                -0.2653893530368805,
                -0.07862480729818344,
                -0.40043681859970095,
                -0.33236443996429446,
                -0.9141668081283569,
                -0.8932701945304871,
                0.9595621228218079,
                0.9847943782806397,
                1.2968374490737916,
                0.013890236616134644,
                -0.6046993136405945,
                0.2668290138244629,
                0.7178577780723572,
                0.3788565695285797,
                0.295440137386322,
                0.03713627904653549,
                -0.8350562453269959,
                0.7087798118591309,
                -0.1261313259601593,
                -0.5841805338859558,
                -0.8889673948287964,
                1.5694996118545533,
                -0.6267291307449341,
                0.44839218258857729,
                -1.1495670080184937,
                -0.8401974439620972,
                0.06039919704198837,
                0.19502097368240357,
                0.7536584734916687,
                0.26726236939430239,
                -0.19435065984725953,
                0.31808316707611086,
                0.8252188563346863,
                -0.07960550487041474,
                0.6416171789169312,
                0.2657192051410675,
                -0.7849431037902832,
                -0.4120924472808838,
                0.8477301001548767,
                0.23031166195869447,
                -0.013039525598287583,
                -0.5940653681755066,
                0.41962242126464846,
                -0.08651673048734665,
                -1.0110739469528199,
                -0.05717148631811142,
                0.7512704133987427,
                0.7986499667167664,
                1.6656146049499512,
                0.3699045479297638,
                0.7417883276939392,
                0.4742386043071747,
                0.2716851830482483,
                0.004943095147609711,
                1.033280849456787,
                -2.3856201171875,
                -1.08201003074646,
                0.07503905892372132,
                0.3254234194755554,
                1.2296195030212403,
                1.243028998374939,
                0.8927541971206665,
                0.4674921929836273,
                0.002612173557281494,
                -0.5418797135353088,
                0.34915170073509219,
                0.10000339895486832,
                -0.3547404706478119,
                0.5045132040977478,
                -1.4061051607131959,
                -0.6730605959892273,
                0.8775385022163391,
                0.3574000597000122,
                -1.7337509393692017,
                -0.4333275854587555,
                -0.39654433727264407,
                -0.5117499828338623,
                1.0074305534362794,
                -0.16618980467319489,
                0.41126424074172976,
                0.3799085319042206,
                -1.19571852684021,
                1.3915187120437623,
                -0.6948890686035156,
                -0.16461676359176637,
                -0.10880690068006516,
                1.3372693061828614,
                0.1853637993335724,
                -0.5921343564987183,
                -0.7021134495735169,
                0.16613084077835084,
                -0.3798896372318268,
                0.5534800887107849,
                -0.9586343169212341,
                -0.28398340940475466,
                -0.1782500147819519,
                0.782852828502655,
                0.29658830165863039,
                1.3224148750305176,
                -0.7213615775108337,
                -0.9799051880836487,
                -0.5045467615127564,
                -0.6998355984687805,
                0.6915090084075928,
                1.4398057460784913,
                0.2365531325340271,
                -0.18812885880470277,
                1.152083158493042,
                0.12397569417953491,
                0.6138975620269775,
                0.4959080219268799,
                0.5015544295310974,
                0.08600177615880966,
                0.4643264412879944,
                1.1470273733139039,
                -0.5544162392616272,
                0.4340915381908417,
                0.2534773349761963,
                0.8601908683776856,
                2.241959810256958,
                -0.45494014024734499,
                1.1835074424743653,
                0.4498673975467682
            ],
            "fitness": 37.539390563964847,
            "timeAlive": 6.230772018432617,
            "totalDistance": 13.1390962600708,
            "successfulJumps": 1,
            "checkpointsReached": 1,
            "uniqueAreasVisited": 3,
            "activeWeightsCount": 134,
            "weightComplexity": 0.9852941036224365,
            "outputLockStatus": [
                false,
                false,
                false,
                false
            ],
            "correctJumps": 1,
            "incorrectJumps": 3,
            "explorationEfficiency": 0.2283262014389038
        }
    ],
    "timestamp": "2025-06-19 05:56:34",
    "populationSize": 23,
    "aliveNPCs": 2,
    "generationDuration": 0.1806640625,
    "mutationRate": 0.847000002861023,
    "eliteCount": 2,
    "globalLockStatus": [
        false,
        false,
        false,
        false
    ],
    "fitnessRange": 184.23094177246095,
    "diversityIndex": 53.53980255126953,
    "averageTimeAlive": 5.590461254119873,
    "totalDistanceSum": 178.7292938232422,
    "totalSuccessfulJumps": 10,
    "populationDiversity": 0.7987269759178162,
    "learningRate": 0.0013518602354452015,
    "convergenceRate": 0.0005425025010481477,
    "totalCheckpointsReached": 18,
    "averageDistance": 11.170580863952637,
    "totalDeaths": 14,
    "improvementRate": 0.24871826171875,
    "explorationBonus": 107.09027099609375,
    "efficiencyScore": 11.972432136535645,
    "activeBehaviors": 8,
    "aliveAtEnd": 2,
    "memoryUsage": 8.0
}