{
    "generation": 435,
    "bestFitness": 158.0836181640625,
    "averageFitness": 63.309268951416019,
    "worstFitness": 0.0,
    "networks": [
        {
            "layers": [
                8,
                8,
                6,
                4
            ],
            "flattenedWeights": [
                -0.22297152876853944,
                0.21996483206748963,
                0.7751774787902832,
                -0.3821908235549927,
                0.6648358702659607,
                -0.06758694350719452,
                0.39455336332321169,
                -0.2831086814403534,
                -2.3153889179229738,
                1.1161543130874634,
                -0.6175222992897034,
                0.8553957939147949,
                0.8219188451766968,
                -0.12013479322195053,
                0.2659260928630829,
                0.047419946640729907,
                -1.4179277420043946,
                1.4509657621383668,
                -0.003828633576631546,
                0.4308239817619324,
                1.7230286598205567,
                -0.6375896334648132,
                0.5320581793785095,
                1.7836912870407105,
                1.0353225469589234,
                -1.232003927230835,
                0.5687878131866455,
                -1.4187085628509522,
                0.5344582796096802,
                1.1075727939605713,
                -1.5452021360397339,
                -0.893064558506012,
                0.24559234082698823,
                0.06954057514667511,
                0.8260636925697327,
                -1.146005630493164,
                -1.3106746673583985,
                1.1204776763916016,
                -0.213912695646286,
                0.18214824795722962,
                -1.2025483846664429,
                -2.5750675201416017,
                -0.3819388151168823,
                -1.2497256994247437,
                2.0415027141571047,
                0.9063896536827087,
                -1.045989990234375,
                -0.4706661105155945,
                1.8778042793273926,
                1.2174932956695557,
                -0.8789538741111755,
                -1.6286602020263672,
                0.3789890706539154,
                -1.6485131978988648,
                0.22677505016326905,
                1.082398772239685,
                0.20472365617752076,
                -0.14942176640033723,
                0.07438667863607407,
                0.8942397832870483,
                -0.5367540121078491,
                -1.8783290386199952,
                -1.6315079927444459,
                -0.015211351215839386,
                0.23237088322639466,
                -0.5856451392173767,
                -1.1313040256500245,
                -0.8411571383476257,
                1.4660308361053467,
                1.2374910116195679,
                0.8773321509361267,
                -0.1443467140197754,
                0.19645240902900697,
                1.6385287046432496,
                0.5555495619773865,
                -1.5576766729354859,
                -1.1401787996292115,
                -0.5449538826942444,
                -0.19866535067558289,
                -0.736901581287384,
                -0.04459647834300995,
                1.1967494487762452,
                0.44792038202285769,
                0.6191179156303406,
                2.936461925506592,
                0.1011534035205841,
                0.36587369441986086,
                -0.9994199872016907,
                -0.44096770882606509,
                -0.7677026987075806,
                -1.5816420316696168,
                -0.01681486889719963,
                -0.917662501335144,
                -2.2478346824645998,
                -1.815446138381958,
                0.37228453159332278,
                -0.24445614218711854,
                -0.9954608678817749,
                -1.921614646911621,
                -0.49066102504730227,
                -1.1995015144348145,
                1.4004746675491334,
                -1.2837117910385132,
                2.2979748249053957,
                -0.8442798852920532,
                -0.48363998532295229,
                -0.8509997725486755,
                0.8195908069610596,
                0.31187117099761965,
                1.547814130783081,
                1.6339763402938843,
                -0.42438048124313357,
                1.8750661611557007,
                0.895106315612793,
                1.6462159156799317,
                0.07842645794153214,
                0.04710065573453903,
                0.0038138702511787416,
                0.23492185771465302,
                -0.7614585161209106,
                0.6821881532669067,
                3.1644747257232668,
                -1.2785718441009522,
                0.3116200268268585,
                1.4433152675628663,
                0.23233094811439515,
                -0.7674320936203003,
                -0.5341777801513672,
                2.1354734897613527,
                0.14417356252670289,
                -0.32891353964805605,
                -2.0518414974212648,
                0.8627718091011047,
                0.8354900479316711,
                0.9087653756141663,
                -0.028265930712223054
            ],
            "fitness": 158.0836181640625,
            "npcType": 0
        },
        {
            "layers": [
                8,
                8,
                6,
                4
            ],
            "flattenedWeights": [
                -0.25880399346351626,
                0.3377719521522522,
                0.6702191233634949,
                -0.2453838586807251,
                0.547704815864563,
                0.010809123516082764,
                0.07979346066713333,
                -0.3147895634174347,
                -1.8555222749710084,
                1.0069317817687989,
                -0.9402910470962524,
                1.0382211208343506,
                0.6465688943862915,
                -0.14841319620609284,
                0.01229899376630783,
                -0.006688177585601807,
                -1.2423949241638184,
                1.636952519416809,
                0.037680357694625857,
                0.6850495934486389,
                1.3247404098510743,
                -0.22883473336696626,
                0.5370392203330994,
                2.1195406913757326,
                1.1689825057983399,
                -1.1847412586212159,
                0.5074771642684937,
                -1.2748467922210694,
                0.771554172039032,
                1.0121066570281983,
                -1.343348741531372,
                -0.7388483285903931,
                0.2962452471256256,
                0.7066055536270142,
                1.0461246967315674,
                -1.1772327423095704,
                -1.2926063537597657,
                1.2918652296066285,
                -0.3020251393318176,
                0.0489782989025116,
                -1.0950956344604493,
                -2.613410472869873,
                -0.19651758670806886,
                -0.9281741976737976,
                2.093003273010254,
                0.8848462700843811,
                -0.9009578227996826,
                -0.28496479988098147,
                1.770639419555664,
                1.2110850811004639,
                -1.0894501209259034,
                -1.6417839527130128,
                0.12630119919776917,
                -1.3610539436340333,
                0.12898080050945283,
                1.347104549407959,
                0.15998899936676026,
                -0.4074343740940094,
                0.10318755358457566,
                0.6939420104026794,
                -0.853632390499115,
                -1.8000439405441285,
                -1.5985838174819947,
                0.1113923043012619,
                0.5145735144615173,
                -0.815494179725647,
                -1.3122036457061768,
                -1.289035439491272,
                1.3010953664779664,
                1.0978747606277466,
                0.992487370967865,
                -0.3039906919002533,
                0.32548755407333376,
                1.476958990097046,
                0.430671364068985,
                -1.6905670166015626,
                -0.9501896500587463,
                -0.1989949345588684,
                -0.2969341278076172,
                -1.089557409286499,
                0.011153645813465119,
                1.2551953792572022,
                0.5272796154022217,
                0.5836042761802673,
                2.3553307056427,
                0.003991842269897461,
                0.17445579171180726,
                -0.45259958505630495,
                -0.6035142540931702,
                -0.6846025586128235,
                -1.5857715606689454,
                0.025236066430807115,
                -0.7551931142807007,
                -2.1601476669311525,
                -1.9969323873519898,
                0.205147847533226,
                -0.1888001263141632,
                -0.9725596308708191,
                -1.8946410417556763,
                -0.33452752232551577,
                -1.2115830183029175,
                1.1899638175964356,
                -1.3859105110168458,
                2.2442739009857179,
                -0.7190802693367004,
                -0.8933652639389038,
                -0.8279165029525757,
                0.7728554010391235,
                0.28572672605514529,
                0.7017215490341187,
                0.9214397668838501,
                -0.34941142797470095,
                2.054003953933716,
                1.324228048324585,
                1.3806395530700684,
                0.05854799598455429,
                -0.1594662070274353,
                0.2353118658065796,
                0.3176908493041992,
                -0.6872439384460449,
                0.30149659514427187,
                2.988858699798584,
                -1.2273318767547608,
                0.48080986738204958,
                1.647831678390503,
                0.3463106155395508,
                -0.6964779496192932,
                -0.29769715666770937,
                2.3857226371765138,
                0.45905670523643496,
                -0.11338653415441513,
                -1.584833025932312,
                0.8556060194969177,
                0.7700108885765076,
                0.8108786344528198,
                0.5109357237815857
            ],
            "fitness": 157.75692749023438,
            "npcType": 0
        },
        {
            "layers": [
                8,
                8,
                6,
                4
            ],
            "flattenedWeights": [
                -0.2802134156227112,
                0.4372386038303375,
                0.7120566964149475,
                -0.061400994658470157,
                0.6614788174629211,
                -0.05272983759641647,
                0.688869833946228,
                -0.3580157458782196,
                -2.345850706100464,
                0.6290513277053833,
                -0.5809413194656372,
                0.8667665719985962,
                0.7424200177192688,
                -0.2380048632621765,
                0.10719213634729386,
                -0.006688177585601807,
                -1.285623550415039,
                1.2155522108078004,
                0.03336121141910553,
                0.6944682002067566,
                1.3247404098510743,
                -0.32261770963668826,
                0.6347411870956421,
                2.057138442993164,
                1.1689825057983399,
                -1.187028408050537,
                0.4876086413860321,
                -1.3941839933395386,
                0.26393169164657595,
                0.8868491649627686,
                -1.3207743167877198,
                -0.7069856524467468,
                0.5073003172874451,
                0.8044866323471069,
                1.1230781078338624,
                -0.9060912728309631,
                -1.1466819047927857,
                1.2918652296066285,
                -0.38679563999176028,
                0.0489782989025116,
                -1.091835618019104,
                -2.5199708938598635,
                -0.14877116680145265,
                -1.1869893074035645,
                1.3392006158828736,
                0.9449592232704163,
                -1.1967655420303345,
                -0.5308576822280884,
                1.7983046770095826,
                1.0798749923706055,
                -0.9123157262802124,
                -1.7293989658355713,
                0.1507279872894287,
                -1.9199934005737305,
                -0.06078676879405975,
                1.6475380659103394,
                -0.007393553853034973,
                -0.341218501329422,
                0.3898436725139618,
                0.5982502698898315,
                -0.7740558385848999,
                -1.8091439008712769,
                -1.5985838174819947,
                0.1113923043012619,
                0.4446525275707245,
                -0.7565405368804932,
                -1.3122036457061768,
                -1.2063887119293213,
                1.508899211883545,
                1.1323151588439942,
                0.9870355129241943,
                -0.1437966525554657,
                0.4760834276676178,
                1.4569711685180665,
                0.47074729204177859,
                -1.7328088283538819,
                -0.975106954574585,
                -0.2704232931137085,
                -0.20834577083587647,
                -0.9405319690704346,
                -0.09012255072593689,
                1.0908435583114625,
                0.6083558797836304,
                0.5756933689117432,
                2.3553307056427,
                -0.005312774330377579,
                0.2512868344783783,
                -0.4920382797718048,
                -0.20086395740509034,
                -0.7891148924827576,
                -1.5288581848144532,
                0.07734237611293793,
                -0.878502368927002,
                -1.9215312004089356,
                -1.723231315612793,
                0.1938914954662323,
                -0.20268474519252778,
                -1.0572326183319092,
                -1.7870514392852784,
                -0.3361358046531677,
                -1.1573207378387452,
                1.235283613204956,
                -1.3859105110168458,
                2.2313342094421388,
                -0.8495697975158691,
                -0.3452625274658203,
                -1.0417636632919312,
                0.7920681834220886,
                0.6690492033958435,
                0.8407698273658752,
                1.5357649326324463,
                0.18396154046058656,
                1.7798082828521729,
                1.252069115638733,
                1.4927842617034913,
                0.05854799598455429,
                -0.1296710968017578,
                0.2371673882007599,
                0.44947585463523867,
                -0.8086128830909729,
                0.7275546789169312,
                3.1577694416046144,
                -1.126868486404419,
                0.48080986738204958,
                1.3485299348831177,
                0.1908172369003296,
                -0.7220364809036255,
                -0.3736162483692169,
                2.4835894107818605,
                0.33155688643455508,
                -0.14383289217948914,
                -1.8387030363082886,
                0.7610045671463013,
                0.9125063419342041,
                0.8108786344528198,
                -0.006510138511657715
            ],
            "fitness": 157.6600799560547,
            "npcType": 0
        },
        {
            "layers": [
                8,
                8,
                6,
                4
            ],
            "flattenedWeights": [
                -0.18065723776817323,
                0.20084044337272645,
                0.6702191233634949,
                0.03969663381576538,
                0.8065924644470215,
                0.5452549457550049,
                -0.06267274916172028,
                -0.4276306629180908,
                -2.0392465591430666,
                1.069021224975586,
                -0.9998131990432739,
                1.168927550315857,
                0.7245915532112122,
                -0.17049622535705567,
                0.49368202686309817,
                0.09766609221696854,
                -1.4057371616363526,
                1.1891354322433472,
                0.12097296863794327,
                0.36446505784988406,
                1.6572669744491578,
                -0.013422079384326935,
                0.6131144165992737,
                1.8021022081375123,
                1.1015809774398804,
                -1.2389721870422364,
                0.6835767030715942,
                -1.4186491966247559,
                0.4806811809539795,
                0.8868491649627686,
                -1.4673370122909547,
                -0.811558723449707,
                0.4679575264453888,
                0.9203028678894043,
                0.833173394203186,
                -0.6708911657333374,
                -1.0029475688934327,
                1.3937218189239503,
                -0.329202264547348,
                0.12910693883895875,
                -1.1973681449890137,
                -2.70062518119812,
                -0.8219137787818909,
                -0.7887089848518372,
                1.3671791553497315,
                1.1816797256469727,
                -0.8918212652206421,
                -0.45326346158981326,
                1.5073840618133546,
                1.0104295015335084,
                -0.9251172542572022,
                -1.660082459449768,
                0.12277884781360626,
                -1.6419624090194703,
                -0.09852294623851776,
                1.4231984615325928,
                0.16591912508010865,
                -0.4424619972705841,
                0.01033475250005722,
                0.7779021263122559,
                -0.6082180738449097,
                -1.7170751094818116,
                -1.7066084146499634,
                0.07572498917579651,
                0.3835068941116333,
                -0.5258815884590149,
                -1.1135869026184083,
                -1.3473179340362549,
                1.5065559148788453,
                0.8544281125068665,
                0.8970244526863098,
                -0.1437966525554657,
                0.4760834276676178,
                1.5010496377944947,
                0.44156163930892947,
                -1.1177681684494019,
                -0.9730280637741089,
                -0.2294626533985138,
                -0.2534353733062744,
                -1.2139331102371216,
                0.023503772914409639,
                0.9057382345199585,
                0.6704928874969482,
                0.5827626585960388,
                2.296900510787964,
                -0.0688723772764206,
                0.25484052300453188,
                -0.581791341304779,
                -0.4713374674320221,
                -0.7677026987075806,
                -1.5469143390655518,
                -0.1808939129114151,
                -1.0002681016921998,
                -2.1154959201812746,
                -1.8697150945663453,
                0.38999173045158389,
                -0.11516301333904267,
                -1.2305240631103516,
                -1.8136308193206788,
                -0.3201715350151062,
                -1.049659252166748,
                1.6914876699447632,
                -1.1597907543182374,
                2.129896879196167,
                -0.8534154891967773,
                -0.27655917406082156,
                -0.6663342118263245,
                0.731390118598938,
                0.42849865555763247,
                0.7600694298744202,
                1.687503457069397,
                0.07760204374790192,
                1.82154381275177,
                1.1834471225738526,
                1.4514497518539429,
                0.07285043597221375,
                -0.14804553985595704,
                -0.00988829880952835,
                0.25446149706840517,
                -0.882689893245697,
                0.6335949301719666,
                3.1454360485076906,
                -1.2832539081573487,
                0.37368249893188479,
                1.6205458641052247,
                0.17430472373962403,
                -0.6891963481903076,
                -0.3381260633468628,
                2.4963219165802,
                0.5185729265213013,
                -0.19187059998512269,
                -2.0766894817352297,
                0.7847371101379395,
                1.1282848119735718,
                1.0309382677078248,
                0.03539798781275749
            ],
            "fitness": 157.4342803955078,
            "npcType": 0
        },
        {
            "layers": [
                8,
                8,
                6,
                4
            ],
            "flattenedWeights": [
                -0.18993030488491059,
                0.28365176916122439,
                0.49287211894989016,
                -0.14834809303283692,
                0.6630921959877014,
                0.3749289810657501,
                0.6493242979049683,
                -0.44550609588623049,
                -1.8627490997314454,
                0.7964032888412476,
                -0.6304147839546204,
                1.2503557205200196,
                0.7424200177192688,
                -0.12380462884902954,
                0.2659260928630829,
                -0.010858848690986634,
                -1.227657675743103,
                1.2823519706726075,
                0.06199778988957405,
                0.7205826044082642,
                1.3473302125930787,
                -0.7116425037384033,
                0.5134517550468445,
                1.7018921375274659,
                0.7253243327140808,
                -1.041305422782898,
                0.7099072933197022,
                -1.3941839933395386,
                0.38184839487075808,
                1.01820707321167,
                -1.3848083019256592,
                -0.9036734700202942,
                0.46535810828208926,
                0.15125814080238343,
                0.935238242149353,
                -1.1314646005630494,
                -0.9557029604911804,
                1.2918652296066285,
                -0.2914225161075592,
                0.18879833817481996,
                -0.9503313899040222,
                -2.622520685195923,
                -0.41281160712242129,
                -0.7377590537071228,
                2.0081465244293215,
                1.06971275806427,
                -0.7778352499008179,
                -0.48952046036720278,
                1.8666585683822632,
                1.2113498449325562,
                -0.8558738231658936,
                -1.5225356817245484,
                -0.02236587554216385,
                -1.61446213722229,
                0.20434926450252534,
                1.9630534648895264,
                0.16591912508010865,
                -0.2117137908935547,
                0.23243936896324159,
                0.4404374957084656,
                -0.7855109572410584,
                -1.7921222448349,
                -1.6575623750686646,
                0.022139128297567369,
                0.5145735144615173,
                -0.28929951786994936,
                -1.0496670007705689,
                -0.7241575717926025,
                1.3342429399490357,
                1.0377501249313355,
                0.9324057698249817,
                -0.12614008784294129,
                0.2924693822860718,
                1.6044061183929444,
                0.36882174015045168,
                -1.4056340456008912,
                -0.8701420426368713,
                -0.5893887281417847,
                -0.4331386685371399,
                -1.3232543468475342,
                -0.002722226083278656,
                0.9876514673233032,
                0.47326964139938357,
                0.4077896475791931,
                2.5423097610473635,
                0.09621693193912506,
                -0.06967805325984955,
                -0.375812292098999,
                -0.44096770882606509,
                -0.8352505564689636,
                -1.3632729053497315,
                0.05626809224486351,
                -1.0298937559127808,
                -1.8827495574951172,
                -1.851480484008789,
                0.3492693603038788,
                0.11036547273397446,
                -0.9459306001663208,
                -1.7878031730651856,
                -0.5137354731559753,
                -1.1161503791809083,
                1.6504786014556885,
                -0.9706284403800964,
                2.093660593032837,
                -0.6744465827941895,
                -0.6124937534332275,
                -0.8349406719207764,
                0.7920681834220886,
                0.32822704315185549,
                0.774814248085022,
                1.0660548210144044,
                0.05117399990558624,
                1.8474605083465577,
                1.1014894247055054,
                1.480873465538025,
                -0.17217862606048585,
                -0.0287448912858963,
                0.3704127371311188,
                0.40861570835113528,
                -0.7614585161209106,
                -0.030091814696788789,
                3.2314114570617677,
                -1.153948187828064,
                0.3455294966697693,
                1.609447717666626,
                0.2845235764980316,
                -0.8051764965057373,
                -0.40333765745162966,
                1.9789323806762696,
                0.41853952407836916,
                -0.1727435290813446,
                -1.672232985496521,
                0.36266663670539858,
                0.8379233479499817,
                0.9892705678939819,
                0.15430942177772523
            ],
            "fitness": 135.98841857910157,
            "npcType": 0
        },
        {
            "layers": [
                8,
                8,
                6,
                4
            ],
            "flattenedWeights": [
                -0.18065723776817323,
                0.20084044337272645,
                0.6702191233634949,
                0.1157648041844368,
                0.7250708341598511,
                -0.23150888085365296,
                -0.06267274916172028,
                -0.06820221245288849,
                -2.4105358123779299,
                1.0312970876693726,
                -0.8208680748939514,
                1.2254256010055543,
                0.7522198557853699,
                -0.16927677392959596,
                0.5193725824356079,
                -0.012735314667224884,
                -1.4057371616363526,
                1.4707412719726563,
                0.1950477659702301,
                0.32240235805511477,
                1.6243199110031129,
                -0.033407777547836307,
                0.5606955289840698,
                1.4786410331726075,
                1.026850938796997,
                -1.2389721870422364,
                0.7052246928215027,
                -1.5425666570663453,
                0.5020853281021118,
                0.7330169081687927,
                -1.4673370122909547,
                -0.7605790495872498,
                0.5021442770957947,
                0.9804210066795349,
                0.8918197154998779,
                -0.6708911657333374,
                -1.342362642288208,
                1.3146508932113648,
                -0.3990161418914795,
                0.07856043428182602,
                -1.0394665002822877,
                -2.1627845764160158,
                -0.8219137787818909,
                -0.8706552386283875,
                1.3701796531677247,
                1.038598895072937,
                -0.8743425607681274,
                -0.42361605167388918,
                1.769597053527832,
                0.96756511926651,
                -0.9849345684051514,
                -1.565678596496582,
                0.22758625447750092,
                -1.7101123332977296,
                0.5508455038070679,
                1.1819435358047486,
                0.16495482623577119,
                -0.36872583627700808,
                0.10318755358457566,
                0.9783110022544861,
                -0.6024640798568726,
                -1.7102992534637452,
                -1.6267242431640626,
                -0.07576139271259308,
                0.5461378693580627,
                -0.5258815884590149,
                -1.0666120052337647,
                -1.3473179340362549,
                1.323512315750122,
                1.2512513399124146,
                0.992487370967865,
                0.17239327728748322,
                0.22495391964912415,
                1.4029936790466309,
                0.6912186741828919,
                -1.7645423412322999,
                -1.0668610334396363,
                -0.2984601855278015,
                -0.23239640891551972,
                -1.2233717441558838,
                0.009062178432941437,
                1.2358505725860596,
                0.5479887127876282,
                0.5827626585960388,
                2.541651725769043,
                -0.023312289267778398,
                -0.0006314143538475037,
                -0.9082255959510803,
                -0.47326231002807619,
                -0.7677026987075806,
                -1.5288581848144532,
                -0.12815600633621217,
                -0.780610203742981,
                -2.0722057819366457,
                -2.0411128997802736,
                0.3435640037059784,
                -0.28132081031799319,
                -0.9857749938964844,
                -1.8946410417556763,
                -0.31891873478889468,
                -0.9797707796096802,
                1.1628366708755494,
                -1.3357566595077515,
                2.2976880073547365,
                -0.7789369821548462,
                -0.8219124674797058,
                -0.6962888240814209,
                0.6534653902053833,
                0.24554523825645448,
                0.7600694298744202,
                1.7579703330993653,
                0.07760204374790192,
                1.926699161529541,
                1.0590046644210816,
                1.3629746437072755,
                0.07285043597221375,
                -0.07102937996387482,
                0.0038138702511787416,
                0.2491089105606079,
                -0.9362478852272034,
                0.6335949301719666,
                3.116724729537964,
                -1.1376655101776124,
                0.3116200268268585,
                1.6957417726516724,
                0.11828915029764176,
                -0.5996600389480591,
                -0.3381260633468628,
                2.1532609462738039,
                0.5185729265213013,
                -0.19187059998512269,
                -1.6269354820251465,
                0.8276655673980713,
                0.885291337966919,
                0.7725654244422913,
                0.06572754681110382
            ],
            "fitness": 133.43333435058595,
            "npcType": 0
        },
        {
            "layers": [
                8,
                8,
                6,
                4
            ],
            "flattenedWeights": [
                -0.18993030488491059,
                0.2663053870201111,
                0.656773567199707,
                -0.14834809303283692,
                0.5030560493469238,
                0.0072432756423950199,
                0.03362377732992172,
                -0.4278971254825592,
                -1.821488380432129,
                0.7802271246910095,
                -0.5295699834823608,
                1.2503557205200196,
                0.7424200177192688,
                -0.04517762362957001,
                0.014150161296129227,
                0.011203490197658539,
                -1.227657675743103,
                1.2823519706726075,
                -0.00679938867688179,
                0.6677935123443604,
                1.4240511655807496,
                -0.5598334074020386,
                0.7137361168861389,
                1.7018921375274659,
                0.7923204302787781,
                -1.264061689376831,
                0.5404291152954102,
                -1.3951436281204224,
                0.37830814719200137,
                1.01820707321167,
                -1.4364701509475709,
                -0.7711098790168762,
                0.45324385166168215,
                0.3498240113258362,
                0.935238242149353,
                -1.1025930643081666,
                -0.9557029604911804,
                1.2715692520141602,
                -0.2914225161075592,
                0.19514840841293336,
                -1.1431660652160645,
                -2.577354669570923,
                -0.41281160712242129,
                -1.3442051410675049,
                1.5232787132263184,
                1.3438398838043213,
                -0.9691883325576782,
                -0.28487634658813479,
                1.8666585683822632,
                1.18700110912323,
                -1.2459003925323487,
                -1.440828800201416,
                0.20925350487232209,
                -1.535817265510559,
                0.20434926450252534,
                1.9630534648895264,
                0.16591912508010865,
                -0.05642423778772354,
                0.23243936896324159,
                0.4990837872028351,
                -0.8718549609184265,
                -1.9052557945251465,
                -1.5522141456604005,
                0.022139128297567369,
                0.5145735144615173,
                -0.2596099078655243,
                -1.024816870689392,
                -0.7241575717926025,
                1.2525315284729005,
                1.1636344194412232,
                0.8970244526863098,
                -0.12614008784294129,
                0.2924693822860718,
                1.6044061183929444,
                0.3581799864768982,
                -1.3084115982055665,
                -0.9730280637741089,
                -0.5066534876823425,
                -0.33955585956573489,
                -1.2812830209732056,
                0.021883346140384675,
                0.901779294013977,
                0.4523060619831085,
                0.7543097138404846,
                2.3273282051086427,
                0.01377541571855545,
                0.1842060089111328,
                -0.9139869213104248,
                -0.44096770882606509,
                -0.9155178070068359,
                -1.490067958831787,
                0.07547090947628021,
                -1.0075082778930665,
                -2.0203335285186769,
                -1.9699535369873047,
                0.3492693603038788,
                -0.30226171016693118,
                -0.7954251766204834,
                -1.8350805044174195,
                -0.3685525059700012,
                -1.100074291229248,
                1.6729925870895386,
                -0.9928353428840637,
                2.1853978633880617,
                -0.6744465827941895,
                -0.6124937534332275,
                -0.8058043718338013,
                0.7920681834220886,
                0.32822704315185549,
                0.774814248085022,
                1.1408607959747315,
                -0.05801987648010254,
                1.8474605083465577,
                1.1035538911819459,
                1.480873465538025,
                -0.0264270082116127,
                -0.0287448912858963,
                0.3557753562927246,
                0.4613848328590393,
                -0.7614585161209106,
                0.41839754581451418,
                3.189669132232666,
                -1.1762371063232422,
                0.2564675807952881,
                1.426940679550171,
                0.2220982015132904,
                -0.9155975580215454,
                -0.4355017840862274,
                1.9789323806762696,
                0.41853952407836916,
                -0.1727435290813446,
                -1.6587438583374024,
                0.36266663670539858,
                0.8579642176628113,
                0.9322835206985474,
                0.2341364622116089
            ],
            "fitness": 116.9389877319336,
            "npcType": 0
        },
        {
            "layers": [
                8,
                8,
                6,
                4
            ],
            "flattenedWeights": [
                -0.25162473320961,
                0.25606462359428408,
                0.6944198608398438,
                -0.146617591381073,
                0.5030560493469238,
                0.051531486213207248,
                0.029407083988189698,
                -0.4304366707801819,
                -2.0392465591430666,
                0.7802271246910095,
                -0.4392489492893219,
                0.9476853013038635,
                0.5477023124694824,
                -0.04517762362957001,
                0.014150161296129227,
                -0.040319979190826419,
                -1.5294039249420167,
                1.0560486316680909,
                0.03336121141910553,
                0.6850495934486389,
                1.4199388027191163,
                -0.5598334074020386,
                0.6770593523979187,
                1.7562891244888306,
                1.087507724761963,
                -1.264061689376831,
                0.5404291152954102,
                -1.2726554870605469,
                0.32641172409057619,
                0.8868491649627686,
                -1.601568579673767,
                -0.691291093826294,
                0.3044940233230591,
                0.3237004280090332,
                1.0922036170959473,
                -1.0539298057556153,
                -1.0549699068069459,
                1.3812522888183594,
                -0.44499891996383669,
                0.2390924096107483,
                -1.1431660652160645,
                -2.6191749572753908,
                -0.3396885097026825,
                -1.2669085264205933,
                1.575341820716858,
                1.3438398838043213,
                -0.9776284098625183,
                -0.26429063081741335,
                1.86107337474823,
                1.0431431531906129,
                -1.2483396530151368,
                -1.2576278448104859,
                0.19005972146987916,
                -1.535817265510559,
                -0.13176113367080689,
                1.4205868244171143,
                0.3977622985839844,
                -0.04127377271652222,
                0.01033475250005722,
                0.5330193042755127,
                -0.8231111168861389,
                -1.8988125324249268,
                -1.6686842441558838,
                0.08585649728775025,
                0.43687984347343447,
                -0.43597695231437685,
                -1.0576709508895875,
                -1.1216071844100953,
                1.2525315284729005,
                0.7753024101257324,
                0.8755614757537842,
                -0.11940224468708039,
                0.4456404745578766,
                1.3712016344070435,
                0.4278327226638794,
                -1.8029435873031617,
                -0.9730280637741089,
                -0.2717525362968445,
                -0.33955585956573489,
                -0.7751848101615906,
                0.09950388967990875,
                1.0908435583114625,
                0.5522191524505615,
                0.5518632531166077,
                2.4865505695343019,
                -0.005312774330377579,
                0.11473560333251953,
                -0.4920382797718048,
                -0.5372254252433777,
                -0.9155178070068359,
                -1.4359487295150757,
                -0.27634358406066897,
                -0.868320643901825,
                -2.0203335285186769,
                -1.9699535369873047,
                0.3883121609687805,
                -0.19729918241500855,
                -0.816949188709259,
                -1.7870514392852784,
                -0.42410171031951907,
                -1.23023521900177,
                1.7615097761154175,
                -1.3357566595077515,
                2.122591972351074,
                -0.8030505180358887,
                -0.7723106145858765,
                -0.7095631957054138,
                0.7920681834220886,
                0.3709036409854889,
                0.8500345945358276,
                1.597243309020996,
                0.24730384349822999,
                1.8856439590454102,
                1.1994349956512452,
                1.5013014078140259,
                -0.025322668254375459,
                0.056813277304172519,
                0.06626493483781815,
                0.22456568479537965,
                -0.8474432229995728,
                0.4745538830757141,
                3.325479030609131,
                -1.1258275508880616,
                0.3455294966697693,
                1.426940679550171,
                0.2220982015132904,
                -0.33970052003860476,
                -0.3243987262248993,
                2.4316351413726808,
                0.2132212221622467,
                -0.14556823670864106,
                -1.6240980625152588,
                1.0343507528305054,
                1.1207149028778077,
                1.0813217163085938,
                0.15597061812877656
            ],
            "fitness": 116.8006591796875,
            "npcType": 0
        },
        {
            "layers": [
                8,
                8,
                6,
                4
            ],
            "flattenedWeights": [
                -0.2879938781261444,
                0.24184420704841615,
                0.5243417024612427,
                -0.146617591381073,
                0.6630921959877014,
                0.0072432756423950199,
                0.03362377732992172,
                -0.5242519974708557,
                -2.0392465591430666,
                0.689567506313324,
                -0.6060582995414734,
                1.3915486335754395,
                0.6631025671958923,
                -0.15037186443805695,
                -0.06746909022331238,
                -0.020513787865638734,
                -1.3891836404800416,
                0.9225092530250549,
                -0.09368867427110672,
                0.6957919001579285,
                1.3735188245773316,
                -0.16230501234531403,
                0.7137361168861389,
                1.7686595916748047,
                1.1105839014053345,
                -1.264061689376831,
                0.759680449962616,
                -1.3079890012741089,
                0.6775855422019959,
                0.8292171955108643,
                -1.456460952758789,
                -0.7301718592643738,
                0.3044940233230591,
                0.3882755935192108,
                1.110836386680603,
                -1.1004618406295777,
                -1.1748616695404053,
                1.1532491445541382,
                -0.333979994058609,
                0.19514840841293336,
                -1.2203868627548218,
                -2.560758113861084,
                -0.4416655898094177,
                -1.3442051410675049,
                2.093003273010254,
                1.258531928062439,
                -0.9781290888786316,
                -0.24889004230499268,
                1.6297533512115479,
                1.2599833011627198,
                -1.0654268264770508,
                -1.2576278448104859,
                0.27098068594932558,
                -1.7409530878067017,
                0.1300014853477478,
                1.3477210998535157,
                0.1852986365556717,
                -0.27329176664352419,
                0.032322391867637637,
                0.629550039768219,
                -0.707072913646698,
                -1.9052557945251465,
                -1.468672513961792,
                0.07572498917579651,
                0.3898078203201294,
                -0.43597695231437685,
                -1.0933204889297486,
                -1.2238832712173463,
                1.2525315284729005,
                1.2541407346725464,
                1.0893884897232056,
                -0.1437966525554657,
                0.5534704327583313,
                1.46475350856781,
                0.4278327226638794,
                -1.4784836769104005,
                -0.9730280637741089,
                -0.2676948606967926,
                0.0024981051683425905,
                -0.831914484500885,
                0.021883346140384675,
                0.9167906641960144,
                0.5522191524505615,
                0.7884199619293213,
                2.499821186065674,
                0.0170908086001873,
                0.3096201717853546,
                -0.9139869213104248,
                -0.4713374674320221,
                -0.7070265412330627,
                -1.251306414604187,
                -0.24833926558494569,
                -0.9686671495437622,
                -2.0203335285186769,
                -1.9567232131958008,
                0.3492693603038788,
                -0.11516301333904267,
                -0.7197376489639282,
                -1.7660242319107056,
                -0.46640920639038088,
                -1.100074291229248,
                1.6729925870895386,
                -1.3817203044891358,
                2.248054027557373,
                -0.8030505180358887,
                -0.3379814028739929,
                -0.8158448338508606,
                0.7920681834220886,
                0.3214777708053589,
                1.6274003982543946,
                1.597243309020996,
                -0.05801987648010254,
                1.7801591157913209,
                1.1035538911819459,
                1.5013014078140259,
                0.1715577244758606,
                -0.001075640320777893,
                0.3343277871608734,
                0.4211335778236389,
                -0.8474432229995728,
                0.41839754581451418,
                2.915149211883545,
                -1.2669838666915894,
                0.3737243711948395,
                1.687163233757019,
                0.30388015508651736,
                -0.9155975580215454,
                -0.23910421133041383,
                2.4316351413726808,
                0.2132212221622467,
                -0.15086472034454347,
                -1.624493956565857,
                0.9419381618499756,
                0.9433736205101013,
                1.1049931049346924,
                0.1380951702594757
            ],
            "fitness": 93.007080078125,
            "npcType": 0
        },
        {
            "layers": [
                8,
                8,
                6,
                4
            ],
            "flattenedWeights": [
                -0.2523709833621979,
                0.2980160117149353,
                0.651566207408905,
                0.05780229717493057,
                0.9252456426620483,
                -0.025718268007040025,
                0.7405016422271729,
                -0.39207059144973757,
                -1.9213535785675049,
                0.7896162271499634,
                -0.8987438082695007,
                1.0150078535079957,
                0.9163036942481995,
                -0.2589709162712097,
                0.5223701000213623,
                0.11042117327451706,
                -1.8954060077667237,
                1.6678911447525025,
                0.09850415587425232,
                0.8499497175216675,
                1.5934972763061524,
                -0.4064153730869293,
                0.7137361168861389,
                1.712759017944336,
                0.9526451826095581,
                -1.1125099658966065,
                0.6521308422088623,
                -1.169844150543213,
                0.5093218088150024,
                0.9077820777893066,
                -1.3207743167877198,
                -0.9088877439498901,
                0.3497447967529297,
                0.06954057514667511,
                0.9132601022720337,
                -0.6179777383804321,
                -1.3068397045135499,
                1.100382685661316,
                -0.2513735890388489,
                0.17585769295692445,
                -1.0446852445602418,
                -2.439211368560791,
                -0.653893768787384,
                -0.9904398918151856,
                1.681796908378601,
                1.316417932510376,
                -1.1163036823272706,
                -0.4553888142108917,
                1.81046462059021,
                1.2548853158950806,
                -1.073785662651062,
                -1.524849534034729,
                0.12993283569812776,
                -1.4670122861862183,
                0.06714687496423722,
                1.370737075805664,
                0.3280980885028839,
                -0.13071632385253907,
                0.3724721074104309,
                0.4154551327228546,
                -0.7776861190795898,
                -2.0501327514648439,
                -1.5198988914489747,
                0.10744497179985047,
                0.42779189348220827,
                -0.36742109060287478,
                -1.2446303367614747,
                -1.262187123298645,
                1.4694544076919556,
                1.1608328819274903,
                0.8546594381332398,
                -0.24172568321228028,
                0.53753262758255,
                1.5840851068496705,
                0.5115630030632019,
                -1.2055786848068238,
                -0.7685648798942566,
                -0.4704274535179138,
                -0.15288400650024415,
                -1.0083229541778565,
                -0.002722226083278656,
                1.2050790786743165,
                0.5669028162956238,
                0.5799297094345093,
                2.788860321044922,
                0.22659167647361756,
                0.4038389027118683,
                -0.4289638102054596,
                -0.44096770882606509,
                -0.7505480051040649,
                -1.218157172203064,
                0.07277451455593109,
                -0.921085774898529,
                -1.8719968795776368,
                -1.7999541759490967,
                0.16687649488449098,
                -0.06596802920103073,
                -0.9201316833496094,
                -1.9268343448638917,
                -0.16755586862564088,
                -1.313117504119873,
                1.7926247119903565,
                -1.1082603931427003,
                2.2511353492736818,
                -0.9768118262290955,
                -0.406154066324234,
                -0.8161985874176025,
                0.9856348633766174,
                0.3780519366264343,
                1.5723159313201905,
                1.612796664237976,
                0.07760204374790192,
                1.7526856660842896,
                1.0257196426391602,
                1.4680490493774415,
                -0.07655832916498184,
                -0.05794021859765053,
                0.27316734194755556,
                0.152959942817688,
                -0.6855326890945435,
                0.6282743811607361,
                3.3854846954345705,
                -1.236944556236267,
                0.40901103615760805,
                1.412428617477417,
                0.2734943628311157,
                -0.8184791803359985,
                -0.4388032853603363,
                2.2331197261810304,
                0.1904512643814087,
                -0.40151846408843996,
                -1.5417746305465699,
                0.36266663670539858,
                0.6180865168571472,
                1.0311261415481568,
                0.49903061985969546
            ],
            "fitness": 91.08061218261719,
            "npcType": 0
        }
    ],
    "timestamp": "2025-06-15 05:35:29"
}