{
    "generation": 85,
    "bestFitness": 304.78338623046877,
    "averageFitness": 132.38563537597657,
    "worstFitness": 0.0,
    "networks": [
        {
            "layers": [
                8,
                8,
                6,
                4
            ],
            "flattenedWeights": [
                0.03669867664575577,
                1.1339212656021119,
                -0.15018680691719056,
                0.4081251919269562,
                -0.6763221621513367,
                0.949630856513977,
                -1.1587550640106202,
                -1.011440396308899,
                1.0344910621643067,
                1.1105225086212159,
                -0.03734809160232544,
                -0.6111775636672974,
                -0.499738872051239,
                -0.19750860333442689,
                0.042998481541872028,
                -0.7540655732154846,
                0.4077824354171753,
                -0.9056315422058106,
                -0.9736931920051575,
                1.0173261165618897,
                0.995968222618103,
                0.9982792735099793,
                0.2232866883277893,
                -0.47586455941200259,
                0.278078556060791,
                0.5249530673027039,
                0.39162129163742068,
                0.42166584730148318,
                0.2617162764072418,
                -0.9741430282592773,
                0.8578962683677673,
                -0.2823784351348877,
                -0.4734649062156677,
                -0.9519776105880737,
                1.321092963218689,
                -0.956670343875885,
                0.5763627290725708,
                -1.047958493232727,
                -1.1314797401428223,
                0.3975665867328644,
                0.43907222151756289,
                0.0657900795340538,
                0.1821749210357666,
                -0.25619810819625857,
                0.18347114324569703,
                1.0322890281677247,
                -0.10945452004671097,
                0.7072865962982178,
                0.54471355676651,
                -0.9696762561798096,
                -0.20398908853530885,
                0.9982646107673645,
                0.11763346195220947,
                0.012582678347826004,
                -0.0797196552157402,
                0.572920560836792,
                -0.12397661805152893,
                -1.4200636148452759,
                0.10021133720874787,
                0.5202340483665466,
                0.848961353302002,
                1.469052791595459,
                0.4926280379295349,
                0.7271091938018799,
                0.510636568069458,
                0.38806840777397158,
                0.09093467891216278,
                0.8764013648033142,
                -2.1746585369110109,
                -1.1492187976837159,
                -0.10143253207206726,
                0.3576579988002777,
                0.8239874243736267,
                1.2026021480560303,
                0.9974589347839356,
                0.4895998537540436,
                0.18959850072860719,
                -0.4603586196899414,
                0.4024365544319153,
                -0.10772853344678879,
                -0.5201517343521118,
                0.2828599810600281,
                -0.8348129391670227,
                -0.3647615909576416,
                0.5193067789077759,
                0.5610597729682922,
                -1.5387697219848633,
                -0.40046733617782595,
                -0.4099160432815552,
                -0.5666513442993164,
                1.1081286668777466,
                -0.43445801734924319,
                -0.14944198727607728,
                0.47328177094459536,
                -1.1599990129470826,
                1.4618229866027833,
                -0.7604624629020691,
                -0.15380613505840302,
                -0.3742751479148865,
                1.0536837577819825,
                0.21337218582630158,
                -0.6923233866691589,
                -1.0069880485534669,
                0.2930721640586853,
                -0.7235693335533142,
                0.5826095938682556,
                -0.7095022797584534,
                -0.29681339859962466,
                -0.328311562538147,
                0.8168756365776062,
                0.16888779401779176,
                1.1980425119400025,
                -0.720994234085083,
                -1.030098557472229,
                -0.3126620352268219,
                -0.5257188081741333,
                0.9558225870132446,
                1.4255611896514893,
                0.3854207396507263,
                -0.4224938154220581,
                0.8403415083885193,
                0.3034535050392151,
                0.7154279947280884,
                0.4906962215900421,
                0.49255555868148806,
                0.11954342573881149,
                0.3979780972003937,
                1.090433955192566,
                -0.7726837396621704,
                0.5198846459388733,
                0.190425843000412,
                0.7423228025436401,
                2.2513062953948976,
                -0.40971556305885317,
                1.0815500020980836,
                0.6869924068450928
            ],
            "fitness": 304.78338623046877,
            "timeAlive": 30.783641815185548,
            "totalDistance": 60.09546661376953,
            "successfulJumps": 0,
            "checkpointsReached": 2,
            "uniqueAreasVisited": 14,
            "activeWeightsCount": 136,
            "weightComplexity": 1.0,
            "outputLockStatus": [
                false,
                false,
                false,
                false
            ],
            "correctJumps": 0,
            "incorrectJumps": 0,
            "explorationEfficiency": 0.23296266794204713
        },
        {
            "layers": [
                8,
                8,
                6,
                4
            ],
            "flattenedWeights": [
                -0.12856562435626985,
                1.3793721199035645,
                -0.10638590902090073,
                0.23349791765213014,
                -0.6268216371536255,
                0.881995439529419,
                -1.2641105651855469,
                -1.1724318265914918,
                1.350427508354187,
                0.9414084553718567,
                0.11015328019857407,
                -0.9046399593353272,
                -0.8305089473724365,
                -0.34625133872032168,
                -0.019208066165447236,
                -0.5756327509880066,
                -0.07149480283260346,
                -0.9783137440681458,
                -0.9165768027305603,
                0.8468493819236755,
                0.887664258480072,
                1.1702989339828492,
                -0.0650704875588417,
                -0.5627387762069702,
                0.12315990030765534,
                0.5406125783920288,
                0.10352665930986405,
                0.34655117988586428,
                0.17283934354782105,
                -0.8415126204490662,
                0.9685214161872864,
                -0.4845380485057831,
                -0.4449978470802307,
                -0.7543594837188721,
                1.3112469911575318,
                -0.7019054293632507,
                0.30736297369003298,
                -0.958084762096405,
                -0.9234673976898193,
                0.1619972139596939,
                0.4091078042984009,
                0.4996163547039032,
                0.1560790091753006,
                -0.4245411157608032,
                0.17710816860198975,
                0.925766110420227,
                -0.29268038272857668,
                0.3828583061695099,
                0.415971040725708,
                -0.8756654858589172,
                -0.17811328172683717,
                1.0168532133102418,
                0.36171773076057436,
                0.10189633816480637,
                -0.2932704985141754,
                0.5447491407394409,
                0.04370810464024544,
                -1.2308439016342164,
                0.07549843937158585,
                0.6923520565032959,
                0.9198035001754761,
                1.8390583992004395,
                0.4477650225162506,
                0.7592499852180481,
                0.5668675899505615,
                0.24701230227947236,
                -0.005672790110111237,
                0.9284465909004211,
                -2.2527897357940676,
                -1.0375362634658814,
                -0.11542776972055435,
                0.4682318866252899,
                0.9853879809379578,
                1.3275048732757569,
                0.8515396118164063,
                0.44417804479599,
                0.06415127962827683,
                -0.34522709250450137,
                0.36484044790267947,
                0.03723559528589249,
                -0.39795976877212527,
                0.3959892690181732,
                -1.266800045967102,
                -0.5706140995025635,
                0.8071805238723755,
                0.3878249228000641,
                -1.639683485031128,
                -0.42817431688308718,
                -0.31150439381599429,
                -0.6030888557434082,
                0.6547828316688538,
                -0.17560794949531556,
                0.25841009616851809,
                0.24062135815620423,
                -1.1979763507843018,
                1.3713150024414063,
                -0.6041379570960999,
                -0.07367195934057236,
                -0.4370177686214447,
                1.0452039241790772,
                0.20825204253196717,
                -0.683615505695343,
                -0.5119075775146484,
                0.3986639976501465,
                -0.45295387506484988,
                0.5339140892028809,
                -0.8638778924942017,
                -0.3820706009864807,
                -0.09718221426010132,
                0.9168732762336731,
                0.270239919424057,
                1.2291746139526368,
                -0.88765549659729,
                -0.8872514367103577,
                -0.4380260109901428,
                -0.7502269148826599,
                0.7381656765937805,
                1.4785339832305909,
                0.24470075964927674,
                -0.34284770488739016,
                0.6526381373405457,
                0.13564708828926087,
                0.7608327269554138,
                0.3983198404312134,
                0.4753801226615906,
                0.2942013442516327,
                0.5514054298400879,
                0.9137467741966248,
                -0.22336691617965699,
                0.27601128816604617,
                0.27336978912353518,
                0.9355483055114746,
                2.300316095352173,
                -0.5307821035385132,
                1.2306898832321168,
                0.7286313772201538
            ],
            "fitness": 300.77630615234377,
            "timeAlive": 30.772607803344728,
            "totalDistance": 60.11710739135742,
            "successfulJumps": 0,
            "checkpointsReached": 2,
            "uniqueAreasVisited": 13,
            "activeWeightsCount": 135,
            "weightComplexity": 0.9926470518112183,
            "outputLockStatus": [
                false,
                false,
                false,
                false
            ],
            "correctJumps": 0,
            "incorrectJumps": 0,
            "explorationEfficiency": 0.21624460816383363
        },
        {
            "layers": [
                8,
                8,
                6,
                4
            ],
            "flattenedWeights": [
                0.1842394769191742,
                1.2003008127212525,
                -0.148770272731781,
                0.3418304920196533,
                -0.44857168197631838,
                0.9535859823226929,
                -1.0213104486465455,
                -1.0241262912750245,
                1.3685225248336793,
                0.9949625134468079,
                0.04734710603952408,
                -0.690233051776886,
                -0.5616539120674133,
                -0.4313061833381653,
                -0.07104113698005676,
                -0.6058222651481628,
                -0.08514392375946045,
                -0.9692037105560303,
                -1.0429178476333619,
                1.0206904411315919,
                0.8713985681533814,
                1.0409910678863526,
                0.004391178488731384,
                -0.6455137133598328,
                0.4199950098991394,
                0.49467647075653078,
                0.395191490650177,
                0.38332605361938479,
                0.374578058719635,
                -0.9473854899406433,
                0.9717247486114502,
                -0.605819821357727,
                -0.45361965894699099,
                -0.836678147315979,
                1.2843639850616456,
                -0.5983728170394898,
                0.31441226601600649,
                -1.0807017087936402,
                -0.8434323668479919,
                0.08347255736589432,
                0.5156799554824829,
                0.5337667465209961,
                0.32880938053131106,
                -0.39016079902648928,
                1.3591468334197999,
                0.9256978631019592,
                -0.07973820716142655,
                0.42831918597221377,
                0.4995878338813782,
                -0.9720394611358643,
                -0.31015631556510928,
                0.8044778108596802,
                0.06006868928670883,
                -0.013046450912952423,
                -0.3034650981426239,
                0.5831549167633057,
                -0.10976395756006241,
                -1.3369730710983277,
                -0.041452616453170779,
                0.6854913830757141,
                0.8788434267044067,
                1.5097227096557618,
                0.45589274168014529,
                0.8611424565315247,
                0.6034058928489685,
                0.2586583197116852,
                0.08468088507652283,
                0.8682994246482849,
                -2.1675589084625246,
                -1.220616340637207,
                -0.045725807547569278,
                0.48229897022247317,
                1.0390660762786866,
                1.19662344455719,
                0.8674480319023132,
                0.3927432894706726,
                -0.07220697402954102,
                -0.3605479896068573,
                0.5055691003799439,
                -0.254642128944397,
                -0.4950730800628662,
                0.4020043611526489,
                -0.876160740852356,
                -0.5706140995025635,
                0.7903057932853699,
                0.4594401717185974,
                -1.5637089014053345,
                -0.45875129103660586,
                -0.45335865020751955,
                -0.5410597920417786,
                0.744296669960022,
                -0.39827919006347659,
                0.29961198568344118,
                0.16785550117492677,
                -1.3009191751480103,
                1.3865247964859009,
                -0.520566463470459,
                -0.0636877790093422,
                -0.3419375717639923,
                1.058180332183838,
                0.08491077274084091,
                -0.5851691365242004,
                -0.5544804930686951,
                0.32205551862716677,
                -0.66469806432724,
                0.6561943888664246,
                -0.8006569743156433,
                -0.32734933495521548,
                -0.3453410267829895,
                0.779334545135498,
                0.22727301716804505,
                1.249513864517212,
                -0.8303393125534058,
                -0.8880507946014404,
                -0.44812095165252688,
                -0.8079516291618347,
                0.8451427817344666,
                1.4250954389572144,
                0.22970989346504212,
                -0.3444625437259674,
                1.041229486465454,
                0.16764123737812043,
                0.7279751300811768,
                0.3137880563735962,
                0.45483940839767458,
                0.13637307286262513,
                0.3393392860889435,
                0.9070370197296143,
                -0.3629126250743866,
                0.4626498818397522,
                0.28716257214546206,
                0.839847207069397,
                2.2012290954589845,
                -0.4085952937602997,
                1.1164910793304444,
                0.6447109580039978
            ],
            "fitness": 296.8858642578125,
            "timeAlive": 30.783641815185548,
            "totalDistance": 58.57369613647461,
            "successfulJumps": 0,
            "checkpointsReached": 2,
            "uniqueAreasVisited": 12,
            "activeWeightsCount": 135,
            "weightComplexity": 0.9926470518112183,
            "outputLockStatus": [
                false,
                false,
                false,
                false
            ],
            "correctJumps": 0,
            "incorrectJumps": 0,
            "explorationEfficiency": 0.20487011969089509
        },
        {
            "layers": [
                8,
                8,
                6,
                4
            ],
            "flattenedWeights": [
                -0.024065814912319185,
                1.3476204872131348,
                -0.08436911553144455,
                0.3455682098865509,
                -0.8053675293922424,
                0.4658815264701843,
                -1.461130142211914,
                -1.2241289615631104,
                1.4336750507354737,
                1.0864487886428834,
                0.15609490871429444,
                -0.7923340201377869,
                -0.5923579931259155,
                -0.46092134714126589,
                0.02436119318008423,
                -0.832601010799408,
                -0.1383037567138672,
                -0.9385379552841187,
                -0.975101113319397,
                0.89070063829422,
                0.9207310080528259,
                1.0507540702819825,
                -0.027472063899040223,
                -0.5272268652915955,
                0.34442102909088137,
                0.5397858619689941,
                0.11484400182962418,
                0.7652400732040405,
                0.305647611618042,
                -0.9579257369041443,
                0.870975136756897,
                -0.5035001039505005,
                -0.14067533612251283,
                -0.5613406896591187,
                1.345186710357666,
                -0.611050546169281,
                0.2218722403049469,
                -0.9797394275665283,
                -1.0100151300430298,
                0.17973434925079347,
                0.5154092907905579,
                0.6173213124275208,
                -0.10267239809036255,
                -0.40675821900367739,
                0.25873103737831118,
                1.0063869953155518,
                0.09510184079408646,
                0.47635871171951296,
                0.457516074180603,
                -1.0252052545547486,
                -0.27378183603286745,
                1.002134919166565,
                0.34592604637145998,
                -0.01125255972146988,
                0.17638744413852693,
                0.44287824630737307,
                -0.1781204342842102,
                -1.2713359594345093,
                0.09868632256984711,
                0.4425448775291443,
                0.9052039980888367,
                1.711987018585205,
                0.6111984252929688,
                0.6780248880386353,
                0.47902172803878786,
                0.045596517622470859,
                0.04797385632991791,
                0.7014617919921875,
                -2.171816349029541,
                -1.0930510759353638,
                -0.3223665952682495,
                0.5815846920013428,
                0.8086023926734924,
                1.2496334314346314,
                0.9924542307853699,
                0.43676602840423586,
                0.05689159780740738,
                -0.34029462933540347,
                0.2533244788646698,
                0.02475515753030777,
                -0.4858471155166626,
                0.39591890573501589,
                -1.2290451526641846,
                -0.6474407911300659,
                0.4240668714046478,
                0.309543639421463,
                -1.5045241117477418,
                -0.4399556815624237,
                -0.4448840022087097,
                -0.7588062286376953,
                0.7825939655303955,
                -0.18996554613113404,
                0.2814185321331024,
                0.3382943570613861,
                -1.2834852933883668,
                1.2833507061004639,
                -0.4861859083175659,
                -0.32747745513916018,
                -0.35422417521476748,
                1.0400352478027344,
                0.2080974578857422,
                -0.7725411057472229,
                -0.7956387996673584,
                0.3664611577987671,
                -0.4695097804069519,
                0.23541519045829774,
                -0.8211780786514282,
                -0.2995447814464569,
                -0.13613387942314149,
                0.7873501181602478,
                0.3234606981277466,
                1.1602095365524293,
                -0.6898202300071716,
                -0.8919728994369507,
                -0.17847582697868348,
                -0.8436989784240723,
                0.7616642117500305,
                1.4250954389572144,
                0.2609283924102783,
                -0.25140440464019778,
                0.8654769659042358,
                0.03142257034778595,
                1.0572129487991334,
                0.5521194338798523,
                0.4780874252319336,
                0.2512016296386719,
                0.5369925498962402,
                1.2565011978149415,
                -0.2340419590473175,
                0.5423405766487122,
                0.2502206265926361,
                0.7025861740112305,
                2.2746729850769045,
                -0.5753702521324158,
                1.155603289604187,
                0.6936940550804138
            ],
            "fitness": 292.3292236328125,
            "timeAlive": 30.783641815185548,
            "totalDistance": 54.520599365234378,
            "successfulJumps": 0,
            "checkpointsReached": 2,
            "uniqueAreasVisited": 11,
            "activeWeightsCount": 136,
            "weightComplexity": 1.0,
            "outputLockStatus": [
                false,
                false,
                false,
                false
            ],
            "correctJumps": 0,
            "incorrectJumps": 0,
            "explorationEfficiency": 0.20175860822200776
        },
        {
            "layers": [
                8,
                8,
                6,
                4
            ],
            "flattenedWeights": [
                0.16110479831695558,
                1.221435785293579,
                -0.11096316576004029,
                0.1566523015499115,
                -0.6578060984611511,
                0.8770142197608948,
                -1.4141995906829835,
                -1.251982569694519,
                1.4338120222091675,
                0.9256594777107239,
                0.289644330739975,
                -0.8687500357627869,
                -0.3560565710067749,
                -0.23059073090553285,
                0.2093302309513092,
                -0.6062540411949158,
                -0.1509179174900055,
                -0.8607707023620606,
                -0.9293830394744873,
                0.7654923796653748,
                0.983713686466217,
                1.0931504964828492,
                -0.10841024667024613,
                -0.6384763717651367,
                0.3540417551994324,
                0.51207435131073,
                0.39157652854919436,
                0.44096457958221438,
                0.30290576815605166,
                -0.9780297875404358,
                0.9248644709587097,
                -0.6067835688591003,
                -0.4136870503425598,
                -0.6694144606590271,
                1.4127274751663209,
                -0.8473173975944519,
                0.36022692918777468,
                -0.958084762096405,
                -1.0528584718704224,
                0.16548596322536469,
                0.34165698289871218,
                0.10067111253738404,
                0.27946537733078005,
                -0.39016079902648928,
                0.40564417839050295,
                0.844489336013794,
                -0.20303380489349366,
                0.3783675730228424,
                0.529177725315094,
                -1.0489424467086793,
                -0.5195925831794739,
                0.9483173489570618,
                0.33483991026878359,
                0.07574862241744995,
                -0.20422852039337159,
                0.25868675112724306,
                -0.08912226557731629,
                -1.3175867795944214,
                0.03245466202497482,
                0.742028534412384,
                0.8651351928710938,
                1.6758747100830079,
                0.5709538459777832,
                0.7595303058624268,
                0.6090386509895325,
                0.21101346611976624,
                -0.08673243224620819,
                0.8369935750961304,
                -2.1349103450775148,
                -1.1173075437545777,
                -0.13967972993850709,
                0.563711941242218,
                0.6526106595993042,
                1.5287365913391114,
                0.9409780502319336,
                0.3482147455215454,
                -0.021525967866182329,
                -0.3907373249530792,
                0.421342134475708,
                -0.15184739232063294,
                -0.34580564498901369,
                0.4198687672615051,
                -1.3293609619140626,
                -0.6440051198005676,
                0.7821367383003235,
                0.47976765036582949,
                -1.6187212467193604,
                -0.38557907938957217,
                -0.3744109272956848,
                -0.7519806027412415,
                0.5902925729751587,
                -0.23631137609481812,
                -0.18129593133926392,
                0.30784428119659426,
                -1.3891985416412354,
                1.3008713722229005,
                -0.5163338780403137,
                -0.09358328580856323,
                -0.29035845398902895,
                0.9547319412231445,
                -0.10270442813634873,
                -0.537031888961792,
                -0.7716802954673767,
                0.36978858709335329,
                -0.554987907409668,
                0.40665537118911745,
                -0.7305944561958313,
                -0.24314770102500916,
                -0.047112852334976199,
                0.9282194972038269,
                0.23138722777366639,
                1.2601699829101563,
                -0.7491132020950317,
                -0.8768501877784729,
                -0.35981684923171999,
                -0.8939139246940613,
                0.7734124064445496,
                1.5320979356765748,
                0.2789432108402252,
                -0.589435338973999,
                0.7374839186668396,
                0.25494277477264407,
                1.021080732345581,
                0.40436992049217226,
                0.5478246808052063,
                0.11635078489780426,
                0.28945040702819826,
                1.081459879875183,
                -0.6548869013786316,
                0.36322396993637087,
                0.17721930146217347,
                0.8165539503097534,
                2.4092838764190676,
                -0.5307821035385132,
                1.3286981582641602,
                0.7493687868118286
            ],
            "fitness": 256.6048583984375,
            "timeAlive": 30.772607803344728,
            "totalDistance": 57.31828308105469,
            "successfulJumps": 0,
            "checkpointsReached": 2,
            "uniqueAreasVisited": 12,
            "activeWeightsCount": 136,
            "weightComplexity": 1.0,
            "outputLockStatus": [
                false,
                false,
                false,
                false
            ],
            "correctJumps": 0,
            "incorrectJumps": 0,
            "explorationEfficiency": 0.20935727655887605
        },
        {
            "layers": [
                8,
                8,
                6,
                4
            ],
            "flattenedWeights": [
                0.21041613817214967,
                1.1386579275131226,
                0.0846075639128685,
                0.28379207849502566,
                -0.6417427062988281,
                0.8751590847969055,
                -1.0525178909301758,
                -1.1403732299804688,
                1.1300525665283204,
                1.1334853172302247,
                0.16886280477046967,
                -0.8673040270805359,
                -0.5878269076347351,
                -0.41799288988113406,
                -0.0002894178032875061,
                -0.5946990251541138,
                0.3418980836868286,
                -0.8957507610321045,
                -1.0090179443359376,
                0.9298537373542786,
                0.9041576981544495,
                0.9720227718353272,
                -0.013302236795425415,
                -0.6001465320587158,
                0.2397696077823639,
                0.41450342535972597,
                0.23434239625930787,
                0.47710174322128298,
                0.1568843126296997,
                -0.5716021656990051,
                1.005486249923706,
                -0.6192184090614319,
                -0.39612483978271487,
                -0.7763107419013977,
                1.321092963218689,
                -0.6309618353843689,
                0.33065736293792727,
                -1.0807017087936402,
                -0.9234673976898193,
                0.051887065172195438,
                0.4238021969795227,
                -0.015913665294647218,
                0.28443339467048647,
                -0.30203744769096377,
                1.2961773872375489,
                1.0895981788635255,
                0.013382390141487122,
                0.6366862654685974,
                0.5781954526901245,
                -0.9589505791664124,
                -0.2926638424396515,
                0.8237089514732361,
                0.5000869035720825,
                0.008948050439357758,
                -0.14663109183311463,
                0.669466495513916,
                -0.17501965165138246,
                -1.2671115398406983,
                0.05540076643228531,
                0.7320533394813538,
                0.8064549565315247,
                1.5513263940811158,
                0.6057584285736084,
                0.6897528171539307,
                0.5428254008293152,
                0.26081421971321108,
                0.010427579283714295,
                0.7936522960662842,
                -2.193479299545288,
                -1.2279257774353028,
                -0.021082259714603425,
                0.393591046333313,
                1.1040229797363282,
                1.3031507730484009,
                0.823878288269043,
                0.34486281871795657,
                -0.055917367339134219,
                -0.27032527327537539,
                0.5696727633476257,
                -0.20231106877326966,
                -0.34362560510635378,
                0.42181965708732607,
                -1.2571048736572266,
                -0.3185512125492096,
                0.8134111762046814,
                0.30363595485687258,
                -1.6287610530853272,
                -0.31930306553840639,
                -0.33344215154647829,
                -0.6068572402000427,
                1.085921049118042,
                -0.4021812677383423,
                0.2621708810329437,
                0.25181519985198977,
                -1.2883937358856202,
                1.3552016019821168,
                -0.5928943157196045,
                -0.11229364573955536,
                -0.28483957052230837,
                1.142573595046997,
                0.22069822251796723,
                -0.4645577073097229,
                -0.7079348564147949,
                0.44861558079719546,
                -0.5466542840003967,
                0.4075445532798767,
                -0.7149829268455505,
                -0.30974623560905459,
                -0.06403812021017075,
                0.7511412501335144,
                0.43097931146621706,
                1.1631983518600464,
                -0.9314464926719666,
                -0.9865067601203919,
                -0.4895525872707367,
                -0.5382645130157471,
                0.8180655837059021,
                1.3446404933929444,
                0.33348387479782107,
                -0.41650551557540896,
                0.672753095626831,
                0.1484484225511551,
                1.0685961246490479,
                0.3137880563735962,
                0.4684510827064514,
                0.2876954674720764,
                0.4332815408706665,
                1.1379724740982056,
                -0.28781619668006899,
                0.34234538674354555,
                0.30231428146362307,
                0.8791090846061707,
                2.2148385047912599,
                -0.5548853278160095,
                1.1765737533569337,
                0.7286313772201538
            ],
            "fitness": 234.83236694335938,
            "timeAlive": 18.237876892089845,
            "totalDistance": 34.830963134765628,
            "successfulJumps": 0,
            "checkpointsReached": 0,
            "uniqueAreasVisited": 8,
            "activeWeightsCount": 134,
            "weightComplexity": 0.9852941036224365,
            "outputLockStatus": [
                false,
                false,
                false,
                false
            ],
            "correctJumps": 0,
            "incorrectJumps": 0,
            "explorationEfficiency": 0.22968070209026338
        },
        {
            "layers": [
                8,
                8,
                6,
                4
            ],
            "flattenedWeights": [
                -0.08234869688749314,
                1.3525986671447755,
                -0.24250265955924989,
                0.2268580049276352,
                -0.7039385437965393,
                0.5014188885688782,
                -1.4485361576080323,
                -0.9708284139633179,
                1.2375431060791016,
                1.012582778930664,
                0.2571384012699127,
                -0.7198825478553772,
                -0.3336668610572815,
                -0.27452990412712099,
                0.009593680500984192,
                -0.9038336873054504,
                0.34949052333831789,
                -0.9992868304252625,
                -0.8327510356903076,
                0.8349116444587708,
                1.0826668739318848,
                0.9044641852378845,
                0.5541889667510986,
                -0.6632704138755798,
                0.4212159812450409,
                0.5987349152565002,
                0.2818394601345062,
                0.6280479431152344,
                0.3790085017681122,
                -0.9123969674110413,
                0.8351242542266846,
                -0.5423094034194946,
                -0.16277438402175904,
                -0.5216453075408936,
                1.3586560487747193,
                -0.7469637989997864,
                0.24967806041240693,
                -1.17664635181427,
                -1.0292623043060303,
                0.09110024571418762,
                0.4014964699745178,
                0.07115708291530609,
                -0.00803760439157486,
                -0.43785449862480166,
                1.013351559638977,
                1.0312830209732056,
                0.09999945014715195,
                0.5946459174156189,
                0.8369374871253967,
                -1.0316866636276246,
                -0.4812169373035431,
                0.9424591064453125,
                0.26553022861480715,
                0.0748264417052269,
                0.20135477185249329,
                0.4825533628463745,
                -0.21617737412452699,
                -1.2387884855270386,
                0.36842989921569826,
                0.5696455836296082,
                0.8290716409683228,
                1.6732814311981202,
                0.5550057291984558,
                0.8319283127784729,
                0.5829150080680847,
                0.16411080956459046,
                0.1114315614104271,
                0.6076833605766296,
                -2.6121585369110109,
                -1.0184017419815064,
                -0.06601021438837052,
                0.527786374092102,
                0.8545999526977539,
                1.5343115329742432,
                0.8485404253005981,
                0.38352254033088686,
                0.22690311074256898,
                -0.5165358185768127,
                0.5207512974739075,
                0.011504191905260086,
                -0.670113742351532,
                0.5541562438011169,
                -0.7763869762420654,
                -0.6193038821220398,
                0.3328995704650879,
                0.6413062810897827,
                -1.4707132577896119,
                -0.2371354103088379,
                -0.41961169242858889,
                -0.599357545375824,
                1.0996218919754029,
                -0.2957308888435364,
                -0.13468043506145478,
                0.28139379620552065,
                -1.3389266729354859,
                1.4910452365875245,
                -0.4861859083175659,
                0.07386122643947602,
                -0.2676687240600586,
                0.7679616808891296,
                0.1622985303401947,
                -0.4097127318382263,
                -0.8280378580093384,
                0.35840994119644167,
                -0.47087767720222475,
                0.5212960839271545,
                -0.8770622611045837,
                -0.35114771127700808,
                -0.9843112230300903,
                0.9634028673171997,
                0.41615530848503115,
                1.1485544443130494,
                -0.6075304746627808,
                -0.9668396711349487,
                -0.31059011816978457,
                -0.6109157800674439,
                0.8271211385726929,
                1.4628530740737916,
                0.5917593240737915,
                -0.45170241594314577,
                0.9466659426689148,
                0.19388777017593385,
                1.1470060348510743,
                0.5720375776290894,
                0.4126580059528351,
                0.1690991073846817,
                0.6676478385925293,
                1.1780328750610352,
                -0.6001535058021545,
                0.5306645035743713,
                0.38736364245414736,
                0.7981644868850708,
                2.172717571258545,
                -0.5929774641990662,
                1.1591682434082032,
                0.78338223695755
            ],
            "fitness": 189.4040069580078,
            "timeAlive": 30.772607803344728,
            "totalDistance": 60.143775939941409,
            "successfulJumps": 0,
            "checkpointsReached": 2,
            "uniqueAreasVisited": 12,
            "activeWeightsCount": 134,
            "weightComplexity": 0.9852941036224365,
            "outputLockStatus": [
                false,
                false,
                false,
                false
            ],
            "correctJumps": 0,
            "incorrectJumps": 1,
            "explorationEfficiency": 0.19952189922332765
        },
        {
            "layers": [
                8,
                8,
                6,
                4
            ],
            "flattenedWeights": [
                0.11160147190093994,
                1.2702151536941529,
                -0.3080993890762329,
                0.277652770280838,
                -0.5351945757865906,
                0.7848696112632752,
                -1.3858011960983277,
                -1.0724561214447022,
                1.5156075954437256,
                1.003638744354248,
                0.3529781997203827,
                -0.7691546082496643,
                -0.4543151557445526,
                -0.46626928448677065,
                0.01884055882692337,
                -0.605054497718811,
                0.255232036113739,
                -0.5758997797966003,
                -0.895522952079773,
                1.035370111465454,
                1.1094523668289185,
                1.0356365442276,
                0.46770262718200686,
                -0.6621049046516419,
                0.2105802595615387,
                0.7119011282920837,
                0.07367735356092453,
                0.5872804522514343,
                0.33624598383903506,
                -0.7662988305091858,
                0.7954419255256653,
                -0.4124374985694885,
                -0.48155757784843447,
                -0.7299768328666687,
                1.4980192184448243,
                -0.7457512021064758,
                0.29932963848114016,
                -0.9533909559249878,
                -1.0046799182891846,
                0.02412186563014984,
                0.4418386220932007,
                0.6089016795158386,
                0.08459645509719849,
                -0.4310069978237152,
                0.932414174079895,
                1.1190087795257569,
                -0.19216135144233704,
                0.4673163890838623,
                0.5828257203102112,
                -1.048413872718811,
                -0.4884430170059204,
                0.958310067653656,
                0.19213317334651948,
                -0.014336049556732178,
                -0.0034569166600704195,
                0.6426830887794495,
                -0.15708792209625245,
                -1.3858731985092164,
                0.24737104773521424,
                0.6366286873817444,
                0.6914995908737183,
                1.719970464706421,
                0.4722365438938141,
                0.7562944889068604,
                0.39107030630111697,
                0.01639712229371071,
                -0.07444000244140625,
                0.8496717214584351,
                -2.595669746398926,
                -1.187654733657837,
                -0.016538403928279878,
                0.5021578669548035,
                0.869748055934906,
                1.3306407928466797,
                0.7666339874267578,
                0.23701506853103639,
                0.2315118908882141,
                -0.4737218916416168,
                0.21544939279556275,
                -0.20614704489707948,
                -0.6004051566123962,
                0.5362024307250977,
                -1.40325927734375,
                -0.623694658279419,
                0.29217836260795596,
                0.6014863848686218,
                -1.2292420864105225,
                -0.4069472849369049,
                -0.3891633450984955,
                -0.690656840801239,
                1.0806630849838257,
                -0.3730279207229614,
                0.00467739999294281,
                0.14520612359046937,
                -1.2714929580688477,
                1.5481587648391724,
                -0.7055650949478149,
                0.020529083907604219,
                -0.28082430362701418,
                0.9615132212638855,
                0.1627824604511261,
                -0.480966180562973,
                -0.7663815021514893,
                0.3486514091491699,
                -0.3037388026714325,
                0.16472890973091126,
                -0.7696005702018738,
                -0.3634759485721588,
                -0.7337971329689026,
                0.8091517090797424,
                0.28675490617752077,
                1.0661591291427613,
                -0.6442968845367432,
                -0.9365248084068298,
                -0.2481040060520172,
                -0.66837078332901,
                0.8188104629516602,
                1.4289535284042359,
                0.28614699840545657,
                -0.2790326178073883,
                0.8823127150535584,
                0.07100781053304672,
                0.9948195219039917,
                0.29607224464416506,
                0.45729243755340578,
                0.10494168102741242,
                0.6505825519561768,
                1.1895078420639039,
                -0.3648923635482788,
                0.5507295727729797,
                0.4275306761264801,
                0.8894567489624023,
                2.3506712913513185,
                -0.5721656084060669,
                1.0855019092559815,
                0.7707928419113159
            ],
            "fitness": 153.09446716308595,
            "timeAlive": 27.333847045898439,
            "totalDistance": 51.00381851196289,
            "successfulJumps": 0,
            "checkpointsReached": 1,
            "uniqueAreasVisited": 7,
            "activeWeightsCount": 134,
            "weightComplexity": 0.9852941036224365,
            "outputLockStatus": [
                false,
                false,
                false,
                false
            ],
            "correctJumps": 0,
            "incorrectJumps": 0,
            "explorationEfficiency": 0.13724462687969209
        },
        {
            "layers": [
                8,
                8,
                6,
                4
            ],
            "flattenedWeights": [
                -0.07350857555866242,
                1.243330955505371,
                -0.18924565613269807,
                0.0457228422164917,
                -0.7749233245849609,
                0.5777699947357178,
                -1.4750783443450928,
                -1.1953942775726319,
                1.3640673160552979,
                1.0987026691436768,
                0.2991461455821991,
                -0.8560236096382141,
                -0.6400480270385742,
                -0.35235029458999636,
                -0.0002894178032875061,
                -0.6198177337646484,
                -0.07185542583465576,
                -0.8398206830024719,
                -1.0297993421554566,
                0.8135507702827454,
                0.8967229723930359,
                1.0986953973770142,
                0.3676981031894684,
                -0.5593283176422119,
                0.12781716883182527,
                0.46826696395874026,
                0.29611435532569888,
                0.7191912531852722,
                0.14654521644115449,
                -0.9404800534248352,
                0.8044567704200745,
                -0.5677434802055359,
                -0.3905092775821686,
                -0.7408617734909058,
                1.3247218132019044,
                -0.6567872762680054,
                0.2701230049133301,
                -1.029517650604248,
                -0.911961019039154,
                0.17788879573345185,
                0.35365667939186098,
                0.5814936757087708,
                0.2955693304538727,
                -0.32855314016342165,
                0.2595181465148926,
                0.9824314117431641,
                -0.13610577583312989,
                0.4702463448047638,
                0.7093569040298462,
                -0.8903149962425232,
                -0.31004324555397036,
                0.9562515020370483,
                0.2219812572002411,
                0.012581296265125275,
                -0.25722408294677737,
                0.5383042693138123,
                -0.0760950893163681,
                -1.149717926979065,
                -0.041887372732162479,
                0.5246506333351135,
                0.8021060228347778,
                1.5818289518356324,
                0.4814562499523163,
                0.866078794002533,
                0.4618251621723175,
                0.03957705944776535,
                -0.02558770775794983,
                0.8783032894134522,
                -2.1491551399230959,
                -1.0872833728790284,
                -0.028994649648666383,
                0.5251318216323853,
                0.7628322839736939,
                1.147639513015747,
                0.783277690410614,
                0.5216780304908752,
                0.12571969628334046,
                -0.5549860596656799,
                0.1992887258529663,
                0.10201136767864227,
                -0.3341143727302551,
                0.36900296807289126,
                -1.3830149173736573,
                -0.4796889126300812,
                0.2350415289402008,
                0.32173827290534975,
                -1.639683485031128,
                -0.38586103916168215,
                -0.3603702187538147,
                -0.6965233087539673,
                0.6547828316688538,
                -0.18996554613113404,
                -0.08724372833967209,
                0.16488218307495118,
                -1.2027229070663453,
                1.3925758600234986,
                -0.6577069759368897,
                -0.2106543481349945,
                -0.3419375717639923,
                0.945395290851593,
                0.0473586842417717,
                -0.5017359256744385,
                -0.46534138917922976,
                0.2921277582645416,
                -0.476635217666626,
                0.540937602519989,
                -0.7434338927268982,
                -0.1940094232559204,
                -0.1355833113193512,
                0.8567303419113159,
                0.27824604511260989,
                1.1385293006896973,
                -0.7479341626167297,
                -0.8768501877784729,
                -0.4032815992832184,
                -0.5845651626586914,
                0.8180655837059021,
                1.4635316133499146,
                0.3218581974506378,
                -0.6692453622817993,
                0.5758387446403503,
                0.06665241718292237,
                0.7974364757537842,
                0.346346914768219,
                0.4140722155570984,
                0.2317439615726471,
                0.5545418858528137,
                1.0566680431365967,
                -0.6311772465705872,
                0.36322396993637087,
                0.2244463562965393,
                0.7282987236976624,
                2.291212320327759,
                -0.5078451037406921,
                1.22054123878479,
                0.8580829501152039
            ],
            "fitness": 80.16326141357422,
            "timeAlive": 10.13401985168457,
            "totalDistance": 19.719619750976564,
            "successfulJumps": 0,
            "checkpointsReached": 0,
            "uniqueAreasVisited": 4,
            "activeWeightsCount": 135,
            "weightComplexity": 0.9926470518112183,
            "outputLockStatus": [
                false,
                false,
                false,
                false
            ],
            "correctJumps": 0,
            "incorrectJumps": 2,
            "explorationEfficiency": 0.20284366607666017
        },
        {
            "layers": [
                8,
                8,
                6,
                4
            ],
            "flattenedWeights": [
                -0.043506376445293429,
                1.3796876668930054,
                -0.1459711641073227,
                0.19733385741710664,
                -0.7821953296661377,
                0.885526716709137,
                -1.5801048278808594,
                -1.121636152267456,
                1.350427508354187,
                0.9858435988426209,
                0.16558808088302613,
                -0.6717298030853272,
                -0.6786360144615173,
                -0.3989638686180115,
                0.1665022075176239,
                -0.6550023555755615,
                -0.04153693467378616,
                -0.8744064569473267,
                -1.0090179443359376,
                0.4558291435241699,
                0.887664258480072,
                0.9952487349510193,
                0.004806146025657654,
                -0.5813612937927246,
                0.17557695508003236,
                0.5239347815513611,
                0.21237897872924806,
                0.7863401174545288,
                0.21550676226615907,
                -1.0148017406463624,
                0.9596232175827026,
                -0.5957503914833069,
                -0.38161540031433108,
                -0.5940608978271484,
                1.2975398302078248,
                -0.659926176071167,
                0.3560902178287506,
                -0.9659452438354492,
                -0.9390172362327576,
                0.17973434925079347,
                0.43022578954696658,
                0.051817044615745547,
                0.18904754519462586,
                -0.39644843339920046,
                0.42772483825683596,
                0.94930499792099,
                -0.2305659055709839,
                0.3024027645587921,
                0.6231144070625305,
                -0.8756654858589172,
                -0.3140034079551697,
                0.8725398182868958,
                0.23985736072063447,
                -0.050553083419799808,
                -0.3087059557437897,
                0.49418970942497256,
                -0.1270609200000763,
                -1.2115510702133179,
                0.07110895961523056,
                0.5220932960510254,
                0.8495714068412781,
                1.5818289518356324,
                0.564455509185791,
                0.7412097454071045,
                0.36352667212486269,
                0.24883344769477845,
                -0.07689549028873444,
                0.8623221516609192,
                -2.070920944213867,
                -1.0011898279190064,
                -0.11542776972055435,
                0.3839067220687866,
                1.008926510810852,
                1.137657880783081,
                0.7582346796989441,
                0.36028096079826357,
                0.16633684933185578,
                -0.5025392174720764,
                0.10285378247499466,
                0.10201136767864227,
                -0.39795976877212527,
                0.3920643925666809,
                -1.2773675918579102,
                -0.40622201561927798,
                0.30396103858947756,
                0.347359299659729,
                -1.639683485031128,
                -0.5045287013053894,
                -0.3744109272956848,
                -0.646009624004364,
                1.0326954126358033,
                -0.31278225779533389,
                0.19818571209907533,
                0.2962722182273865,
                -1.001477599143982,
                1.3575109243392945,
                -0.6806989908218384,
                -0.16313734650611878,
                -0.2861287593841553,
                1.0280420780181885,
                0.03832297772169113,
                -0.666782557964325,
                -0.7059643268585205,
                0.4177662134170532,
                -0.5822160840034485,
                0.640470027923584,
                -0.8181262016296387,
                -0.39251211285591128,
                -0.27142706513404848,
                0.8250295519828796,
                0.24672257900238038,
                1.1600399017333985,
                -0.9039652347564697,
                -0.895868718624115,
                -0.5400318503379822,
                -0.8079516291618347,
                0.9143432378768921,
                1.5578231811523438,
                0.3735458254814148,
                -0.3657208979129791,
                0.5978513360023499,
                0.40185195207595827,
                0.8764523267745972,
                0.4117654263973236,
                0.44401127099990847,
                0.2942013442516327,
                0.6286569237709045,
                1.0094032287597657,
                -0.29246896505355837,
                0.6884621977806091,
                0.2868993878364563,
                0.8233649134635925,
                2.1754040718078615,
                -0.6363509297370911,
                1.3676100969314576,
                0.7286313772201538
            ],
            "fitness": 9.296445846557618,
            "timeAlive": 3.741929531097412,
            "totalDistance": 6.300548076629639,
            "successfulJumps": 0,
            "checkpointsReached": 0,
            "uniqueAreasVisited": 1,
            "activeWeightsCount": 135,
            "weightComplexity": 0.9926470518112183,
            "outputLockStatus": [
                false,
                false,
                false,
                false
            ],
            "correctJumps": 0,
            "incorrectJumps": 0,
            "explorationEfficiency": 0.1587163507938385
        }
    ],
    "timestamp": "2025-06-19 05:55:25",
    "populationSize": 23,
    "aliveNPCs": 6,
    "generationDuration": 0.1895751953125,
    "mutationRate": 0.847000002861023,
    "eliteCount": 2,
    "globalLockStatus": [
        false,
        false,
        false,
        false
    ],
    "fitnessRange": 304.78338623046877,
    "diversityIndex": 128.2960968017578,
    "averageTimeAlive": 15.571045875549317,
    "totalDistanceSum": 472.4958190917969,
    "totalSuccessfulJumps": 0,
    "populationDiversity": 0.9683775305747986,
    "learningRate": 0.00019188348960597068,
    "convergenceRate": 0.0003279942611698061,
    "totalCheckpointsReached": 13,
    "averageDistance": 29.530988693237306,
    "totalDeaths": 10,
    "improvementRate": 0.0584716796875,
    "explorationBonus": 211.8170166015625,
    "efficiencyScore": 8.502038955688477,
    "activeBehaviors": 10,
    "aliveAtEnd": 6,
    "memoryUsage": 8.0
}