{
    "generation": 395,
    "bestFitness": 184.52609252929688,
    "averageFitness": 57.73609924316406,
    "worstFitness": 0.0,
    "networks": [
        {
            "layers": [
                8,
                8,
                6,
                4
            ],
            "flattenedWeights": [
                -0.23366549611091615,
                0.6359055042266846,
                0.3716704547405243,
                -0.25586026906967165,
                1.1288410425186158,
                -0.013952545821666718,
                0.6552073359489441,
                -0.14807794988155366,
                -2.124640464782715,
                0.7176154255867004,
                -0.888796865940094,
                0.9181838631629944,
                0.4538412094116211,
                -0.13178864121437074,
                0.2007870078086853,
                0.5125875473022461,
                -1.8967700004577637,
                1.2503514289855958,
                0.051579855382442477,
                0.6465437412261963,
                1.4463337659835816,
                -0.625892162322998,
                0.5586759448051453,
                1.7491775751113892,
                1.3138264417648316,
                -0.7158411145210266,
                0.5570918321609497,
                -1.7177519798278809,
                0.9005689024925232,
                0.5366406440734863,
                -1.4020556211471558,
                -0.6759632229804993,
                0.4058550298213959,
                0.2556493282318115,
                0.8670462369918823,
                -0.8266843557357788,
                -1.3791499137878419,
                0.8925473093986511,
                -0.1981010138988495,
                0.5394864082336426,
                -1.0029759407043458,
                -1.8851356506347657,
                -0.27525362372398379,
                -0.9499909281730652,
                1.6306869983673096,
                1.1958742141723633,
                -1.0331940650939942,
                -0.14724747836589814,
                1.8117706775665284,
                0.9546579718589783,
                -0.9369447231292725,
                -1.4503862857818604,
                0.26095399260520937,
                -1.5406482219696046,
                0.2102888524532318,
                1.5930631160736085,
                0.07912681996822357,
                -0.051595427095890048,
                0.13201779127120973,
                0.6095072627067566,
                -1.0354348421096802,
                -2.050044298171997,
                -1.162334680557251,
                0.01196034625172615,
                0.40867656469345095,
                -0.15496785938739777,
                -1.2145655155181885,
                -0.858263373374939,
                1.6870393753051758,
                1.3906596899032593,
                1.0713856220245362,
                -0.26460111141204836,
                0.27940550446510317,
                0.5608125925064087,
                0.5650971531867981,
                -1.404233455657959,
                -1.518599510192871,
                -0.6321184039115906,
                -0.06488843262195587,
                -1.0649094581604005,
                0.26343071460723879,
                1.227107048034668,
                0.5301836729049683,
                0.4342191815376282,
                2.6001501083374025,
                -0.6227380037307739,
                -0.24638649821281434,
                -0.3790689706802368,
                0.10269998013973236,
                -0.5359308123588562,
                -1.0439320802688599,
                0.014966674149036408,
                -0.6973121166229248,
                -1.8287267684936524,
                -2.195197343826294,
                0.8011404871940613,
                -0.09193605184555054,
                -0.789874255657196,
                -1.8261408805847169,
                -0.4433916211128235,
                -0.7554906010627747,
                1.7824807167053223,
                -0.8627973794937134,
                2.2529854774475099,
                -0.9383049607276917,
                -0.6732121706008911,
                -0.44352102279663088,
                0.5018888115882874,
                0.5688996911048889,
                1.7325865030288697,
                2.0862274169921877,
                -0.15659776329994203,
                1.729937195777893,
                1.359850525856018,
                1.7489027976989747,
                -0.009996235370635987,
                -0.13306894898414613,
                -0.061223775148391727,
                -0.00007586181163787842,
                -0.9577838182449341,
                0.2688356339931488,
                2.8462767601013185,
                -1.3769222497940064,
                0.16254372894763947,
                1.331230640411377,
                0.3436608612537384,
                -0.865074098110199,
                -0.4398255944252014,
                1.8070694208145142,
                0.44853317737579348,
                -0.3430435061454773,
                -1.7208930253982545,
                0.916208803653717,
                1.0389808416366578,
                1.052117943763733,
                0.6406905055046082
            ],
            "fitness": 184.52609252929688,
            "npcType": 0
        },
        {
            "layers": [
                8,
                8,
                6,
                4
            ],
            "flattenedWeights": [
                -0.4267801344394684,
                0.1598956435918808,
                0.16962864995002747,
                -0.37475356459617617,
                1.0619311332702637,
                0.15629838407039643,
                0.604584813117981,
                -0.14807794988155366,
                -2.172621011734009,
                0.6181853413581848,
                -0.819951593875885,
                0.9945539832115173,
                0.6992671489715576,
                -0.12028566002845764,
                0.11207582801580429,
                0.41143444180488589,
                -1.5539342164993287,
                1.1570862531661988,
                0.0010825134813785554,
                0.6540999412536621,
                1.3917902708053589,
                -0.8576679229736328,
                0.5963839292526245,
                1.3655357360839844,
                1.225815773010254,
                -0.5969415903091431,
                0.25821220874786379,
                -1.6706594228744507,
                0.9005689024925232,
                0.6530005931854248,
                -1.4130491018295289,
                -0.6524396538734436,
                0.10937973856925965,
                0.2400778830051422,
                1.2408809661865235,
                -0.7477813959121704,
                -1.2556945085525513,
                1.1074490547180176,
                -0.2536320984363556,
                0.6497551798820496,
                -1.011376976966858,
                -2.3593575954437258,
                -0.156505286693573,
                -0.9499909281730652,
                1.668135166168213,
                1.5719501972198487,
                -0.9754262566566467,
                -0.4584819972515106,
                1.7254315614700318,
                1.2171505689620972,
                -0.9655201435089111,
                -1.2694450616836548,
                -0.29595592617988589,
                -1.4893465042114258,
                0.15477681159973145,
                1.5456693172454835,
                -0.24195021390914918,
                -0.10529104620218277,
                0.08472055941820145,
                0.7141953706741333,
                -0.7724620699882507,
                -2.6046981811523439,
                -1.2600047588348389,
                0.07859843969345093,
                0.273860365152359,
                -0.4832952618598938,
                -1.359171748161316,
                -0.7391377091407776,
                1.66822350025177,
                0.9363902807235718,
                1.2312899827957154,
                -0.4305475354194641,
                0.41812682151794436,
                1.527997374534607,
                0.516453206539154,
                -1.3434268236160279,
                -1.4388853311538697,
                -0.5950686931610107,
                -0.19471001625061036,
                -0.8377247452735901,
                0.3475892245769501,
                1.0488874912261963,
                0.7279911637306213,
                0.6473138928413391,
                2.463386297225952,
                -0.4859431982040405,
                -0.17619894444942475,
                -0.40174782276153567,
                0.0032830312848091127,
                -0.7761805057525635,
                -1.1324450969696046,
                -0.06901857256889343,
                -0.8702499270439148,
                -1.824051856994629,
                -1.6617491245269776,
                0.9389408230781555,
                -0.07094370573759079,
                -0.9981379508972168,
                -1.5507333278656006,
                -0.24173621833324433,
                -0.7954457998275757,
                1.7587330341339112,
                -0.9137682318687439,
                2.383134365081787,
                -1.194179892539978,
                -0.7633148431777954,
                -0.4964737594127655,
                0.645736813545227,
                0.5384147763252258,
                1.265573263168335,
                1.641912579536438,
                -0.24759462475776673,
                1.6813397407531739,
                1.1619303226470948,
                1.5085569620132447,
                -0.259724497795105,
                -0.20577359199523927,
                -0.002765662968158722,
                -0.03813975304365158,
                -0.8892288208007813,
                0.10784886032342911,
                2.359196424484253,
                -1.4399333000183106,
                0.2001027762889862,
                1.4042786359786988,
                0.22543302178382874,
                -0.8527015447616577,
                -0.14555639028549195,
                1.8752820491790772,
                0.5528450608253479,
                -0.4517810046672821,
                -1.6087712049484254,
                0.7718539237976074,
                1.171536922454834,
                0.7576991319656372,
                0.4722336530685425
            ],
            "fitness": 158.74185180664063,
            "npcType": 0
        },
        {
            "layers": [
                8,
                8,
                6,
                4
            ],
            "flattenedWeights": [
                -0.5316086411476135,
                0.2909066081047058,
                0.10715644061565399,
                -0.18565982580184937,
                0.9089686870574951,
                -0.1939869523048401,
                0.8550975322723389,
                -0.39950162172317507,
                -2.18005633354187,
                0.6400820016860962,
                -0.4882727563381195,
                1.235322117805481,
                0.7150598168373108,
                -0.13178864121437074,
                0.19234830141067506,
                0.9105668663978577,
                -1.5557563304901124,
                1.5130950212478638,
                -0.17438465356826783,
                0.4181899130344391,
                1.3940465450286866,
                -0.5966478586196899,
                0.4653167724609375,
                1.6073036193847657,
                0.998904287815094,
                -0.8105179667472839,
                0.38033685088157656,
                -1.4903771877288819,
                0.6935015320777893,
                0.6856951117515564,
                -1.0490837097167969,
                -0.6430813074111939,
                0.28391405940055849,
                0.33920788764953616,
                1.0003372430801392,
                -0.875481367111206,
                -1.2949280738830567,
                1.1086794137954713,
                -0.2035568654537201,
                0.1941714882850647,
                -1.348280906677246,
                -1.9903826713562012,
                -0.4773938059806824,
                -0.9338997602462769,
                1.7248191833496094,
                1.1253929138183594,
                -0.9933040142059326,
                -0.1687929630279541,
                1.7502944469451905,
                1.1162471771240235,
                -0.9473955631256104,
                -1.3370894193649293,
                0.19976189732551576,
                -1.6211190223693848,
                0.004045836627483368,
                1.6493359804153443,
                0.5857555866241455,
                -0.0898301899433136,
                -0.0036783963441848757,
                0.656964123249054,
                -0.8311869502067566,
                -1.857894778251648,
                -1.2853325605392457,
                -0.013072475790977478,
                0.09146210551261902,
                -0.14913082122802735,
                -1.2282135486602784,
                -0.8436338305473328,
                1.6169902086257935,
                1.1876569986343384,
                0.9909684658050537,
                -0.369212806224823,
                0.37643787264823916,
                0.6123203635215759,
                0.5279818773269653,
                -1.3837981224060059,
                -1.5318340063095093,
                -0.0839165523648262,
                -0.12079000473022461,
                -0.7622497081756592,
                0.27948105335235598,
                1.3161259889602662,
                0.5105783343315125,
                0.7336514592170715,
                2.5559048652648927,
                -0.555060863494873,
                0.08747372776269913,
                -0.33380475640296938,
                -0.250475138425827,
                -0.8168863654136658,
                -0.9727967977523804,
                -0.056751929223537448,
                -0.7547528147697449,
                -1.6391266584396363,
                -1.411929726600647,
                0.9504367709159851,
                0.05619731545448303,
                -0.9588298797607422,
                -1.857243537902832,
                -0.0796361193060875,
                -0.7441175580024719,
                1.3782860040664673,
                -0.9308419227600098,
                2.5769217014312746,
                -0.9949142932891846,
                -0.8051625490188599,
                -0.44352102279663088,
                0.48070669174194338,
                0.1914740800857544,
                1.1133397817611695,
                1.5971699953079224,
                -0.27266064286231997,
                1.9151883125305176,
                1.1784095764160157,
                1.4554036855697632,
                -0.3692774772644043,
                0.458488404750824,
                0.1757696568965912,
                0.0709606409072876,
                -0.6033682823181152,
                0.3205651044845581,
                2.622143030166626,
                -1.0156714916229249,
                0.25789737701416018,
                1.3405981063842774,
                0.23361332714557649,
                -0.8086709380149841,
                -0.6148543357849121,
                2.1997344493865969,
                0.4389626383781433,
                -0.27541258931159975,
                -1.8990463018417359,
                0.748223066329956,
                1.072799563407898,
                1.1903525590896607,
                0.3366944491863251
            ],
            "fitness": 122.48422241210938,
            "npcType": 0
        },
        {
            "layers": [
                8,
                8,
                6,
                4
            ],
            "flattenedWeights": [
                -0.40087538957595827,
                0.23945745825767518,
                0.06796449422836304,
                -0.3110865652561188,
                1.0048398971557618,
                -0.14106105268001557,
                0.37398001551628115,
                -0.5525184273719788,
                -2.0611462593078615,
                0.6400820016860962,
                -0.7703272700309753,
                1.2835205793380738,
                0.7610338926315308,
                -0.3439428210258484,
                0.23280847072601319,
                0.43837276101112368,
                -1.4733387231826783,
                1.5070786476135255,
                0.1006184071302414,
                0.5644561052322388,
                1.2473423480987549,
                -0.7319765686988831,
                0.4775094985961914,
                1.636747121810913,
                1.1523780822753907,
                -0.7037187814712524,
                0.4944944977760315,
                -1.5814850330352784,
                0.8194018602371216,
                0.5989322662353516,
                -1.3008793592453004,
                -0.6500470638275147,
                0.37674397230148318,
                0.2400778830051422,
                0.8894612789154053,
                -0.736319363117218,
                -1.2881523370742798,
                1.217407464981079,
                -0.1294116973876953,
                0.44020259380340578,
                -1.2533085346221924,
                -2.5619633197784426,
                -0.45018628239631655,
                -0.9818840622901917,
                1.549850344657898,
                1.3453344106674195,
                -0.8432257175445557,
                -0.15769948065280915,
                1.8275725841522217,
                1.2203119993209839,
                -1.186402678489685,
                -1.3603307008743287,
                -0.2853364944458008,
                -1.8707691431045533,
                0.1339884251356125,
                1.7331619262695313,
                0.029470279812812806,
                -0.12074384838342667,
                0.12213322520256043,
                0.5462836027145386,
                -0.4432925879955292,
                -2.330570936203003,
                -1.1346542835235596,
                0.07859843969345093,
                0.4442143440246582,
                -0.30701595544815066,
                -1.2906899452209473,
                -0.8374186158180237,
                1.7000842094421387,
                0.7151110768318176,
                1.0868128538131714,
                -0.28423652052879336,
                0.46905794739723208,
                1.5475863218307496,
                0.4684069752693176,
                -1.0441542863845826,
                -1.6718947887420655,
                -0.02471400797367096,
                -0.29906463623046877,
                -1.0957250595092774,
                0.16502761840820313,
                1.1017687320709229,
                0.5652271509170532,
                0.8570181131362915,
                1.9040656089782715,
                -0.6500164270401001,
                0.01884486898779869,
                -0.31976211071014407,
                -0.29313868284225466,
                -0.5470300316810608,
                -0.9516348838806152,
                -0.3535934388637543,
                -0.9862146973609924,
                -1.7630037069320679,
                -1.7237299680709839,
                0.710922360420227,
                -0.085565946996212,
                -0.7558082938194275,
                -1.9056637287139893,
                -0.46146345138549807,
                -0.7791126370429993,
                1.8296583890914918,
                -0.7636529207229614,
                2.477670907974243,
                -1.056372046470642,
                -0.6597577333450317,
                -0.47370705008506777,
                0.5412853360176086,
                0.45292535424232485,
                1.0224159955978394,
                1.7170464992523194,
                -0.41670283675193789,
                1.886306881904602,
                1.2040729522705079,
                1.7550991773605347,
                -0.0806192010641098,
                -0.024950843304395677,
                0.07783209532499314,
                0.2722679674625397,
                -0.6033682823181152,
                0.2154093086719513,
                2.745194673538208,
                -1.051095962524414,
                0.1335759460926056,
                1.6255924701690674,
                0.6682605743408203,
                -0.9114555716514587,
                -0.28850293159484866,
                1.8161386251449586,
                0.41230452060699465,
                -0.20795339345932008,
                -1.7716819047927857,
                0.552419900894165,
                1.1268894672393799,
                0.9767454862594605,
                0.3906397819519043
            ],
            "fitness": 117.11515045166016,
            "npcType": 0
        },
        {
            "layers": [
                8,
                8,
                6,
                4
            ],
            "flattenedWeights": [
                -0.2665075659751892,
                0.3406175374984741,
                0.2208559811115265,
                -0.2852930724620819,
                0.9361632466316223,
                0.0752834603190422,
                0.4382224380970001,
                -0.0859956368803978,
                -2.1760947704315187,
                0.5406392812728882,
                -0.5386608839035034,
                1.1477807760238648,
                0.9953848719596863,
                -0.4486438035964966,
                0.4741068482398987,
                0.5925761461257935,
                -1.8120781183242798,
                1.2503514289855958,
                -0.2071913182735443,
                0.46401482820510867,
                1.2709038257598878,
                -0.5671321749687195,
                0.4653167724609375,
                1.686830997467041,
                0.8598395586013794,
                -1.1349585056304932,
                0.40949276089668276,
                -1.615156888961792,
                0.5116249322891235,
                0.5453599691390991,
                -1.3386616706848145,
                -0.7384640574455261,
                0.1872970163822174,
                0.18979361653327943,
                0.9009811282157898,
                -0.7326985001564026,
                -1.3744264841079713,
                0.9454070925712586,
                -0.33953356742858889,
                0.2692470848560333,
                -0.9726338386535645,
                -2.285635471343994,
                -0.5094485282897949,
                -1.197583556175232,
                1.6955949068069459,
                1.4003376960754395,
                -1.0751818418502808,
                -0.07190795242786408,
                1.620439887046814,
                1.1397278308868409,
                -0.8634786605834961,
                -1.2881819009780884,
                0.03866880387067795,
                -1.3302773237228394,
                0.05469188094139099,
                1.6530247926712037,
                0.21367844939231873,
                -0.20500710606575013,
                0.13107988238334657,
                0.7006962895393372,
                -1.0354348421096802,
                -1.963350534439087,
                -1.343756914138794,
                0.3197087049484253,
                0.28437355160713198,
                -0.3119165897369385,
                -1.2791017293930054,
                -0.7900857925415039,
                1.6996349096298218,
                1.2014763355255128,
                1.0062892436981202,
                -0.24776595830917359,
                0.3154039978981018,
                0.6518374681472778,
                0.5857469439506531,
                -1.267467975616455,
                -1.1856268644332886,
                -0.3482728600502014,
                -0.1415960192680359,
                -0.7044163346290588,
                0.38223153352737429,
                1.4801990985870362,
                0.7066090703010559,
                0.8203704357147217,
                2.1783790588378908,
                -0.07591680437326431,
                -0.16629254817962647,
                -0.4953822195529938,
                -0.4615948498249054,
                -0.8743844628334045,
                -1.3905994892120362,
                0.061700090765953067,
                -0.9571655988693237,
                -1.9267363548278809,
                -2.2556769847869875,
                0.9964639544487,
                0.12176941335201264,
                -0.8153582215309143,
                -1.809705376625061,
                -0.5629100203514099,
                -0.6955856084823608,
                1.7587330341339112,
                -1.0211050510406495,
                2.7353200912475588,
                -1.3038734197616578,
                -0.7376106381416321,
                0.06862429529428482,
                0.7243092656135559,
                0.5020033717155457,
                1.6659951210021973,
                1.307773232460022,
                -0.1577000468969345,
                2.052978515625,
                1.1606895923614503,
                1.5071552991867066,
                -0.4175271689891815,
                0.4608820378780365,
                0.02601782977581024,
                -0.02283717319369316,
                -0.850166380405426,
                0.4748995304107666,
                3.1168413162231447,
                -1.456472396850586,
                0.25789737701416018,
                1.4403499364852906,
                0.2771787643432617,
                -0.8695310950279236,
                -0.44591933488845827,
                2.2722439765930177,
                0.3369828462600708,
                -0.22055014967918397,
                -2.051668167114258,
                0.8046346306800842,
                0.9277357459068298,
                0.9416598081588745,
                0.49190008640289309
            ],
            "fitness": 93.5021743774414,
            "npcType": 0
        },
        {
            "layers": [
                8,
                8,
                6,
                4
            ],
            "flattenedWeights": [
                -0.23366549611091615,
                0.288799524307251,
                0.1557336151599884,
                -0.33003026247024538,
                1.1380535364151,
                -0.014594681560993195,
                0.5986244678497315,
                -0.1532329022884369,
                -2.1436753273010256,
                0.7176154255867004,
                -0.7736685872077942,
                0.9181838631629944,
                0.9953848719596863,
                -0.11647140234708786,
                0.029563944786787034,
                0.7150833606719971,
                -1.4874945878982545,
                1.4777734279632569,
                -0.2071913182735443,
                0.4325343668460846,
                1.252972960472107,
                -0.6598297953605652,
                0.642723023891449,
                1.686830997467041,
                1.0774484872817994,
                -1.0922563076019288,
                0.30965936183929446,
                -1.7177519798278809,
                0.8213737607002258,
                0.6255866885185242,
                -1.238770604133606,
                -0.7101823091506958,
                0.21724452078342439,
                0.09813665598630905,
                1.118229627609253,
                -0.38524100184440615,
                -1.2879362106323243,
                1.166446328163147,
                -0.2509750723838806,
                0.3247511088848114,
                -1.0029759407043458,
                -1.8711156845092774,
                -0.5777379870414734,
                -0.8749952912330627,
                1.6306869983673096,
                1.4115352630615235,
                -1.2287330627441407,
                -0.08789507299661637,
                1.6359870433807374,
                1.071642279624939,
                -1.186402678489685,
                -1.3244413137435914,
                -0.24515384435653687,
                -1.793347954750061,
                0.2102888524532318,
                1.5123512744903565,
                0.029470279812812806,
                -0.18947052955627442,
                0.03765220195055008,
                0.7544557452201843,
                -0.2885473966598511,
                -2.5318267345428469,
                -1.162334680557251,
                0.07859843969345093,
                0.3791774809360504,
                -0.4000336825847626,
                -1.1942620277404786,
                -0.8183090090751648,
                1.6870393753051758,
                1.3706457614898682,
                0.9645848274230957,
                -0.3616153299808502,
                0.41375771164894106,
                0.5409500002861023,
                0.38703298568725588,
                -1.4328525066375733,
                -1.4571021795272828,
                -0.5420706272125244,
                -0.07947879284620285,
                -1.1395373344421387,
                0.38223153352737429,
                1.2351558208465577,
                0.6617621183395386,
                0.7560025453567505,
                2.64013671875,
                -0.5656329989433289,
                -0.15140902996063233,
                -0.4413118362426758,
                0.1340639889240265,
                -0.8958621621131897,
                -1.0439320802688599,
                -0.05087915062904358,
                -0.8086344003677368,
                -1.8515684604644776,
                -2.1706480979919435,
                0.9805384278297424,
                -0.13442561030387879,
                -0.7580569982528687,
                -1.7548832893371583,
                -0.32077908515930178,
                -0.7221148610115051,
                1.3361427783966065,
                -0.8394656777381897,
                2.2217891216278078,
                -1.056897521018982,
                -0.4993777275085449,
                0.6541925072669983,
                0.5157965421676636,
                0.5688996911048889,
                1.6086313724517823,
                1.7511664628982545,
                -0.04535301774740219,
                1.7349159717559815,
                1.228500485420227,
                1.5136445760726929,
                -0.009996235370635987,
                0.311577171087265,
                0.07468131929636002,
                0.22421672940254212,
                -0.7311989068984985,
                0.5286288261413574,
                2.923009157180786,
                -1.2048550844192505,
                0.25789737701416018,
                1.5896364450454713,
                0.675483763217926,
                -0.865074098110199,
                -0.5004724860191345,
                2.0031771659851076,
                0.4405295252799988,
                -0.29161369800567629,
                -1.6363847255706788,
                0.9918943047523499,
                1.020948052406311,
                1.052117943763733,
                0.42708393931388857
            ],
            "fitness": 85.51254272460938,
            "npcType": 0
        },
        {
            "layers": [
                8,
                8,
                6,
                4
            ],
            "flattenedWeights": [
                -0.4867386817932129,
                0.30357497930526736,
                0.4005848467350006,
                -0.3110865652561188,
                1.0649800300598145,
                0.01794222742319107,
                0.5092936158180237,
                -0.06995700299739838,
                -2.0843586921691896,
                0.699691891670227,
                -1.1846015453338624,
                1.4325908422470093,
                0.5818853974342346,
                -0.4166926145553589,
                -0.035721298307180408,
                0.5605676174163818,
                -1.5539342164993287,
                1.5150116682052613,
                0.2230929583311081,
                0.4934821128845215,
                1.252972960472107,
                -0.6529806852340698,
                0.6653165221214294,
                1.636747121810913,
                1.0065637826919556,
                -1.158862829208374,
                0.2598751187324524,
                -1.7177519798278809,
                0.6275999546051025,
                0.5989322662353516,
                -1.469346046447754,
                -0.6737430095672607,
                0.37674397230148318,
                0.2400778830051422,
                1.090828776359558,
                -0.803646445274353,
                -1.411512851715088,
                1.217407464981079,
                -0.2645488977432251,
                0.2655102610588074,
                -1.0651016235351563,
                -2.4915528297424318,
                -0.4694390594959259,
                -1.0101293325424195,
                1.477942943572998,
                1.1500664949417115,
                -0.9784295558929443,
                -0.2964586317539215,
                1.5560798645019532,
                1.0683109760284424,
                -1.1388905048370362,
                -1.2362723350524903,
                0.3838818371295929,
                -1.523361086845398,
                0.2098681628704071,
                1.544313669204712,
                0.12942269444465638,
                -0.10931327193975449,
                0.527123212814331,
                0.5995360016822815,
                -0.6665082573890686,
                -1.9516642093658448,
                -1.392712950706482,
                0.07859843969345093,
                0.07496293634176254,
                -0.16189095377922059,
                -1.1037979125976563,
                -0.7531678080558777,
                1.6510223150253297,
                0.7783262729644775,
                0.7192994356155396,
                -0.28423652052879336,
                0.5494804978370667,
                0.6031123399734497,
                0.5355603098869324,
                -1.4057940244674683,
                -1.3237885236740113,
                -0.2900063395500183,
                -0.06209754943847656,
                -0.6958617568016052,
                -0.0745517909526825,
                1.0711697340011597,
                0.6502389311790466,
                0.7951402068138123,
                2.0203988552093508,
                0.12104078382253647,
                0.06141701713204384,
                -0.18925665318965913,
                0.043833885341882709,
                -0.648552656173706,
                -1.083552360534668,
                0.014966674149036408,
                -0.9194086194038391,
                -1.6489605903625489,
                -1.6639388799667359,
                1.113130807876587,
                -0.046568576246500018,
                -0.8487401008605957,
                -1.8316491842269898,
                -0.3727167546749115,
                -0.7791126370429993,
                1.6739197969436646,
                -0.9600952863693237,
                2.7524831295013429,
                -1.0426230430603028,
                -0.6597577333450317,
                -0.4727005958557129,
                0.5416590571403503,
                0.6386871337890625,
                1.1765416860580445,
                1.508116364479065,
                -0.2196512520313263,
                1.765476107597351,
                1.5434874296188355,
                1.5815187692642213,
                -0.0806192010641098,
                -0.024950843304395677,
                0.07783209532499314,
                0.036701224744319919,
                -0.8813247680664063,
                0.2154093086719513,
                3.24062180519104,
                -1.4870885610580445,
                0.20103776454925538,
                1.6255924701690674,
                0.4400903880596161,
                -0.9027085900306702,
                -0.4715498089790344,
                2.16037654876709,
                0.42328786849975588,
                -0.2543896436691284,
                -1.619187593460083,
                0.552419900894165,
                1.1268894672393799,
                0.5649595260620117,
                0.3906397819519043
            ],
            "fitness": 82.3926773071289,
            "npcType": 0
        },
        {
            "layers": [
                8,
                8,
                6,
                4
            ],
            "flattenedWeights": [
                -0.3663700222969055,
                0.10122741013765335,
                0.4048191010951996,
                -0.23261895775794984,
                1.1447639465332032,
                0.1077788695693016,
                0.4136742055416107,
                -0.5525184273719788,
                -2.1781861782073976,
                0.8516885042190552,
                -0.7892854809761047,
                1.0454462766647339,
                0.480037122964859,
                -0.28793415427207949,
                0.45221200585365298,
                0.8205828070640564,
                -1.6644126176834107,
                1.5793726444244385,
                0.10006358474493027,
                0.7000928521156311,
                0.9283396601676941,
                -0.4477302134037018,
                0.555897057056427,
                1.6322683095932007,
                0.915767252445221,
                -1.1490169763565064,
                0.4220159947872162,
                -1.5162240266799927,
                0.4886243939399719,
                0.915188193321228,
                -1.3861234188079835,
                -0.6280031800270081,
                0.5092315673828125,
                0.18065348267555238,
                1.2355704307556153,
                -0.8052966594696045,
                -1.5140244960784913,
                0.9005792737007141,
                -0.3381398320198059,
                0.4948108196258545,
                -1.1097761392593384,
                -2.01918625831604,
                -0.5070831775665283,
                -0.9142311215400696,
                1.744624376296997,
                1.4529253244400025,
                -0.9619804620742798,
                -0.03107868880033493,
                1.8095828294754029,
                1.0049086809158326,
                -1.3140392303466797,
                -1.5667403936386109,
                0.26095399260520937,
                -1.7942670583724976,
                -0.039831407368183139,
                1.8751294612884522,
                0.16360795497894288,
                0.062075063586235049,
                -0.03893785551190376,
                0.5135899186134338,
                -0.5747483968734741,
                -2.4200074672698976,
                -1.2840492725372315,
                0.09534552693367005,
                0.41189056634902956,
                -0.33992111682891848,
                -1.2162503004074097,
                -0.7668420672416687,
                1.8260178565979005,
                0.9897487163543701,
                0.897235631942749,
                -0.3037433624267578,
                0.37643787264823916,
                0.3229018449783325,
                0.5201019048690796,
                -1.3035961389541627,
                -1.393455147743225,
                -0.52992182970047,
                -0.022943757474422456,
                -0.6935831904411316,
                0.10403281450271607,
                0.6281999349594116,
                0.5652271509170532,
                0.7693155407905579,
                2.5516955852508547,
                -0.4657677710056305,
                -0.26700910925865176,
                -0.5375759601593018,
                -0.35727572441101076,
                -0.8334712982177734,
                -1.1328113079071046,
                -0.3404551148414612,
                -0.9639210104942322,
                -1.7908920049667359,
                -1.7430322170257569,
                0.9257172346115112,
                -0.05037891864776611,
                -1.0575519800186158,
                -1.7971290349960328,
                -0.531726598739624,
                -0.7430483102798462,
                1.2394028902053834,
                -0.8149970769882202,
                2.5712215900421144,
                -0.8607996106147766,
                -0.4102650582790375,
                -0.07992832362651825,
                0.6336422562599182,
                0.5020033717155457,
                1.110949993133545,
                1.5102766752243043,
                -0.24759462475776673,
                1.8280507326126099,
                1.151855707168579,
                1.7093770503997803,
                -0.33573099970817568,
                0.5552747845649719,
                0.1251107007265091,
                -0.1148831844329834,
                -0.8596228957176209,
                0.3673996329307556,
                2.862475633621216,
                -1.1271989345550538,
                0.3154062032699585,
                1.6452968120574952,
                0.04825513809919357,
                -0.8038586378097534,
                -0.4688566029071808,
                2.2431252002716066,
                0.48304882645606997,
                -0.1599651277065277,
                -1.6379880905151368,
                0.7566476464271545,
                0.9277357459068298,
                0.9678657054901123,
                0.3208812475204468
            ],
            "fitness": 81.66647338867188,
            "npcType": 0
        },
        {
            "layers": [
                8,
                8,
                6,
                4
            ],
            "flattenedWeights": [
                -0.36073023080825808,
                0.23974166810512544,
                0.08099465072154999,
                -0.3110865652561188,
                0.8902077674865723,
                0.057742513716220859,
                0.49440962076187136,
                -0.3857104182243347,
                -2.005572557449341,
                0.6400820016860962,
                -0.7184398174285889,
                1.2519253492355347,
                0.5818853974342346,
                -0.10147282481193543,
                0.41240447759628298,
                0.46638545393943789,
                -1.533612847328186,
                1.3660078048706055,
                0.034764714539051059,
                0.4934821128845215,
                1.432935118675232,
                -0.717723548412323,
                0.5678977370262146,
                1.636747121810913,
                1.2032991647720338,
                -0.7774260640144348,
                0.2598751187324524,
                -1.4829760789871216,
                0.8226306438446045,
                0.5345453023910523,
                -1.401475191116333,
                -0.6689186692237854,
                0.30703306198120119,
                0.2421151101589203,
                0.6830341219902039,
                -0.8786808848381043,
                -1.411512851715088,
                0.997942328453064,
                -0.24999144673347474,
                0.7448475360870361,
                -1.0029759407043458,
                -2.00323224067688,
                -0.35289907455444338,
                -1.0685197114944459,
                1.8217048645019532,
                1.3884272575378419,
                -1.0519810914993287,
                -0.11889145523309708,
                1.6898330450057984,
                1.2171505689620972,
                -1.1388905048370362,
                -1.3864259719848633,
                -0.20797422528266908,
                -1.670181155204773,
                -0.029584970325231553,
                1.5676883459091187,
                0.27168789505958559,
                -0.09869091212749481,
                0.3715972304344177,
                0.6848776936531067,
                -0.5636956691741943,
                -2.330570936203003,
                -1.3707996606826783,
                0.07859843969345093,
                0.4444480538368225,
                -0.3182139992713928,
                -1.273475170135498,
                -0.8183090090751648,
                1.6510223150253297,
                0.754042387008667,
                0.7167232036590576,
                -0.29854413866996767,
                0.40990984439849856,
                0.5608125925064087,
                0.5556387901306152,
                -1.420306921005249,
                -1.4919477701187134,
                -0.02471400797367096,
                -0.09336218982934952,
                -0.6943327188491821,
                0.25010308623313906,
                1.0488874912261963,
                0.7007792592048645,
                0.7145661115646362,
                2.1295788288116457,
                0.14216558635234834,
                0.025812529027462007,
                -0.12440034002065659,
                0.08497084677219391,
                -0.5470300316810608,
                -0.9913259148597717,
                -0.07298015803098679,
                -0.9504753947257996,
                -1.8404450416564942,
                -1.6889898777008057,
                1.2964917421340943,
                -0.15225961804389954,
                -0.8487401008605957,
                -1.8316491842269898,
                -0.3098340630531311,
                -0.7791126370429993,
                1.800944447517395,
                -0.9308419227600098,
                2.215137004852295,
                -0.9601951241493225,
                -0.6729141473770142,
                -0.5530068278312683,
                0.45190900564193728,
                0.36809736490249636,
                1.1360056400299073,
                1.673875331878662,
                -0.34500011801719668,
                1.8389462232589722,
                1.44321608543396,
                1.5639369487762452,
                -0.06172388419508934,
                -0.02130090817809105,
                0.07783209532499314,
                0.01585809513926506,
                -0.3469497859477997,
                0.5489539504051209,
                2.7174878120422365,
                -1.0822502374649048,
                0.20103776454925538,
                1.6255924701690674,
                0.3436608612537384,
                -0.8521461486816406,
                -0.41490793228149416,
                2.233046770095825,
                0.31777700781822207,
                -0.29161369800567629,
                -2.020772695541382,
                0.8610619306564331,
                1.1268894672393799,
                0.7392153143882752,
                0.2007928490638733
            ],
            "fitness": 81.61519622802735,
            "npcType": 0
        },
        {
            "layers": [
                8,
                8,
                6,
                4
            ],
            "flattenedWeights": [
                -0.2665075659751892,
                0.10515882074832916,
                0.15485186874866486,
                -0.2852930724620819,
                0.8724910616874695,
                0.01794222742319107,
                0.43071550130844118,
                -0.10801577568054199,
                -2.1099395751953127,
                0.6762714385986328,
                -0.5673993229866028,
                0.929601788520813,
                1.0004842281341553,
                -0.29220160841941836,
                0.30690833926200869,
                0.7150833606719971,
                -1.6536086797714234,
                1.055688738822937,
                -0.18480780720710755,
                0.4089638292789459,
                1.0102523565292359,
                -0.830018162727356,
                0.6644763350486755,
                1.7731322050094605,
                0.915767252445221,
                -1.1349585056304932,
                0.37119942903518679,
                -1.5786348581314088,
                0.8358724117279053,
                0.6136817932128906,
                -1.3667811155319214,
                -0.5702933669090271,
                0.13997414708137513,
                0.35164889693260195,
                0.9286187291145325,
                -0.5262089371681213,
                -1.428826928138733,
                1.1511532068252564,
                -0.33953356742858889,
                0.47661077976226809,
                -0.9726338386535645,
                -2.1582257747650148,
                -0.23899391293525697,
                -1.002489686012268,
                1.427612543106079,
                1.2377172708511353,
                -0.9312695264816284,
                -0.10193143784999848,
                1.6694445610046387,
                1.051048994064331,
                -0.8942981958389282,
                -1.5045710802078248,
                -0.39375001192092898,
                -1.7942670583724976,
                -0.01591009646654129,
                1.6530247926712037,
                0.14296111464500428,
                -0.23541030287742616,
                0.20215415954589845,
                0.7123955488204956,
                -0.6742705702781677,
                -1.963350534439087,
                -1.1386021375656129,
                0.1492772102355957,
                0.28642624616622927,
                -0.3833717107772827,
                -1.4672229290008546,
                -0.909756600856781,
                1.566443681716919,
                0.9587927460670471,
                1.0713856220245362,
                -0.5931530594825745,
                0.3400030732154846,
                1.404640555381775,
                0.5745076537132263,
                -1.521526575088501,
                -1.1856268644332886,
                -0.5245023369789124,
                -0.12869620323181153,
                -1.2882088422775269,
                0.00830543041229248,
                0.8603273034095764,
                0.6710068583488464,
                0.6686685681343079,
                2.4608044624328615,
                0.10531356930732727,
                -0.010254282504320145,
                -0.15083295106887818,
                -0.40031367540359499,
                -0.8743844628334045,
                -1.2148644924163819,
                -0.03818618506193161,
                -0.9571655988693237,
                -1.8579308986663819,
                -1.7610864639282227,
                1.060172438621521,
                -0.10249461233615875,
                -0.8487401008605957,
                -1.4548699855804444,
                -0.5412872433662415,
                -0.7837139964103699,
                1.7587330341339112,
                -1.0211050510406495,
                2.720752239227295,
                -1.056897521018982,
                -0.43918052315711977,
                -0.1079728901386261,
                0.6206053495407105,
                0.6433146595954895,
                1.6659951210021973,
                1.6279093027114869,
                -0.20764654874801637,
                1.5609056949615479,
                1.1606895923614503,
                1.467603325843811,
                -0.07182475924491883,
                0.4608820378780365,
                0.12771306931972505,
                -0.03813975304365158,
                -0.7058990001678467,
                0.5168116688728333,
                3.0572962760925295,
                -1.4222935438156129,
                0.25789737701416018,
                1.4339672327041627,
                0.3532800078392029,
                -0.9796779155731201,
                -0.1874537467956543,
                1.9876306056976319,
                0.5028513073921204,
                -0.3977378010749817,
                -1.9805115461349488,
                0.7082670331001282,
                1.2115942239761353,
                0.8928362131118774,
                0.4660504460334778
            ],
            "fitness": 81.52387237548828,
            "npcType": 0
        }
    ],
    "timestamp": "2025-06-15 05:26:11"
}