{
    "generation": 505,
    "bestFitness": 116.83985900878906,
    "averageFitness": 56.238887786865237,
    "worstFitness": 36.52468490600586,
    "networks": [
        {
            "layers": [
                8,
                8,
                6,
                4
            ],
            "flattenedWeights": [
                -0.13506270945072175,
                -0.05272211134433746,
                1.07353675365448,
                -0.04533791169524193,
                0.6121665239334106,
                0.5484781861305237,
                1.0014829635620118,
                -0.3109031021595001,
                -2.106773853302002,
                1.0073137283325196,
                -0.8919731974601746,
                1.3900965452194214,
                1.087570309638977,
                -0.2159251570701599,
                0.6741269826889038,
                0.5858354568481445,
                -1.2308670282363892,
                1.0860644578933716,
                -0.2643960118293762,
                0.6724528670310974,
                1.463038444519043,
                -0.5354598760604858,
                1.1288918256759644,
                1.8350837230682374,
                1.389330506324768,
                -1.0869390964508057,
                0.47311103343963625,
                -1.1964308023452759,
                0.2680184841156006,
                1.2409261465072632,
                -1.3697947263717652,
                -0.7528319954872131,
                -0.014375947415828705,
                0.15868359804153443,
                0.6165916323661804,
                -1.0358610153198243,
                -0.771435022354126,
                0.8368232846260071,
                -0.09668805450201035,
                -0.026306942105293275,
                -1.3479312658309937,
                -2.232041835784912,
                0.031038641929626466,
                -0.7338427901268005,
                1.9275230169296265,
                0.8064736723899841,
                -0.9988192915916443,
                -0.791094958782196,
                1.6603903770446778,
                1.2375426292419434,
                -0.8508161306381226,
                -1.7155444622039796,
                0.1187932938337326,
                -1.8926619291305543,
                0.4755072593688965,
                2.004782199859619,
                -0.10606218874454498,
                -0.560112714767456,
                0.07688038796186447,
                0.8496569991111755,
                -0.9773229956626892,
                -1.8560014963150025,
                -1.5238922834396363,
                0.04045266658067703,
                0.4849500358104706,
                -0.6594200134277344,
                -0.8275880813598633,
                -0.47739923000335696,
                1.3982692956924439,
                0.9999436736106873,
                0.948340117931366,
                0.3118830919265747,
                0.7381923198699951,
                1.4197629690170289,
                0.16885557770729066,
                -0.7997085452079773,
                -0.9819618463516235,
                -0.651582658290863,
                -0.3659992218017578,
                -0.9537760615348816,
                -0.15755361318588258,
                0.9858675003051758,
                0.7026091814041138,
                0.5049765706062317,
                2.7003979682922365,
                -0.04749543219804764,
                0.5683225393295288,
                -0.3614662289619446,
                -0.31960034370422366,
                -1.0566039085388184,
                -1.250675082206726,
                0.032504335045814517,
                -0.7463154792785645,
                -2.0370216369628908,
                -2.0671026706695558,
                0.6544107794761658,
                -0.14623019099235536,
                -0.6398316621780396,
                -1.7664293050765992,
                -0.04497505724430084,
                -1.4112470149993897,
                0.834135890007019,
                -0.9777942895889282,
                1.8826366662979127,
                -0.49342942237854006,
                -0.5794360637664795,
                -0.42288750410079958,
                0.9689818620681763,
                0.6250766515731812,
                1.345159649848938,
                1.2253667116165162,
                -0.03695401921868324,
                2.060642957687378,
                1.3615038394927979,
                1.5921473503112794,
                0.11132711917161942,
                0.40947771072387698,
                0.3640560507774353,
                0.4176599383354187,
                -0.8623954653739929,
                0.337043434381485,
                2.576242446899414,
                -0.9526247382164002,
                0.03819718211889267,
                0.9840243458747864,
                0.22096332907676698,
                -0.7488189339637756,
                -0.5704311728477478,
                2.6240172386169435,
                0.43526968359947207,
                -0.2964338958263397,
                -2.155407667160034,
                0.7089593410491943,
                0.4739486873149872,
                0.7290238738059998,
                -0.28820616006851199
            ],
            "fitness": 116.83985900878906,
            "npcType": 0
        },
        {
            "layers": [
                8,
                8,
                6,
                4
            ],
            "flattenedWeights": [
                -0.13506270945072175,
                0.5189501643180847,
                0.827605664730072,
                -0.08554881811141968,
                0.7637259364128113,
                0.608985185623169,
                0.17099866271018983,
                -0.29232093691825869,
                -1.8513953685760499,
                1.024827480316162,
                -0.9506283402442932,
                1.3456138372421265,
                0.9754459857940674,
                -0.12857070565223695,
                0.5669259428977966,
                0.4836435914039612,
                -1.132025122642517,
                0.9988495111465454,
                -0.2643960118293762,
                0.4989197850227356,
                1.4275383949279786,
                -0.44767022132873537,
                0.8002680540084839,
                1.8816438913345338,
                1.3892930746078492,
                -1.0411889553070069,
                0.46617716550827029,
                -1.5459750890731812,
                0.42481735348701479,
                0.7562457919120789,
                -1.3697947263717652,
                -0.7077634334564209,
                -0.09157812595367432,
                -0.24334874749183656,
                0.8093066215515137,
                -0.948832094669342,
                -0.8192373514175415,
                0.973957896232605,
                -0.33556291460990908,
                -0.025903571397066118,
                -1.259662389755249,
                -2.320563554763794,
                -0.15429885685443879,
                -0.6622452139854431,
                2.137049436569214,
                0.8961057066917419,
                -0.9930346608161926,
                -1.0487043857574463,
                2.037632942199707,
                1.3045852184295655,
                -0.6751235723495483,
                -1.2819762229919434,
                0.12403417378664017,
                -1.9142497777938843,
                0.2747071385383606,
                1.4351640939712525,
                -0.10606218874454498,
                -0.6289108395576477,
                -0.18536992371082307,
                0.8496569991111755,
                -0.8402804732322693,
                -1.8505281209945679,
                -1.119471788406372,
                0.07844583690166474,
                0.47593647241592409,
                -0.6633142232894898,
                -0.8715807199478149,
                -1.4622161388397217,
                1.296619176864624,
                1.068619966506958,
                0.8520511984825134,
                0.276538610458374,
                0.8050041794776917,
                1.7151693105697632,
                0.82839035987854,
                -1.0197246074676514,
                -0.8319263458251953,
                -0.44601771235466006,
                -0.303291380405426,
                -0.9537760615348816,
                -0.13934442400932313,
                0.9984853863716126,
                0.6986352205276489,
                0.5251436829566956,
                2.7041685581207277,
                -0.04749543219804764,
                0.6154776811599731,
                -0.20257733762264253,
                -0.3915117383003235,
                -0.8549943566322327,
                -1.677037239074707,
                0.10249970108270645,
                -0.8228462934494019,
                -2.050072431564331,
                -2.103638172149658,
                0.3637009561061859,
                -0.14623019099235536,
                -1.0524312257766724,
                -1.8293774127960206,
                0.17764118313789369,
                -1.4818912744522095,
                0.7738099098205566,
                -0.9777942895889282,
                1.9407517910003663,
                -0.5863998532295227,
                -0.720192015171051,
                -0.7681190371513367,
                0.9689818620681763,
                0.5480941534042358,
                1.2729487419128419,
                1.162832260131836,
                0.009492587298154831,
                1.8183977603912354,
                1.284559965133667,
                1.5921473503112794,
                0.2293628454208374,
                0.2776963412761688,
                0.206091970205307,
                0.4176599383354187,
                -0.9322704076766968,
                0.26863518357276919,
                2.5319230556488039,
                -0.7058686017990112,
                -0.004364617168903351,
                1.0067229270935059,
                -0.4463883638381958,
                -0.5893984436988831,
                -0.6651068329811096,
                2.686929225921631,
                0.6593467593193054,
                -0.3015730381011963,
                -2.0218141078948976,
                0.7522178888320923,
                0.35570213198661806,
                0.8275861740112305,
                0.1920168399810791
            ],
            "fitness": 116.81468963623047,
            "npcType": 0
        },
        {
            "layers": [
                8,
                8,
                6,
                4
            ],
            "flattenedWeights": [
                -0.14853714406490327,
                0.5189501643180847,
                0.827605664730072,
                -0.061376988887786868,
                0.7638717293739319,
                0.7027890086174011,
                0.9391529560089111,
                -0.3740219473838806,
                -1.8407825231552125,
                0.7185847759246826,
                -0.6214762330055237,
                1.3424214124679566,
                1.1953871250152588,
                -0.08469344675540924,
                0.6065425872802734,
                0.6228122711181641,
                -1.3124535083770753,
                1.0071101188659669,
                -0.10627595335245133,
                0.7487367391586304,
                1.4383490085601807,
                0.1778552085161209,
                1.028198003768921,
                2.125490427017212,
                1.4142279624938965,
                -1.0411889553070069,
                0.7877967357635498,
                -1.5970525741577149,
                0.33071109652519228,
                0.6894972324371338,
                -1.8753130435943604,
                -0.8674919605255127,
                0.039410464465618137,
                -0.14473474025726319,
                0.8168801665306091,
                -1.2100969552993775,
                -0.9127088785171509,
                0.973957896232605,
                0.08451848477125168,
                -0.025903571397066118,
                -1.0749791860580445,
                -2.3569438457489015,
                -0.08649995177984238,
                -1.0572487115859986,
                1.9744110107421876,
                0.8131265044212341,
                -1.0195225477218629,
                -0.5979305505752564,
                1.8554291725158692,
                0.9718522429466248,
                -0.7297361493110657,
                -1.7779499292373658,
                0.1471099704504013,
                -2.1116299629211427,
                0.31436464190483096,
                1.9471449851989747,
                -0.15578848123550416,
                -0.6049314141273499,
                0.043011151254177096,
                0.9132180213928223,
                -0.7545318007469177,
                -1.8446420431137086,
                -1.0593287944793702,
                0.04045266658067703,
                0.14102685451507569,
                -0.6750790476799011,
                -0.8275880813598633,
                -1.4460961818695069,
                1.3636406660079957,
                1.1012775897979737,
                0.7252019047737122,
                0.2242400050163269,
                0.5750541090965271,
                1.6952909231185914,
                0.9196339845657349,
                -1.0766640901565552,
                -0.8319263458251953,
                -0.5416572093963623,
                -0.3767249584197998,
                -0.9881534576416016,
                -0.13934442400932313,
                0.912550687789917,
                0.741462230682373,
                0.5251436829566956,
                3.153825521469116,
                0.038013964891433719,
                0.5655708312988281,
                -0.2676638662815094,
                -0.24110685288906098,
                -1.0208779573440552,
                -1.677037239074707,
                -0.03870844095945358,
                -0.7685563564300537,
                -2.083904504776001,
                -1.8481082916259766,
                0.3637009561061859,
                0.1494745910167694,
                -0.9925436973571777,
                -2.2362499237060549,
                -0.12250881642103195,
                -1.4818912744522095,
                0.9253281950950623,
                -0.8181069493293762,
                1.8744566440582276,
                -0.5771999359130859,
                -0.7824622988700867,
                -0.7705994844436646,
                1.1442357301712037,
                0.24436107277870179,
                1.4227250814437867,
                1.1534126996994019,
                0.01502794399857521,
                2.0669214725494386,
                1.0600610971450806,
                1.7143852710723878,
                0.1473434716463089,
                0.1910034418106079,
                0.26098501682281496,
                0.4323524534702301,
                -0.981132447719574,
                0.3010956048965454,
                2.547335147857666,
                -1.0110089778900147,
                -0.07738272845745087,
                1.0067229270935059,
                -0.29936331510543826,
                -0.7113580703735352,
                -0.6962996125221252,
                2.566685199737549,
                0.6620756387710571,
                -0.23106113076210023,
                -2.0243754386901857,
                0.7292389869689941,
                0.5268068313598633,
                0.6183805465698242,
                0.19354347884655
            ],
            "fitness": 116.762451171875,
            "npcType": 0
        },
        {
            "layers": [
                8,
                8,
                6,
                4
            ],
            "flattenedWeights": [
                -0.04050382971763611,
                0.5189501643180847,
                0.9880911707878113,
                -0.02648231014609337,
                0.6121665239334106,
                -0.10818576067686081,
                1.0014829635620118,
                -0.3109031021595001,
                -1.8037550449371338,
                0.9125786423683167,
                -0.950028121471405,
                1.2913117408752442,
                1.095638632774353,
                -0.14306479692459107,
                0.5713303685188294,
                0.7095807790756226,
                -1.2713475227355958,
                1.2274491786956788,
                -0.12303544580936432,
                0.6255824565887451,
                1.3541569709777833,
                -0.5148095488548279,
                1.223384976387024,
                1.8581701517105103,
                1.3441119194030762,
                -1.0599251985549927,
                0.7771032452583313,
                -1.3637231588363648,
                0.254558801651001,
                1.2571617364883423,
                -1.8260821104049683,
                -0.7926921248435974,
                0.038537755608558658,
                0.00988578051328659,
                0.6116182804107666,
                -1.0027070045471192,
                -0.8522803783416748,
                0.8368232846260071,
                -0.14863651990890504,
                -0.026306942105293275,
                -1.4270955324172974,
                -2.298921823501587,
                -0.0562903955578804,
                -0.7144572138786316,
                1.9275230169296265,
                0.8015103340148926,
                -0.8763038516044617,
                -0.7950339913368225,
                2.126145124435425,
                1.0497344732284547,
                -0.8849706053733826,
                -1.472724437713623,
                0.37872669100761416,
                -1.9805760383605958,
                0.3145354986190796,
                1.537934422492981,
                -0.019405074417591096,
                -0.4473075866699219,
                0.0939595177769661,
                0.6095148921012878,
                -0.835249662399292,
                -2.092552900314331,
                -1.5355503559112549,
                0.04045266658067703,
                0.31926730275154116,
                -0.6448758244514465,
                -0.8275880813598633,
                -0.5899399518966675,
                1.2211438417434693,
                0.9803242683410645,
                0.8847138285636902,
                0.7016996741294861,
                0.46179595589637759,
                1.4582128524780274,
                0.3738575577735901,
                -0.8109657764434815,
                -0.8483273386955261,
                -0.5759686827659607,
                -0.3659992218017578,
                -0.9489611983299255,
                0.017222240567207338,
                0.912550687789917,
                0.6885168552398682,
                0.5677291750907898,
                2.6309988498687746,
                -0.012453090399503708,
                0.5410531163215637,
                -0.4633199870586395,
                -0.2786473035812378,
                -1.030303955078125,
                -1.615631103515625,
                0.07996552437543869,
                -0.6019139885902405,
                -2.0833663940429689,
                -2.1216936111450197,
                0.3637009561061859,
                0.12409336119890213,
                -0.6187554001808167,
                -2.1592330932617189,
                0.16086822748184205,
                -1.026859164237976,
                0.7766066789627075,
                -0.9016736745834351,
                1.8465029001235963,
                -0.598438560962677,
                -0.720192015171051,
                -0.9523217082023621,
                1.1973862648010255,
                0.4152451455593109,
                1.5807833671569825,
                1.3135625123977662,
                0.014247719198465348,
                1.987715482711792,
                1.0831408500671387,
                1.4599486589431763,
                0.20370233058929444,
                0.24343809485435487,
                0.18976914882659913,
                0.485470175743103,
                -0.9322704076766968,
                -0.03933466598391533,
                2.5319230556488039,
                -1.0425610542297364,
                0.1812712848186493,
                0.9206970930099487,
                0.3007809519767761,
                -0.8350816965103149,
                -0.506030797958374,
                2.5065066814422609,
                0.486091673374176,
                -0.025967493653297426,
                -1.856865406036377,
                1.306440830230713,
                0.6621115207672119,
                0.8623107075691223,
                -0.30109506845474245
            ],
            "fitness": 81.69600677490235,
            "npcType": 0
        },
        {
            "layers": [
                8,
                8,
                6,
                4
            ],
            "flattenedWeights": [
                -0.13506270945072175,
                0.46312764286994936,
                1.031727910041809,
                -0.027621876448392869,
                0.6121665239334106,
                -0.211993008852005,
                0.909633219242096,
                -0.3161688446998596,
                -2.106773853302002,
                0.7579360008239746,
                -1.0428593158721924,
                0.88329017162323,
                1.1953871250152588,
                -0.14306479692459107,
                0.6741269826889038,
                0.5858354568481445,
                -1.3124535083770753,
                1.0860644578933716,
                -0.11748164892196655,
                0.8151369690895081,
                1.1285396814346314,
                -0.5354598760604858,
                1.1160176992416382,
                1.909167766571045,
                1.4142279624938965,
                -1.0599251985549927,
                0.9667330980300903,
                -1.701068639755249,
                0.3251706063747406,
                1.2587761878967286,
                -1.9614509344100953,
                -0.9022209048271179,
                0.06534747779369354,
                -0.14473474025726319,
                0.6642839312553406,
                -1.0461139678955079,
                -0.771435022354126,
                0.8368232846260071,
                -0.2513101398944855,
                0.038854148238897327,
                -0.802964448928833,
                -2.232041835784912,
                -0.08649995177984238,
                -1.3650482892990113,
                1.839246153831482,
                0.7373756766319275,
                -1.0417546033859254,
                -0.8032733201980591,
                1.6039090156555176,
                1.2249666452407838,
                -0.8508161306381226,
                -1.696265459060669,
                0.44768473505973818,
                -1.8926619291305543,
                0.3121495842933655,
                1.9183902740478516,
                -0.10606218874454498,
                -0.5893893837928772,
                -0.025974273681640626,
                0.9283729791641235,
                -0.7545318007469177,
                -2.1933135986328127,
                -1.5238922834396363,
                0.09066908061504364,
                0.09109767526388169,
                -0.6594200134277344,
                -0.9951377511024475,
                -0.5837451815605164,
                1.3636406660079957,
                1.0549391508102418,
                0.9481462240219116,
                0.6901549696922302,
                0.5750541090965271,
                1.7376196384429932,
                0.3151184320449829,
                -1.0766640901565552,
                -1.0042755603790284,
                -0.7538115978240967,
                -0.34606698155403139,
                -0.8935229182243347,
                -0.15705657005310059,
                0.9132897257804871,
                0.7457508444786072,
                0.5975171327590942,
                3.13332200050354,
                -0.1447046548128128,
                0.4456421136856079,
                -0.20697125792503358,
                -0.2786473035812378,
                -1.0566039085388184,
                -1.6500056982040406,
                -0.04524018615484238,
                -0.8997248411178589,
                -2.059295177459717,
                -2.0441930294036867,
                0.7015678882598877,
                -0.03267500549554825,
                -0.5540172457695007,
                -2.2564589977264406,
                -0.12250881642103195,
                -1.1243798732757569,
                0.834135890007019,
                -1.5450149774551392,
                1.8972952365875245,
                -0.49342942237854006,
                -0.6399533748626709,
                -0.6661900281906128,
                1.3723909854888917,
                0.18257659673690797,
                1.5014218091964722,
                1.3148903846740723,
                -0.09537658840417862,
                2.1945507526397707,
                1.336003065109253,
                1.568711757659912,
                0.17675825953483582,
                0.1910034418106079,
                0.29773715138435366,
                0.5567901134490967,
                -0.981132447719574,
                -0.07870598137378693,
                2.915952444076538,
                -0.6659326553344727,
                0.07148601114749909,
                0.9840243458747864,
                0.250467449426651,
                -0.8444360494613648,
                -0.6343404054641724,
                2.536980628967285,
                0.43526968359947207,
                -0.23106113076210023,
                -2.0243754386901857,
                0.7292389869689941,
                0.616436779499054,
                0.8135091662406921,
                0.019329890608787538
            ],
            "fitness": 81.64453125,
            "npcType": 0
        },
        {
            "layers": [
                8,
                8,
                6,
                4
            ],
            "flattenedWeights": [
                -0.14853714406490327,
                0.46312764286994936,
                0.8337427973747253,
                -0.021438177675008775,
                0.7413066029548645,
                0.7027890086174011,
                0.9127920269966126,
                -0.3161688446998596,
                -1.783677339553833,
                0.7551743388175964,
                -1.0138864517211915,
                1.4699938297271729,
                1.0549556016921998,
                -0.14306479692459107,
                0.7367833256721497,
                0.5923268795013428,
                -1.1674189567565919,
                1.0071101188659669,
                -0.10619723796844483,
                0.8151369690895081,
                1.9223127365112305,
                0.12286437302827835,
                0.8928472399711609,
                1.9872798919677735,
                1.4550665616989136,
                -0.6138849854469299,
                0.3856511414051056,
                -1.701068639755249,
                0.38276171684265139,
                0.7211381196975708,
                -1.5509530305862427,
                -0.777097761631012,
                0.03541260212659836,
                0.4094296395778656,
                0.5792121887207031,
                -1.1034067869186402,
                -0.8260585069656372,
                1.1050145626068116,
                0.12449997663497925,
                0.038854148238897327,
                -0.8854841589927673,
                -2.3569438457489015,
                0.05231575667858124,
                -1.0572487115859986,
                1.8818156719207764,
                0.8649148941040039,
                -1.06081223487854,
                -0.6789272427558899,
                1.8554291725158692,
                1.1170271635055543,
                -0.7297361493110657,
                -1.696265459060669,
                0.4269411265850067,
                -1.6577492952346802,
                0.40764832496643069,
                1.9471449851989747,
                -0.10606218874454498,
                -0.5566089153289795,
                -0.08070750534534455,
                0.9132180213928223,
                -0.6339154243469238,
                -2.143674850463867,
                -1.166854977607727,
                -0.14663854241371156,
                0.13044415414333344,
                -0.721228837966919,
                -1.14345121383667,
                -0.5001832842826843,
                1.3853702545166016,
                1.1012775897979737,
                0.8992651104927063,
                0.2828403413295746,
                0.7282681465148926,
                1.5130928754806519,
                0.8324620127677918,
                -1.0634686946868897,
                -1.2143667936325074,
                -0.7538115978240967,
                -0.303291380405426,
                -0.8125405311584473,
                -0.02614663541316986,
                0.987746000289917,
                0.741462230682373,
                0.41521939635276797,
                3.0343010425567629,
                -0.13587535917758943,
                0.8787411451339722,
                -0.1890120506286621,
                -0.2857578992843628,
                -0.7977432608604431,
                -1.6500056982040406,
                -0.0523613765835762,
                -0.6999403238296509,
                -2.059295177459717,
                -2.016505002975464,
                0.4396921992301941,
                -0.09792715311050415,
                -0.794001579284668,
                -2.2540156841278078,
                -0.16453462839126588,
                -1.2019175291061402,
                0.7587122321128845,
                -1.0876524448394776,
                1.763140320777893,
                -0.7578573822975159,
                -0.7150919437408447,
                -0.694664716720581,
                1.1105244159698487,
                0.5938164591789246,
                1.4227250814437867,
                1.1534126996994019,
                0.06071542203426361,
                2.111976385116577,
                1.0154051780700684,
                1.6531339883804322,
                0.17675825953483582,
                0.2120320200920105,
                0.3612518310546875,
                0.3577495515346527,
                -0.8973924517631531,
                0.032986488193273547,
                2.915952444076538,
                -1.0110089778900147,
                0.0012599863111972809,
                0.9381206631660461,
                -0.27666977047920229,
                -0.6306900382041931,
                -0.6512563824653626,
                1.996372103691101,
                0.6085928678512573,
                0.07796993106603623,
                -2.026350736618042,
                0.7292389869689941,
                0.44047391414642336,
                0.5770847797393799,
                -0.04341369867324829
            ],
            "fitness": 81.53101348876953,
            "npcType": 0
        },
        {
            "layers": [
                8,
                8,
                6,
                4
            ],
            "flattenedWeights": [
                -0.19272366166114808,
                -0.05272211134433746,
                0.9880911707878113,
                0.00633075088262558,
                0.5529804229736328,
                -0.10818576067686081,
                1.0014829635620118,
                -0.1648070514202118,
                -1.8034076690673829,
                0.7981551289558411,
                -1.002998948097229,
                1.4204351902008057,
                0.8317631483078003,
                -0.14306479692459107,
                0.726116418838501,
                0.5340183973312378,
                -1.2713475227355958,
                1.0869852304458619,
                -0.12303544580936432,
                0.6982412934303284,
                1.4915318489074708,
                0.029248028993606569,
                0.9628196954727173,
                1.8816438913345338,
                1.4683868885040284,
                -1.1579307317733765,
                0.4936838746070862,
                -1.4014246463775635,
                0.3344460129737854,
                1.0856285095214844,
                -1.7364896535873414,
                -0.8208553791046143,
                0.038537755608558658,
                0.299451619386673,
                0.6116182804107666,
                -1.0027070045471192,
                -0.8788121342658997,
                1.168816328048706,
                -0.14863651990890504,
                -0.026306942105293275,
                -1.2145792245864869,
                -2.352213144302368,
                0.005819845944643021,
                -0.7338427901268005,
                2.0258359909057619,
                0.5878787040710449,
                -0.984712541103363,
                -0.9027654528617859,
                2.1378228664398195,
                1.095570683479309,
                -0.8442728519439697,
                -1.4161009788513184,
                0.3485400080680847,
                -1.9805760383605958,
                0.18654701113700868,
                1.7375750541687012,
                -0.08990263938903809,
                -0.4554648995399475,
                0.07374492287635803,
                0.5443885922431946,
                -0.835249662399292,
                -2.092552900314331,
                -1.1796493530273438,
                0.04045266658067703,
                0.1748189926147461,
                -0.6464211344718933,
                -0.8204494118690491,
                -0.5389515161514282,
                1.2798357009887696,
                1.0671989917755128,
                1.029412865638733,
                0.7633545398712158,
                0.7572318911552429,
                1.404162049293518,
                0.49201953411102297,
                -0.7407974004745483,
                -0.9315174221992493,
                -0.6195669174194336,
                -0.4039326012134552,
                -0.9537760615348816,
                -0.24232152104377747,
                1.015907645225525,
                0.7764471769332886,
                0.5251436829566956,
                3.1827900409698488,
                -0.3888932466506958,
                0.5683225393295288,
                -0.16714027523994447,
                -0.2786473035812378,
                -0.9318409562110901,
                -1.677037239074707,
                0.15346942842006684,
                -0.6320923566818237,
                -2.038761615753174,
                -2.252000570297241,
                0.7744983434677124,
                0.12409336119890213,
                -0.7547412514686585,
                -1.9951157569885255,
                -0.08889403194189072,
                -1.4112470149993897,
                0.8642676472663879,
                -0.9016736745834351,
                1.8651049137115479,
                -0.46687158942222597,
                -0.7365889549255371,
                -0.8737828731536865,
                0.9847651720046997,
                0.04517451673746109,
                1.588839054107666,
                1.4095731973648072,
                -0.21890518069267274,
                1.9808229207992554,
                1.0831408500671387,
                1.6478021144866944,
                0.3137282431125641,
                0.18183913826942445,
                0.2233753502368927,
                0.39034008979797366,
                -1.0049248933792115,
                -0.1560230255126953,
                2.5327813625335695,
                -0.8176366090774536,
                0.03544212132692337,
                0.8210182785987854,
                -0.2845298647880554,
                -0.7112495303153992,
                -0.7901371717453003,
                2.6237428188323976,
                0.7267343401908875,
                -0.2964338958263397,
                -2.2055280208587648,
                1.306440830230713,
                0.7346477508544922,
                0.6226842403411865,
                -0.30109506845474245
            ],
            "fitness": 81.50521850585938,
            "npcType": 0
        },
        {
            "layers": [
                8,
                8,
                6,
                4
            ],
            "flattenedWeights": [
                -0.17861752212047578,
                0.4729229807853699,
                1.0576092004776,
                0.10957888513803482,
                0.5382270812988281,
                0.5936083793640137,
                0.9555180072784424,
                -0.28192681074142458,
                -2.106773853302002,
                0.7029243111610413,
                -0.6871576905250549,
                1.3746861219406129,
                0.9958168268203735,
                -0.19257718324661256,
                0.7367833256721497,
                0.6139829754829407,
                -1.4173619747161866,
                1.1560405492782593,
                -0.11748164892196655,
                0.8151369690895081,
                1.3465782403945923,
                0.1778552085161209,
                0.7871439456939697,
                2.125490427017212,
                1.4142279624938965,
                -0.6138849854469299,
                0.5252134203910828,
                -1.701068639755249,
                0.41382867097854617,
                0.6633965373039246,
                -1.5509530305862427,
                -0.9970458745956421,
                0.038537755608558658,
                -0.07147899270057678,
                0.627366304397583,
                -1.0027070045471192,
                -0.8413326144218445,
                0.9046980738639832,
                0.12449997663497925,
                0.038854148238897327,
                -0.8387309312820435,
                -2.1353726387023927,
                -0.11031892895698548,
                -1.2840856313705445,
                2.025796890258789,
                0.7711739540100098,
                -1.0195225477218629,
                -0.5882512927055359,
                1.8554291725158692,
                1.2809572219848633,
                -0.9026206135749817,
                -1.696265459060669,
                0.5091161131858826,
                -2.1116299629211427,
                0.3145354986190796,
                1.905877709388733,
                -0.13771426677703858,
                -0.6127809286117554,
                -0.15221655368804933,
                0.8625627160072327,
                -0.7545318007469177,
                -1.8688056468963624,
                -1.166854977607727,
                -0.010938696563243866,
                0.14102685451507569,
                -0.5799859166145325,
                -0.8617957234382629,
                -0.6788286566734314,
                1.5291565656661988,
                1.1012775897979737,
                0.8026324510574341,
                0.34030449390411379,
                0.5750541090965271,
                1.7376196384429932,
                0.4940055012702942,
                -1.1389195919036866,
                -0.9821863770484924,
                -0.5331842303276062,
                -0.3564242720603943,
                -1.1694074869155884,
                -0.031997956335544589,
                1.1528775691986085,
                0.741462230682373,
                0.41521939635276797,
                3.105393648147583,
                -0.3185661733150482,
                0.6101248860359192,
                -0.2204214632511139,
                -0.16020500659942628,
                -0.93744957447052,
                -1.6500056982040406,
                -0.013866983354091645,
                -0.8997248411178589,
                -2.0833663940429689,
                -2.1401290893554689,
                0.45588696002960207,
                0.1553945392370224,
                -0.7923367619514465,
                -2.301206588745117,
                -0.12250881642103195,
                -1.1243798732757569,
                0.834135890007019,
                -0.8181069493293762,
                1.6779568195343018,
                -0.6310692429542542,
                -0.7042443752288818,
                -0.6661900281906128,
                1.0014034509658814,
                0.18257659673690797,
                1.5014218091964722,
                1.1534126996994019,
                0.031191013753414155,
                1.6947129964828492,
                1.267943263053894,
                1.5826915502548218,
                0.3749914765357971,
                0.1910034418106079,
                0.4131147265434265,
                0.5567901134490967,
                -0.981132447719574,
                -0.12211456894874573,
                2.915952444076538,
                -1.0110089778900147,
                0.0012599863111972809,
                0.9044943451881409,
                -0.26317909359931948,
                -0.7113580703735352,
                -0.6787018775939941,
                2.2673728466033937,
                0.6802809834480286,
                -0.24265152215957642,
                -2.044069290161133,
                0.7673799395561218,
                0.5268068313598633,
                0.7258652448654175,
                -0.04341369867324829
            ],
            "fitness": 81.45830535888672,
            "npcType": 0
        },
        {
            "layers": [
                8,
                8,
                6,
                4
            ],
            "flattenedWeights": [
                -0.09345262497663498,
                0.03371608257293701,
                0.8859187960624695,
                -0.1324172168970108,
                0.749241292476654,
                0.5690855383872986,
                0.17099866271018983,
                -0.29232093691825869,
                -2.042221784591675,
                0.7135360836982727,
                -0.8494656682014465,
                1.2879551649093629,
                1.092886209487915,
                0.16630819439888,
                0.5877265930175781,
                0.4836435914039612,
                -1.3301481008529664,
                0.9504053592681885,
                -0.14224570989608766,
                0.26898571848869326,
                1.6335673332214356,
                0.013614609837532044,
                0.980113685131073,
                2.1666343212127687,
                1.3247489929199219,
                -1.0257139205932618,
                0.48300933837890627,
                -1.2744309902191163,
                0.648838996887207,
                0.856523334980011,
                -1.473031759262085,
                -1.0707813501358033,
                0.23496291041374207,
                0.4387423098087311,
                0.6233373284339905,
                -0.9877663850784302,
                -0.8688427805900574,
                0.9306326508522034,
                -0.09668805450201035,
                0.058634884655475619,
                -1.2865711450576783,
                -2.3675312995910646,
                0.13448666036128999,
                -1.0681442022323609,
                2.137049436569214,
                0.15291330218315125,
                -1.0272854566574097,
                -0.7544786930084229,
                1.604695200920105,
                1.0532245635986329,
                -0.7194538712501526,
                -1.7971988916397095,
                0.29120612144470217,
                -1.9732842445373536,
                0.4755072593688965,
                1.985541820526123,
                -0.03497234731912613,
                -0.39742326736450198,
                -0.021194010972976686,
                0.7506634593009949,
                -0.93040531873703,
                -2.0948874950408937,
                -1.090743899345398,
                -0.03554206341505051,
                0.22368763387203217,
                -0.518187940120697,
                -0.9906580448150635,
                -0.5661302208900452,
                1.2349940538406373,
                1.1360552310943604,
                0.9436485171318054,
                0.2590433359146118,
                0.8928313851356506,
                1.7172333002090455,
                0.4612884521484375,
                -1.2742888927459717,
                -0.8566555380821228,
                -0.6585261821746826,
                -0.25089552998542788,
                -1.1518605947494507,
                0.12205643206834793,
                0.904280424118042,
                0.5308903455734253,
                0.4368950128555298,
                2.7047767639160158,
                -0.1491628885269165,
                0.7174669504165649,
                -0.38693034648895266,
                -0.19619478285312653,
                -0.8646754026412964,
                -1.6610944271087647,
                0.06278039515018463,
                -0.7463154792785645,
                -2.206444263458252,
                -1.8069610595703126,
                0.37530651688575747,
                -0.19580671191215516,
                -0.7114484906196594,
                -2.136394500732422,
                0.25366711616516116,
                -1.0123282670974732,
                0.91607266664505,
                -1.062307596206665,
                1.869031310081482,
                -1.0520137548446656,
                -0.5714439749717712,
                -0.5566558241844177,
                1.2541608810424805,
                0.18083453178405763,
                1.4506447315216065,
                1.2300719022750855,
                -0.0932917594909668,
                1.777008295059204,
                1.3347879648208619,
                1.5760138034820557,
                0.2440975457429886,
                0.15166857838630677,
                0.5227543711662293,
                0.3402407169342041,
                -0.9667168855667114,
                0.21080759167671204,
                2.944464921951294,
                -1.1327952146530152,
                0.022060401737689973,
                0.7486215233802795,
                -0.4463883638381958,
                -0.6375488042831421,
                -0.592602550983429,
                2.376641273498535,
                0.8658754229545593,
                -0.008185073733329773,
                -2.197425603866577,
                0.7860233783721924,
                0.5195169448852539,
                0.6069781184196472,
                0.1920168399810791
            ],
            "fitness": 81.35645294189453,
            "npcType": 0
        },
        {
            "layers": [
                8,
                8,
                6,
                4
            ],
            "flattenedWeights": [
                -0.0867215096950531,
                -0.05272211134433746,
                1.031727910041809,
                0.06922806799411774,
                0.6121665239334106,
                -0.15102165937423707,
                1.0014829635620118,
                -0.3109031021595001,
                -2.106773853302002,
                0.7981551289558411,
                -1.0140985250473023,
                1.3216898441314698,
                1.1679418087005616,
                -0.2159251570701599,
                0.6741269826889038,
                0.5858354568481445,
                -1.185199499130249,
                1.0860644578933716,
                -0.11748164892196655,
                0.6635264158248901,
                1.2268257141113282,
                -0.5354598760604858,
                1.167145013809204,
                1.909167766571045,
                1.354748249053955,
                -1.0599251985549927,
                0.47311103343963625,
                -1.2606110572814942,
                0.3251706063747406,
                1.2561686038970948,
                -1.8753130435943604,
                -0.7926921248435974,
                -0.02205570787191391,
                0.15868359804153443,
                0.6923295855522156,
                -1.0739121437072755,
                -0.771435022354126,
                0.8183343410491943,
                -0.18024654686450959,
                -0.026306942105293275,
                -1.4392757415771485,
                -2.232041835784912,
                -0.14056113362312318,
                -1.215204119682312,
                2.0006585121154787,
                0.49123677611351015,
                -0.9608981013298035,
                -0.827296793460846,
                1.6603903770446778,
                1.2451567649841309,
                -0.8366984724998474,
                -1.4918962717056275,
                0.44768473505973818,
                -1.8835980892181397,
                0.3121495842933655,
                1.773497223854065,
                -0.013714350759983063,
                -0.560112714767456,
                -0.025974273681640626,
                0.6377087235450745,
                -0.9773229956626892,
                -2.0048961639404299,
                -1.5238922834396363,
                0.04045266658067703,
                0.23302248120307923,
                -0.6594200134277344,
                -0.8275880813598633,
                -0.6093935370445252,
                1.3982692956924439,
                0.9863208532333374,
                1.0398920774459839,
                0.6901549696922302,
                0.502056896686554,
                1.4582128524780274,
                0.3738575577735901,
                -0.7823717594146729,
                -0.9764332175254822,
                -0.4907255172729492,
                -0.3659992218017578,
                -0.9537760615348816,
                -0.2108325958251953,
                0.9687632322311401,
                0.7026091814041138,
                0.5049765706062317,
                3.13332200050354,
                -0.4640703499317169,
                0.6472171545028687,
                -0.4130392372608185,
                -0.2786473035812378,
                -1.0566039085388184,
                -1.677037239074707,
                0.024392515420913698,
                -0.6320923566818237,
                -2.0370216369628908,
                -2.0671026706695558,
                0.6772206425666809,
                -0.0750616043806076,
                -0.6398316621780396,
                -2.2564589977264406,
                -0.03632078319787979,
                -1.3162957429885865,
                0.834135890007019,
                -1.5450149774551392,
                1.8972952365875245,
                -0.48308002948760989,
                -0.6167283058166504,
                -0.4845542907714844,
                1.421296238899231,
                0.5048304796218872,
                1.5014218091964722,
                1.3148903846740723,
                -0.09537658840417862,
                2.060642957687378,
                1.3615038394927979,
                1.568711757659912,
                0.30292195081710818,
                -0.17244946956634522,
                0.29773715138435366,
                0.33335360884666445,
                -0.8782075047492981,
                -0.02243710309267044,
                2.5319230556488039,
                -0.6659326553344727,
                -0.034849341958761218,
                0.9840243458747864,
                0.21455545723438264,
                -0.7488189339637756,
                -0.5704311728477478,
                2.536980628967285,
                0.43526968359947207,
                -0.23268604278564454,
                -2.153844118118286,
                0.7354611754417419,
                0.6475136876106262,
                0.7831765413284302,
                -0.28820616006851199
            ],
            "fitness": 80.05186462402344,
            "npcType": 0
        }
    ],
    "timestamp": "2025-06-15 05:56:18"
}