{
    "generation": 5,
    "bestFitness": 97.88142395019531,
    "averageFitness": 49.45256805419922,
    "worstFitness": 0.0,
    "networks": [
        {
            "layers": [
                8,
                8,
                6,
                4
            ],
            "flattenedWeights": [
                0.21289324760437013,
                1.0483899116516114,
                -0.6309149265289307,
                0.348143070936203,
                -0.09260529279708862,
                1.2295889854431153,
                -0.971179723739624,
                -0.9658882021903992,
                0.8779222369194031,
                0.9337601065635681,
                0.07750233262777329,
                -0.9333507418632507,
                -0.21578168869018556,
                -0.2359521985054016,
                0.1766090989112854,
                -0.9848970174789429,
                0.0239071324467659,
                -0.6351828575134277,
                -0.21910405158996583,
                0.987389862537384,
                0.9352623224258423,
                1.0590693950653077,
                0.49631640315055849,
                -0.06301141530275345,
                0.1336670219898224,
                0.5732564330101013,
                -0.3036487400531769,
                0.4166921079158783,
                0.08049941807985306,
                -0.35230976343154909,
                0.6470389366149902,
                -0.42327961325645449,
                -0.28501224517822268,
                -0.008316054940223694,
                1.0220632553100587,
                -1.1572222709655762,
                -0.2494933307170868,
                -0.9503273963928223,
                -0.8242916464805603,
                0.26033660769462588,
                0.45695310831069949,
                0.41996416449546816,
                0.21830102801322938,
                -0.355385422706604,
                0.6922869682312012,
                1.244754433631897,
                -0.07098653167486191,
                0.6926556825637817,
                0.5516550540924072,
                -0.8118795156478882,
                0.013350598514080048,
                0.49138930439949038,
                0.1515810787677765,
                0.35960936546325686,
                0.08682451397180557,
                0.6423192620277405,
                0.0972534716129303,
                -0.41124090552330019,
                -0.17081031203269959,
                0.7268279194831848,
                1.0845446586608887,
                0.6487966179847717,
                0.7720006108283997,
                0.06213942915201187,
                0.3254190683364868,
                0.5091056227684021,
                -0.14821568131446839,
                1.0099436044692994,
                -1.3603407144546509,
                -1.4823698997497559,
                -0.3728550970554352,
                0.4062199890613556,
                0.679425060749054,
                1.3653347492218018,
                0.7679054737091065,
                -0.040808357298374179,
                0.1603827327489853,
                -0.3205866813659668,
                0.6647294163703919,
                -0.26950570940971377,
                -0.6021657586097717,
                0.4722159504890442,
                -0.8597198128700256,
                -0.27052953839302065,
                0.7542455792427063,
                0.3833666443824768,
                -1.1534819602966309,
                -0.5735750794410706,
                -0.4836180806159973,
                -0.42894816398620608,
                0.7386674880981445,
                -0.1242605671286583,
                -0.09908489137887955,
                0.14400720596313477,
                -1.246019721031189,
                1.0765528678894044,
                -0.26064786314964297,
                -0.20803174376487733,
                0.014083370566368103,
                0.5354177951812744,
                0.3847188353538513,
                -0.23573574423789979,
                -0.7467947006225586,
                0.20966792106628419,
                -0.38785916566848757,
                0.045618221163749698,
                -1.1497180461883546,
                -0.08024033159017563,
                -0.09484419226646424,
                0.6698909997940064,
                0.14537319540977479,
                1.0174323320388795,
                -0.7848398089408875,
                -0.8825080394744873,
                -0.4087778627872467,
                -0.5348055362701416,
                1.1548835039138795,
                0.7875450253486633,
                0.5823507905006409,
                -0.11680474877357483,
                0.7661008238792419,
                0.226572185754776,
                0.5135313272476196,
                0.4259759187698364,
                -0.11212307214736939,
                0.28382569551467898,
                -0.11563216149806977,
                0.7093953490257263,
                -0.4398729205131531,
                0.8660850524902344,
                0.45982226729393008,
                0.6894386410713196,
                1.1526304483413697,
                -0.23961013555526734,
                0.5201469659805298,
                0.4975985288619995
            ],
            "fitness": 97.88142395019531,
            "timeAlive": 8.470630645751954,
            "totalDistance": 17.611507415771486,
            "successfulJumps": 3,
            "checkpointsReached": 0,
            "uniqueAreasVisited": 5,
            "activeWeightsCount": 135,
            "weightComplexity": 0.9926470518112183,
            "outputLockStatus": [
                false,
                false,
                false,
                false
            ],
            "correctJumps": 3,
            "incorrectJumps": 0,
            "explorationEfficiency": 0.2839052975177765
        },
        {
            "layers": [
                8,
                8,
                6,
                4
            ],
            "flattenedWeights": [
                0.21289324760437013,
                0.9691063761711121,
                -0.6309149265289307,
                0.348143070936203,
                -0.12967044115066529,
                1.2295889854431153,
                -0.9058597683906555,
                -0.972018301486969,
                0.822711169719696,
                0.9967912435531616,
                0.03519833832979202,
                -0.8969763517379761,
                -0.3091735541820526,
                -0.11507897078990936,
                0.17237314581871034,
                -0.9848970174789429,
                0.0239071324467659,
                -0.6756398677825928,
                -0.24984844028949738,
                0.9182558059692383,
                0.9352623224258423,
                1.0196977853775025,
                0.5711749196052551,
                -0.15894988179206849,
                0.1336670219898224,
                0.6061689853668213,
                -0.2534292936325073,
                0.3198932111263275,
                0.1710744947195053,
                -0.3724915385246277,
                0.4873446822166443,
                -0.49414148926734927,
                -0.3357805609703064,
                0.07523422688245774,
                1.0921337604522706,
                -1.1572222709655762,
                -0.2981153726577759,
                -0.9231712222099304,
                -0.8140089511871338,
                0.26033660769462588,
                0.45695310831069949,
                0.5360660552978516,
                0.1354309320449829,
                -0.355385422706604,
                0.692425549030304,
                1.244754433631897,
                -0.06443856656551361,
                0.6255252361297607,
                0.49373218417167666,
                -0.8505251407623291,
                0.013350598514080048,
                0.49138930439949038,
                0.20197683572769166,
                0.3044022023677826,
                0.08682451397180557,
                0.6423192620277405,
                0.0972534716129303,
                -0.3905147612094879,
                -0.17081031203269959,
                0.7268279194831848,
                0.9635065793991089,
                0.7363938689231873,
                0.7720006108283997,
                0.09203153103590012,
                0.3254190683364868,
                0.5175607204437256,
                0.010324377566576004,
                1.0099436044692994,
                -1.3484996557235718,
                -1.4823698997497559,
                -0.2834702432155609,
                0.4062199890613556,
                0.6728678941726685,
                1.4673457145690919,
                0.7136257290840149,
                -0.1190674901008606,
                0.1603827327489853,
                -0.3205866813659668,
                0.7009734511375427,
                -0.29171794652938845,
                -0.6477394104003906,
                0.4411136507987976,
                -1.0295829772949219,
                -0.27052953839302065,
                0.6721925735473633,
                0.40486592054367068,
                -1.1534819602966309,
                -0.5735750794410706,
                -0.4836180806159973,
                -0.46259623765945437,
                0.7721326947212219,
                -0.21688120067119599,
                -0.12661708891391755,
                0.14400720596313477,
                -1.1674391031265259,
                0.9945158958435059,
                -0.31347373127937319,
                -0.20803174376487733,
                -0.05758758634328842,
                0.5354177951812744,
                0.3204122483730316,
                -0.19045472145080567,
                -0.6626651287078857,
                0.20966792106628419,
                -0.38785916566848757,
                0.1413452923297882,
                -1.2337533235549927,
                -0.17867812514305116,
                -0.1421581208705902,
                0.5757874846458435,
                0.14537319540977479,
                1.1573536396026612,
                -0.8524705171585083,
                -0.8825080394744873,
                -0.3212262988090515,
                -0.6429051756858826,
                1.1548835039138795,
                0.7618335485458374,
                0.5823507905006409,
                -0.1868901550769806,
                0.6697991490364075,
                0.3037358522415161,
                0.5135313272476196,
                0.39413875341415408,
                -0.12661588191986085,
                0.28382569551467898,
                -0.03675953298807144,
                0.87486732006073,
                -0.4398729205131531,
                0.856899082660675,
                0.45982226729393008,
                0.7706430554389954,
                1.142709732055664,
                -0.21052286028862,
                0.5959977507591248,
                0.4975985288619995
            ],
            "fitness": 94.86537170410156,
            "timeAlive": 6.388768196105957,
            "totalDistance": 13.568059921264649,
            "successfulJumps": 3,
            "checkpointsReached": 0,
            "uniqueAreasVisited": 5,
            "activeWeightsCount": 136,
            "weightComplexity": 1.0,
            "outputLockStatus": [
                false,
                false,
                false,
                false
            ],
            "correctJumps": 3,
            "incorrectJumps": 0,
            "explorationEfficiency": 0.36851251125335696
        },
        {
            "layers": [
                8,
                8,
                6,
                4
            ],
            "flattenedWeights": [
                0.25565701723098757,
                1.0483899116516114,
                -0.6991968750953674,
                0.348143070936203,
                -0.059459052979946139,
                1.2411160469055176,
                -0.8225081562995911,
                -0.9540786743164063,
                0.822711169719696,
                1.0575567483901978,
                -0.017717767506837846,
                -0.9961260557174683,
                -0.33829259872436526,
                0.10941062122583389,
                0.8951919674873352,
                -0.94915771484375,
                0.04660079628229141,
                -0.4658908545970917,
                -0.48425883054733279,
                0.882276713848114,
                1.013637661933899,
                1.1124778985977173,
                0.614569365978241,
                -0.2907505929470062,
                0.1336670219898224,
                0.5406709313392639,
                -0.27647536993026736,
                0.3198932111263275,
                0.07904572039842606,
                -0.3724915385246277,
                0.5190240740776062,
                -0.40511444211006167,
                -0.2917393743991852,
                0.07523422688245774,
                0.7996731400489807,
                -1.1572222709655762,
                -0.3011864125728607,
                -0.9907669425010681,
                -0.7987309694290161,
                0.1807355284690857,
                0.39416617155075076,
                0.4629596769809723,
                0.13018867373466493,
                -0.355385422706604,
                0.5551807880401611,
                1.2542798519134522,
                -0.14923420548439027,
                0.6794481873512268,
                0.5972774028778076,
                -0.6663275957107544,
                0.061451807618141177,
                0.4645126461982727,
                0.26772060990333559,
                0.2917388677597046,
                0.05297144874930382,
                0.7223297357559204,
                0.0972534716129303,
                -0.449917197227478,
                -0.2525138854980469,
                0.6546586751937866,
                1.021864652633667,
                0.7998248934745789,
                0.8638930916786194,
                0.12825268507003785,
                0.4349921643733978,
                0.4422815442085266,
                -0.057672228664159778,
                1.0803226232528687,
                -1.4274972677230836,
                -1.4044243097305298,
                -0.21270713210105897,
                0.4509570002555847,
                0.6728678941726685,
                1.3077545166015626,
                0.7612394690513611,
                -0.16012680530548097,
                0.1603827327489853,
                -0.3203486502170563,
                0.9102393984794617,
                -0.12134795635938645,
                -0.6986017227172852,
                0.5510262250900269,
                -0.8911170363426209,
                -0.11219259351491928,
                0.6118685007095337,
                0.3283481001853943,
                -1.2348216772079468,
                -0.6668035984039307,
                -0.657068133354187,
                -0.33076637983322146,
                0.7841275930404663,
                -0.3628830313682556,
                -0.023921899497509004,
                0.23687627911567689,
                -1.3421260118484498,
                0.9882924556732178,
                -0.23054800927639008,
                -0.1370789110660553,
                0.014083370566368103,
                0.6377286911010742,
                0.4097144305706024,
                -0.2613162696361542,
                -0.6626651287078857,
                0.01238597184419632,
                -0.38785916566848757,
                0.08993154019117356,
                -1.1159441471099854,
                -0.27679401636123659,
                -0.10381673276424408,
                0.6245684623718262,
                0.14537319540977479,
                1.0065630674362183,
                -0.7848398089408875,
                -0.8738547563552856,
                -0.3587222695350647,
                -0.5949944257736206,
                1.0994019508361817,
                0.8341790437698364,
                0.7216241359710693,
                -0.24932929873466493,
                0.4679200053215027,
                0.2279905080795288,
                0.6761610507965088,
                0.4495205581188202,
                -0.09569308161735535,
                0.3759424090385437,
                -0.11440123617649079,
                0.8388035297393799,
                -0.8342799544334412,
                0.664336621761322,
                0.4740307927131653,
                0.5928764939308167,
                1.659364938735962,
                -0.20972658693790437,
                0.7095301747322083,
                0.47934457659721377
            ],
            "fitness": 94.86441802978516,
            "timeAlive": 6.388768196105957,
            "totalDistance": 13.568060874938965,
            "successfulJumps": 3,
            "checkpointsReached": 0,
            "uniqueAreasVisited": 5,
            "activeWeightsCount": 136,
            "weightComplexity": 1.0,
            "outputLockStatus": [
                false,
                false,
                false,
                false
            ],
            "correctJumps": 3,
            "incorrectJumps": 0,
            "explorationEfficiency": 0.36851251125335696
        },
        {
            "layers": [
                8,
                8,
                6,
                4
            ],
            "flattenedWeights": [
                0.3450906276702881,
                0.9629091024398804,
                -0.7586206197738648,
                0.348143070936203,
                -0.10639607906341553,
                1.2411160469055176,
                -0.8225081562995911,
                -0.9540786743164063,
                0.8591291308403015,
                0.8841947913169861,
                -0.017717767506837846,
                -0.9961260557174683,
                -0.33829259872436526,
                -0.013897988945245743,
                0.8951919674873352,
                -0.94915771484375,
                0.04660079628229141,
                -0.37485745549201968,
                -0.48425883054733279,
                0.8266730904579163,
                1.0817317962646485,
                1.1144332885742188,
                0.5491215586662293,
                -0.27522408962249758,
                0.13807858526706696,
                0.5406709313392639,
                -0.27647536993026736,
                0.3198932111263275,
                0.07584832608699799,
                -0.43482837080955508,
                0.6041711568832398,
                -0.40511444211006167,
                -0.24933134019374848,
                0.07523422688245774,
                0.8758453130722046,
                -1.1572222709655762,
                -0.34920385479927065,
                -0.9907669425010681,
                -0.7399984002113342,
                0.09986285120248795,
                0.29787132143974306,
                0.4629596769809723,
                0.05334322899580002,
                -0.355385422706604,
                0.5507053732872009,
                1.2950574159622193,
                -0.14923420548439027,
                0.6750490069389343,
                0.4702027440071106,
                -0.731926679611206,
                0.061451807618141177,
                0.49138930439949038,
                0.2588741183280945,
                0.2699553370475769,
                0.05297144874930382,
                0.7223297357559204,
                0.0972534716129303,
                -0.449917197227478,
                -0.2525138854980469,
                0.7358313202857971,
                1.021864652633667,
                0.7998248934745789,
                0.8638930916786194,
                0.11955906450748444,
                0.4349921643733978,
                0.4422815442085266,
                -0.05960524454712868,
                0.9583949446678162,
                -1.468165397644043,
                -1.4044243097305298,
                -0.21270713210105897,
                0.37801963090896609,
                0.7087490558624268,
                1.2093998193740845,
                0.7612394690513611,
                -0.16012680530548097,
                0.0979723110795021,
                -0.3275243639945984,
                0.9102393984794617,
                -0.14598307013511659,
                -0.6986017227172852,
                0.5510262250900269,
                -0.8911170363426209,
                -0.11219259351491928,
                0.5891371965408325,
                0.3283481001853943,
                -1.2348216772079468,
                -0.7068953514099121,
                -0.5586073398590088,
                -0.33076637983322146,
                0.7212942838668823,
                -0.3628830313682556,
                -0.06469368189573288,
                0.20047004520893098,
                -1.3421260118484498,
                0.9882924556732178,
                -0.23054800927639008,
                -0.1370789110660553,
                0.014083370566368103,
                0.7234249711036682,
                0.3204122483730316,
                -0.1815432608127594,
                -0.6626651287078857,
                0.047776516526937488,
                -0.38785916566848757,
                0.08993154019117356,
                -1.1159441471099854,
                -0.17867812514305116,
                -0.09484419226646424,
                0.6245684623718262,
                0.14537319540977479,
                1.0978609323501588,
                -0.7848398089408875,
                -0.8825080394744873,
                -0.3988572359085083,
                -0.5949944257736206,
                1.0994019508361817,
                0.8341790437698364,
                0.7216241359710693,
                -0.274440735578537,
                0.4679200053215027,
                0.2279905080795288,
                0.6761610507965088,
                0.5239264965057373,
                -0.12570875883102418,
                0.2502433657646179,
                -0.11440123617649079,
                0.8313546776771545,
                -0.8342799544334412,
                0.7042734622955322,
                0.43505504727363589,
                0.5915689468383789,
                1.659364938735962,
                -0.1226322129368782,
                0.6666764616966248,
                0.47934457659721377
            ],
            "fitness": 94.69158172607422,
            "timeAlive": 6.388768196105957,
            "totalDistance": 13.259509086608887,
            "successfulJumps": 3,
            "checkpointsReached": 0,
            "uniqueAreasVisited": 5,
            "activeWeightsCount": 136,
            "weightComplexity": 1.0,
            "outputLockStatus": [
                false,
                false,
                false,
                false
            ],
            "correctJumps": 3,
            "incorrectJumps": 0,
            "explorationEfficiency": 0.37708786129951479
        },
        {
            "layers": [
                8,
                8,
                6,
                4
            ],
            "flattenedWeights": [
                0.3728330135345459,
                1.0170767307281495,
                -0.7586206197738648,
                0.348143070936203,
                -0.12967044115066529,
                1.170458436012268,
                -0.8225081562995911,
                -0.9204666614532471,
                0.822711169719696,
                0.959442675113678,
                -0.017717767506837846,
                -0.9961260557174683,
                -0.33829259872436526,
                0.05991256609559059,
                0.8951919674873352,
                -0.94915771484375,
                0.04660079628229141,
                -0.4658908545970917,
                -0.48425883054733279,
                0.8266730904579163,
                1.0440943241119385,
                1.1526920795440674,
                0.614569365978241,
                -0.34897828102111819,
                0.1336670219898224,
                0.5406709313392639,
                -0.30204007029533389,
                0.3198932111263275,
                0.10837440192699433,
                -0.36545976996421816,
                0.443913996219635,
                -0.40511444211006167,
                -0.24933134019374848,
                0.07523422688245774,
                0.8758453130722046,
                -1.1572222709655762,
                -0.25523117184638979,
                -0.9907669425010681,
                -0.7997629046440125,
                0.1807355284690857,
                0.21657449007034303,
                0.534557580947876,
                0.1354309320449829,
                -0.3880712687969208,
                0.5034026503562927,
                1.2619390487670899,
                -0.14923420548439027,
                0.6794481873512268,
                0.5655444264411926,
                -0.6663275957107544,
                0.061451807618141177,
                0.49138930439949038,
                0.251898854970932,
                0.28980815410614016,
                0.05297144874930382,
                0.7223297357559204,
                0.0972534716129303,
                -0.37845560908317568,
                -0.2525138854980469,
                0.7358313202857971,
                0.94843989610672,
                0.7998248934745789,
                0.8638930916786194,
                0.11955906450748444,
                0.4349921643733978,
                0.4422815442085266,
                -0.05960524454712868,
                0.96861732006073,
                -1.468165397644043,
                -1.4504963159561158,
                -0.21270713210105897,
                0.4209984838962555,
                0.673904538154602,
                1.3077545166015626,
                0.7791661024093628,
                -0.16012680530548097,
                0.1603827327489853,
                -0.3203486502170563,
                0.9102393984794617,
                -0.14598307013511659,
                -0.6986017227172852,
                0.6274681687355042,
                -0.9084323644638062,
                -0.21187981963157655,
                0.6118685007095337,
                0.3283481001853943,
                -1.2348216772079468,
                -0.7217743396759033,
                -0.5586073398590088,
                -0.33076637983322146,
                0.7220280766487122,
                -0.3628830313682556,
                -0.04398713260889053,
                0.20047004520893098,
                -1.3200453519821168,
                0.9882924556732178,
                -0.23054800927639008,
                -0.1370789110660553,
                0.005335040390491486,
                0.7234249711036682,
                0.40917614102363589,
                -0.1815432608127594,
                -0.6593163013458252,
                0.05939734727144241,
                -0.38785916566848757,
                0.12244048714637757,
                -1.1159441471099854,
                -0.17867812514305116,
                -0.09484419226646424,
                0.6778343319892883,
                0.05425532907247543,
                1.0065630674362183,
                -0.7848398089408875,
                -0.8825080394744873,
                -0.33909767866134646,
                -0.5949944257736206,
                1.0994019508361817,
                0.8341790437698364,
                0.7517099380493164,
                -0.3101373612880707,
                0.3840416669845581,
                0.2279905080795288,
                0.6761610507965088,
                0.4495205581188202,
                -0.1561369001865387,
                0.28382569551467898,
                -0.06066231057047844,
                0.8313546776771545,
                -0.8915531039237976,
                0.7502322793006897,
                0.43505504727363589,
                0.5197712182998657,
                1.659364938735962,
                -0.20535902678966523,
                0.6666764616966248,
                0.47934457659721377
            ],
            "fitness": 74.4769287109375,
            "timeAlive": 5.977851867675781,
            "totalDistance": 12.020428657531739,
            "successfulJumps": 2,
            "checkpointsReached": 0,
            "uniqueAreasVisited": 4,
            "activeWeightsCount": 135,
            "weightComplexity": 0.9926470518112183,
            "outputLockStatus": [
                false,
                false,
                false,
                false
            ],
            "correctJumps": 2,
            "incorrectJumps": 0,
            "explorationEfficiency": 0.3327668309211731
        },
        {
            "layers": [
                8,
                8,
                6,
                4
            ],
            "flattenedWeights": [
                0.3450906276702881,
                1.0483899116516114,
                -0.5857468843460083,
                0.348143070936203,
                -0.12967044115066529,
                1.2411160469055176,
                -0.8225081562995911,
                -0.972018301486969,
                0.8896220326423645,
                1.0462642908096314,
                0.17485707998275758,
                -0.8969763517379761,
                -0.3091735541820526,
                -0.11507897078990936,
                0.17237314581871034,
                -0.94915771484375,
                0.04660079628229141,
                -0.5037867426872253,
                -0.48425883054733279,
                0.8266730904579163,
                1.0817317962646485,
                1.0196977853775025,
                0.5711749196052551,
                -0.2907505929470062,
                0.1336670219898224,
                0.6061689853668213,
                -0.3393712341785431,
                0.3198932111263275,
                0.07904572039842606,
                -0.3572348952293396,
                0.5190240740776062,
                -0.5855193138122559,
                -0.3357805609703064,
                0.07523422688245774,
                1.0220632553100587,
                -1.1572222709655762,
                -0.2494933307170868,
                -0.9727995991706848,
                -0.7399984002113342,
                0.09113959223031998,
                0.454598605632782,
                0.4629596769809723,
                0.1095685362815857,
                -0.355385422706604,
                0.5507053732872009,
                1.2950574159622193,
                -0.14923420548439027,
                0.6255252361297607,
                0.5604949593544006,
                -0.6663275957107544,
                0.061451807618141177,
                0.4041266441345215,
                0.251898854970932,
                0.2917388677597046,
                0.016379311680793763,
                0.5556811690330505,
                0.07205526530742645,
                -0.4927300214767456,
                -0.2525138854980469,
                0.7358313202857971,
                0.9635065793991089,
                0.809316098690033,
                0.7720006108283997,
                0.11955906450748444,
                0.3254190683364868,
                0.4422815442085266,
                0.010324377566576004,
                1.0420093536376954,
                -1.468165397644043,
                -1.4044243097305298,
                -0.2969554662704468,
                0.4062199890613556,
                0.6728678941726685,
                1.5103060007095338,
                0.7136257290840149,
                -0.19170284271240235,
                0.1603827327489853,
                -0.4068796634674072,
                0.7417293787002564,
                -0.14598307013511659,
                -0.6477394104003906,
                0.4722159504890442,
                -0.9630587697029114,
                -0.11219259351491928,
                0.6118685007095337,
                0.3833666443824768,
                -1.1534819602966309,
                -0.5735750794410706,
                -0.4246487021446228,
                -0.5222170352935791,
                0.7721326947212219,
                -0.3628830313682556,
                -0.1492665559053421,
                0.20047004520893098,
                -1.1674391031265259,
                0.9945158958435059,
                -0.23054800927639008,
                -0.27348747849464419,
                0.06461289525032044,
                0.6171658039093018,
                0.3683917224407196,
                -0.19045472145080567,
                -0.6626651287078857,
                -0.02779918536543846,
                -0.38785916566848757,
                0.08993154019117356,
                -1.1159441471099854,
                -0.12064497172832489,
                -0.09484419226646424,
                0.6245684623718262,
                0.16045451164245606,
                1.0065630674362183,
                -0.8524705171585083,
                -0.8825080394744873,
                -0.3988572359085083,
                -0.5949944257736206,
                1.0994019508361817,
                0.7720869779586792,
                0.5823507905006409,
                -0.3101373612880707,
                0.4679200053215027,
                0.2279905080795288,
                0.5135313272476196,
                0.3583393394947052,
                -0.05857499688863754,
                0.28382569551467898,
                -0.12598678469657899,
                0.87486732006073,
                -0.9009930491447449,
                0.8700332641601563,
                0.43505504727363589,
                0.49730509519577029,
                1.659364938735962,
                -0.11284904927015305,
                0.5959977507591248,
                0.4975985288619995
            ],
            "fitness": 68.5207290649414,
            "timeAlive": 5.159326553344727,
            "totalDistance": 10.222325325012207,
            "successfulJumps": 2,
            "checkpointsReached": 0,
            "uniqueAreasVisited": 3,
            "activeWeightsCount": 136,
            "weightComplexity": 1.0,
            "outputLockStatus": [
                false,
                false,
                false,
                false
            ],
            "correctJumps": 2,
            "incorrectJumps": 0,
            "explorationEfficiency": 0.29347530007362368
        },
        {
            "layers": [
                8,
                8,
                6,
                4
            ],
            "flattenedWeights": [
                0.21289324760437013,
                1.0483899116516114,
                -0.5857468843460083,
                0.348143070936203,
                -0.12967044115066529,
                1.2411160469055176,
                -0.7427092790603638,
                -0.972018301486969,
                0.822711169719696,
                0.9967912435531616,
                0.12873059511184693,
                -0.8969763517379761,
                -0.3091735541820526,
                -0.11507897078990936,
                0.24089446663856507,
                -0.9907116889953613,
                0.0239071324467659,
                -0.6695630550384522,
                -0.21943295001983643,
                0.9936804175376892,
                0.9352623224258423,
                1.0196977853775025,
                0.5711749196052551,
                -0.15894988179206849,
                0.1336670219898224,
                0.5678700804710388,
                -0.27647536993026736,
                0.4017844498157501,
                0.08049941807985306,
                -0.3724915385246277,
                0.4828052818775177,
                -0.49414148926734927,
                -0.3357805609703064,
                0.07523422688245774,
                1.043150544166565,
                -1.1572222709655762,
                -0.16982492804527284,
                -0.9231712222099304,
                -0.8388617634773254,
                0.26033660769462588,
                0.45695310831069949,
                0.6132272481918335,
                0.1354309320449829,
                -0.31323033571243288,
                0.7277278900146484,
                1.2034218311309815,
                -0.06443856656551361,
                0.561026930809021,
                0.6450523734092712,
                -0.8505251407623291,
                0.013350598514080048,
                0.49138930439949038,
                0.20197683572769166,
                0.25615012645721438,
                0.08682451397180557,
                0.5566211342811585,
                0.0972534716129303,
                -0.449917197227478,
                -0.04847037047147751,
                0.6953622698783875,
                0.9635065793991089,
                0.7795944809913635,
                0.7720006108283997,
                0.23672105371952058,
                0.3583158552646637,
                0.5024222135543823,
                0.010324377566576004,
                0.9307618141174316,
                -1.2721327543258668,
                -1.2994462251663209,
                -0.2969554662704468,
                0.4062199890613556,
                0.7136039137840271,
                1.457703948020935,
                0.7136257290840149,
                -0.1190674901008606,
                0.1603827327489853,
                -0.3205866813659668,
                0.7009734511375427,
                -0.26950570940971377,
                -0.6477394104003906,
                0.4722159504890442,
                -0.9154992699623108,
                -0.18361762166023255,
                0.6721925735473633,
                0.3833666443824768,
                -1.1534819602966309,
                -0.5735750794410706,
                -0.4836180806159973,
                -0.44644397497177126,
                0.7721326947212219,
                -0.15105032920837403,
                -0.12661708891391755,
                0.2160976529121399,
                -1.2446131706237794,
                0.9945158958435059,
                -0.23256032168865205,
                -0.20803174376487733,
                0.0017825663089752198,
                0.6160852313041687,
                0.23836922645568849,
                -0.19045472145080567,
                -0.7568208575248718,
                0.20966792106628419,
                -0.39524951577186587,
                0.08025353401899338,
                -1.2337533235549927,
                -0.17867812514305116,
                -0.03805346041917801,
                0.5757874846458435,
                0.07844292372465134,
                1.0714809894561768,
                -0.8524705171585083,
                -0.9041724801063538,
                -0.3212262988090515,
                -0.5701631307601929,
                1.148983120918274,
                0.8278849720954895,
                0.5135411620140076,
                -0.40714818239212038,
                0.6697991490364075,
                0.3037358522415161,
                0.5076690912246704,
                0.39413875341415408,
                -0.07920873165130615,
                0.19752955436706544,
                -0.12598678469657899,
                0.9233354330062866,
                -0.37227189540863039,
                0.856899082660675,
                0.5224485993385315,
                0.5915689468383789,
                1.1121941804885865,
                -0.2258177250623703,
                0.4995769262313843,
                0.4838210642337799
            ],
            "fitness": 55.19369125366211,
            "timeAlive": 5.563581943511963,
            "totalDistance": 11.446735382080079,
            "successfulJumps": 2,
            "checkpointsReached": 0,
            "uniqueAreasVisited": 3,
            "activeWeightsCount": 135,
            "weightComplexity": 0.9926470518112183,
            "outputLockStatus": [
                false,
                false,
                false,
                false
            ],
            "correctJumps": 2,
            "incorrectJumps": 1,
            "explorationEfficiency": 0.2620834708213806
        },
        {
            "layers": [
                8,
                8,
                6,
                4
            ],
            "flattenedWeights": [
                0.40243393182754519,
                0.9559279084205627,
                -0.7364505529403687,
                0.06708764284849167,
                -0.012541793286800385,
                1.0936479568481446,
                -0.8971454501152039,
                -0.8347250819206238,
                0.7750600576400757,
                0.9445592761039734,
                0.04722600057721138,
                -0.9961260557174683,
                -0.4459206461906433,
                0.018058210611343385,
                0.17237314581871034,
                -0.9408040046691895,
                0.031388722360134128,
                -0.6727089285850525,
                -0.42690274119377139,
                0.9398934841156006,
                0.9538434743881226,
                0.9890409708023071,
                0.614569365978241,
                -0.26723578572273257,
                0.14004434645175935,
                0.5127483010292053,
                -0.3234095275402069,
                0.33816802501678469,
                0.08049941807985306,
                -0.3724915385246277,
                0.6168941259384155,
                -0.49892276525497439,
                -0.25959378480911257,
                0.14151020348072053,
                0.8758453130722046,
                -1.1353689432144166,
                -0.41189107298851015,
                -0.8790472149848938,
                -0.947908878326416,
                0.17854724824428559,
                0.4917846918106079,
                0.5329501628875732,
                0.17210575938224793,
                -0.36886149644851687,
                0.5932893753051758,
                1.244754433631897,
                -0.17576614022254945,
                0.6255252361297607,
                0.628878653049469,
                -0.6486314535140991,
                0.1013404056429863,
                0.2921450436115265,
                0.15814103186130525,
                0.4941880404949188,
                0.16230440139770509,
                0.6003602743148804,
                0.014495667070150376,
                -0.48999297618865969,
                -0.2785075008869171,
                0.652722954750061,
                0.9870725274085999,
                0.8211692571640015,
                0.8129563331604004,
                0.09822926670312882,
                0.4349921643733978,
                0.4422815442085266,
                -0.08928345888853073,
                0.9743661284446716,
                -1.468165397644043,
                -1.3603945970535279,
                -0.3906715512275696,
                0.6051125526428223,
                0.5183588266372681,
                1.3495678901672364,
                0.6985189318656921,
                -0.1290653645992279,
                0.1603827327489853,
                -0.3507205545902252,
                0.777357280254364,
                -0.26950570940971377,
                -0.7247622013092041,
                0.4722159504890442,
                -0.9078215956687927,
                -0.11219259351491928,
                0.6721925735473633,
                0.3525056838989258,
                -1.2348216772079468,
                -0.5735750794410706,
                -0.4945903420448303,
                -0.33076637983322146,
                0.7263634204864502,
                -0.09614372253417969,
                -0.08822045475244522,
                0.006539836525917053,
                -1.3717564344406129,
                1.070847749710083,
                -0.27272436022758486,
                0.03993771970272064,
                -0.06959827989339829,
                0.5929590463638306,
                0.27128228545188906,
                -0.1815432608127594,
                -0.6533371806144714,
                0.01238597184419632,
                -0.4444069266319275,
                0.07936505228281021,
                -1.2420015335083008,
                -0.17867812514305116,
                0.013637393712997437,
                0.5574581027030945,
                0.1879284381866455,
                1.0065630674362183,
                -0.7848398089408875,
                -0.9340941309928894,
                -0.3212262988090515,
                -0.6695335507392883,
                1.0418800115585328,
                0.9583280086517334,
                0.7279040217399597,
                -0.30955788493156435,
                0.6174386143684387,
                0.3900832533836365,
                0.5304035544395447,
                0.5430960655212402,
                -0.05979636311531067,
                0.28382569551467898,
                -0.12598678469657899,
                0.8579090237617493,
                -0.4398729205131531,
                1.051293969154358,
                0.3722640573978424,
                0.668519139289856,
                1.0495861768722535,
                -0.2193380743265152,
                0.3682546615600586,
                0.5125352144241333
            ],
            "fitness": 54.201873779296878,
            "timeAlive": 4.426759719848633,
            "totalDistance": 9.84842300415039,
            "successfulJumps": 2,
            "checkpointsReached": 0,
            "uniqueAreasVisited": 3,
            "activeWeightsCount": 135,
            "weightComplexity": 0.9926470518112183,
            "outputLockStatus": [
                false,
                false,
                false,
                false
            ],
            "correctJumps": 2,
            "incorrectJumps": 1,
            "explorationEfficiency": 0.3046172857284546
        },
        {
            "layers": [
                8,
                8,
                6,
                4
            ],
            "flattenedWeights": [
                0.3450906276702881,
                0.9986472129821777,
                -0.5857468843460083,
                0.3809199333190918,
                -0.058806292712688449,
                1.2411160469055176,
                -0.8149451017379761,
                -0.9540786743164063,
                0.822711169719696,
                1.037939429283142,
                -0.017717767506837846,
                -0.9961260557174683,
                -0.33829259872436526,
                0.05991256609559059,
                0.9379107356071472,
                -0.94915771484375,
                -0.0173320472240448,
                -0.4513756036758423,
                -0.34899482131004336,
                0.8847252726554871,
                1.0071393251419068,
                1.1124778985977173,
                0.5711749196052551,
                -0.21838292479515077,
                0.1336670219898224,
                0.5406709313392639,
                -0.27647536993026736,
                0.35572320222854617,
                0.07904572039842606,
                -0.28983429074287417,
                0.5011164546012878,
                -0.3100608289241791,
                -0.24024206399917603,
                0.12476310133934021,
                0.8758453130722046,
                -1.1572222709655762,
                -0.2494933307170868,
                -0.9907669425010681,
                -0.7399984002113342,
                0.26033660769462588,
                0.25093358755111697,
                0.5329501628875732,
                0.1354309320449829,
                -0.2821616530418396,
                0.6105033159255981,
                1.244754433631897,
                -0.14923420548439027,
                0.6255252361297607,
                0.6301402449607849,
                -0.758237361907959,
                0.061451807618141177,
                0.2086053192615509,
                0.28601324558258059,
                0.2917388677597046,
                0.14708329737186433,
                0.6522311568260193,
                0.0972534716129303,
                -0.4391615092754364,
                -0.16218242049217225,
                0.7358313202857971,
                1.021864652633667,
                0.7998248934745789,
                0.7164669036865234,
                0.21466028690338136,
                0.4349921643733978,
                0.47301188111305239,
                0.03802766278386116,
                0.9875035881996155,
                -1.4427763223648072,
                -1.4044243097305298,
                -0.3090842068195343,
                0.4509570002555847,
                0.6728678941726685,
                1.3077545166015626,
                0.7612394690513611,
                -0.09525571018457413,
                0.24178242683410645,
                -0.271114319562912,
                0.811661422252655,
                -0.14598307013511659,
                -0.6226129531860352,
                0.5510262250900269,
                -0.8911170363426209,
                -0.11219259351491928,
                0.6721925735473633,
                0.3833666443824768,
                -1.2348216772079468,
                -0.6668035984039307,
                -0.5642744898796082,
                -0.33076637983322146,
                0.7212942838668823,
                -0.3628830313682556,
                -0.08822045475244522,
                0.20047004520893098,
                -1.2589762210845948,
                0.9945158958435059,
                -0.23054800927639008,
                -0.14736299216747285,
                0.014083370566368103,
                0.7234249711036682,
                0.3204122483730316,
                -0.28348514437675478,
                -0.6626651287078857,
                0.01238597184419632,
                -0.38785916566848757,
                0.08993154019117356,
                -1.2337533235549927,
                -0.18828490376472474,
                -0.09484419226646424,
                0.6079094409942627,
                0.12849655747413636,
                1.0065630674362183,
                -0.7848398089408875,
                -0.9340941309928894,
                -0.3988572359085083,
                -0.5564541220664978,
                1.0418800115585328,
                0.8892144560813904,
                0.7431838512420654,
                -0.3101373612880707,
                0.532278835773468,
                0.2535618543624878,
                0.6761610507965088,
                0.39413875341415408,
                -0.1548081338405609,
                0.28382569551467898,
                -0.11440123617649079,
                0.8313546776771545,
                -0.8342799544334412,
                0.786211371421814,
                0.5987047553062439,
                0.668519139289856,
                1.0493090152740479,
                -0.2821909785270691,
                0.6666764616966248,
                0.47934457659721377
            ],
            "fitness": 53.63184356689453,
            "timeAlive": 5.016029357910156,
            "totalDistance": 10.274808883666993,
            "successfulJumps": 1,
            "checkpointsReached": 0,
            "uniqueAreasVisited": 3,
            "activeWeightsCount": 136,
            "weightComplexity": 1.0,
            "outputLockStatus": [
                false,
                false,
                false,
                false
            ],
            "correctJumps": 1,
            "incorrectJumps": 0,
            "explorationEfficiency": 0.2919762432575226
        },
        {
            "layers": [
                8,
                8,
                6,
                4
            ],
            "flattenedWeights": [
                0.19793055951595307,
                1.057780146598816,
                -0.5558667778968811,
                0.4332999289035797,
                -0.12967044115066529,
                1.2411160469055176,
                -0.8225081562995911,
                -0.9728890657424927,
                0.822711169719696,
                0.9967912435531616,
                0.12873059511184693,
                -0.8969763517379761,
                -0.302726149559021,
                -0.11507897078990936,
                0.17237314581871034,
                -0.8711300492286682,
                0.10268928110599518,
                -0.5813363194465637,
                -0.3449265956878662,
                0.9936804175376892,
                0.9352623224258423,
                1.0196977853775025,
                0.5711749196052551,
                -0.15894988179206849,
                0.14011520147323609,
                0.6061689853668213,
                -0.3522660732269287,
                0.31502604484558108,
                0.04924904927611351,
                -0.3724915385246277,
                0.5124009251594544,
                -0.49414148926734927,
                -0.31651946902275088,
                0.05068317800760269,
                1.0220632553100587,
                -1.1572222709655762,
                -0.168783038854599,
                -0.9231712222099304,
                -0.8388617634773254,
                0.26033660769462588,
                0.48147445917129519,
                0.5360660552978516,
                0.18895676732063294,
                -0.355385422706604,
                0.6854813098907471,
                1.2034218311309815,
                -0.06443856656551361,
                0.7110534906387329,
                0.5969984531402588,
                -0.8505251407623291,
                0.10560929775238037,
                0.49138930439949038,
                0.20197683572769166,
                0.2917388677597046,
                0.08682451397180557,
                0.5556811690330505,
                0.0972534716129303,
                -0.449917197227478,
                -0.04847037047147751,
                0.7729029059410095,
                0.9635065793991089,
                0.7363938689231873,
                0.7720006108283997,
                0.21374934911727906,
                0.3254190683364868,
                0.5024222135543823,
                0.010324377566576004,
                1.0099436044692994,
                -1.2721327543258668,
                -1.3380208015441895,
                -0.2969554662704468,
                0.4062199890613556,
                0.6728678941726685,
                1.511627197265625,
                0.6763942837715149,
                -0.1190674901008606,
                0.1603827327489853,
                -0.3808901011943817,
                0.6278308033943176,
                -0.26950570940971377,
                -0.6477394104003906,
                0.4722159504890442,
                -0.8703896999359131,
                -0.26907873153686526,
                0.7162652015686035,
                0.3833666443824768,
                -1.1534819602966309,
                -0.5735750794410706,
                -0.4836180806159973,
                -0.5222170352935791,
                0.7466922998428345,
                -0.21688120067119599,
                -0.12661708891391755,
                0.2611601650714874,
                -1.1674391031265259,
                0.9945158958435059,
                -0.2299596071243286,
                -0.23413465917110444,
                0.06461289525032044,
                0.5969732999801636,
                0.3204122483730316,
                -0.19045472145080567,
                -0.7115045189857483,
                0.20966792106628419,
                -0.29611989855766299,
                0.2367836833000183,
                -1.1955087184906006,
                -0.17867812514305116,
                -0.03805346041917801,
                0.5757874846458435,
                0.07021047919988632,
                1.1573536396026612,
                -0.8524705171585083,
                -0.9041724801063538,
                -0.3212262988090515,
                -0.5701631307601929,
                1.0994019508361817,
                0.8381332755088806,
                0.5823507905006409,
                -0.3262321650981903,
                0.6697991490364075,
                0.3037358522415161,
                0.5135313272476196,
                0.457255482673645,
                -0.14299136400222779,
                0.1922057867050171,
                -0.17573410272598267,
                0.789637565612793,
                -0.4398729205131531,
                0.856899082660675,
                0.3857807517051697,
                0.631915807723999,
                1.142709732055664,
                -0.2258177250623703,
                0.5959977507591248,
                0.4975985288619995
            ],
            "fitness": 35.9725341796875,
            "timeAlive": 4.868177890777588,
            "totalDistance": 10.141836166381836,
            "successfulJumps": 1,
            "checkpointsReached": 0,
            "uniqueAreasVisited": 3,
            "activeWeightsCount": 136,
            "weightComplexity": 1.0,
            "outputLockStatus": [
                false,
                false,
                false,
                false
            ],
            "correctJumps": 1,
            "incorrectJumps": 1,
            "explorationEfficiency": 0.2958044111728668
        }
    ],
    "timestamp": "2025-06-19 05:42:36",
    "populationSize": 23,
    "aliveNPCs": 0,
    "generationDuration": 0.127716064453125,
    "mutationRate": 0.32100000977516177,
    "eliteCount": 3,
    "globalLockStatus": [
        false,
        false,
        false,
        false
    ],
    "fitnessRange": 97.88142395019531,
    "diversityIndex": 34.4002571105957,
    "averageTimeAlive": 4.798838138580322,
    "totalDistanceSum": 159.79273986816407,
    "totalSuccessfulJumps": 27,
    "populationDiversity": 0.6942174434661865,
    "learningRate": 0.0001854661968536675,
    "convergenceRate": 0.0010206016013398767,
    "totalCheckpointsReached": 0,
    "averageDistance": 9.987046241760254,
    "totalDeaths": 16,
    "improvementRate": 0.01815032958984375,
    "explorationBonus": 79.12410736083985,
    "efficiencyScore": 10.305112838745118,
    "activeBehaviors": 7,
    "aliveAtEnd": 0,
    "memoryUsage": 8.0
}