{
    "generation": 80,
    "bestFitness": 47.11363220214844,
    "averageFitness": 6.974340915679932,
    "worstFitness": 0.0,
    "networks": [
        {
            "layers": [
                8,
                8,
                6,
                4
            ],
            "flattenedWeights": [
                -0.0038504526019096376,
                1.3000733852386475,
                -0.2360840141773224,
                0.5113592743873596,
                -0.6567324995994568,
                0.4492422938346863,
                -1.3114254474639893,
                -1.3366336822509766,
                1.415692687034607,
                1.2305527925491334,
                0.25717777013778689,
                -0.8355043530464172,
                -0.4956218898296356,
                -0.29094699025154116,
                0.08168614655733109,
                -0.6192125082015991,
                -0.034321948885917667,
                -0.8237468004226685,
                -1.046013355255127,
                0.5110145807266235,
                1.0290356874465943,
                1.083185076713562,
                0.3347877860069275,
                -0.3701777458190918,
                0.18009617924690247,
                0.6997525691986084,
                0.1838410198688507,
                1.0083032846450806,
                0.07534854114055634,
                -0.6124960780143738,
                0.7680684924125671,
                -0.37954843044281008,
                -0.40301263332366946,
                -0.4497804045677185,
                1.5554814338684083,
                -0.8045653700828552,
                0.19940930604934693,
                -1.1159229278564454,
                -1.0226036310195923,
                0.03917104750871658,
                0.2382373809814453,
                0.5703204274177551,
                0.1377674639225006,
                -0.3123858869075775,
                1.053745150566101,
                0.9419704079627991,
                0.10803770273923874,
                0.12591198086738587,
                0.7265878915786743,
                -0.9019297957420349,
                -0.3491429388523102,
                0.9434792995452881,
                0.33221375942230227,
                0.09604824334383011,
                -0.19261398911476136,
                0.48456501960754397,
                -0.0491655170917511,
                -1.3861215114593506,
                0.1833910346031189,
                0.6882843971252441,
                0.8828037977218628,
                1.291903018951416,
                0.7547983527183533,
                0.5058372020721436,
                0.5076864957809448,
                0.2743559777736664,
                -0.07074419409036637,
                0.7172814011573792,
                -2.2202537059783937,
                -1.1180816888809205,
                -0.30392512679100039,
                0.4738716781139374,
                0.7850098609924316,
                1.4013094902038575,
                0.7810879945755005,
                0.31488171219825747,
                0.08145927637815476,
                -0.4156593978404999,
                0.40824541449546816,
                -0.037465110421180728,
                -0.4956796169281006,
                0.1729467213153839,
                -0.9176900386810303,
                -0.22187736630439759,
                0.5145153999328613,
                0.42980295419692995,
                -1.438665509223938,
                -0.5163235068321228,
                -0.28907373547554018,
                -0.770082950592041,
                0.543526291847229,
                -0.742440938949585,
                -0.1674964427947998,
                0.09801557660102844,
                -1.009477972984314,
                1.1721018552780152,
                -0.6093019843101502,
                -0.06827499717473984,
                -0.5531554818153381,
                0.9904603958129883,
                0.29566043615341189,
                -0.40132221579551699,
                -0.6949078440666199,
                0.2400914430618286,
                -0.6095824837684631,
                0.17626309394836427,
                -0.7889068722724915,
                -0.3350546061992645,
                -0.21413429081439973,
                0.8701724410057068,
                0.4559091329574585,
                1.041922926902771,
                -0.7114549875259399,
                -1.101057529449463,
                -0.3195194900035858,
                -0.5561500787734985,
                0.873039960861206,
                1.2583454847335816,
                0.33958864212036135,
                -0.6291052103042603,
                0.7995719313621521,
                0.11404811590909958,
                1.0293819904327393,
                0.44458359479904177,
                0.3728265166282654,
                0.4134797155857086,
                0.28344252705574038,
                1.0479739904403687,
                -0.6198133826255798,
                0.45397692918777468,
                0.35868075489997866,
                0.7133510112762451,
                2.276484251022339,
                -0.5616232752799988,
                1.0869090557098389,
                0.5068082213401794
            ],
            "fitness": 47.11363220214844,
            "timeAlive": 8.618574142456055,
            "totalDistance": 11.49250602722168,
            "successfulJumps": 0,
            "checkpointsReached": 1,
            "uniqueAreasVisited": 2,
            "activeWeightsCount": 135,
            "weightComplexity": 0.9926470518112183,
            "outputLockStatus": [
                false,
                false,
                false,
                false
            ],
            "correctJumps": 0,
            "incorrectJumps": 0,
            "explorationEfficiency": 0.17402644455432893
        },
        {
            "layers": [
                8,
                8,
                6,
                4
            ],
            "flattenedWeights": [
                0.07803120464086533,
                1.1127454042434693,
                -0.16476629674434663,
                0.24934490025043488,
                -0.6596566438674927,
                0.8022043704986572,
                -1.2505114078521729,
                -1.0260642766952515,
                1.0967273712158204,
                1.0698987245559693,
                -0.018770836293697358,
                -0.806656002998352,
                -0.5007215142250061,
                -0.4292006194591522,
                0.14257264137268067,
                -0.3784969747066498,
                0.22474561631679536,
                -0.6961126327514648,
                -0.9653276205062866,
                0.8458831310272217,
                1.0933421850204468,
                0.9901528358459473,
                0.22284531593322755,
                -0.6221197247505188,
                0.3834652006626129,
                0.44064590334892275,
                -0.42589402198791506,
                0.7427417039871216,
                0.35951370000839236,
                -0.42924389243125918,
                0.7312945127487183,
                -0.3125149607658386,
                -0.3295627236366272,
                -0.38397297263145449,
                1.3154284954071046,
                -0.7447201013565064,
                0.27323630452156069,
                -0.9836893677711487,
                -0.9828987717628479,
                0.21994760632514954,
                0.4215775728225708,
                0.1810385286808014,
                0.10143453627824784,
                -0.29265257716178896,
                0.42519086599349978,
                1.1510980129241944,
                -0.07059808820486069,
                0.6940613389015198,
                0.6583203673362732,
                -0.7742916345596314,
                -0.38106340169906618,
                0.8935229182243347,
                0.1792130172252655,
                0.12510478496551515,
                0.011602863669395447,
                0.4804650843143463,
                -0.11668060719966889,
                -0.9979777336120606,
                -0.49426811933517458,
                0.7241417169570923,
                0.8768468499183655,
                1.7542920112609864,
                0.333744078874588,
                0.7908602356910706,
                0.4136373996734619,
                0.6242894530296326,
                0.012917712330818177,
                0.5140454769134522,
                -2.4348511695861818,
                -1.05851411819458,
                -0.06656882166862488,
                0.42314469814300539,
                0.7134261131286621,
                1.2373522520065308,
                0.6411093473434448,
                0.18936866521835328,
                0.10680311918258667,
                -0.2655941843986511,
                0.2769400179386139,
                0.03468737751245499,
                -0.4865596890449524,
                0.37470003962516787,
                -1.2719836235046387,
                -0.47560131549835207,
                0.5285239815711975,
                0.38742268085479739,
                -1.3403421640396119,
                -0.18348488211631776,
                -0.43300315737724306,
                -0.6578269004821777,
                0.9759522676467896,
                -0.451654851436615,
                -0.023197390139102937,
                0.14443013072013856,
                -1.362252950668335,
                1.3295153379440308,
                -0.5754650831222534,
                -0.08197586238384247,
                -0.38211965560913088,
                0.9647799134254456,
                0.11661288887262345,
                -0.4905157685279846,
                -0.6613132953643799,
                0.3234688937664032,
                -0.5619518160820007,
                0.42348986864089968,
                -0.8108633756637573,
                -0.2800949513912201,
                -0.7664863467216492,
                0.5911261439323425,
                0.2870708405971527,
                0.8643443584442139,
                -0.8645645976066589,
                -1.059375286102295,
                -0.1800818145275116,
                -0.4649675488471985,
                0.9399372339248657,
                1.3689074516296387,
                0.36482465267181399,
                -0.4854777753353119,
                0.9106308817863464,
                0.24028366804122926,
                0.7563673853874207,
                0.2811780273914337,
                0.40105822682380679,
                0.1947576403617859,
                0.570555567741394,
                1.3802587985992432,
                -0.34426596760749819,
                0.4828908443450928,
                0.09978235512971878,
                0.32132479548454287,
                1.9918100833892823,
                -0.3418956398963928,
                1.1338027715682984,
                0.7455646991729736
            ],
            "fitness": 46.57756805419922,
            "timeAlive": 4.721259593963623,
            "totalDistance": 9.40066909790039,
            "successfulJumps": 0,
            "checkpointsReached": 1,
            "uniqueAreasVisited": 2,
            "activeWeightsCount": 136,
            "weightComplexity": 1.0,
            "outputLockStatus": [
                false,
                false,
                false,
                false
            ],
            "correctJumps": 0,
            "incorrectJumps": 0,
            "explorationEfficiency": 0.21275080740451814
        },
        {
            "layers": [
                8,
                8,
                6,
                4
            ],
            "flattenedWeights": [
                0.13224276900291444,
                1.313237190246582,
                -0.1371074616909027,
                0.5291537642478943,
                -0.8549788594245911,
                0.5006784200668335,
                -1.4823514223098755,
                -1.4372256994247437,
                1.1960182189941407,
                1.016611099243164,
                0.20294223725795747,
                -0.9315407872200012,
                -0.5410032272338867,
                -0.5448693633079529,
                0.10734857618808747,
                -0.6907081007957459,
                -0.007718764245510101,
                -0.8601964712142944,
                -1.000527024269104,
                0.8228306174278259,
                1.1956424713134766,
                1.0514615774154664,
                0.5215223431587219,
                -0.5636647939682007,
                0.3566216230392456,
                0.5319092869758606,
                -0.20645980536937715,
                0.5214437246322632,
                0.3048388957977295,
                -0.81827312707901,
                0.8885927200317383,
                -0.3510792851448059,
                -0.5278064012527466,
                -0.6745241284370422,
                1.2119035720825196,
                -0.7389201521873474,
                0.4726676344871521,
                -0.787960946559906,
                -0.653972327709198,
                0.06640412658452988,
                0.37506037950515749,
                0.48588651418685915,
                0.22935141623020173,
                -0.24286076426506043,
                0.9814057946205139,
                1.0967451333999634,
                -0.22321507334709168,
                0.6096354126930237,
                0.5649905204772949,
                -0.909296452999115,
                -0.3080914616584778,
                0.9384678602218628,
                -0.022470485419034959,
                0.22657015919685365,
                0.019330579787492753,
                0.49246108531951907,
                0.07067698240280152,
                -1.3289891481399537,
                0.1273488700389862,
                0.6610355377197266,
                1.0309605598449708,
                1.3143130540847779,
                0.573890745639801,
                0.7895143628120422,
                0.28182005882263186,
                0.3943272829055786,
                -0.32999181747436526,
                0.5656782984733582,
                -2.1967391967773439,
                -1.040154218673706,
                -0.14947086572647096,
                0.4981302320957184,
                0.9144694209098816,
                1.338723063468933,
                0.6410598754882813,
                0.2709248960018158,
                0.007289007306098938,
                -0.5199280381202698,
                0.31675076484680178,
                -0.08040376752614975,
                -0.512747049331665,
                0.2823304831981659,
                -1.1102396249771119,
                -0.437894344329834,
                0.48113328218460085,
                0.45179253816604617,
                -1.2782825231552125,
                -0.3465844988822937,
                -0.44116491079330447,
                -0.7784908413887024,
                0.6317911744117737,
                -0.3487689197063446,
                0.022716134786605836,
                0.029901549220085145,
                -1.2475816011428834,
                1.3334943056106568,
                -0.8310731649398804,
                -0.1254173219203949,
                -0.3332560062408447,
                0.9700807929039002,
                0.12272808700799942,
                -0.29597344994544985,
                -0.7659392356872559,
                0.13734889030456544,
                -0.696978747844696,
                0.23240312933921815,
                -0.9303158521652222,
                -0.19740507006645204,
                -0.7429883480072022,
                0.8320658206939697,
                0.27312296628952029,
                1.196036696434021,
                -0.7501630187034607,
                -1.0590226650238038,
                -0.3032769560813904,
                -0.6108630895614624,
                0.8646305203437805,
                1.3875118494033814,
                0.40440136194229128,
                -0.5931352376937866,
                0.9403597116470337,
                0.26378247141838076,
                0.9727141261100769,
                0.44902750849723818,
                0.3221305310726166,
                0.31859585642814639,
                0.38186001777648928,
                1.2100918292999268,
                -0.642061710357666,
                0.42545896768569949,
                0.32623419165611269,
                0.8519854545593262,
                2.1397149562835695,
                -0.5176212191581726,
                1.068250060081482,
                0.6670682430267334
            ],
            "fitness": 9.10920238494873,
            "timeAlive": 2.50649356842041,
            "totalDistance": 5.25458288192749,
            "successfulJumps": 0,
            "checkpointsReached": 1,
            "uniqueAreasVisited": 1,
            "activeWeightsCount": 134,
            "weightComplexity": 0.9852941036224365,
            "outputLockStatus": [
                false,
                false,
                false,
                false
            ],
            "correctJumps": 0,
            "incorrectJumps": 0,
            "explorationEfficiency": 0.1903100609779358
        },
        {
            "layers": [
                8,
                8,
                6,
                4
            ],
            "flattenedWeights": [
                0.23088295757770539,
                1.235942006111145,
                -0.05825042724609375,
                0.22272667288780213,
                -0.7752314805984497,
                0.6381740570068359,
                -1.3426181077957154,
                -1.2157011032104493,
                1.0901867151260377,
                0.9463670253753662,
                0.06098261475563049,
                -1.0155315399169922,
                -0.6836951971054077,
                -0.2734619379043579,
                0.05167604982852936,
                -0.317063570022583,
                0.1721287965774536,
                -0.7067816853523254,
                -1.0818597078323365,
                0.8801747560501099,
                1.1366195678710938,
                1.0254110097885132,
                0.44471535086631777,
                -0.3317944407463074,
                0.2655903398990631,
                0.6505621075630188,
                -0.2413298487663269,
                0.6708220839500427,
                0.2358703911304474,
                -0.899135410785675,
                0.6016813516616821,
                -0.33560365438461306,
                -0.4702213704586029,
                -0.3956005871295929,
                1.2560368776321412,
                -0.7702497839927673,
                0.4533197581768036,
                -1.0964407920837403,
                -1.0439558029174805,
                0.12714360654354096,
                0.358224481344223,
                0.5408780574798584,
                0.11288934201002121,
                -0.2662605047225952,
                0.8580949306488037,
                1.0695148706436158,
                0.049387261271476749,
                0.3510090708732605,
                0.7754080891609192,
                -0.7099009156227112,
                -0.31037476658821108,
                0.9168223738670349,
                0.06541445851325989,
                0.08048013597726822,
                -0.024953395128250123,
                0.528271496295929,
                0.007139008492231369,
                -1.0938125848770142,
                0.014831319451332093,
                0.6617082357406616,
                0.8372980356216431,
                1.1699695587158204,
                0.6502241492271423,
                0.8527267575263977,
                0.3691706359386444,
                0.3122508227825165,
                0.11252155154943466,
                0.5764003396034241,
                -2.398297071456909,
                -1.1393464803695679,
                -0.14448511600494386,
                0.5102298259735107,
                0.7623666524887085,
                1.2938700914382935,
                0.7241808176040649,
                0.19032421708106996,
                0.017735455185174943,
                -0.31830862164497378,
                0.24608463048934937,
                0.027168922126293184,
                -0.4098975956439972,
                0.31236913800239565,
                -0.9172363877296448,
                -0.17345654964447022,
                0.43954578042030337,
                0.3745802342891693,
                -1.4799983501434327,
                -0.2782488465309143,
                -0.41435787081718447,
                -0.6284239292144775,
                0.9034515619277954,
                -0.6368500590324402,
                -0.17217156291007996,
                0.16264429688453675,
                -1.4612549543380738,
                1.2208726406097413,
                -0.5033687353134155,
                -0.11518215388059616,
                -0.4479175806045532,
                0.929592490196228,
                0.06427140533924103,
                -0.25667399168014529,
                -0.6707242727279663,
                0.15283387899398805,
                -0.7913463115692139,
                0.18887853622436524,
                -0.9328597784042358,
                -0.19217675924301148,
                -0.7302567362785339,
                0.716609001159668,
                0.2778526842594147,
                1.0031088590621949,
                -0.7654659748077393,
                -1.07687509059906,
                -0.2068808376789093,
                -0.5362093448638916,
                1.0511749982833863,
                1.3605625629425049,
                0.48986756801605227,
                -0.6273310780525208,
                0.7654772996902466,
                0.368215411901474,
                0.7821805477142334,
                0.5351239442825317,
                0.38907140493392947,
                0.2390289604663849,
                0.39140698313713076,
                1.0742781162261963,
                -0.48275226354599,
                0.43861329555511477,
                0.2242833375930786,
                0.5774790644645691,
                2.136258840560913,
                -0.4385477602481842,
                1.1490715742111207,
                0.811588704586029
            ],
            "fitness": 8.789051055908204,
            "timeAlive": 1.8202996253967286,
            "totalDistance": 4.393592834472656,
            "successfulJumps": 0,
            "checkpointsReached": 1,
            "uniqueAreasVisited": 1,
            "activeWeightsCount": 135,
            "weightComplexity": 0.9926470518112183,
            "outputLockStatus": [
                false,
                false,
                false,
                false
            ],
            "correctJumps": 0,
            "incorrectJumps": 0,
            "explorationEfficiency": 0.22760416567325593
        },
        {
            "layers": [
                8,
                8,
                6,
                4
            ],
            "flattenedWeights": [
                0.04406183958053589,
                1.1520413160324097,
                -0.21902626752853394,
                0.3131329119205475,
                -0.838120698928833,
                0.9235050082206726,
                -1.267897367477417,
                -1.0978477001190186,
                1.2502003908157349,
                1.2125000953674317,
                -0.0317964106798172,
                -0.7510958313941956,
                -0.474443256855011,
                -0.4292006194591522,
                0.07939451187849045,
                -0.9112566113471985,
                0.2486279010772705,
                -0.8027600646018982,
                -0.943954586982727,
                0.9368461966514587,
                1.0430407524108887,
                1.0477983951568604,
                0.22284531593322755,
                -0.5906206369400024,
                0.18755891919136048,
                0.44513922929763796,
                0.1937597095966339,
                0.6496680974960327,
                -0.031462281942367557,
                -0.38690707087516787,
                0.7761910557746887,
                -0.28330910205841067,
                -0.1986512690782547,
                -0.4237121343612671,
                1.1653752326965333,
                -0.7705762982368469,
                0.34886759519577029,
                -0.8320146799087524,
                -0.9281054735183716,
                0.10482500493526459,
                0.3512739837169647,
                0.18909776210784913,
                -0.005762945860624313,
                -0.2918408215045929,
                0.4513290822505951,
                1.062034249305725,
                0.18178638815879823,
                0.4936487078666687,
                0.5635892748832703,
                -0.7705495953559876,
                -0.31749463081359866,
                0.760118842124939,
                0.12989234924316407,
                0.159983292222023,
                -0.1323966681957245,
                0.44231516122817995,
                -0.12357567250728607,
                -1.1854945421218873,
                -0.022475294768810273,
                0.7241417169570923,
                1.0659157037734986,
                1.6401772499084473,
                0.6097754836082459,
                0.7377007603645325,
                0.30296561121940615,
                0.22392258048057557,
                -0.1783570796251297,
                0.8250852823257446,
                -2.2652947902679445,
                -1.042142391204834,
                0.014746315777301789,
                0.4380515515804291,
                0.7527974843978882,
                1.2969615459442139,
                0.9521183371543884,
                0.24587738513946534,
                0.05442366003990173,
                -0.4642096757888794,
                0.2528117001056671,
                -0.010889977216720581,
                -0.45712605118751528,
                -0.04008473455905914,
                -1.3347482681274415,
                -0.3981044590473175,
                0.5346143841743469,
                0.3555489778518677,
                -1.2761049270629883,
                -0.24975460767745973,
                -0.5025343298912048,
                -0.833803653717041,
                0.9255035519599915,
                -0.34302932024002077,
                0.06364639103412628,
                0.47722142934799197,
                -1.3681881427764893,
                1.4228136539459229,
                -0.7293061017990112,
                -0.2882569134235382,
                -0.3829808533191681,
                0.7158507704734802,
                0.3201774060726166,
                -0.3664892315864563,
                -0.7368778586387634,
                0.4037097692489624,
                -0.8977488279342651,
                0.3281596899032593,
                -0.8887956738471985,
                -0.14908602833747865,
                -0.5222906470298767,
                0.6878555417060852,
                0.1878092885017395,
                0.931540846824646,
                -0.6414123773574829,
                -0.6485278010368347,
                -0.1503886580467224,
                -0.7393516302108765,
                0.9399372339248657,
                1.4000734090805054,
                0.5152674913406372,
                -0.5944076776504517,
                0.8065755367279053,
                0.2358778715133667,
                0.800278902053833,
                0.1680443286895752,
                0.3834376335144043,
                0.21518556773662568,
                0.3989576995372772,
                1.4061853885650635,
                -0.34426596760749819,
                0.4937511384487152,
                0.316825807094574,
                0.28683021664619448,
                1.87521231174469,
                -0.38455086946487429,
                1.156221628189087,
                0.6448100805282593
            ],
            "fitness": 0.0,
            "timeAlive": 1.8202996253967286,
            "totalDistance": 3.961874008178711,
            "successfulJumps": 0,
            "checkpointsReached": 0,
            "uniqueAreasVisited": 1,
            "activeWeightsCount": 135,
            "weightComplexity": 0.9926470518112183,
            "outputLockStatus": [
                false,
                false,
                false,
                false
            ],
            "correctJumps": 0,
            "incorrectJumps": 0,
            "explorationEfficiency": 0.2524057924747467
        },
        {
            "layers": [
                8,
                8,
                6,
                4
            ],
            "flattenedWeights": [
                0.1776486188173294,
                1.2670642137527466,
                -0.12190430611371994,
                0.4303382337093353,
                -0.9037344455718994,
                0.5418815612792969,
                -1.469265103340149,
                -1.3186687231063843,
                1.2055175304412842,
                1.163331389427185,
                0.18643295764923097,
                -0.729761004447937,
                -0.41715067625045779,
                -0.47386518120765688,
                0.07729069888591767,
                -0.5274277925491333,
                0.023598812520503999,
                -0.8767454624176025,
                -1.039794921875,
                0.6377355456352234,
                1.1248879432678223,
                1.1027250289916993,
                0.3347877860069275,
                -0.570233166217804,
                0.19438236951828004,
                0.5481326580047607,
                -0.2807513177394867,
                0.9822903871536255,
                0.11287914216518402,
                -0.6178159117698669,
                0.6378481984138489,
                -0.15317928791046143,
                -0.37235793471336367,
                -0.3823341429233551,
                1.5481027364730836,
                -0.7689076066017151,
                0.11017224192619324,
                -1.0929862260818482,
                -1.0097405910491944,
                0.14258745312690736,
                0.3875151574611664,
                0.06923854351043701,
                0.12935712933540345,
                -0.15546497702598573,
                0.7957162261009216,
                0.9745585918426514,
                0.1946222484111786,
                0.19673745334148408,
                0.7265878915786743,
                -0.8229824900627136,
                -0.30977243185043337,
                0.9434792995452881,
                0.39958736300468447,
                0.11065208166837692,
                -0.06882309168577194,
                0.49468716979026797,
                -0.09369760751724243,
                -1.2374075651168824,
                -0.06584922224283219,
                0.7159148454666138,
                1.0073556900024415,
                1.2270851135253907,
                0.45681872963905337,
                0.6643234491348267,
                0.24377357959747315,
                0.28906184434890749,
                -0.08365024626255036,
                0.48015162348747256,
                -2.262619733810425,
                -1.1001230478286744,
                -0.37256956100463869,
                0.4738716781139374,
                0.8724713325500488,
                1.5398285388946534,
                0.8890061974525452,
                0.3532847762107849,
                0.1506863236427307,
                -0.48291873931884768,
                0.44029858708381655,
                0.07628180086612702,
                -0.5066218972206116,
                0.34666451811790469,
                -0.9013729095458984,
                -0.2553856074810028,
                0.48044919967651369,
                0.5198976993560791,
                -1.4339964389801026,
                -0.3696225583553314,
                -0.5157543420791626,
                -0.7005516886711121,
                0.6684487462043762,
                -0.6321466565132141,
                -0.24331748485565186,
                0.3849835991859436,
                -1.1964391469955445,
                1.2355873584747315,
                -0.7150418162345886,
                -0.024204671382904054,
                -0.4646243453025818,
                1.065873622894287,
                0.38351982831954958,
                -0.600814163684845,
                -0.8377379775047302,
                0.5013781785964966,
                -0.646773636341095,
                0.18065819144248963,
                -0.8910840749740601,
                -0.30464470386505129,
                -0.11619690805673599,
                0.3005278408527374,
                0.46084195375442507,
                1.129518747329712,
                -0.7643776535987854,
                -1.1444894075393677,
                -0.3955775201320648,
                -0.5264852046966553,
                1.360963225364685,
                1.2631219625473023,
                0.3026844263076782,
                -0.5676493048667908,
                0.7829050421714783,
                0.3931152820587158,
                1.0671963691711426,
                0.43948662281036379,
                0.37753304839134219,
                0.41383352875709536,
                0.36111971735954287,
                1.139782190322876,
                -0.6686996221542358,
                0.6167552471160889,
                0.23766760528087617,
                0.7235891222953796,
                2.1934001445770265,
                -0.5077136158943176,
                1.1797256469726563,
                0.7350971698760986
            ],
            "fitness": 0.0,
            "timeAlive": 1.8202996253967286,
            "totalDistance": 3.6860201358795168,
            "successfulJumps": 0,
            "checkpointsReached": 0,
            "uniqueAreasVisited": 1,
            "activeWeightsCount": 136,
            "weightComplexity": 1.0,
            "outputLockStatus": [
                false,
                false,
                false,
                false
            ],
            "correctJumps": 0,
            "incorrectJumps": 0,
            "explorationEfficiency": 0.27129530906677248
        },
        {
            "layers": [
                8,
                8,
                6,
                4
            ],
            "flattenedWeights": [
                0.05918191373348236,
                1.3324534893035889,
                -0.022517696022987367,
                0.523411750793457,
                -0.6335679292678833,
                0.4361194968223572,
                -1.4823514223098755,
                -1.4169549942016602,
                1.2875624895095826,
                1.2003945112228394,
                0.04501107335090637,
                -0.8071413040161133,
                -0.5750048160552979,
                -0.4515039920806885,
                0.15827883780002595,
                -0.691459596157074,
                0.06346184015274048,
                -0.9126617908477783,
                -1.032091498374939,
                0.4331401288509369,
                1.1855825185775757,
                1.0297223329544068,
                0.5769069194793701,
                -0.45956528186798098,
                0.16161049902439118,
                0.7227272987365723,
                0.11801429837942124,
                0.7332796454429627,
                0.3769645690917969,
                -0.6197813153266907,
                0.8509957790374756,
                -0.3692433536052704,
                -0.4774249792098999,
                -0.4748736619949341,
                1.319393515586853,
                -0.6441866755485535,
                0.2298683226108551,
                -0.8899452090263367,
                -0.9732348918914795,
                0.023303892463445665,
                0.42095816135406496,
                0.6317564249038696,
                0.06892318278551102,
                -0.1582673192024231,
                0.9984758496284485,
                1.1614441871643067,
                -0.035776056349277499,
                0.5128138661384583,
                0.6828033328056336,
                -0.8786584734916687,
                -0.39297354221343996,
                0.9227736592292786,
                0.17862874269485475,
                0.16349926590919496,
                0.03737017512321472,
                0.4469844698905945,
                0.018919508904218675,
                -1.362647294998169,
                0.08554127812385559,
                0.858543336391449,
                1.077939748764038,
                1.3978582620620728,
                0.6067518591880798,
                0.9219433665275574,
                0.2144603729248047,
                0.20017075538635255,
                -0.12243064492940903,
                0.6795008182525635,
                -2.1168975830078127,
                -1.0051368474960328,
                -0.04702289402484894,
                0.4906589984893799,
                0.9050378799438477,
                1.3875598907470704,
                0.9227178692817688,
                0.3009955883026123,
                0.07983488589525223,
                -0.35291972756385805,
                0.3596794903278351,
                -0.1553906500339508,
                -0.44207754731178286,
                0.14120566844940186,
                -1.015152931213379,
                -0.297640860080719,
                0.570117712020874,
                0.3588769733905792,
                -1.5027070045471192,
                -0.5268759727478027,
                -0.44116491079330447,
                -0.8624008297920227,
                0.7098690867424011,
                -0.3015426695346832,
                0.002774342894554138,
                0.1969607174396515,
                -1.2464289665222169,
                1.32431960105896,
                -0.7729561924934387,
                -0.2450728863477707,
                -0.5841273069381714,
                0.8955684900283814,
                0.2946196496486664,
                -0.4989639222621918,
                -0.6757330298423767,
                0.2697519063949585,
                -0.8654907941818237,
                0.2927488684654236,
                -0.8166351318359375,
                -0.31422159075737,
                -0.5496415495872498,
                0.753625750541687,
                0.3563244938850403,
                0.9766613841056824,
                -0.8939638733863831,
                -0.9449533820152283,
                -0.4164285659790039,
                -0.6108630895614624,
                0.9392441511154175,
                1.3746572732925416,
                0.4278731942176819,
                -0.6785924434661865,
                0.8842313885688782,
                0.15036535263061524,
                1.0281726121902466,
                0.3479909896850586,
                0.3728265166282654,
                0.14609819650650025,
                0.3620648980140686,
                1.3739571571350098,
                -0.5315739512443543,
                0.5919297933578491,
                0.2773127257823944,
                0.3673310875892639,
                2.1032848358154299,
                -0.5423006415367127,
                1.0555232763290406,
                0.502078652381897
            ],
            "fitness": 0.0,
            "timeAlive": 1.1131869554519654,
            "totalDistance": 1.9065622091293336,
            "successfulJumps": 0,
            "checkpointsReached": 0,
            "uniqueAreasVisited": 1,
            "activeWeightsCount": 135,
            "weightComplexity": 0.9926470518112183,
            "outputLockStatus": [
                false,
                false,
                false,
                false
            ],
            "correctJumps": 0,
            "incorrectJumps": 0,
            "explorationEfficiency": 0.5245042443275452
        },
        {
            "layers": [
                8,
                8,
                6,
                4
            ],
            "flattenedWeights": [
                0.14096105098724366,
                1.1919485330581666,
                -0.25762689113616946,
                0.309436172246933,
                -0.766131579875946,
                0.7785924077033997,
                -1.4416624307632447,
                -1.1370313167572022,
                1.2075427770614625,
                1.258057951927185,
                0.0825205147266388,
                -0.8173748850822449,
                -0.6328699588775635,
                -0.3024824559688568,
                0.0869939774274826,
                -0.621285080909729,
                0.21091173589229585,
                -0.9418817758560181,
                -1.064653992652893,
                0.6216294765472412,
                1.2609039545059205,
                1.0340321063995362,
                0.2741888761520386,
                -0.4278736114501953,
                0.4100104868412018,
                0.6408848166465759,
                0.14806810021400453,
                0.9524431228637695,
                0.19272002577781678,
                -0.8019490242004395,
                0.652488648891449,
                -0.24135243892669679,
                -0.42099806666374209,
                -0.46905001997947695,
                1.5792076587677003,
                -0.8367998003959656,
                0.17242419719696046,
                -0.9878734350204468,
                -0.8501728177070618,
                0.16587495803833009,
                0.609813928604126,
                0.06717658042907715,
                0.06625542789697647,
                -0.2114834189414978,
                0.7681203484535217,
                1.0603512525558472,
                -0.07684186100959778,
                0.26016008853912356,
                0.7171438336372376,
                -0.8076151609420776,
                -0.3167641758918762,
                0.8976776599884033,
                -0.013301458209753037,
                0.07415911555290222,
                -0.06822440028190613,
                0.49468716979026797,
                -0.04320710152387619,
                -1.310282588005066,
                0.00751909613609314,
                0.81068354845047,
                0.9263797402381897,
                1.2380729913711548,
                0.6371350884437561,
                0.8291536569595337,
                0.32801276445388796,
                0.26736775040626528,
                -0.06007121875882149,
                0.6476240754127502,
                -2.224050760269165,
                -1.0095796585083008,
                -0.333454966545105,
                0.4663044810295105,
                0.6325476765632629,
                1.460860252380371,
                0.8466560244560242,
                0.20936539769172669,
                -0.09297507256269455,
                -0.4551061987876892,
                0.18006345629692079,
                0.056984852999448779,
                -0.5113815069198608,
                0.27353954315185549,
                -0.9055574536323547,
                -0.20642390847206117,
                0.40385204553604128,
                0.3180553913116455,
                -1.3614840507507325,
                -0.37669891119003298,
                -0.4211929738521576,
                -0.6526942849159241,
                0.6120274662971497,
                -0.6642879843711853,
                -0.049571309238672259,
                0.47104474902153017,
                -1.143465518951416,
                1.3168888092041016,
                -0.6389142274856567,
                0.02672719955444336,
                -0.44549742341041567,
                1.0741246938705445,
                0.35913822054862978,
                -0.4114053249359131,
                -0.8004565834999085,
                0.39224526286125185,
                -0.7982313632965088,
                0.34584203362464907,
                -0.9536625742912293,
                -0.2637474834918976,
                -0.5450125932693481,
                0.4336307644844055,
                0.2778545916080475,
                0.9503846168518066,
                -0.7446991205215454,
                -0.705528199672699,
                -0.2383175492286682,
                -0.5530880689620972,
                1.0772730112075806,
                1.129511833190918,
                0.5900892019271851,
                -0.6228346824645996,
                0.8442255258560181,
                0.34994566440582278,
                0.9614105820655823,
                0.4587128460407257,
                0.36509692668914797,
                0.3776305913925171,
                0.3772662878036499,
                1.1046490669250489,
                -0.6498314142227173,
                0.5527610182762146,
                0.338872492313385,
                0.6358590126037598,
                2.066894292831421,
                -0.26141348481178286,
                1.1278084516525269,
                0.6562516093254089
            ],
            "fitness": 0.0,
            "timeAlive": 2.50649356842041,
            "totalDistance": 5.588252067565918,
            "successfulJumps": 0,
            "checkpointsReached": 0,
            "uniqueAreasVisited": 1,
            "activeWeightsCount": 135,
            "weightComplexity": 0.9926470518112183,
            "outputLockStatus": [
                false,
                false,
                false,
                false
            ],
            "correctJumps": 0,
            "incorrectJumps": 0,
            "explorationEfficiency": 0.1789468377828598
        },
        {
            "layers": [
                8,
                8,
                6,
                4
            ],
            "flattenedWeights": [
                0.16937589645385743,
                1.2213698625564576,
                -0.1848413348197937,
                0.4343501925468445,
                -0.752711296081543,
                0.4501313865184784,
                -1.3076311349868775,
                -1.356972336769104,
                1.3212708234786988,
                1.0683318376541138,
                0.26243534684181216,
                -0.8184832334518433,
                -0.6459811329841614,
                -0.458876371383667,
                0.11232055723667145,
                -0.4945780336856842,
                0.10537465661764145,
                -0.8790776133537293,
                -1.0030968189239503,
                0.5154168605804443,
                0.9713095426559448,
                1.0070300102233887,
                0.4182193875312805,
                -0.4595273435115814,
                0.24466964602470399,
                0.5870418548583984,
                0.2985937297344208,
                0.6044018864631653,
                0.15761321783065797,
                -0.814084529876709,
                0.933625340461731,
                -0.2786061465740204,
                -0.5671118497848511,
                -0.6044669151306152,
                1.2251354455947877,
                -0.7780880928039551,
                0.24528607726097108,
                -0.8267179131507874,
                -0.7424457669258118,
                0.12693321704864503,
                0.2778543531894684,
                0.4635300040245056,
                0.08991635590791702,
                -0.3349473774433136,
                0.9692052602767944,
                0.9697383642196655,
                -0.05260287970304489,
                0.5892602801322937,
                0.5779908299446106,
                -0.8306019902229309,
                -0.43287333846092226,
                0.9384678602218628,
                0.03453163430094719,
                0.29984936118125918,
                -0.04472872614860535,
                0.4095248281955719,
                0.03215102106332779,
                -1.3836379051208497,
                -0.11247240006923676,
                0.5154136419296265,
                0.8493727445602417,
                1.3503384590148926,
                0.9082208871841431,
                0.5362528562545776,
                0.2698245942592621,
                0.3693434000015259,
                -0.23952358961105348,
                0.706891655921936,
                -2.2416722774505617,
                -1.1647751331329346,
                -0.0796269029378891,
                0.38855355978012087,
                0.8563151359558106,
                1.4444113969802857,
                0.7518981695175171,
                0.2193690538406372,
                0.06876447796821594,
                -0.484917551279068,
                0.2512145936489105,
                -0.18448105454444886,
                -0.39996153116226199,
                0.2882876396179199,
                -0.9837611317634583,
                -0.5686736106872559,
                0.4439496695995331,
                0.43826165795326235,
                -1.2200173139572144,
                -0.5107927322387695,
                -0.47369450330734255,
                -0.7232005596160889,
                0.6668165922164917,
                -0.4788696765899658,
                0.1440776288509369,
                0.1438637226819992,
                -1.1383191347122193,
                1.306840419769287,
                -0.7481904029846191,
                -0.33672913908958437,
                -0.3675752878189087,
                0.8955684900283814,
                0.40236422419548037,
                -0.5306756496429443,
                -0.687629222869873,
                0.3608556091785431,
                -0.9494216442108154,
                0.15102657675743104,
                -0.7728031873703003,
                -0.34726351499557497,
                -0.8449141979217529,
                0.8320658206939697,
                0.29787009954452517,
                1.1022684574127198,
                -0.6658064126968384,
                -0.7135582566261292,
                -0.36952462792396548,
                -0.5773094892501831,
                1.2980337142944337,
                1.3061439990997315,
                0.45130518078804018,
                -0.7237845659255981,
                0.8711981177330017,
                0.2872827351093292,
                1.0112272500991822,
                0.23484256863594056,
                0.496402382850647,
                0.11901658028364182,
                0.4171401858329773,
                1.3641210794448853,
                -0.46119335293769839,
                0.614849865436554,
                0.27546948194503786,
                0.5594344735145569,
                2.076293468475342,
                -0.5088420510292053,
                1.142881155014038,
                0.6202199459075928
            ],
            "fitness": 0.0,
            "timeAlive": 7.757038116455078,
            "totalDistance": 8.605237007141114,
            "successfulJumps": 0,
            "checkpointsReached": 1,
            "uniqueAreasVisited": 2,
            "activeWeightsCount": 136,
            "weightComplexity": 1.0,
            "outputLockStatus": [
                false,
                false,
                false,
                false
            ],
            "correctJumps": 0,
            "incorrectJumps": 0,
            "explorationEfficiency": 0.23241661489009858
        },
        {
            "layers": [
                8,
                8,
                6,
                4
            ],
            "flattenedWeights": [
                0.22501739859580995,
                1.3110086917877198,
                -0.2704428732395172,
                0.17601743340492249,
                -0.5419331192970276,
                0.45676401257514956,
                -1.552686333656311,
                -1.2910329103469849,
                1.2614023685455323,
                0.9946168065071106,
                0.1508369743824005,
                -0.7533189058303833,
                -0.5998618602752686,
                -0.41965290904045107,
                0.184553325176239,
                -0.6185024976730347,
                0.1455898880958557,
                -0.8549125790596008,
                -0.9113178253173828,
                0.6484919190406799,
                1.2535065412521363,
                0.9747796058654785,
                0.37749940156936648,
                -0.5180971622467041,
                0.3020855784416199,
                0.5251025557518005,
                -0.11439409106969834,
                0.5747745037078857,
                0.30381619930267336,
                -0.6050159335136414,
                0.9583496451377869,
                -0.30246448516845705,
                -0.48749789595603945,
                -0.3928282558917999,
                1.425089716911316,
                -0.872529923915863,
                0.11516957730054856,
                -1.002145767211914,
                -0.9671351313591003,
                0.3016521632671356,
                0.25023433566093447,
                0.6194925308227539,
                0.07115450501441956,
                -0.34616047143936159,
                0.9814057946205139,
                1.1369917392730713,
                0.23581629991531373,
                0.6408231854438782,
                0.7508364915847778,
                -0.9470475316047669,
                -0.25449398159980776,
                0.9501549601554871,
                0.41056451201438906,
                0.1921030431985855,
                -0.17213323712348939,
                0.5125000476837158,
                0.027839846909046174,
                -1.307305932044983,
                0.030616268515586854,
                0.4806439280509949,
                0.963707447052002,
                1.418999433517456,
                0.7101560831069946,
                0.7454125285148621,
                0.24822703003883363,
                0.535311222076416,
                -0.056792888790369037,
                0.45336583256721499,
                -2.2223808765411379,
                -1.0826869010925294,
                -0.3516061305999756,
                0.4738716781139374,
                0.8296536207199097,
                1.3720966577529908,
                0.6310610175132752,
                0.270128071308136,
                0.060793958604335788,
                -0.5132017135620117,
                0.34895455837249758,
                -0.18448105454444886,
                -0.48203015327453616,
                0.39026913046836855,
                -0.8481674194335938,
                -0.354601114988327,
                0.38669973611831667,
                0.32691508531570437,
                -1.3416591882705689,
                -0.44550687074661257,
                -0.4672026038169861,
                -0.7112447023391724,
                0.5144253373146057,
                -0.3973389267921448,
                0.0419543981552124,
                0.2317664921283722,
                -1.239632487297058,
                1.248512864112854,
                -0.7652195692062378,
                -0.2972668409347534,
                -0.5027179718017578,
                0.8955684900283814,
                0.3071528375148773,
                -0.5563470125198364,
                -0.702873706817627,
                0.5364906191825867,
                -0.8306522369384766,
                0.3445642292499542,
                -0.9443561434745789,
                -0.30464470386505129,
                -0.285287082195282,
                0.26452702283859255,
                0.23768264055252076,
                0.9715757369995117,
                -0.702950656414032,
                -1.0756847858428956,
                -0.2907138764858246,
                -0.4854913055896759,
                0.9337314367294312,
                1.3476297855377198,
                0.5396937131881714,
                -0.569483757019043,
                0.8326014876365662,
                0.3169716000556946,
                0.9390039443969727,
                0.4202505052089691,
                0.3926842510700226,
                0.16352340579032899,
                0.2927984595298767,
                1.1002593040466309,
                -0.6809124946594238,
                0.49381715059280398,
                0.3509092628955841,
                0.5779529213905335,
                2.076293468475342,
                -0.5088649988174439,
                1.142881155014038,
                0.6528747081756592
            ],
            "fitness": 0.0,
            "timeAlive": 4.249879837036133,
            "totalDistance": 7.499446392059326,
            "successfulJumps": 0,
            "checkpointsReached": 1,
            "uniqueAreasVisited": 1,
            "activeWeightsCount": 136,
            "weightComplexity": 1.0,
            "outputLockStatus": [
                false,
                false,
                false,
                false
            ],
            "correctJumps": 0,
            "incorrectJumps": 0,
            "explorationEfficiency": 0.1333431750535965
        }
    ],
    "timestamp": "2025-06-19 05:52:19",
    "populationSize": 23,
    "aliveNPCs": 0,
    "generationDuration": 0.4073486328125,
    "mutationRate": 0.847000002861023,
    "eliteCount": 2,
    "globalLockStatus": [
        false,
        false,
        false,
        false
    ],
    "fitnessRange": 47.11363220214844,
    "diversityIndex": 15.352372169494629,
    "averageTimeAlive": 3.072479009628296,
    "totalDistanceSum": 88.36930847167969,
    "totalSuccessfulJumps": 0,
    "populationDiversity": 2.1701488494873049,
    "learningRate": 0.004054653458297253,
    "convergenceRate": 0.0021180324256420137,
    "totalCheckpointsReached": 7,
    "averageDistance": 5.5230817794799809,
    "totalDeaths": 16,
    "improvementRate": 0.19025802612304688,
    "explorationBonus": 11.158945083618164,
    "efficiencyScore": 2.269939422607422,
    "activeBehaviors": 22,
    "aliveAtEnd": 0,
    "memoryUsage": 8.0
}