{
    "generation": 405,
    "bestFitness": 44.708351135253909,
    "averageFitness": 41.277618408203128,
    "worstFitness": 9.809602737426758,
    "networks": [
        {
            "layers": [
                8,
                8,
                6,
                4
            ],
            "flattenedWeights": [
                -0.3241683840751648,
                0.33448681235313418,
                0.4695309102535248,
                -0.35301291942596438,
                0.9938299655914307,
                -0.2841482162475586,
                0.4994162917137146,
                -0.6828494071960449,
                -2.0543339252471926,
                1.0812780857086182,
                -0.910873293876648,
                1.289141297340393,
                0.57762211561203,
                -0.23808592557907105,
                0.4495753049850464,
                0.414632648229599,
                -1.4261454343795777,
                0.8857879638671875,
                0.28957581520080569,
                0.5220227241516113,
                1.6082817316055298,
                -0.6444479823112488,
                0.7906054854393005,
                1.7407004833221436,
                0.7449891567230225,
                -1.1135801076889039,
                0.6006820797920227,
                -1.3820456266403199,
                0.5305216312408447,
                0.6169899106025696,
                -1.2848424911499024,
                -0.650716245174408,
                0.2959875464439392,
                0.21393729746341706,
                0.7378570437431336,
                -0.876396656036377,
                -1.3495726585388184,
                0.8886121511459351,
                0.0823042094707489,
                0.3919885456562042,
                -0.9723731875419617,
                -2.12764048576355,
                -0.5719889998435974,
                -0.9818840622901917,
                1.7764250040054322,
                1.2683390378952027,
                -0.9476940035820007,
                -0.3234748840332031,
                1.7584443092346192,
                1.1084247827529908,
                -0.8034250736236572,
                -1.6096633672714234,
                0.23928242921829225,
                -1.7055765390396119,
                0.08141206949949265,
                2.0027546882629396,
                0.11511003226041794,
                -0.010304659605026245,
                0.5371506214141846,
                0.7259244322776794,
                -0.6002644300460815,
                -2.3981330394744875,
                -1.3671958446502686,
                0.34941983222961428,
                0.17193922400474549,
                -0.13726910948753358,
                -1.3536361455917359,
                -0.8873562812805176,
                1.686850666999817,
                1.2615820169448853,
                0.9104496240615845,
                -0.17843881249427796,
                0.39128684997558596,
                1.552035927772522,
                0.5140612125396729,
                -1.553736686706543,
                -1.5398671627044678,
                -0.3863261938095093,
                -0.17226958274841309,
                -0.877983033657074,
                0.2153458595275879,
                1.056565523147583,
                0.6710068583488464,
                0.8088089227676392,
                2.646376848220825,
                0.14915791153907777,
                -0.011383697390556336,
                -0.31494390964508059,
                -0.22248291969299317,
                -0.8045210838317871,
                -1.1989037990570069,
                -0.3176383972167969,
                -0.6007483005523682,
                -1.8062506914138795,
                -1.5006557703018189,
                0.698233962059021,
                -0.08545751124620438,
                -0.9777370095252991,
                -1.662542462348938,
                -0.6106516122817993,
                -0.5452308058738709,
                1.487264633178711,
                -1.0249367952346802,
                2.183467149734497,
                -1.0033016204833985,
                -0.713172972202301,
                -0.004304114729166031,
                0.7851553559303284,
                0.5474312901496887,
                1.5605149269104005,
                1.5755170583724976,
                -0.09860429912805557,
                1.7629218101501465,
                1.1193993091583253,
                1.6895159482955933,
                -0.05980619043111801,
                0.06928471475839615,
                0.06820280849933624,
                0.15357545018196107,
                -0.7311301827430725,
                0.5168116688728333,
                2.8397040367126467,
                -1.2637479305267335,
                0.2286185324192047,
                1.3292334079742432,
                0.680884838104248,
                -1.0617629289627076,
                -0.6732339262962341,
                1.6467407941818238,
                0.30464237928390505,
                -0.47154197096824648,
                -1.766760230064392,
                0.6382932662963867,
                1.4141459465026856,
                1.125213861465454,
                0.10637632012367249
            ],
            "fitness": 44.708351135253909,
            "npcType": 0
        },
        {
            "layers": [
                8,
                8,
                6,
                4
            ],
            "flattenedWeights": [
                -0.2640831768512726,
                0.4780549705028534,
                0.1597176492214203,
                -0.2381446659564972,
                0.9450209140777588,
                0.05630641430616379,
                0.7913503646850586,
                -0.5932931900024414,
                -2.241314172744751,
                0.5533432960510254,
                -0.822853684425354,
                1.2422468662261963,
                0.31103256344795229,
                -0.1638948917388916,
                -0.04110818728804588,
                0.8653621673583984,
                -1.535475730895996,
                1.530905842781067,
                0.28957581520080569,
                0.47849753499031069,
                1.365229606628418,
                -0.5551007390022278,
                0.6280609965324402,
                1.730574131011963,
                1.0595179796218873,
                -1.2591273784637452,
                0.19147524237632752,
                -1.5331660509109498,
                0.5676815509796143,
                0.5881661176681519,
                -1.4458786249160767,
                -0.5561040043830872,
                0.1921950727701187,
                0.3404168486595154,
                1.0647026300430298,
                -0.8507463932037354,
                -1.4024327993392945,
                1.144116759300232,
                -0.3278045654296875,
                0.5379825830459595,
                -1.0792601108551026,
                -1.986266016960144,
                -0.43440112471580508,
                -0.7579204440116882,
                1.588608741760254,
                1.2705022096633912,
                -0.7726065516471863,
                -0.26030632853507998,
                1.7329051494598389,
                1.003331184387207,
                -1.1700735092163087,
                -1.7134534120559693,
                0.09990246593952179,
                -1.6882349252700806,
                0.185180202126503,
                1.9283671379089356,
                0.13546434044837953,
                -0.010304659605026245,
                0.14602932333946229,
                0.7236904501914978,
                -0.5096455216407776,
                -2.5645534992218019,
                -1.3267689943313599,
                0.28658437728881838,
                0.4521784782409668,
                -0.42618176341056826,
                -1.4017912149429322,
                -0.8155844211578369,
                1.5908464193344117,
                0.8884606957435608,
                1.233396291732788,
                -0.19653087854385377,
                0.3454074561595917,
                0.4295867681503296,
                0.5021029710769653,
                -0.9774676561355591,
                -1.5851396322250367,
                0.03510564565658569,
                -0.2232428342103958,
                -0.8211451768875122,
                0.33092305064201357,
                1.1222758293151856,
                0.8553335070610046,
                0.7024449110031128,
                1.8307185173034669,
                -0.5722008943557739,
                -0.10303699970245362,
                -0.2088305652141571,
                -0.1760631948709488,
                -0.8743844628334045,
                -1.2379710674285889,
                0.14007209241390229,
                -0.9806839823722839,
                -1.8022385835647584,
                -1.7690200805664063,
                0.8122898936271668,
                -0.08428826928138733,
                -0.8357171416282654,
                -2.0258095264434816,
                -0.47853246331214907,
                -0.5593346357345581,
                1.3096191883087159,
                -0.9816935062408447,
                2.375096082687378,
                -1.022802472114563,
                -0.5147544145584106,
                -0.12891146540641786,
                0.7923121452331543,
                0.6787006855010986,
                1.7544368505477906,
                1.6269426345825196,
                -0.02527041733264923,
                1.6894805431365967,
                1.2232147455215455,
                1.7460606098175049,
                -0.11902011930942536,
                0.05543312430381775,
                -0.03342406451702118,
                -0.014688536524772644,
                -0.687493622303009,
                0.6627418994903565,
                2.7839133739471437,
                -1.550786018371582,
                0.22886905074119569,
                1.8151109218597413,
                0.5550343990325928,
                -0.8256813287734985,
                -0.4657798111438751,
                1.729878306388855,
                0.3976994752883911,
                -0.250535249710083,
                -1.6266652345657349,
                0.7109183669090271,
                1.1595664024353028,
                0.9231861233711243,
                0.2245965451002121
            ],
            "fitness": 44.68124008178711,
            "npcType": 0
        },
        {
            "layers": [
                8,
                8,
                6,
                4
            ],
            "flattenedWeights": [
                -0.36229124665260317,
                0.3228229582309723,
                0.3186342716217041,
                -0.35301291942596438,
                1.1450711488723755,
                0.2186465561389923,
                0.4473620653152466,
                -0.6828494071960449,
                -2.0829782485961916,
                0.7358438968658447,
                -0.8485501408576965,
                1.34322190284729,
                0.4404866397380829,
                -0.29075053334236147,
                0.46231749653816225,
                0.7438889741897583,
                -1.5647469758987427,
                1.168709397315979,
                0.0301433764398098,
                0.4334966242313385,
                1.4242150783538819,
                -0.5160543918609619,
                0.3716088533401489,
                1.8030164241790772,
                0.9099677205085754,
                -1.226944088935852,
                0.5624610185623169,
                -1.7537096738815308,
                1.0740207433700562,
                0.9225020408630371,
                -1.4506938457489014,
                -0.8393462896347046,
                0.2959875464439392,
                0.18086759746074677,
                0.661109209060669,
                -0.7229129076004028,
                -1.1843401193618775,
                1.285969614982605,
                0.05428057163953781,
                0.3145848214626312,
                -1.1492886543273926,
                -2.2168896198272707,
                -0.47931361198425295,
                -0.7579204440116882,
                1.7764250040054322,
                1.2683390378952027,
                -0.8902154564857483,
                -0.2380855679512024,
                1.9059330224990845,
                1.168879508972168,
                -0.9765676856040955,
                -1.6471583843231202,
                0.16401168704032899,
                -1.7055765390396119,
                0.17198416590690614,
                1.8959568738937379,
                0.04572605341672897,
                -0.05055815726518631,
                0.46044766902923586,
                0.7759799957275391,
                -0.5267826318740845,
                -2.3981330394744875,
                -1.4175735712051392,
                0.24251100420951844,
                0.35258758068084719,
                -0.38171303272247317,
                -1.22105872631073,
                -0.9238246083259583,
                1.674074411392212,
                0.6674544811248779,
                1.0914273262023926,
                -0.17040856182575227,
                0.2644333839416504,
                1.615962028503418,
                0.45255953073501589,
                -1.4763776063919068,
                -0.9969852566719055,
                -0.4666351079940796,
                -0.17226958274841309,
                -0.5546999573707581,
                -0.1776660680770874,
                1.001415729522705,
                0.5164928436279297,
                0.8088089227676392,
                2.7231836318969728,
                0.2184562385082245,
                -0.18290771543979646,
                -0.2586815059185028,
                -0.29313868284225466,
                -0.8743844628334045,
                -1.246213436126709,
                -0.25427597761154177,
                -0.8925727605819702,
                -1.6961311101913453,
                -1.9790557622909547,
                0.698233962059021,
                -0.07492394000291825,
                -1.1214145421981812,
                -1.763989806175232,
                -0.6106516122817993,
                -0.8983930945396423,
                1.253209114074707,
                -0.9170326590538025,
                2.4339611530303957,
                -1.157974123954773,
                -0.5628380179405212,
                -0.00023151934146881104,
                0.8509237766265869,
                0.4511891305446625,
                1.5605149269104005,
                1.5264248847961426,
                -0.10030277818441391,
                1.7382173538208008,
                1.0374280214309693,
                1.5281344652175904,
                -0.05980619043111801,
                -0.039987713098526,
                -0.017977960407733918,
                -0.004630129784345627,
                -0.6974984407424927,
                0.033992521464824679,
                3.1527955532073976,
                -1.1778805255889893,
                0.3138442933559418,
                1.2672683000564576,
                0.3056114912033081,
                -1.0208665132522584,
                -0.42647507786750796,
                2.088573694229126,
                0.30464237928390505,
                -0.5303092002868652,
                -1.782148838043213,
                0.5442109107971191,
                1.0879377126693726,
                1.0898853540420533,
                0.10637632012367249
            ],
            "fitness": 44.679840087890628,
            "npcType": 0
        },
        {
            "layers": [
                8,
                8,
                6,
                4
            ],
            "flattenedWeights": [
                -0.24078726768493653,
                0.1296764314174652,
                0.2208559811115265,
                -0.35301291942596438,
                1.1450711488723755,
                0.2186465561389923,
                0.5633850693702698,
                -0.7225988507270813,
                -2.0543339252471926,
                0.6960513591766357,
                -0.7537775635719299,
                1.2720861434936524,
                0.5598074793815613,
                -0.20560170710086823,
                0.36544838547706606,
                0.7608007192611694,
                -1.3523504734039307,
                1.3083114624023438,
                0.0301433764398098,
                0.3651576042175293,
                1.4077188968658448,
                -0.7139902114868164,
                0.7649287581443787,
                1.7174618244171143,
                0.9082136154174805,
                -1.1785013675689698,
                0.5624610185623169,
                -1.516357421875,
                1.0687047243118287,
                0.9180619716644287,
                -1.3024247884750367,
                -0.8393462896347046,
                0.29217496514320376,
                0.34558194875717165,
                0.7378570437431336,
                -0.6602836847305298,
                -1.3780345916748047,
                1.258170247077942,
                -0.17738156020641328,
                0.37128859758377077,
                -1.179478645324707,
                -2.12764048576355,
                -0.47931361198425295,
                -0.7207171320915222,
                1.1073122024536133,
                1.2011597156524659,
                -0.8446760773658752,
                -0.2380855679512024,
                1.569839358329773,
                1.168879508972168,
                -0.8126130700111389,
                -1.7134534120559693,
                0.16401168704032899,
                -1.783565640449524,
                0.025967590510845186,
                1.927600622177124,
                0.07219177484512329,
                0.1345917284488678,
                0.34401294589042666,
                0.8093781471252441,
                -0.5085679888725281,
                -2.3981330394744875,
                -1.4083151817321778,
                0.18431317806243897,
                0.3876933753490448,
                -0.13726910948753358,
                -1.2617262601852418,
                -0.9238246083259583,
                1.6236234903335572,
                0.5740196108818054,
                0.9419037699699402,
                -0.267863005399704,
                0.2644333839416504,
                1.596116065979004,
                0.35596540570259097,
                -1.553736686706543,
                -1.229234218597412,
                -0.43470287322998049,
                -0.2498108595609665,
                -0.5546999573707581,
                -0.14683014154434205,
                0.926143229007721,
                0.563987672328949,
                0.7551894783973694,
                1.808349370956421,
                0.10727324336767197,
                -0.27692288160324099,
                -0.2592463791370392,
                -0.3096584677696228,
                -0.9971734881401062,
                -1.4391536712646485,
                -0.25427597761154177,
                -1.0458691120147706,
                -1.678305745124817,
                -1.5335781574249268,
                0.698233962059021,
                -0.026233933866024019,
                -1.0093040466308594,
                -1.6658283472061158,
                -0.6106516122817993,
                -0.5452308058738709,
                1.253209114074707,
                -0.9170326590538025,
                2.240616798400879,
                -1.155189871788025,
                -0.5615469813346863,
                -0.41924044489860537,
                0.8704455494880676,
                0.6533723473548889,
                1.5858498811721802,
                1.5755170583724976,
                -0.10030277818441391,
                1.7629218101501465,
                1.1193993091583253,
                1.5136445760726929,
                -0.26356205344200137,
                0.04903091490268707,
                -0.017977960407733918,
                -0.19287431240081788,
                -0.687493622303009,
                0.04861844331026077,
                2.862022876739502,
                -1.4222935438156129,
                0.10948649793863297,
                1.3234142065048218,
                0.7517949342727661,
                -0.744257390499115,
                -0.43524816632270815,
                2.3724162578582765,
                0.4264768958091736,
                -0.16622336208820344,
                -1.6266652345657349,
                0.7236968278884888,
                1.3452610969543458,
                1.0898853540420533,
                0.10637632012367249
            ],
            "fitness": 44.66224670410156,
            "npcType": 0
        },
        {
            "layers": [
                8,
                8,
                6,
                4
            ],
            "flattenedWeights": [
                -0.2134438306093216,
                -0.09915778040885925,
                0.2247910499572754,
                -0.17944657802581788,
                0.8339184522628784,
                0.2885357141494751,
                0.6845011115074158,
                0.13259154558181764,
                -2.131901264190674,
                0.5533432960510254,
                -0.5051116943359375,
                1.2753610610961915,
                0.7515591979026794,
                -0.025890283286571504,
                -0.24601824581623078,
                0.3126491904258728,
                -1.47314453125,
                1.2498626708984376,
                0.34380289912223818,
                0.4572103023529053,
                1.2504664659500123,
                -0.367674320936203,
                0.6181221008300781,
                1.650391697883606,
                1.4618898630142213,
                -1.2981542348861695,
                0.5555638670921326,
                -1.5723798274993897,
                0.5651740431785584,
                0.778252363204956,
                -1.5387991666793824,
                -0.5833497643470764,
                0.4602251946926117,
                0.25497114658355715,
                0.7681488394737244,
                -0.876396656036377,
                -1.29877769947052,
                1.2149999141693116,
                -0.038704972714185718,
                0.61970055103302,
                -1.1304423809051514,
                -2.281456232070923,
                -0.23964357376098634,
                -1.065378189086914,
                1.762373685836792,
                1.2843302488327027,
                -0.9182966947555542,
                -0.14432880282402039,
                2.0664825439453127,
                1.1803852319717408,
                -1.1236754655838013,
                -1.6014883518218995,
                -0.0009440407156944275,
                -1.7194138765335084,
                0.10734988749027252,
                2.0264508724212648,
                0.18056625127792359,
                -0.26703932881355288,
                0.0072768256068229679,
                0.6401046514511108,
                -0.70437091588974,
                -2.3661224842071535,
                -1.3057730197906495,
                0.035169024020433429,
                0.4773918092250824,
                -0.4144849181175232,
                -1.2810579538345338,
                -1.037218451499939,
                1.700920581817627,
                1.310338020324707,
                1.0986378192901612,
                -0.4319460988044739,
                0.2933279275894165,
                1.4921141862869263,
                0.4663078486919403,
                -1.217529296875,
                -1.2197473049163819,
                -0.4602707028388977,
                -0.08088097721338272,
                -1.1553890705108643,
                0.05099296569824219,
                1.1224128007888795,
                0.71476149559021,
                0.6207066178321838,
                2.562983989715576,
                -0.48020684719085696,
                0.08926410228013993,
                -0.6942703723907471,
                -0.33768928050994875,
                -0.8705430030822754,
                -1.1132686138153077,
                0.049831509590148929,
                -0.8629492521286011,
                -1.9364423751831055,
                -2.0812599658966066,
                0.7295563220977783,
                0.1178235113620758,
                -0.734084963798523,
                -2.0110740661621095,
                -0.43245187401771548,
                -0.8115432262420654,
                1.5007920265197755,
                -0.8822437524795532,
                2.7132229804992677,
                -0.8529419302940369,
                -0.6563602685928345,
                -0.7036643624305725,
                0.8465789556503296,
                0.514803409576416,
                1.1030303239822388,
                1.318518042564392,
                -0.08822695910930634,
                1.734723448753357,
                1.219225287437439,
                1.6534518003463746,
                -0.0708857849240303,
                0.372015118598938,
                0.092540442943573,
                -0.08296824991703034,
                -0.7758690118789673,
                0.18301866948604585,
                2.9499990940093996,
                -1.270465612411499,
                0.21903452277183534,
                1.6824896335601807,
                0.2981249988079071,
                -0.9445507526397705,
                -0.30317312479019167,
                2.178955554962158,
                0.16958966851234437,
                -0.3977378010749817,
                -1.7817237377166749,
                0.707388162612915,
                1.1595664024353028,
                0.9394456148147583,
                0.3982069492340088
            ],
            "fitness": 44.637062072753909,
            "npcType": 0
        },
        {
            "layers": [
                8,
                8,
                6,
                4
            ],
            "flattenedWeights": [
                -0.3614461421966553,
                0.3436211347579956,
                0.5150266885757446,
                -0.11794476956129074,
                0.6487177014350891,
                0.006030447781085968,
                0.4313712418079376,
                -0.6828494071960449,
                -2.076352834701538,
                0.6028546094894409,
                -0.8103116154670715,
                0.8749620914459229,
                0.7515591979026794,
                -0.33435961604118349,
                0.42026278376579287,
                0.3126491904258728,
                -1.3690221309661866,
                1.0064268112182618,
                0.34380289912223818,
                0.6824862360954285,
                1.2504664659500123,
                -0.6444479823112488,
                0.6384467482566834,
                1.6562784910202027,
                1.204450249671936,
                -1.2981542348861695,
                0.3477408289909363,
                -1.516357421875,
                0.5710079669952393,
                0.8257778882980347,
                -1.5387991666793824,
                -0.5865303874015808,
                0.14104454219341279,
                0.3456335961818695,
                0.6355195641517639,
                -0.47412559390068056,
                -1.5738449096679688,
                1.2149999141693116,
                -0.2143121212720871,
                0.2825687527656555,
                -1.1097761392593384,
                -2.041660785675049,
                -0.5201913714408875,
                -1.065378189086914,
                1.9634459018707276,
                1.3160282373428345,
                -0.9769363403320313,
                -0.22526304423809052,
                1.7584443092346192,
                1.1803852319717408,
                -0.916424572467804,
                -1.5840814113616944,
                0.09990246593952179,
                -1.7056597471237183,
                -0.11528325080871582,
                1.9293628931045533,
                0.13546434044837953,
                -0.10531149804592133,
                0.14844518899917603,
                0.6401046514511108,
                -0.70437091588974,
                -2.4790546894073488,
                -1.545799970626831,
                0.2615615725517273,
                0.35085704922676089,
                -0.4045003652572632,
                -1.2103261947631837,
                -0.8601499795913696,
                1.5908464193344117,
                0.8261171579360962,
                0.9164587259292603,
                -0.48413732647895815,
                0.2933279275894165,
                1.5856550931930543,
                0.4289068281650543,
                -1.3983205556869507,
                -1.4150489568710328,
                -0.015721626579761506,
                -0.2232428342103958,
                -1.1553890705108643,
                -0.11808371543884278,
                1.3245222568511963,
                0.6710068583488464,
                0.67555832862854,
                2.4367215633392336,
                -0.5589218139648438,
                -0.31400153040885928,
                -0.25083744525909426,
                -0.12825077772140504,
                -0.834081768989563,
                -1.2970565557479859,
                -0.0055072009563446049,
                -0.5324633717536926,
                -1.8062506914138795,
                -1.7990992069244385,
                1.0564273595809937,
                -0.04812631011009216,
                -0.5697336196899414,
                -2.0110740661621095,
                -0.43245187401771548,
                -0.7875393629074097,
                1.346413016319275,
                -1.335701823234558,
                2.2094860076904299,
                -1.0652657747268677,
                -0.6563602685928345,
                -0.44352102279663088,
                0.7153093814849854,
                0.514803409576416,
                0.9994215369224548,
                1.318518042564392,
                -0.08936220407485962,
                1.8159254789352418,
                1.0830100774765015,
                1.688718557357788,
                -0.16610553860664369,
                0.0843222364783287,
                0.13196048140525819,
                -0.0563945546746254,
                -0.6987168192863464,
                0.46191293001174929,
                2.9454915523529054,
                -1.270465612411499,
                0.31096509099006655,
                1.8163952827453614,
                0.5550343990325928,
                -0.8342471718788147,
                -0.5846239924430847,
                2.2786004543304445,
                0.4996032416820526,
                -0.4665870666503906,
                -1.7817237377166749,
                0.769275426864624,
                1.0383288860321046,
                0.9394456148147583,
                0.3406803011894226
            ],
            "fitness": 44.62093734741211,
            "npcType": 0
        },
        {
            "layers": [
                8,
                8,
                6,
                4
            ],
            "flattenedWeights": [
                -0.2974739074707031,
                0.4455328583717346,
                0.5304781794548035,
                -0.41134417057037356,
                0.9572417140007019,
                0.1392638236284256,
                0.5599852800369263,
                0.18065892159938813,
                -2.252453565597534,
                1.2012813091278077,
                -0.7058115601539612,
                1.352616310119629,
                0.8038023710250855,
                -0.1638948917388916,
                0.39682579040527346,
                0.2870064675807953,
                -1.3892406225204468,
                1.2498626708984376,
                0.16494116187095643,
                0.4016900956630707,
                1.5091172456741334,
                -0.42909306287765505,
                0.4671410620212555,
                1.6925952434539796,
                0.9220470786094666,
                -1.312434196472168,
                0.2230929732322693,
                -1.1847883462905884,
                0.5444333553314209,
                0.6990519762039185,
                -1.4669759273529053,
                -0.6771836876869202,
                0.6261695027351379,
                0.1790248155593872,
                0.7339537739753723,
                -0.7385773062705994,
                -1.2615060806274415,
                1.2739382982254029,
                -0.10321618616580963,
                0.5709711909294128,
                -1.0575895309448243,
                -1.9046999216079713,
                -0.48082268238067629,
                -1.161895513534546,
                1.9930509328842164,
                1.2398649454116822,
                -1.1605911254882813,
                -0.2389569729566574,
                1.965516209602356,
                1.0530438423156739,
                -1.1559215784072877,
                -1.2526026964187623,
                0.29222261905670168,
                -1.6198947429656983,
                0.08039514720439911,
                2.0264508724212648,
                0.1803407371044159,
                -0.39042165875434878,
                0.307561457157135,
                0.6414225101470947,
                -0.34029465913772585,
                -2.392092227935791,
                -1.1695163249969483,
                0.11207209527492523,
                0.3796529769897461,
                -0.4665490388870239,
                -1.3902171850204468,
                -0.8647541999816895,
                1.7022690773010255,
                0.8446260690689087,
                0.9759054780006409,
                -0.21427258849143983,
                0.48853611946105959,
                0.5436978936195374,
                0.3789180815219879,
                -0.9476335644721985,
                -1.1978425979614258,
                -0.45460468530654909,
                -0.22882001101970673,
                -0.8420305252075195,
                -0.0834866613149643,
                1.322953462600708,
                0.6265044212341309,
                0.8088089227676392,
                2.722018003463745,
                -0.48020684719085696,
                -0.19316719472408296,
                -0.3995453119277954,
                0.04922159016132355,
                -0.5041826367378235,
                -0.9540579915046692,
                0.05606639385223389,
                -1.0061619281768799,
                -1.8953405618667603,
                -1.7893463373184205,
                0.9987738728523254,
                0.24733388423919679,
                -1.0637353658676148,
                -1.874158263206482,
                -0.7112125158309937,
                -0.621383011341095,
                1.4563672542572022,
                -0.7771822214126587,
                2.354862928390503,
                -0.9406507611274719,
                -0.7688557505607605,
                -0.6112845540046692,
                0.5779294967651367,
                0.4833567142486572,
                1.0933732986450196,
                1.5743144750595093,
                -0.3354763984680176,
                1.5947636365890504,
                1.2311466932296754,
                1.6270127296447755,
                -0.13768887519836427,
                0.41039949655532839,
                0.11253000795841217,
                0.03524218127131462,
                -0.7541561126708984,
                0.3842850923538208,
                2.8143515586853029,
                -1.4693866968154908,
                0.1778222918510437,
                1.7412093877792359,
                0.40418481826782229,
                -0.935063898563385,
                -0.6020565032958984,
                2.0971839427948,
                0.39772289991378786,
                -0.44068342447280886,
                -1.6203932762145997,
                0.703158974647522,
                0.9102321267127991,
                1.0154869556427003,
                0.3982069492340088
            ],
            "fitness": 44.62089920043945,
            "npcType": 0
        },
        {
            "layers": [
                8,
                8,
                6,
                4
            ],
            "flattenedWeights": [
                -0.2963688373565674,
                0.3192366659641266,
                0.11080881208181381,
                -0.21358126401901246,
                1.1582025289535523,
                -0.018260475248098375,
                0.605826735496521,
                -0.30282896757125857,
                -1.9670315980911255,
                0.49673593044281008,
                -0.6684291958808899,
                0.8922615647315979,
                0.67665696144104,
                -0.06895338743925095,
                0.2462775558233261,
                0.8053544163703919,
                -1.4860996007919312,
                1.063773512840271,
                0.05260617285966873,
                0.44684338569641116,
                1.0524613857269288,
                -0.60616534948349,
                0.5992803573608398,
                1.7018072605133057,
                1.204450249671936,
                -0.6754957437515259,
                0.5065658092498779,
                -1.3821611404418946,
                0.44135916233062746,
                0.6624730825424194,
                -1.375972867012024,
                -0.7037309408187866,
                0.1921950727701187,
                0.2113211452960968,
                0.77967768907547,
                -0.3058539032936096,
                -1.4528459310531617,
                1.2149999141693116,
                -0.23779095709323884,
                0.5035790205001831,
                -1.1326651573181153,
                -2.1563796997070314,
                -0.3158843219280243,
                -1.1331896781921387,
                1.0776938199996949,
                1.3400533199310303,
                -0.9674192070960999,
                -0.2380855679512024,
                2.003319501876831,
                1.262193202972412,
                -0.9681265950202942,
                -1.5046237707138062,
                -0.3485184907913208,
                -1.7615013122558594,
                0.2204226851463318,
                1.5847983360290528,
                0.13546434044837953,
                0.03528915345668793,
                0.43883323669433596,
                0.6359657645225525,
                -0.79752117395401,
                -1.9337882995605469,
                -1.5032583475112916,
                0.2625742256641388,
                0.35258758068084719,
                -0.49148866534233096,
                -1.1367740631103516,
                -1.0735747814178467,
                1.723214864730835,
                1.2999943494796754,
                1.138716697692871,
                -0.4305475354194641,
                0.341279536485672,
                1.6595935821533204,
                0.4865293800830841,
                -1.5081477165222169,
                -1.0358223915100098,
                -0.5186589360237122,
                -0.1434532105922699,
                -0.7254061102867127,
                -0.10242447257041931,
                1.0244609117507935,
                0.7982274293899536,
                0.7608624696731567,
                2.7678513526916506,
                0.2184562385082245,
                -0.3268183767795563,
                -0.32567399740219118,
                -0.13091638684272767,
                -0.834081768989563,
                -1.4412418603897095,
                0.2502586841583252,
                -1.051448941230774,
                -1.833788275718689,
                -2.1570920944213869,
                0.68702232837677,
                -0.024110741913318635,
                -0.6730295419692993,
                -1.5088013410568238,
                -0.25881826877593996,
                -0.7633681297302246,
                1.0854005813598633,
                -0.8104871511459351,
                2.586534261703491,
                -1.2171114683151246,
                -0.6563602685928345,
                -0.08962960541248322,
                0.7764073014259338,
                0.5781469941139221,
                1.6289280652999879,
                1.9266432523727418,
                -0.06160842627286911,
                1.7423815727233887,
                1.0696821212768555,
                1.4337652921676636,
                0.05685277283191681,
                -0.00852196291089058,
                0.1592753678560257,
                -0.11822697520256043,
                -0.7596955299377441,
                0.5918579697608948,
                2.723987102508545,
                -1.0477510690689088,
                0.30390748381614687,
                1.6874083280563355,
                -0.044557370245456699,
                -0.935063898563385,
                -0.6425870060920715,
                1.729878306388855,
                0.45245233178138735,
                -0.3186964988708496,
                -1.7817237377166749,
                0.8209682106971741,
                1.2890925407409669,
                1.0301674604415894,
                0.25965574383735659
            ],
            "fitness": 44.58262252807617,
            "npcType": 0
        },
        {
            "layers": [
                8,
                8,
                6,
                4
            ],
            "flattenedWeights": [
                -0.1706417202949524,
                0.41622892022132876,
                0.3896149694919586,
                -0.2315879762172699,
                1.162835717201233,
                0.17646059393882752,
                0.5395851731300354,
                -0.7190858721733093,
                -2.144848108291626,
                0.7558096647262573,
                -0.7058115601539612,
                1.2152347564697266,
                0.4444776773452759,
                -0.2468864917755127,
                0.4309085011482239,
                0.6550752520561218,
                -1.4884687662124634,
                1.3525069952011109,
                0.041149742901325229,
                0.4653000235557556,
                1.425719141960144,
                -0.60616534948349,
                0.38964393734931948,
                1.784124493598938,
                0.8248119354248047,
                -1.1460790634155274,
                0.36940738558769228,
                -1.5205333232879639,
                1.0687047243118287,
                0.7672985792160034,
                -1.40154230594635,
                -0.7226821184158325,
                0.4456539452075958,
                0.33050215244293215,
                0.6285430192947388,
                -0.7229129076004028,
                -1.3218960762023926,
                1.258170247077942,
                0.009926460683345795,
                0.5511365532875061,
                -1.1263022422790528,
                -2.15340256690979,
                -0.37481924891471865,
                -0.9118907451629639,
                1.1073122024536133,
                1.3510775566101075,
                -0.8902154564857483,
                -0.2970734238624573,
                1.8932934999465943,
                1.0807595252990723,
                -1.0561909675598145,
                -1.8104121685028077,
                0.21630731225013734,
                -1.4975067377090455,
                0.3308882415294647,
                1.6734970808029175,
                0.023910772055387498,
                -0.3204019367694855,
                0.3064291775226593,
                0.5717788338661194,
                -0.5720226764678955,
                -1.9337882995605469,
                -1.446302890777588,
                0.3550526797771454,
                0.26229333877563479,
                -0.4297487735748291,
                -1.4396995306015015,
                -0.8171597123146057,
                1.7409111261367798,
                1.2999943494796754,
                0.9599806666374207,
                -0.21752946078777314,
                0.282604455947876,
                1.615962028503418,
                0.6361864805221558,
                -1.1050126552581788,
                -1.0513670444488526,
                -0.3618388772010803,
                -0.25240951776504519,
                -0.7624605894088745,
                0.039947934448719028,
                0.6280190348625183,
                0.5226981043815613,
                0.6791288256645203,
                1.9115203619003297,
                -0.5690737962722778,
                -0.30023446679115298,
                -0.2961030900478363,
                -0.2287459671497345,
                -0.9816749691963196,
                -1.3769513368606568,
                0.07011057436466217,
                -1.0268954038619996,
                -1.7347593307495118,
                -1.7102537155151368,
                0.7295563220977783,
                -0.011572342365980149,
                -1.106299638748169,
                -1.420627474784851,
                -0.327729731798172,
                -0.7865280508995056,
                1.4344984292984009,
                -1.102934718132019,
                2.662838935852051,
                -1.1718659400939942,
                -0.6063669919967651,
                -0.0036064013838768007,
                0.45570969581604006,
                0.5918434858322144,
                1.837242841720581,
                1.609212875366211,
                -0.12413489073514939,
                1.5866172313690186,
                1.125942349433899,
                1.8125594854354859,
                0.06635522097349167,
                0.25030475854873659,
                0.13343200087547303,
                -0.024531319737434388,
                -0.855912983417511,
                -0.03221981227397919,
                2.3315813541412355,
                -1.2253177165985108,
                0.32241612672805788,
                1.6224368810653687,
                0.2002238929271698,
                -0.699308454990387,
                -0.6207141876220703,
                2.16037654876709,
                0.4139542877674103,
                -0.08698143810033798,
                -1.7668156623840333,
                0.6101362705230713,
                0.9073684215545654,
                1.0304375886917115,
                0.3572899103164673
            ],
            "fitness": 44.57277297973633,
            "npcType": 0
        },
        {
            "layers": [
                8,
                8,
                6,
                4
            ],
            "flattenedWeights": [
                -0.11384086310863495,
                0.18986257910728455,
                0.13884931802749635,
                -0.2670765817165375,
                0.9588994383811951,
                0.15372228622436524,
                0.7004993557929993,
                -0.07854491472244263,
                -2.1760947704315187,
                1.033202886581421,
                -0.7126502394676209,
                1.4465218782424927,
                0.5567750930786133,
                -0.47941863536834719,
                0.15075868368148805,
                0.6703677773475647,
                -1.4149178266525269,
                1.370009422302246,
                0.18690894544124604,
                0.5328552722930908,
                1.1091538667678834,
                -0.7490495443344116,
                0.5880252718925476,
                1.6129411458969117,
                1.3530569076538087,
                -0.7827578783035278,
                0.3533138036727905,
                -1.5485341548919678,
                0.5449153780937195,
                0.4813201427459717,
                -1.4669759273529053,
                -0.5347241759300232,
                0.6261695027351379,
                0.22825887799263,
                0.9580438137054443,
                -0.7959216237068176,
                -1.4294005632400513,
                1.2031185626983643,
                -0.19984892010688783,
                0.2883615493774414,
                -1.1919934749603272,
                -1.939017653465271,
                -0.5514779686927795,
                -0.7539920210838318,
                1.566420555114746,
                1.131455421447754,
                -0.8971184492111206,
                -0.17469418048858643,
                1.70103120803833,
                1.1843441724777222,
                -0.8337251543998718,
                -1.5983848571777344,
                -0.09052856266498566,
                -1.771718978881836,
                0.09268630295991898,
                1.8617762327194214,
                0.05836595594882965,
                -0.287413626909256,
                0.12712278962135316,
                0.5135899186134338,
                -0.5563244819641113,
                -1.8507075309753419,
                -1.3037952184677125,
                0.035169024020433429,
                0.4521784782409668,
                -0.3751809597015381,
                -1.3770960569381714,
                -0.7763845920562744,
                1.5987017154693604,
                1.2200697660446168,
                0.9092051386833191,
                -0.11898215115070343,
                0.2771620750427246,
                0.4204091429710388,
                0.41353896260261538,
                -1.2013986110687256,
                -1.1395119428634644,
                -0.5936884880065918,
                -0.2691619098186493,
                -0.9613693952560425,
                0.08145147562026978,
                1.2891377210617066,
                0.8205698728561401,
                0.6226099729537964,
                1.9559406042099,
                -0.44094318151474,
                0.08926410228013993,
                -0.8092706203460693,
                -0.35250231623649599,
                -0.5955790281295776,
                -1.162317156791687,
                -0.28391560912132265,
                -0.9788070321083069,
                -1.9331965446472169,
                -1.7902816534042359,
                1.1485276222229005,
                -0.07084199786186218,
                -0.8260375261306763,
                -1.9584397077560425,
                -0.7112125158309937,
                -0.8778347969055176,
                1.770971417427063,
                -1.02531099319458,
                2.643059253692627,
                -0.967490017414093,
                -0.9293330311775208,
                0.07245118916034699,
                0.606802761554718,
                0.3664588928222656,
                1.0407270193099976,
                1.3427962064743043,
                -0.11088873445987702,
                1.7687098979949952,
                1.0682119131088257,
                1.58063805103302,
                -0.08223681896924973,
                0.3733976483345032,
                -0.023205295205116273,
                0.3152032494544983,
                -0.7267376184463501,
                0.26130571961402895,
                2.8753182888031008,
                -1.2269165515899659,
                0.21930906176567079,
                1.5107738971710206,
                0.7414764761924744,
                -1.0171613693237305,
                -0.5186209678649902,
                2.16037654876709,
                0.6262223720550537,
                -0.17198127508163453,
                -2.043720006942749,
                0.8397251963615418,
                1.0747915506362916,
                0.9755293130874634,
                0.36787259578704836
            ],
            "fitness": 44.56601333618164,
            "npcType": 0
        }
    ],
    "timestamp": "2025-06-15 05:27:37"
}