{
    "generation": 65,
    "bestFitness": 95.76927947998047,
    "averageFitness": 74.71101379394531,
    "worstFitness": 13.499446868896485,
    "networks": [
        {
            "layers": [
                8,
                8,
                6,
                4
            ],
            "flattenedWeights": [
                0.1741982251405716,
                1.1744356155395508,
                -0.5972890257835388,
                0.23607322573661805,
                -0.39263492822647097,
                0.9093183279037476,
                -1.3671671152114869,
                -1.2038280963897706,
                1.0284717082977296,
                1.2666020393371583,
                0.008531168103218079,
                -0.8527648448944092,
                -0.47226500511169436,
                -0.36409085988998415,
                0.4207654595375061,
                -0.8488999605178833,
                0.030043162405490876,
                -0.6534734964370728,
                -1.1784673929214478,
                0.8817616105079651,
                1.1582211256027222,
                1.0424973964691163,
                0.3302271366119385,
                -0.594871997833252,
                0.29487818479537966,
                0.6556574106216431,
                -0.20915523171424867,
                0.6307615637779236,
                0.19204726815223695,
                -0.9133884906768799,
                0.8026444911956787,
                -0.24928343296051026,
                -0.4012286961078644,
                -0.18053486943244935,
                1.251247525215149,
                -0.9822250604629517,
                0.12385201454162598,
                -0.9387016296386719,
                -0.9502102136611939,
                0.11633869260549545,
                0.34327948093414309,
                0.3614526093006134,
                -0.029767535626888276,
                -0.3918074369430542,
                0.5701006650924683,
                1.1131938695907593,
                0.1735936999320984,
                0.5133416056632996,
                0.7328704595565796,
                -0.7753597497940064,
                -0.20577022433280946,
                0.8085637092590332,
                0.15365667641162873,
                0.1601731777191162,
                -0.2572883367538452,
                0.6041007041931152,
                0.005029547959566116,
                -0.8917995691299439,
                -0.0876314714550972,
                0.8659186959266663,
                0.8612521886825562,
                1.1830710172653199,
                0.561001181602478,
                0.3005026876926422,
                0.17248186469078065,
                0.3963543772697449,
                -0.19903451204299928,
                0.8251178860664368,
                -2.323507785797119,
                -1.1513229608535767,
                -0.2093553990125656,
                0.41690075397491457,
                0.7469090223312378,
                1.5456855297088624,
                0.6115230321884155,
                0.22005221247673036,
                -0.055814456194639209,
                -0.19382920861244203,
                0.6455411911010742,
                -0.21265441179275514,
                -0.38541752099990847,
                0.2850658893585205,
                -0.902399480342865,
                -0.30267441272735598,
                0.46171948313713076,
                0.2229294776916504,
                -1.1977850198745728,
                -0.604935348033905,
                -0.634227991104126,
                -0.4743291735649109,
                0.8371273279190064,
                -0.323147714138031,
                -0.2061452865600586,
                0.10060860961675644,
                -1.0420804023742676,
                1.3005847930908204,
                -0.3153710961341858,
                -0.1143902987241745,
                -0.09253440052270889,
                0.6088429093360901,
                0.30471521615982058,
                -0.39932191371917727,
                -0.7867615222930908,
                0.4232099652290344,
                -0.5095215439796448,
                0.3175673186779022,
                -1.1419891119003297,
                -0.23105362057685853,
                -0.3509591817855835,
                0.40190184116363528,
                0.37731513381004336,
                0.847629964351654,
                -0.8495784997940064,
                -0.7192598581314087,
                -0.4848116934299469,
                -0.47093674540519717,
                1.0792334079742432,
                1.282242774963379,
                0.3941800892353058,
                -0.5371744632720947,
                0.7809646129608154,
                0.29247549176216128,
                0.9043260812759399,
                0.0749829038977623,
                0.08199025690555573,
                0.1412425935268402,
                0.3621819317340851,
                1.178612232208252,
                -0.8161078095436096,
                0.7836248874664307,
                0.42328307032585146,
                0.6894502639770508,
                1.6441154479980469,
                -0.2601207494735718,
                1.1252995729446412,
                0.5228966474533081
            ],
            "fitness": 95.76927947998047,
            "timeAlive": 9.661661148071289,
            "totalDistance": 18.987775802612306,
            "successfulJumps": 0,
            "checkpointsReached": 2,
            "uniqueAreasVisited": 4,
            "activeWeightsCount": 134,
            "weightComplexity": 0.9852941036224365,
            "outputLockStatus": [
                false,
                false,
                false,
                false
            ],
            "correctJumps": 0,
            "incorrectJumps": 0,
            "explorationEfficiency": 0.2106618583202362
        },
        {
            "layers": [
                8,
                8,
                6,
                4
            ],
            "flattenedWeights": [
                0.20040875673294068,
                1.1744356155395508,
                -0.6631510853767395,
                0.23607322573661805,
                -0.39263492822647097,
                0.9093183279037476,
                -1.3671671152114869,
                -1.1749597787857056,
                1.0284717082977296,
                1.1735007762908936,
                0.008531168103218079,
                -0.8527648448944092,
                -0.4496345520019531,
                -0.36409085988998415,
                0.4207654595375061,
                -0.9470562934875488,
                -0.07463681697845459,
                -0.6534734964370728,
                -1.1784673929214478,
                0.9343414902687073,
                1.079506754875183,
                1.0263022184371949,
                0.42497628927230837,
                -0.5518596172332764,
                0.29487818479537966,
                0.6556574106216431,
                -0.20915523171424867,
                0.5516960620880127,
                0.19204726815223695,
                -0.9133884906768799,
                0.8026444911956787,
                -0.24928343296051026,
                -0.423765629529953,
                -0.1682843416929245,
                1.1627826690673829,
                -0.9822250604629517,
                0.09246877580881119,
                -0.9387016296386719,
                -0.9931440949440002,
                0.11633869260549545,
                0.4226687550544739,
                0.3614526093006134,
                -0.029767535626888276,
                -0.4868868589401245,
                0.5108917355537415,
                1.1131938695907593,
                0.13268250226974488,
                0.5133416056632996,
                0.7328704595565796,
                -0.7753597497940064,
                -0.15660855174064637,
                0.8121997117996216,
                0.15365667641162873,
                0.23052966594696046,
                -0.2572883367538452,
                0.6041007041931152,
                0.005029547959566116,
                -0.8861661553382874,
                -0.0876314714550972,
                0.942404568195343,
                0.8199658989906311,
                1.1830710172653199,
                0.5511133670806885,
                0.3005026876926422,
                0.2662948966026306,
                0.3963543772697449,
                -0.19903451204299928,
                0.8251178860664368,
                -2.323507785797119,
                -1.0975031852722169,
                -0.2093553990125656,
                0.49659571051597597,
                0.7103495001792908,
                1.5456855297088624,
                0.6115230321884155,
                0.22005221247673036,
                -0.055814456194639209,
                -0.19382920861244203,
                0.6669288277626038,
                -0.12662188708782197,
                -0.38541752099990847,
                0.31728750467300417,
                -0.9764800071716309,
                -0.30267441272735598,
                0.46171948313713076,
                0.2229294776916504,
                -1.1977850198745728,
                -0.6185221076011658,
                -0.634227991104126,
                -0.4743291735649109,
                0.8416134119033814,
                -0.323147714138031,
                -0.11196783185005188,
                0.14139315485954286,
                -1.0420804023742676,
                1.3005847930908204,
                -0.3153710961341858,
                -0.1143902987241745,
                -0.09253440052270889,
                0.6088429093360901,
                0.30160874128341677,
                -0.33990436792373659,
                -0.7867615222930908,
                0.454255074262619,
                -0.5095215439796448,
                0.4048316776752472,
                -1.1419891119003297,
                -0.32220521569252016,
                -0.3509591817855835,
                0.40190184116363528,
                0.37731513381004336,
                0.9223910570144653,
                -0.7832023501396179,
                -0.6620473861694336,
                -0.4242554008960724,
                -0.4426124691963196,
                1.018523931503296,
                1.341957688331604,
                0.3854724168777466,
                -0.44287586212158205,
                0.7653170228004456,
                0.21803304553031922,
                0.8099254965782166,
                0.12692084908485413,
                0.08199025690555573,
                0.1535010039806366,
                0.3038327097892761,
                1.178612232208252,
                -0.8161078095436096,
                0.7836248874664307,
                0.42328307032585146,
                0.7513425946235657,
                1.7321733236312867,
                -0.19190926849842072,
                1.1252995729446412,
                0.5228966474533081
            ],
            "fitness": 95.6538314819336,
            "timeAlive": 9.526169776916504,
            "totalDistance": 18.678762435913087,
            "successfulJumps": 0,
            "checkpointsReached": 2,
            "uniqueAreasVisited": 4,
            "activeWeightsCount": 134,
            "weightComplexity": 0.9852941036224365,
            "outputLockStatus": [
                false,
                false,
                false,
                false
            ],
            "correctJumps": 0,
            "incorrectJumps": 0,
            "explorationEfficiency": 0.2141469568014145
        },
        {
            "layers": [
                8,
                8,
                6,
                4
            ],
            "flattenedWeights": [
                0.20040875673294068,
                1.1744356155395508,
                -0.5972890257835388,
                0.23607322573661805,
                -0.39263492822647097,
                0.9093183279037476,
                -1.2420214414596558,
                -1.1220115423202515,
                1.0284717082977296,
                1.1735007762908936,
                0.008531168103218079,
                -0.8527648448944092,
                -0.5525117516517639,
                -0.36409085988998415,
                0.4207654595375061,
                -0.778063952922821,
                0.030043162405490876,
                -0.6534734964370728,
                -1.1784673929214478,
                0.8817616105079651,
                1.079506754875183,
                1.0424973964691163,
                0.3302271366119385,
                -0.5938242673873901,
                0.24739757180213929,
                0.6556574106216431,
                -0.20915523171424867,
                0.5516960620880127,
                0.19204726815223695,
                -0.9133884906768799,
                0.7652721405029297,
                -0.26810774207115176,
                -0.4012286961078644,
                -0.1682843416929245,
                1.251247525215149,
                -0.9822250604629517,
                0.12385201454162598,
                -0.9387016296386719,
                -0.9502102136611939,
                0.11633869260549545,
                0.4226687550544739,
                0.3614526093006134,
                -0.029767535626888276,
                -0.3918074369430542,
                0.5701006650924683,
                1.1131938695907593,
                0.1735936999320984,
                0.5133416056632996,
                0.7255201935768127,
                -0.7753597497940064,
                -0.20577022433280946,
                0.8586147427558899,
                0.15365667641162873,
                0.2518883943557739,
                -0.17944157123565675,
                0.6041007041931152,
                0.005029547959566116,
                -0.8917995691299439,
                -0.0876314714550972,
                0.8659186959266663,
                0.8199658989906311,
                1.1830710172653199,
                0.5511133670806885,
                0.3005026876926422,
                0.2662948966026306,
                0.4518614709377289,
                -0.19903451204299928,
                0.8470120429992676,
                -2.323507785797119,
                -1.0975031852722169,
                -0.2093553990125656,
                0.41690075397491457,
                0.7214704155921936,
                1.5456855297088624,
                0.6115230321884155,
                0.22005221247673036,
                -0.055814456194639209,
                -0.19382920861244203,
                0.6669288277626038,
                -0.12662188708782197,
                -0.38541752099990847,
                0.2850658893585205,
                -0.9764800071716309,
                -0.30267441272735598,
                0.46171948313713076,
                0.22522786259651185,
                -1.1977850198745728,
                -0.6185221076011658,
                -0.634227991104126,
                -0.5280651450157166,
                0.8081771731376648,
                -0.323147714138031,
                -0.2061452865600586,
                0.10060860961675644,
                -1.0420804023742676,
                1.3005847930908204,
                -0.3153710961341858,
                -0.1143902987241745,
                -0.09253440052270889,
                0.6088429093360901,
                0.30471521615982058,
                -0.468747615814209,
                -0.7867615222930908,
                0.4232099652290344,
                -0.5095215439796448,
                0.3175673186779022,
                -1.1419891119003297,
                -0.23105362057685853,
                -0.3509591817855835,
                0.40190184116363528,
                0.37731513381004336,
                0.847629964351654,
                -0.7832023501396179,
                -0.6620473861694336,
                -0.24270373582839967,
                -0.4426124691963196,
                1.0792334079742432,
                1.282242774963379,
                0.3377816379070282,
                -0.5914486050605774,
                0.7653170228004456,
                0.29247549176216128,
                0.9043260812759399,
                0.16647377610206605,
                0.08199025690555573,
                0.17138651013374329,
                0.27154862880706789,
                1.178612232208252,
                -0.8161078095436096,
                0.7836248874664307,
                0.42328307032585146,
                0.6894502639770508,
                1.6441154479980469,
                -0.2601207494735718,
                1.1252995729446412,
                0.5228966474533081
            ],
            "fitness": 95.53250122070313,
            "timeAlive": 9.383111000061036,
            "totalDistance": 18.525087356567384,
            "successfulJumps": 0,
            "checkpointsReached": 2,
            "uniqueAreasVisited": 4,
            "activeWeightsCount": 134,
            "weightComplexity": 0.9852941036224365,
            "outputLockStatus": [
                false,
                false,
                false,
                false
            ],
            "correctJumps": 0,
            "incorrectJumps": 0,
            "explorationEfficiency": 0.21592341363430024
        },
        {
            "layers": [
                8,
                8,
                6,
                4
            ],
            "flattenedWeights": [
                0.20825591683387757,
                1.1744356155395508,
                -0.5853549838066101,
                0.23607322573661805,
                -0.4306321442127228,
                0.8297470808029175,
                -1.3671671152114869,
                -1.1749597787857056,
                1.0871164798736573,
                1.1735007762908936,
                0.008531168103218079,
                -0.7729836702346802,
                -0.5525117516517639,
                -0.36409085988998415,
                0.38827988505363467,
                -0.8349999189376831,
                0.030043162405490876,
                -0.7460938692092896,
                -1.1784673929214478,
                0.8627079725265503,
                1.079506754875183,
                1.0424973964691163,
                0.3302271366119385,
                -0.5518596172332764,
                0.24739757180213929,
                0.6556574106216431,
                -0.2902555465698242,
                0.5516960620880127,
                0.11524420231580734,
                -0.8470566272735596,
                0.8026444911956787,
                -0.24928343296051026,
                -0.4012286961078644,
                -0.1682843416929245,
                1.251247525215149,
                -0.9822250604629517,
                0.12385201454162598,
                -0.9387016296386719,
                -0.9502102136611939,
                0.11633869260549545,
                0.4226687550544739,
                0.3614526093006134,
                -0.029767535626888276,
                -0.31761297583580019,
                0.5701006650924683,
                1.1131938695907593,
                0.1735936999320984,
                0.5133416056632996,
                0.7328704595565796,
                -0.7753597497940064,
                -0.1996489316225052,
                0.8586147427558899,
                0.15365667641162873,
                0.2518883943557739,
                -0.17944157123565675,
                0.6041007041931152,
                0.005029547959566116,
                -0.8917995691299439,
                -0.0876314714550972,
                0.8659186959266663,
                0.8612521886825562,
                1.1830710172653199,
                0.5511133670806885,
                0.3005026876926422,
                0.2662948966026306,
                0.3963543772697449,
                -0.19903451204299928,
                0.8251178860664368,
                -2.2513654232025148,
                -1.0975031852722169,
                -0.2093553990125656,
                0.41690075397491457,
                0.7214704155921936,
                1.5456855297088624,
                0.6115230321884155,
                0.22005221247673036,
                -0.032814014703035358,
                -0.11919999867677689,
                0.6669288277626038,
                -0.12662188708782197,
                -0.38541752099990847,
                0.302922785282135,
                -0.9764800071716309,
                -0.30267441272735598,
                0.46171948313713076,
                0.2229294776916504,
                -1.1977850198745728,
                -0.5727103352546692,
                -0.634227991104126,
                -0.4743291735649109,
                0.9002606272697449,
                -0.323147714138031,
                -0.2061452865600586,
                0.10060860961675644,
                -1.0420804023742676,
                1.2783074378967286,
                -0.3153710961341858,
                -0.1143902987241745,
                -0.09253440052270889,
                0.6685141324996948,
                0.30471521615982058,
                -0.468747615814209,
                -0.7867615222930908,
                0.4232099652290344,
                -0.4993964731693268,
                0.3175673186779022,
                -1.1419891119003297,
                -0.23105362057685853,
                -0.3509591817855835,
                0.4621331989765167,
                0.37731513381004336,
                0.847629964351654,
                -0.8495784997940064,
                -0.6620473861694336,
                -0.24270373582839967,
                -0.4426124691963196,
                1.0792334079742432,
                1.282242774963379,
                0.3941800892353058,
                -0.5914486050605774,
                0.7653170228004456,
                0.29247549176216128,
                0.9672139286994934,
                0.12692084908485413,
                0.1209215521812439,
                0.17138651013374329,
                0.3038327097892761,
                1.1890877485275269,
                -0.7574418187141419,
                0.7836248874664307,
                0.42328307032585146,
                0.7085930705070496,
                1.825685977935791,
                -0.1770269274711609,
                1.1252995729446412,
                0.5228966474533081
            ],
            "fitness": 95.5259780883789,
            "timeAlive": 9.383111000061036,
            "totalDistance": 18.320659637451173,
            "successfulJumps": 0,
            "checkpointsReached": 2,
            "uniqueAreasVisited": 4,
            "activeWeightsCount": 134,
            "weightComplexity": 0.9852941036224365,
            "outputLockStatus": [
                false,
                false,
                false,
                false
            ],
            "correctJumps": 0,
            "incorrectJumps": 0,
            "explorationEfficiency": 0.21833275258541108
        },
        {
            "layers": [
                8,
                8,
                6,
                4
            ],
            "flattenedWeights": [
                0.20040875673294068,
                1.1744356155395508,
                -0.5972890257835388,
                0.23607322573661805,
                -0.39263492822647097,
                0.9093183279037476,
                -1.2420214414596558,
                -1.1749597787857056,
                1.0284717082977296,
                1.1735007762908936,
                0.008531168103218079,
                -0.8527648448944092,
                -0.5525117516517639,
                -0.2921779155731201,
                0.4207654595375061,
                -0.778063952922821,
                0.030043162405490876,
                -0.6534734964370728,
                -1.1784673929214478,
                0.8817616105079651,
                1.0776156187057496,
                1.0424973964691163,
                0.2646731734275818,
                -0.6223067045211792,
                0.24739757180213929,
                0.6556574106216431,
                -0.29551103711128237,
                0.5516960620880127,
                0.19204726815223695,
                -0.9133884906768799,
                0.8026444911956787,
                -0.24928343296051026,
                -0.4012286961078644,
                -0.1682843416929245,
                1.251247525215149,
                -0.9822250604629517,
                0.10309256613254547,
                -0.9387016296386719,
                -0.9502102136611939,
                0.05985584855079651,
                0.4226687550544739,
                0.3614526093006134,
                -0.029767535626888276,
                -0.3918074369430542,
                0.5701006650924683,
                1.1131938695907593,
                0.1735936999320984,
                0.5133416056632996,
                0.7255201935768127,
                -0.7753597497940064,
                -0.20577022433280946,
                0.8816434741020203,
                0.16802307963371278,
                0.2518883943557739,
                -0.17944157123565675,
                0.6041007041931152,
                0.005029547959566116,
                -0.8917995691299439,
                -0.0876314714550972,
                0.8659186959266663,
                0.8199658989906311,
                1.1621594429016114,
                0.5511133670806885,
                0.3005026876926422,
                0.2662948966026306,
                0.3963543772697449,
                -0.19903451204299928,
                0.8251178860664368,
                -2.323507785797119,
                -1.0975031852722169,
                -0.2093553990125656,
                0.41690075397491457,
                0.7214704155921936,
                1.5456855297088624,
                0.6115230321884155,
                0.22005221247673036,
                -0.055814456194639209,
                -0.19382920861244203,
                0.6669288277626038,
                -0.12662188708782197,
                -0.38541752099990847,
                0.2850658893585205,
                -0.9764800071716309,
                -0.30267441272735598,
                0.46171948313713076,
                0.22522786259651185,
                -1.1977850198745728,
                -0.6185221076011658,
                -0.634227991104126,
                -0.5280651450157166,
                0.8371273279190064,
                -0.323147714138031,
                -0.2061452865600586,
                0.10060860961675644,
                -1.0420804023742676,
                1.3005847930908204,
                -0.3153710961341858,
                -0.1143902987241745,
                -0.12545494735240937,
                0.6088429093360901,
                0.30471521615982058,
                -0.468747615814209,
                -0.7867615222930908,
                0.41068074107170107,
                -0.5095215439796448,
                0.3175673186779022,
                -1.1419891119003297,
                -0.23105362057685853,
                -0.3509591817855835,
                0.40190184116363528,
                0.37731513381004336,
                0.847629964351654,
                -0.7832023501396179,
                -0.6620473861694336,
                -0.24270373582839967,
                -0.4426124691963196,
                0.9842676520347595,
                1.282242774963379,
                0.3941800892353058,
                -0.5914486050605774,
                0.7653170228004456,
                0.29247549176216128,
                0.9516089558601379,
                0.12692084908485413,
                0.08199025690555573,
                0.17138651013374329,
                0.27154862880706789,
                1.178612232208252,
                -0.8161078095436096,
                0.7836248874664307,
                0.39503997564315798,
                0.6894502639770508,
                1.6441154479980469,
                -0.2601207494735718,
                1.1252995729446412,
                0.5228966474533081
            ],
            "fitness": 95.51101684570313,
            "timeAlive": 9.526169776916504,
            "totalDistance": 18.665916442871095,
            "successfulJumps": 0,
            "checkpointsReached": 2,
            "uniqueAreasVisited": 4,
            "activeWeightsCount": 134,
            "weightComplexity": 0.9852941036224365,
            "outputLockStatus": [
                false,
                false,
                false,
                false
            ],
            "correctJumps": 0,
            "incorrectJumps": 0,
            "explorationEfficiency": 0.21429432928562165
        },
        {
            "layers": [
                8,
                8,
                6,
                4
            ],
            "flattenedWeights": [
                0.21179866790771485,
                1.1744356155395508,
                -0.5972890257835388,
                0.23607322573661805,
                -0.3575759828090668,
                0.9093183279037476,
                -1.3928433656692505,
                -1.1749597787857056,
                1.0284717082977296,
                1.165531873703003,
                0.008531168103218079,
                -0.8527648448944092,
                -0.5525117516517639,
                -0.36409085988998415,
                0.4207654595375061,
                -0.8778365850448608,
                0.030043162405490876,
                -0.6534734964370728,
                -1.1914045810699463,
                0.9694746732711792,
                1.079506754875183,
                1.0424973964691163,
                0.3302271366119385,
                -0.5251356959342957,
                0.29487818479537966,
                0.6556574106216431,
                -0.20915523171424867,
                0.5516960620880127,
                0.1842610239982605,
                -0.9390656352043152,
                0.8026444911956787,
                -0.24928343296051026,
                -0.39086395502090456,
                -0.1682843416929245,
                1.251247525215149,
                -0.8748573660850525,
                0.12385201454162598,
                -0.9276117086410523,
                -0.9502102136611939,
                0.11633869260549545,
                0.4226687550544739,
                0.2680767774581909,
                -0.04197827726602554,
                -0.3918074369430542,
                0.5569023489952087,
                1.1131938695907593,
                0.1465313732624054,
                0.5133416056632996,
                0.7328704595565796,
                -0.7753597497940064,
                -0.20577022433280946,
                0.8586147427558899,
                0.15365667641162873,
                0.2518883943557739,
                -0.17944157123565675,
                0.6041007041931152,
                0.005029547959566116,
                -0.8861661553382874,
                -0.0876314714550972,
                0.942404568195343,
                0.8354605436325073,
                1.1830710172653199,
                0.5511133670806885,
                0.3009907007217407,
                0.22997991740703584,
                0.3963543772697449,
                -0.19903451204299928,
                0.8251178860664368,
                -2.323507785797119,
                -1.0975031852722169,
                -0.2824588119983673,
                0.41690075397491457,
                0.6327703595161438,
                1.5774507522583008,
                0.6115230321884155,
                0.15275117754936219,
                -0.055814456194639209,
                -0.24339526891708375,
                0.6669288277626038,
                -0.13773638010025025,
                -0.38541752099990847,
                0.2850658893585205,
                -0.9764800071716309,
                -0.30267441272735598,
                0.43878841400146487,
                0.22522786259651185,
                -1.1219837665557862,
                -0.6185221076011658,
                -0.634227991104126,
                -0.5280651450157166,
                0.8371273279190064,
                -0.323147714138031,
                -0.1406623125076294,
                0.10060860961675644,
                -1.0420804023742676,
                1.3005847930908204,
                -0.21554350852966309,
                -0.08632345497608185,
                -0.09253440052270889,
                0.5884606838226318,
                0.36664146184921267,
                -0.468747615814209,
                -0.7867615222930908,
                0.4232099652290344,
                -0.5095215439796448,
                0.3175673186779022,
                -1.1419891119003297,
                -0.2762949764728546,
                -0.2598910331726074,
                0.40190184116363528,
                0.37731513381004336,
                0.847629964351654,
                -0.7832023501396179,
                -0.7192598581314087,
                -0.4218986928462982,
                -0.31490838527679446,
                1.0792334079742432,
                1.240269422531128,
                0.3941800892353058,
                -0.44287586212158205,
                0.7653170228004456,
                0.29247549176216128,
                0.9043260812759399,
                0.12692084908485413,
                0.006776891648769379,
                0.1535010039806366,
                0.27154862880706789,
                1.178612232208252,
                -0.8161078095436096,
                0.7836248874664307,
                0.43680205941200259,
                0.716306746006012,
                1.7583472728729249,
                -0.1770269274711609,
                1.0735090970993043,
                0.5005858540534973
            ],
            "fitness": 95.47734069824219,
            "timeAlive": 9.383111000061036,
            "totalDistance": 18.219011306762697,
            "successfulJumps": 0,
            "checkpointsReached": 2,
            "uniqueAreasVisited": 4,
            "activeWeightsCount": 133,
            "weightComplexity": 0.9779411554336548,
            "outputLockStatus": [
                false,
                false,
                false,
                false
            ],
            "correctJumps": 0,
            "incorrectJumps": 0,
            "explorationEfficiency": 0.21955087780952454
        },
        {
            "layers": [
                8,
                8,
                6,
                4
            ],
            "flattenedWeights": [
                0.20040875673294068,
                1.1744356155395508,
                -0.5972890257835388,
                0.27541837096214297,
                -0.3575759828090668,
                0.9093183279037476,
                -1.2420214414596558,
                -1.1749597787857056,
                1.0284717082977296,
                1.1735007762908936,
                0.008531168103218079,
                -0.8527648448944092,
                -0.5525117516517639,
                -0.36409085988998415,
                0.4207654595375061,
                -0.8488999605178833,
                0.030043162405490876,
                -0.6534734964370728,
                -1.2190511226654053,
                0.9694746732711792,
                1.0864938497543336,
                1.0424973964691163,
                0.3302271366119385,
                -0.5938242673873901,
                0.29487818479537966,
                0.6482571959495544,
                -0.20915523171424867,
                0.5516960620880127,
                0.19204726815223695,
                -0.8940235376358032,
                0.8026444911956787,
                -0.24928343296051026,
                -0.4012286961078644,
                -0.15663668513298036,
                1.251247525215149,
                -0.9822250604629517,
                0.12385201454162598,
                -0.9387016296386719,
                -0.9931440949440002,
                0.10571368783712387,
                0.4226687550544739,
                0.38933807611465456,
                0.05981040000915527,
                -0.3918074369430542,
                0.5701006650924683,
                1.1131938695907593,
                0.06936686486005783,
                0.5133416056632996,
                0.7328704595565796,
                -0.7334088087081909,
                -0.20577022433280946,
                0.8969374299049377,
                0.15365667641162873,
                0.2518883943557739,
                -0.2796096205711365,
                0.6955887079238892,
                0.005029547959566116,
                -0.8861661553382874,
                -0.0876314714550972,
                0.8659186959266663,
                0.8354605436325073,
                1.0850881338119507,
                0.5511133670806885,
                0.3005026876926422,
                0.383709579706192,
                0.32489654421806338,
                -0.19903451204299928,
                0.7950272560119629,
                -2.323507785797119,
                -1.1363813877105713,
                -0.2093553990125656,
                0.3908001184463501,
                0.7214704155921936,
                1.5456855297088624,
                0.6115230321884155,
                0.22005221247673036,
                -0.055814456194639209,
                -0.19382920861244203,
                0.6669288277626038,
                -0.12662188708782197,
                -0.38541752099990847,
                0.2850658893585205,
                -0.9764800071716309,
                -0.3818897306919098,
                0.46171948313713076,
                0.3156536817550659,
                -1.1977850198745728,
                -0.672621488571167,
                -0.634227991104126,
                -0.4743291735649109,
                0.6339897513389587,
                -0.28967154026031496,
                -0.2061452865600586,
                0.10060860961675644,
                -1.1402736902236939,
                1.3005847930908204,
                -0.2295934557914734,
                -0.1143902987241745,
                -0.09253440052270889,
                0.6088429093360901,
                0.29012107849121096,
                -0.468747615814209,
                -0.7867615222930908,
                0.5051146149635315,
                -0.5095215439796448,
                0.264189749956131,
                -1.1419891119003297,
                -0.23105362057685853,
                -0.3400128185749054,
                0.40190184116363528,
                0.37731513381004336,
                0.847629964351654,
                -0.7832023501396179,
                -0.578461766242981,
                -0.4242554008960724,
                -0.4426124691963196,
                1.0792334079742432,
                1.282242774963379,
                0.3941800892353058,
                -0.5371744632720947,
                0.7653170228004456,
                0.21803304553031922,
                0.87697833776474,
                0.07431624084711075,
                0.08199025690555573,
                0.1535010039806366,
                0.27154862880706789,
                1.178612232208252,
                -0.8161078095436096,
                0.7836248874664307,
                0.37798041105270388,
                0.7085930705070496,
                1.6441154479980469,
                -0.2601207494735718,
                1.1252995729446412,
                0.5228966474533081
            ],
            "fitness": 95.45948028564453,
            "timeAlive": 9.383111000061036,
            "totalDistance": 18.16954803466797,
            "successfulJumps": 0,
            "checkpointsReached": 2,
            "uniqueAreasVisited": 4,
            "activeWeightsCount": 134,
            "weightComplexity": 0.9852941036224365,
            "outputLockStatus": [
                false,
                false,
                false,
                false
            ],
            "correctJumps": 0,
            "incorrectJumps": 0,
            "explorationEfficiency": 0.22014856338500977
        },
        {
            "layers": [
                8,
                8,
                6,
                4
            ],
            "flattenedWeights": [
                0.21179866790771485,
                1.1744356155395508,
                -0.5972890257835388,
                0.16608473658561707,
                -0.3575759828090668,
                0.8141578435897827,
                -1.3973395824432374,
                -1.132346510887146,
                0.9384647607803345,
                1.192795991897583,
                0.008531168103218079,
                -0.7862699031829834,
                -0.5073633790016174,
                -0.36409085988998415,
                0.48853063583374026,
                -0.9470562934875488,
                -0.06806031614542008,
                -0.6534734964370728,
                -1.2190511226654053,
                0.9343414902687073,
                1.0586860179901124,
                1.0424973964691163,
                0.2439458966255188,
                -0.5251356959342957,
                0.29487818479537966,
                0.6556574106216431,
                -0.20915523171424867,
                0.5516960620880127,
                0.1842610239982605,
                -0.8865796327590942,
                0.8026444911956787,
                -0.24928343296051026,
                -0.39086395502090456,
                -0.1682843416929245,
                1.1627826690673829,
                -0.9822250604629517,
                0.16124743223190309,
                -0.9387016296386719,
                -0.9931440949440002,
                0.11633869260549545,
                0.41373148560523989,
                0.3614526093006134,
                -0.029767535626888276,
                -0.3918074369430542,
                0.5108917355537415,
                1.1131938695907593,
                0.1465313732624054,
                0.5133416056632996,
                0.7328704595565796,
                -0.7753597497940064,
                -0.20577022433280946,
                0.8386032581329346,
                0.15365667641162873,
                0.23052966594696046,
                -0.2572883367538452,
                0.6041007041931152,
                0.0837402492761612,
                -0.8861661553382874,
                -0.0876314714550972,
                0.942404568195343,
                0.8354605436325073,
                1.1830710172653199,
                0.5511133670806885,
                0.3005026876926422,
                0.16456377506256104,
                0.3963543772697449,
                -0.10604863613843918,
                0.8805331587791443,
                -2.323507785797119,
                -1.1382884979248047,
                -0.2824588119983673,
                0.41690075397491457,
                0.7103495001792908,
                1.5456855297088624,
                0.6115230321884155,
                0.15275117754936219,
                -0.055814456194639209,
                -0.19382920861244203,
                0.6669288277626038,
                -0.10488110035657883,
                -0.38541752099990847,
                0.31728750467300417,
                -1.031672716140747,
                -0.317263126373291,
                0.46171948313713076,
                0.2229294776916504,
                -1.0339367389678956,
                -0.6185221076011658,
                -0.6135538816452026,
                -0.4743291735649109,
                0.6686250567436218,
                -0.2319798767566681,
                -0.23512154817581178,
                0.10060860961675644,
                -1.0731362104415894,
                1.2150715589523316,
                -0.3153710961341858,
                -0.1143902987241745,
                -0.09253440052270889,
                0.5884606838226318,
                0.2485142946243286,
                -0.468747615814209,
                -0.7867615222930908,
                0.4849211275577545,
                -0.3269289433956146,
                0.3175673186779022,
                -1.1419891119003297,
                -0.2762949764728546,
                -0.2598910331726074,
                0.40190184116363528,
                0.37731513381004336,
                0.9223910570144653,
                -0.7832023501396179,
                -0.7192598581314087,
                -0.4242554008960724,
                -0.4426124691963196,
                1.0792334079742432,
                1.341957688331604,
                0.3941800892353058,
                -0.44287586212158205,
                0.7653170228004456,
                0.21738897264003755,
                0.8099254965782166,
                0.10609957575798035,
                0.08199025690555573,
                0.1535010039806366,
                0.3038327097892761,
                1.1462008953094483,
                -0.7574418187141419,
                0.7836248874664307,
                0.43680205941200259,
                0.7353333234786987,
                1.7321733236312867,
                -0.1770269274711609,
                1.0735090970993043,
                0.5301969051361084
            ],
            "fitness": 95.39531707763672,
            "timeAlive": 9.24012565612793,
            "totalDistance": 18.160417556762697,
            "successfulJumps": 0,
            "checkpointsReached": 2,
            "uniqueAreasVisited": 4,
            "activeWeightsCount": 135,
            "weightComplexity": 0.9926470518112183,
            "outputLockStatus": [
                false,
                false,
                false,
                false
            ],
            "correctJumps": 0,
            "incorrectJumps": 0,
            "explorationEfficiency": 0.22025924921035767
        },
        {
            "layers": [
                8,
                8,
                6,
                4
            ],
            "flattenedWeights": [
                0.21179866790771485,
                1.2417454719543458,
                -0.5972890257835388,
                0.23607322573661805,
                -0.3575759828090668,
                0.8141578435897827,
                -1.3928433656692505,
                -1.1749597787857056,
                0.9384647607803345,
                1.1735007762908936,
                0.008531168103218079,
                -0.7862699031829834,
                -0.5525117516517639,
                -0.4412436783313751,
                0.3415463864803314,
                -0.778063952922821,
                0.030043162405490876,
                -0.7336110472679138,
                -1.2190511226654053,
                0.8817616105079651,
                1.079506754875183,
                1.0424973964691163,
                0.3302271366119385,
                -0.5251356959342957,
                0.29487818479537966,
                0.6556574106216431,
                -0.20915523171424867,
                0.5830287337303162,
                0.27664756774902346,
                -0.9133884906768799,
                0.8026444911956787,
                -0.24928343296051026,
                -0.4012286961078644,
                -0.1682843416929245,
                1.251247525215149,
                -0.9822250604629517,
                0.12385201454162598,
                -0.9387016296386719,
                -0.9931440949440002,
                0.1048702672123909,
                0.4226687550544739,
                0.3614526093006134,
                -0.04197827726602554,
                -0.3918074369430542,
                0.5701006650924683,
                1.0400524139404297,
                0.1465313732624054,
                0.5133416056632996,
                0.7328704595565796,
                -0.7753597497940064,
                -0.20577022433280946,
                0.8586147427558899,
                0.15365667641162873,
                0.2518883943557739,
                -0.17944157123565675,
                0.6041007041931152,
                0.005029547959566116,
                -0.8861661553382874,
                -0.0876314714550972,
                0.942404568195343,
                0.8199658989906311,
                1.1830710172653199,
                0.5511133670806885,
                0.3726873993873596,
                0.2662948966026306,
                0.4071170389652252,
                -0.047599129378795627,
                0.8251178860664368,
                -2.323507785797119,
                -1.2236061096191407,
                -0.2093553990125656,
                0.41690075397491457,
                0.799608588218689,
                1.5456855297088624,
                0.6115230321884155,
                0.15275117754936219,
                -0.055814456194639209,
                -0.19382920861244203,
                0.6669288277626038,
                -0.12662188708782197,
                -0.38541752099990847,
                0.31728750467300417,
                -0.9764800071716309,
                -0.30267441272735598,
                0.511205792427063,
                0.22522786259651185,
                -1.1977850198745728,
                -0.6665323972702026,
                -0.634227991104126,
                -0.5559773445129395,
                0.8091970682144165,
                -0.323147714138031,
                -0.2061452865600586,
                0.10060860961675644,
                -1.0420804023742676,
                1.3005847930908204,
                -0.3153710961341858,
                -0.1143902987241745,
                -0.09253440052270889,
                0.6088429093360901,
                0.30471521615982058,
                -0.468747615814209,
                -0.7867615222930908,
                0.4232099652290344,
                -0.23323169350624085,
                0.3175673186779022,
                -1.1419891119003297,
                -0.23105362057685853,
                -0.2598910331726074,
                0.40190184116363528,
                0.37731513381004336,
                0.847629964351654,
                -0.7832023501396179,
                -0.7192598581314087,
                -0.24270373582839967,
                -0.31490838527679446,
                1.0792334079742432,
                1.3509020805358887,
                0.3941800892353058,
                -0.44287586212158205,
                0.7653170228004456,
                0.29247549176216128,
                0.9043260812759399,
                0.12692084908485413,
                0.08199025690555573,
                0.17138651013374329,
                0.3038327097892761,
                1.178612232208252,
                -0.7574418187141419,
                0.7836248874664307,
                0.42328307032585146,
                0.716306746006012,
                1.6441154479980469,
                -0.2601207494735718,
                1.0735090970993043,
                0.48820430040359499
            ],
            "fitness": 95.26097106933594,
            "timeAlive": 9.24012565612793,
            "totalDistance": 17.956846237182618,
            "successfulJumps": 0,
            "checkpointsReached": 2,
            "uniqueAreasVisited": 4,
            "activeWeightsCount": 134,
            "weightComplexity": 0.9852941036224365,
            "outputLockStatus": [
                false,
                false,
                false,
                false
            ],
            "correctJumps": 0,
            "incorrectJumps": 0,
            "explorationEfficiency": 0.2227562665939331
        },
        {
            "layers": [
                8,
                8,
                6,
                4
            ],
            "flattenedWeights": [
                0.20040875673294068,
                1.1744356155395508,
                -0.5972890257835388,
                0.23607322573661805,
                -0.39263492822647097,
                0.9093183279037476,
                -1.2420214414596558,
                -1.1749597787857056,
                1.0284717082977296,
                1.1735007762908936,
                0.008531168103218079,
                -0.8527648448944092,
                -0.5525117516517639,
                -0.36409085988998415,
                0.37447649240493777,
                -0.778063952922821,
                0.030043162405490876,
                -0.6534734964370728,
                -1.1784673929214478,
                0.8817616105079651,
                1.079506754875183,
                1.0424973964691163,
                0.3302271366119385,
                -0.5938242673873901,
                0.24739757180213929,
                0.6556574106216431,
                -0.20915523171424867,
                0.5516960620880127,
                0.2283705770969391,
                -0.9133884906768799,
                0.889459490776062,
                -0.24928343296051026,
                -0.4012286961078644,
                -0.1682843416929245,
                1.251247525215149,
                -0.9822250604629517,
                0.12385201454162598,
                -0.9387016296386719,
                -0.9502102136611939,
                0.09212367236614227,
                0.4226687550544739,
                0.3614526093006134,
                -0.029767535626888276,
                -0.3918074369430542,
                0.5701006650924683,
                1.1131938695907593,
                0.1735936999320984,
                0.5133416056632996,
                0.7255201935768127,
                -0.7753597497940064,
                -0.20577022433280946,
                0.8586147427558899,
                0.15365667641162873,
                0.2518883943557739,
                -0.17944157123565675,
                0.6361414194107056,
                0.005029547959566116,
                -0.8917995691299439,
                -0.17472870647907258,
                0.8659186959266663,
                0.8199658989906311,
                1.1830710172653199,
                0.5511133670806885,
                0.3005026876926422,
                0.2662948966026306,
                0.3068457841873169,
                -0.19903451204299928,
                0.8251178860664368,
                -2.323507785797119,
                -1.0975031852722169,
                -0.26347216963768008,
                0.41690075397491457,
                0.7214704155921936,
                1.5456855297088624,
                0.6115230321884155,
                0.22005221247673036,
                -0.055814456194639209,
                -0.19382920861244203,
                0.6669288277626038,
                -0.12662188708782197,
                -0.38541752099990847,
                0.2850658893585205,
                -0.9764800071716309,
                -0.4014987051486969,
                0.46171948313713076,
                0.22522786259651185,
                -1.1977850198745728,
                -0.6185221076011658,
                -0.634227991104126,
                -0.5280651450157166,
                0.8371273279190064,
                -0.323147714138031,
                -0.2061452865600586,
                0.10060860961675644,
                -1.0420804023742676,
                1.3005847930908204,
                -0.3153710961341858,
                -0.1143902987241745,
                -0.09253440052270889,
                0.6088429093360901,
                0.30471521615982058,
                -0.468747615814209,
                -0.7867615222930908,
                0.4232099652290344,
                -0.5095215439796448,
                0.3175673186779022,
                -1.1419891119003297,
                -0.23105362057685853,
                -0.3571119010448456,
                0.40190184116363528,
                0.37731513381004336,
                0.847629964351654,
                -0.7832023501396179,
                -0.6620473861694336,
                -0.24270373582839967,
                -0.4426124691963196,
                1.0792334079742432,
                1.282242774963379,
                0.3941800892353058,
                -0.5914486050605774,
                0.7653170228004456,
                0.29247549176216128,
                0.9043260812759399,
                0.049782685935497287,
                0.08199025690555573,
                0.17138651013374329,
                0.27154862880706789,
                1.178612232208252,
                -0.8161078095436096,
                0.7836248874664307,
                0.4084863066673279,
                0.7786896824836731,
                1.6441154479980469,
                -0.2601207494735718,
                1.1252995729446412,
                0.5228966474533081
            ],
            "fitness": 73.55797576904297,
            "timeAlive": 25.1450138092041,
            "totalDistance": 47.145896911621097,
            "successfulJumps": 0,
            "checkpointsReached": 2,
            "uniqueAreasVisited": 4,
            "activeWeightsCount": 134,
            "weightComplexity": 0.9852941036224365,
            "outputLockStatus": [
                false,
                false,
                false,
                false
            ],
            "correctJumps": 0,
            "incorrectJumps": 0,
            "explorationEfficiency": 0.08484301716089249
        }
    ],
    "timestamp": "2025-06-19 05:50:05",
    "populationSize": 23,
    "aliveNPCs": 0,
    "generationDuration": 0.128662109375,
    "mutationRate": 0.847000002861023,
    "eliteCount": 2,
    "globalLockStatus": [
        false,
        false,
        false,
        false
    ],
    "fitnessRange": 82.26983642578125,
    "diversityIndex": 26.18861961364746,
    "averageTimeAlive": 9.503220558166504,
    "totalDistanceSum": 292.68597412109377,
    "totalSuccessfulJumps": 0,
    "populationDiversity": 0.350063681602478,
    "learningRate": 0.0,
    "convergenceRate": 0.14185401797294618,
    "totalCheckpointsReached": 27,
    "averageDistance": 18.29287338256836,
    "totalDeaths": 16,
    "improvementRate": 0.0,
    "explorationBonus": 119.53762817382813,
    "efficiencyScore": 7.86165189743042,
    "activeBehaviors": 4,
    "aliveAtEnd": 0,
    "memoryUsage": 8.0
}