{
    "generation": 30,
    "bestFitness": 95.54240417480469,
    "averageFitness": 85.40667724609375,
    "worstFitness": 13.515802383422852,
    "networks": [
        {
            "layers": [
                8,
                8,
                6,
                4
            ],
            "flattenedWeights": [
                0.1888197660446167,
                0.9419963955879211,
                -0.7744741439819336,
                0.22833240032196046,
                -0.27235403656959536,
                1.4440159797668458,
                -0.7874427437782288,
                -1.019723653793335,
                0.7495236396789551,
                1.066931962966919,
                -0.11990784108638764,
                -0.7002990245819092,
                -0.48676520586013796,
                -0.08399597555398941,
                0.5094941258430481,
                -1.1173721551895142,
                0.11806740611791611,
                -0.5402312874794006,
                -0.9310580492019653,
                0.8163829445838928,
                1.069542407989502,
                1.114866018295288,
                0.6089763045310974,
                -0.4527163505554199,
                0.17281785607337953,
                0.799172043800354,
                -0.22860418260097505,
                0.4083556532859802,
                0.0407550223171711,
                -0.683192789554596,
                0.7395117282867432,
                -0.14255449175834657,
                -0.5466068387031555,
                -0.09046211838722229,
                1.1388887166976929,
                -1.1420756578445435,
                -0.05270714312791824,
                -1.0006097555160523,
                -1.0572829246520997,
                0.03257177770137787,
                0.42975789308547976,
                0.31982773542404177,
                0.10048217326402664,
                -0.432043194770813,
                0.7532750368118286,
                1.2417125701904297,
                0.003101244568824768,
                0.6143944263458252,
                0.45852556824684145,
                -0.5852433443069458,
                -0.04944485053420067,
                0.5753737688064575,
                0.12007300555706024,
                0.19330543279647828,
                -0.06094006076455116,
                0.8382659554481506,
                0.07545094937086106,
                -0.6503461003303528,
                -0.18821746110916139,
                0.7962222099304199,
                0.7130522727966309,
                0.8572437763214111,
                0.6902402639389038,
                0.23803406953811646,
                0.23840725421905518,
                0.4386835992336273,
                -0.12995645403862,
                0.9592355489730835,
                -2.0798261165618898,
                -1.3030304908752442,
                -0.24341830611228944,
                0.28107646107673647,
                0.8513134121894836,
                1.4887173175811768,
                0.6638789772987366,
                0.061098404228687289,
                0.27557381987571719,
                -0.5814839005470276,
                0.6421541571617127,
                -0.06998381018638611,
                -0.40852510929107668,
                0.22475412487983704,
                -0.9680352210998535,
                -0.2113388478755951,
                0.6876433491706848,
                0.521086573600769,
                -1.3313237428665162,
                -0.6393560767173767,
                -0.5662046074867249,
                -0.3068065941333771,
                0.6956064701080322,
                -0.1994701325893402,
                -0.06800882518291474,
                0.1733924150466919,
                -1.0183184146881104,
                1.2886399030685425,
                -0.4003889560699463,
                -0.10439920425415039,
                -0.12773971259593965,
                0.49930596351623537,
                0.2956925928592682,
                -0.30052563548088076,
                -0.7252391576766968,
                0.46023842692375185,
                -0.431922048330307,
                0.22373339533805848,
                -1.0825437307357789,
                -0.18374177813529969,
                -0.3656686842441559,
                0.5554880499839783,
                0.39841383695602419,
                0.8381882905960083,
                -0.685293436050415,
                -0.8864234089851379,
                -0.2784338593482971,
                -0.524403989315033,
                1.1408164501190186,
                1.182409644126892,
                0.6431476473808289,
                -0.3899786174297333,
                0.6274155974388123,
                0.19841787219047547,
                0.8297378420829773,
                0.40152493119239809,
                0.13971352577209474,
                0.24707162380218507,
                0.3891819715499878,
                1.0540928840637208,
                -0.7795169949531555,
                0.9082083106040955,
                0.5127756595611572,
                0.5671290755271912,
                1.6785107851028443,
                -0.14276757836341859,
                0.9605222940444946,
                0.5800408720970154
            ],
            "fitness": 95.54240417480469,
            "timeAlive": 10.09521484375,
            "totalDistance": 18.583948135375978,
            "successfulJumps": 0,
            "checkpointsReached": 2,
            "uniqueAreasVisited": 4,
            "activeWeightsCount": 135,
            "weightComplexity": 0.9926470518112183,
            "outputLockStatus": [
                false,
                false,
                false,
                false
            ],
            "correctJumps": 0,
            "incorrectJumps": 0,
            "explorationEfficiency": 0.2152395099401474
        },
        {
            "layers": [
                8,
                8,
                6,
                4
            ],
            "flattenedWeights": [
                0.2461320459842682,
                1.0300437211990357,
                -0.6841769218444824,
                0.24042895436286927,
                -0.18394649028778077,
                1.2470604181289673,
                -0.7874427437782288,
                -1.132114052772522,
                0.7206220626831055,
                1.0208287239074708,
                -0.05755722150206566,
                -0.7223080992698669,
                -0.4639677107334137,
                -0.013895280659198761,
                0.5460485219955444,
                -1.1116002798080445,
                0.11806740611791611,
                -0.4761088788509369,
                -0.9636313915252686,
                0.7993506193161011,
                1.081965684890747,
                1.070632815361023,
                0.568185031414032,
                -0.47725316882133486,
                0.07633652538061142,
                0.7478765845298767,
                -0.13043895363807679,
                0.051742397248744968,
                0.21729877591133119,
                -0.7740446925163269,
                0.5751858949661255,
                -0.19247393310070039,
                -0.36034491658210757,
                -0.09046211838722229,
                1.1433162689208985,
                -1.1250865459442139,
                0.0028687715530395509,
                -1.0527485609054566,
                -0.8764641284942627,
                0.12670007348060609,
                0.35755881667137148,
                0.30383580923080447,
                0.1728881299495697,
                -0.3570604622364044,
                0.5822810530662537,
                1.1667622327804566,
                0.04284537583589554,
                0.6836972832679749,
                0.6324266791343689,
                -0.6518266797065735,
                -0.03534936159849167,
                0.634118914604187,
                0.05118684470653534,
                0.2411775290966034,
                0.06224337965250015,
                0.652033269405365,
                0.18205231428146363,
                -0.5165413618087769,
                -0.0933961346745491,
                0.6440837383270264,
                0.8061099648475647,
                1.0398739576339722,
                0.7676092982292175,
                0.2716240882873535,
                0.4442150592803955,
                0.2843209505081177,
                -0.053843025118112567,
                0.9887878894805908,
                -2.062178134918213,
                -1.2714728116989136,
                -0.24341830611228944,
                0.3403705358505249,
                0.883689820766449,
                1.4207946062088013,
                0.5878279805183411,
                0.21284517645835877,
                0.20931710302829743,
                -0.3635593354701996,
                0.6169022917747498,
                -0.24742111563682557,
                -0.6460997462272644,
                0.2526398003101349,
                -1.0794639587402344,
                -0.3707047700881958,
                0.5895344614982605,
                0.294911652803421,
                -1.3461644649505616,
                -0.9273716807365418,
                -0.40489456057548525,
                -0.37638428807258608,
                1.0469930171966553,
                -0.32956573367118838,
                0.031845226883888248,
                0.2064979374408722,
                -1.0301785469055176,
                1.188981294631958,
                -0.381320983171463,
                -0.10439920425415039,
                -0.2418271005153656,
                0.4530496299266815,
                0.2961112856864929,
                -0.36977341771125796,
                -0.6388838291168213,
                0.39533403515815737,
                -0.3869739770889282,
                0.3438669741153717,
                -1.0853875875473023,
                -0.3139037489891052,
                -0.35210442543029787,
                0.6116130948066711,
                0.45288699865341189,
                0.7939609885215759,
                -0.770606517791748,
                -1.0838130712509156,
                -0.29558444023132326,
                -0.495354026556015,
                1.2960729598999024,
                1.0096781253814698,
                0.6064338088035584,
                -0.35309016704559328,
                0.5377370119094849,
                0.24217745661735536,
                0.6497712135314941,
                0.24131029844284059,
                0.17835724353790284,
                0.2352759838104248,
                0.23447750508785249,
                1.0268573760986329,
                -0.6948930621147156,
                0.8344947695732117,
                0.5383148193359375,
                0.6064813137054443,
                1.6979939937591553,
                -0.10818906873464585,
                0.8589458465576172,
                0.6062222719192505
            ],
            "fitness": 95.51880645751953,
            "timeAlive": 9.315679550170899,
            "totalDistance": 18.29216194152832,
            "successfulJumps": 0,
            "checkpointsReached": 2,
            "uniqueAreasVisited": 4,
            "activeWeightsCount": 135,
            "weightComplexity": 0.9926470518112183,
            "outputLockStatus": [
                false,
                false,
                false,
                false
            ],
            "correctJumps": 0,
            "incorrectJumps": 0,
            "explorationEfficiency": 0.21867290139198304
        },
        {
            "layers": [
                8,
                8,
                6,
                4
            ],
            "flattenedWeights": [
                0.24984890222549439,
                0.9447765946388245,
                -0.7055246233940125,
                0.23836010694503785,
                -0.17933937907218934,
                1.1954022645950318,
                -0.911188006401062,
                -1.0817146301269532,
                1.0063573122024537,
                1.0487747192382813,
                -0.04584846273064613,
                -0.806296706199646,
                -0.36982136964797976,
                -0.20166587829589845,
                0.5460485219955444,
                -1.047656774520874,
                0.14425233006477357,
                -0.5402312874794006,
                -0.9636313915252686,
                0.7993506193161011,
                1.0527321100234986,
                1.175524353981018,
                0.6040455102920532,
                -0.48046350479125979,
                0.008210986852645874,
                0.7478765845298767,
                -0.1751345694065094,
                0.2514093816280365,
                0.22503232955932618,
                -0.7009949684143066,
                0.5751858949661255,
                -0.20662280917167664,
                -0.41928595304489138,
                -0.06821396946907044,
                1.1221742630004883,
                -1.1250865459442139,
                -0.08380407840013504,
                -0.9606329798698425,
                -0.948379397392273,
                0.15577690303325654,
                0.5296103954315186,
                0.30309969186782839,
                0.3173489272594452,
                -0.5171484351158142,
                0.616777241230011,
                1.1667622327804566,
                0.005672544240951538,
                0.6335147023200989,
                0.4821661710739136,
                -0.6518266797065735,
                -0.07296734303236008,
                0.667100191116333,
                0.06529335677623749,
                0.18772387504577638,
                0.06224337965250015,
                0.6999562978744507,
                0.1368071436882019,
                -0.5950602889060974,
                -0.1612095832824707,
                0.6440837383270264,
                0.8061099648475647,
                0.9665817022323608,
                0.5360761880874634,
                0.26897764205932619,
                0.4313063621520996,
                0.17691564559936524,
                -0.10284125804901123,
                1.0403032302856446,
                -2.0045742988586427,
                -1.2106717824935914,
                -0.24341830611228944,
                0.32054322957992556,
                0.883689820766449,
                1.3997458219528199,
                0.5878279805183411,
                0.09296050667762757,
                0.27557381987571719,
                -0.3635593354701996,
                0.49891310930252077,
                -0.13494443893432618,
                -0.5273124575614929,
                0.6389427781105042,
                -1.0794639587402344,
                -0.1582106351852417,
                0.6170616745948792,
                0.2156321406364441,
                -1.18638014793396,
                -0.7468942999839783,
                -0.4011137783527374,
                -0.48303595185279848,
                1.0430160760879517,
                -0.21515893936157227,
                0.031845226883888248,
                0.2373441457748413,
                -1.0949498414993287,
                1.169065237045288,
                -0.381320983171463,
                -0.09084460139274597,
                -0.10989193618297577,
                0.5368298292160034,
                0.2961112856864929,
                -0.26836639642715456,
                -0.5505111813545227,
                0.4329700171947479,
                -0.4448395371437073,
                0.309846431016922,
                -1.079990029335022,
                -0.2307378500699997,
                -0.36961889266967776,
                0.6192953586578369,
                0.5178269147872925,
                0.7615804672241211,
                -0.9156848192214966,
                -1.1333523988723755,
                -0.29558444023132326,
                -0.4741896688938141,
                1.201159954071045,
                1.1376398801803589,
                0.6064338088035584,
                -0.4976445734500885,
                0.5510030388832092,
                0.09124935418367386,
                0.8031503558158875,
                0.3478499948978424,
                0.04828440397977829,
                0.2352759838104248,
                0.21561682224273683,
                1.1387304067611695,
                -0.6948930621147156,
                0.8344947695732117,
                0.4954334795475006,
                0.6064813137054443,
                1.6979939937591553,
                -0.03640204668045044,
                0.8589458465576172,
                0.612878680229187
            ],
            "fitness": 95.48275756835938,
            "timeAlive": 9.337225914001465,
            "totalDistance": 18.2144775390625,
            "successfulJumps": 0,
            "checkpointsReached": 2,
            "uniqueAreasVisited": 4,
            "activeWeightsCount": 134,
            "weightComplexity": 0.9852941036224365,
            "outputLockStatus": [
                false,
                false,
                false,
                false
            ],
            "correctJumps": 0,
            "incorrectJumps": 0,
            "explorationEfficiency": 0.21960553526878358
        },
        {
            "layers": [
                8,
                8,
                6,
                4
            ],
            "flattenedWeights": [
                0.112697072327137,
                1.0148056745529175,
                -0.7233983874320984,
                0.2287854701280594,
                -0.27235403656959536,
                1.4440159797668458,
                -0.8671918511390686,
                -1.1803345680236817,
                1.0063573122024537,
                0.8031643629074097,
                -0.05535544082522392,
                -0.7223080992698669,
                -0.4354608952999115,
                -0.1492559313774109,
                0.42511844635009768,
                -1.1901187896728516,
                0.14425233006477357,
                -0.5402312874794006,
                -0.8924038410186768,
                0.7993506193161011,
                1.069542407989502,
                1.114866018295288,
                0.6089763045310974,
                -0.4041615128517151,
                0.14091816544532777,
                0.7478765845298767,
                -0.1751345694065094,
                0.19720543920993806,
                0.0407550223171711,
                -0.7442836165428162,
                0.5952925086021423,
                -0.3745633661746979,
                -0.6330413222312927,
                -0.06821396946907044,
                1.1221742630004883,
                -1.1420756578445435,
                0.06419605761766434,
                -1.0006097555160523,
                -0.8778367638587952,
                0.15577690303325654,
                0.5296103954315186,
                0.2486565113067627,
                0.27632296085357668,
                -0.42759761214256289,
                0.5822810530662537,
                1.1667622327804566,
                -0.03012615442276001,
                0.6836972832679749,
                0.4298270344734192,
                -0.6518266797065735,
                -0.04944485053420067,
                0.5753737688064575,
                0.12007300555706024,
                0.18772387504577638,
                0.022605258971452714,
                0.6999562978744507,
                0.1368071436882019,
                -0.7229989171028137,
                -0.09124235063791275,
                0.6440837383270264,
                0.7481510639190674,
                1.0398739576339722,
                0.742466390132904,
                0.181948721408844,
                0.30511897802352908,
                0.2843209505081177,
                0.002141125500202179,
                0.9592355489730835,
                -2.062178134918213,
                -1.2106717824935914,
                -0.24341830611228944,
                0.28107646107673647,
                0.8513134121894836,
                1.5390210151672364,
                0.6638789772987366,
                0.09296050667762757,
                0.27557381987571719,
                -0.5814839005470276,
                0.7073978185653687,
                -0.15844221413135529,
                -0.5446536540985107,
                0.30109986662864687,
                -1.0794639587402344,
                -0.1232280433177948,
                0.6610576510429382,
                0.294911652803421,
                -1.2816238403320313,
                -0.5569500923156738,
                -0.46322256326675417,
                -0.3536601662635803,
                1.0917483568191529,
                -0.2596112787723541,
                -0.005780957639217377,
                0.30794188380241396,
                -1.0183184146881104,
                1.188981294631958,
                -0.3905460238456726,
                -0.1186223030090332,
                -0.11044299602508545,
                0.44551509618759158,
                0.3315372169017792,
                -0.25377264618873598,
                -0.7252391576766968,
                0.4329700171947479,
                -0.5399703979492188,
                0.3438669741153717,
                -1.0853875875473023,
                -0.2307378500699997,
                -0.3153951168060303,
                0.5554880499839783,
                0.44157594442367556,
                0.7660083770751953,
                -0.7290390729904175,
                -1.1327029466629029,
                -0.29558444023132326,
                -0.495354026556015,
                1.1344966888427735,
                1.0096781253814698,
                0.5516772270202637,
                -0.34790918231010439,
                0.5510030388832092,
                0.09124935418367386,
                0.8297378420829773,
                0.45501917600631716,
                0.04828440397977829,
                0.24707162380218507,
                0.3162808120250702,
                1.1520359516143799,
                -0.7795169949531555,
                0.8344947695732117,
                0.4954334795475006,
                0.5843024849891663,
                1.6785107851028443,
                -0.14276757836341859,
                0.8589458465576172,
                0.612878680229187
            ],
            "fitness": 95.47978973388672,
            "timeAlive": 9.337225914001465,
            "totalDistance": 18.213584899902345,
            "successfulJumps": 0,
            "checkpointsReached": 2,
            "uniqueAreasVisited": 4,
            "activeWeightsCount": 134,
            "weightComplexity": 0.9852941036224365,
            "outputLockStatus": [
                false,
                false,
                false,
                false
            ],
            "correctJumps": 0,
            "incorrectJumps": 0,
            "explorationEfficiency": 0.21961629390716554
        },
        {
            "layers": [
                8,
                8,
                6,
                4
            ],
            "flattenedWeights": [
                0.26977449655532839,
                1.014768123626709,
                -0.7055246233940125,
                0.21994879841804505,
                -0.18702183663845063,
                1.367209553718567,
                -0.7500942349433899,
                -1.0817146301269532,
                1.1021445989608765,
                1.0487747192382813,
                -0.013894286006689072,
                -0.5646281242370606,
                -0.4748772978782654,
                -0.1483711302280426,
                0.47709333896636965,
                -1.0469231605529786,
                0.03729724884033203,
                -0.5402312874794006,
                -0.9752427935600281,
                0.8086861371994019,
                1.0607643127441407,
                1.175524353981018,
                0.7252160310745239,
                -0.4381159245967865,
                0.22809253633022309,
                0.5042667388916016,
                -0.12144075334072113,
                0.23043493926525117,
                0.17033952474594117,
                -0.6374114155769348,
                0.5751858949661255,
                -0.32844439148902895,
                -0.41928595304489138,
                -0.06821396946907044,
                1.183443307876587,
                -1.2028274536132813,
                0.0022064074873924257,
                -1.02880859375,
                -0.9911501407623291,
                0.15577690303325654,
                0.5296103954315186,
                0.329923152923584,
                0.1728881299495697,
                -0.42759761214256289,
                0.6321171522140503,
                1.1678167581558228,
                -0.09932712465524674,
                0.6823896169662476,
                0.5649538040161133,
                -0.6068875789642334,
                -0.08830203115940094,
                0.7239242196083069,
                0.1288897842168808,
                0.23356664180755616,
                0.06224337965250015,
                0.663832426071167,
                0.06081213802099228,
                -0.4373372495174408,
                -0.2050037384033203,
                0.6596790552139282,
                0.8061099648475647,
                0.9665817022323608,
                0.6571914553642273,
                0.2603093385696411,
                0.3808789551258087,
                0.12757804989814759,
                -0.06915884464979172,
                0.9510095119476318,
                -2.07607102394104,
                -1.235718846321106,
                -0.3098144233226776,
                0.19274312257766725,
                0.9072916507720947,
                1.3997458219528199,
                0.5787603259086609,
                0.007233463227748871,
                0.23009029030799867,
                -0.4496557116508484,
                0.5243143439292908,
                -0.1601390540599823,
                -0.5273124575614929,
                0.6209636926651001,
                -1.0578863620758057,
                -0.1999725103378296,
                0.6784170269966126,
                0.2156321406364441,
                -1.163346529006958,
                -0.8024240136146545,
                -0.49808746576309206,
                -0.44035446643829348,
                1.1019291877746583,
                -0.21515893936157227,
                0.031845226883888248,
                0.2373441457748413,
                -1.0183184146881104,
                1.2738597393035889,
                -0.31594571471214297,
                -0.18377625942230225,
                -0.22481954097747804,
                0.4273546636104584,
                0.31248000264167788,
                -0.36979663372039797,
                -0.6815958619117737,
                0.4373496174812317,
                -0.5013373494148254,
                0.3589515686035156,
                -1.1689754724502564,
                -0.25075966119766238,
                -0.3873179256916046,
                0.6192953586578369,
                0.5188447833061218,
                0.7648642659187317,
                -0.8252884745597839,
                -1.1313228607177735,
                -0.30228495597839358,
                -0.3994070887565613,
                1.201159954071045,
                1.0667780637741089,
                0.6064338088035584,
                -0.4420749545097351,
                0.6080979108810425,
                0.24237249791622163,
                0.8103165626525879,
                0.3478499948978424,
                0.04828440397977829,
                0.2779737114906311,
                0.21561682224273683,
                1.0785857439041138,
                -0.7220359444618225,
                0.8903146982192993,
                0.5324327945709229,
                0.6064813137054443,
                1.6082707643508912,
                -0.06927821040153504,
                0.9184360504150391,
                0.5691468119621277
            ],
            "fitness": 95.4599380493164,
            "timeAlive": 9.173945426940918,
            "totalDistance": 18.136890411376954,
            "successfulJumps": 0,
            "checkpointsReached": 2,
            "uniqueAreasVisited": 4,
            "activeWeightsCount": 134,
            "weightComplexity": 0.9852941036224365,
            "outputLockStatus": [
                false,
                false,
                false,
                false
            ],
            "correctJumps": 0,
            "incorrectJumps": 0,
            "explorationEfficiency": 0.2205449789762497
        },
        {
            "layers": [
                8,
                8,
                6,
                4
            ],
            "flattenedWeights": [
                0.2287750542163849,
                0.9967889785766602,
                -0.7055246233940125,
                0.21994879841804505,
                -0.18702183663845063,
                1.2949217557907105,
                -0.7500942349433899,
                -1.0817146301269532,
                1.1021445989608765,
                0.9939212203025818,
                -0.013894286006689072,
                -0.5964492559432983,
                -0.4748772978782654,
                -0.20166587829589845,
                0.5095583200454712,
                -1.0469231605529786,
                0.03729724884033203,
                -0.6234123110771179,
                -0.9395847916603088,
                0.895891547203064,
                1.0337055921554566,
                1.175524353981018,
                0.8039958477020264,
                -0.4041615128517151,
                0.18467849493026734,
                0.5143730044364929,
                -0.12144075334072113,
                0.19170518219470979,
                0.26367801427841189,
                -0.5553596615791321,
                0.6059120297431946,
                -0.32844439148902895,
                -0.41928595304489138,
                -0.016688019037246705,
                1.204289197921753,
                -1.2782554626464844,
                0.07624300569295883,
                -1.02880859375,
                -0.978488564491272,
                0.15577690303325654,
                0.4565780460834503,
                0.3567262291908264,
                0.10493094474077225,
                -0.42759761214256289,
                0.5589000582695007,
                1.241860032081604,
                -0.09086387604475022,
                0.5946046710014343,
                0.5649538040161133,
                -0.6068875789642334,
                -0.08830203115940094,
                0.8126184344291687,
                0.055914051830768588,
                0.23356664180755616,
                0.06224337965250015,
                0.663832426071167,
                0.12020618468523026,
                -0.5292582511901856,
                -0.26245588064193728,
                0.6596790552139282,
                0.8846063613891602,
                0.9665817022323608,
                0.6571914553642273,
                0.2603093385696411,
                0.3808789551258087,
                0.12757804989814759,
                -0.06915884464979172,
                1.0021700859069825,
                -2.062178134918213,
                -1.2106717824935914,
                -0.3098144233226776,
                0.19274312257766725,
                0.8513134121894836,
                1.4457051753997803,
                0.644938588142395,
                0.09208761155605316,
                0.27557381987571719,
                -0.5370610952377319,
                0.47057467699050906,
                -0.1601390540599823,
                -0.5273124575614929,
                0.5573187470436096,
                -0.974869430065155,
                -0.1582106351852417,
                0.73649662733078,
                0.2156321406364441,
                -1.163346529006958,
                -0.8024240136146545,
                -0.49808746576309206,
                -0.44035446643829348,
                1.1019291877746583,
                -0.2786870300769806,
                0.031845226883888248,
                0.2373441457748413,
                -1.0183184146881104,
                1.188981294631958,
                -0.31594571471214297,
                -0.18377625942230225,
                -0.1791461706161499,
                0.4530496299266815,
                0.31248000264167788,
                -0.2895287871360779,
                -0.6388838291168213,
                0.4373496174812317,
                -0.5013373494148254,
                0.3438669741153717,
                -1.2647526264190674,
                -0.2303037941455841,
                -0.4182555377483368,
                0.6192953586578369,
                0.45288699865341189,
                0.7615804672241211,
                -0.9228947758674622,
                -1.1313228607177735,
                -0.30228495597839358,
                -0.4741896688938141,
                1.201159954071045,
                1.0667780637741089,
                0.6064338088035584,
                -0.5026316046714783,
                0.6233426928520203,
                0.24237249791622163,
                0.8103165626525879,
                0.3478499948978424,
                0.04828440397977829,
                0.2779737114906311,
                0.16300231218338014,
                0.9865360260009766,
                -0.7220359444618225,
                0.8903146982192993,
                0.5324327945709229,
                0.6064813137054443,
                1.6315006017684937,
                0.0033283010125160219,
                0.9096997380256653,
                0.6062222719192505
            ],
            "fitness": 95.4595947265625,
            "timeAlive": 9.173945426940918,
            "totalDistance": 18.136873245239259,
            "successfulJumps": 0,
            "checkpointsReached": 2,
            "uniqueAreasVisited": 4,
            "activeWeightsCount": 135,
            "weightComplexity": 0.9926470518112183,
            "outputLockStatus": [
                false,
                false,
                false,
                false
            ],
            "correctJumps": 0,
            "incorrectJumps": 0,
            "explorationEfficiency": 0.2205451875925064
        },
        {
            "layers": [
                8,
                8,
                6,
                4
            ],
            "flattenedWeights": [
                0.17340217530727387,
                1.0714988708496094,
                -0.6545838713645935,
                0.34846410155296328,
                -0.2865731418132782,
                1.2949217557907105,
                -0.7500942349433899,
                -1.154353380203247,
                1.1009223461151124,
                1.0487747192382813,
                -0.05535544082522392,
                -0.6624352931976318,
                -0.4748772978782654,
                -0.16754849255084992,
                0.6520138382911682,
                -1.1173721551895142,
                0.1511244773864746,
                -0.5402312874794006,
                -0.9286600947380066,
                0.8163829445838928,
                1.0968998670578004,
                1.1650067567825318,
                0.45686230063438418,
                -0.4041615128517151,
                0.18467849493026734,
                0.5143730044364929,
                -0.1298280954360962,
                0.19170518219470979,
                0.21729877591133119,
                -0.45477139949798586,
                0.592918336391449,
                -0.32844439148902895,
                -0.4886009097099304,
                -0.06821396946907044,
                1.204289197921753,
                -1.2782554626464844,
                -0.15197569131851197,
                -0.9475446939468384,
                -0.948379397392273,
                0.10233861953020096,
                0.5296103954315186,
                0.329923152923584,
                0.1728881299495697,
                -0.42759761214256289,
                0.6779319643974304,
                1.241860032081604,
                -0.09086387604475022,
                0.6823896169662476,
                0.5649538040161133,
                -0.6631531715393066,
                -0.12739676237106324,
                0.7239242196083069,
                0.055914051830768588,
                0.21538206934928895,
                0.032503221184015277,
                0.663832426071167,
                0.06081213802099228,
                -0.46622714400291445,
                -0.2050037384033203,
                0.7122768759727478,
                0.8061099648475647,
                0.9754153490066528,
                0.5660727024078369,
                0.2603093385696411,
                0.2952215373516083,
                0.12757804989814759,
                -0.0615394301712513,
                0.8815091252326965,
                -2.062178134918213,
                -1.2106717824935914,
                -0.3098144233226776,
                0.2176094800233841,
                0.9248412847518921,
                1.544768214225769,
                0.5878279805183411,
                -0.037276387214660647,
                0.27557381987571719,
                -0.5264270305633545,
                0.5243143439292908,
                -0.1601390540599823,
                -0.5696808099746704,
                0.47421208024024966,
                -1.0263843536376954,
                -0.19644364714622498,
                0.6428006291389465,
                0.17356237769126893,
                -1.18638014793396,
                -0.8415417671203613,
                -0.4909939169883728,
                -0.44035446643829348,
                0.8494407534599304,
                -0.21515893936157227,
                0.031845226883888248,
                0.28074946999549868,
                -1.1145278215408326,
                1.0954278707504273,
                -0.31594571471214297,
                -0.12146728485822678,
                -0.1340099424123764,
                0.41863206028938296,
                0.3152589499950409,
                -0.2895287871360779,
                -0.6388838291168213,
                0.32581019401550295,
                -0.3748288154602051,
                0.3438669741153717,
                -1.1851168870925904,
                -0.2307378500699997,
                -0.3723122775554657,
                0.7089662551879883,
                0.2616259455680847,
                0.7615804672241211,
                -0.8252884745597839,
                -0.8990932106971741,
                -0.21411246061325074,
                -0.4741896688938141,
                1.1861646175384522,
                1.0948145389556885,
                0.6659809350967407,
                -0.4420749545097351,
                0.5691115260124207,
                0.20539167523384095,
                0.6065937280654907,
                0.3478499948978424,
                0.11929413676261902,
                0.2779737114906311,
                0.23444785177707673,
                0.9465410113334656,
                -0.8992060422897339,
                0.8903146982192993,
                0.5617203712463379,
                0.6043282151222229,
                1.6785107851028443,
                0.060020506381988528,
                0.9551159143447876,
                0.6937896013259888
            ],
            "fitness": 95.45503997802735,
            "timeAlive": 9.337225914001465,
            "totalDistance": 18.214475631713868,
            "successfulJumps": 0,
            "checkpointsReached": 2,
            "uniqueAreasVisited": 4,
            "activeWeightsCount": 136,
            "weightComplexity": 1.0,
            "outputLockStatus": [
                false,
                false,
                false,
                false
            ],
            "correctJumps": 0,
            "incorrectJumps": 0,
            "explorationEfficiency": 0.21960555016994477
        },
        {
            "layers": [
                8,
                8,
                6,
                4
            ],
            "flattenedWeights": [
                0.2461320459842682,
                0.964001476764679,
                -0.5618488192558289,
                0.23836010694503785,
                -0.20617684721946717,
                1.401741862297058,
                -0.8709334135055542,
                -1.1927341222763062,
                1.0063573122024537,
                1.0208287239074708,
                -0.05755722150206566,
                -0.6974256634712219,
                -0.4354608952999115,
                -0.017851442098617555,
                0.5460485219955444,
                -1.149367094039917,
                0.1185966432094574,
                -0.502858579158783,
                -0.8529958724975586,
                0.7993506193161011,
                1.081965684890747,
                1.070632815361023,
                0.5384885668754578,
                -0.4041615128517151,
                0.07633652538061142,
                0.7478765845298767,
                -0.18605077266693116,
                0.14593341946601869,
                0.21729877591133119,
                -0.6629469394683838,
                0.5751858949661255,
                -0.3745633661746979,
                -0.41928595304489138,
                -0.09046211838722229,
                1.1097642183303834,
                -1.226393222808838,
                -0.05798859894275665,
                -0.9852523803710938,
                -0.9956870675086975,
                0.11196475476026535,
                0.4888707399368286,
                0.2788699269294739,
                0.2402450442314148,
                -0.3570604622364044,
                0.6513819098472595,
                1.1269570589065552,
                0.005672544240951538,
                0.6836972832679749,
                0.5333477258682251,
                -0.5693868398666382,
                -0.03534936159849167,
                0.5232913494110107,
                0.05118684470653534,
                0.13140450417995454,
                0.06224337965250015,
                0.6999562978744507,
                0.1368071436882019,
                -0.45059436559677126,
                -0.09124235063791275,
                0.645697832107544,
                0.8366024494171143,
                1.0398739576339722,
                0.7507610321044922,
                0.12230972200632096,
                0.3808789551258087,
                0.2744629681110382,
                0.0150386281311512,
                1.0524704456329346,
                -2.081469774246216,
                -1.2106717824935914,
                -0.2483498454093933,
                0.28107646107673647,
                0.883689820766449,
                1.3800365924835206,
                0.5878279805183411,
                0.09296050667762757,
                0.34046661853790285,
                -0.3635593354701996,
                0.49891310930252077,
                -0.07001993805170059,
                -0.6071583032608032,
                0.43666455149650576,
                -1.138235092163086,
                -0.38910970091819765,
                0.6951104998588562,
                0.294911652803421,
                -1.3461644649505616,
                -0.6917981505393982,
                -0.49808746576309206,
                -0.3714493215084076,
                1.0430160760879517,
                -0.39263755083084109,
                0.031845226883888248,
                0.21378928422927857,
                -1.0537760257720948,
                1.2163538932800294,
                -0.27812308073043826,
                -0.08996980637311936,
                -0.10064500570297241,
                0.5237960815429688,
                0.44260579347610476,
                -0.340957909822464,
                -0.5673505067825317,
                0.4329700171947479,
                -0.5332897305488586,
                0.25417181849479678,
                -1.0853875875473023,
                -0.3089272379875183,
                -0.3827246427536011,
                0.5368596911430359,
                0.45288699865341189,
                0.8222925662994385,
                -0.7569468021392822,
                -1.1383934020996094,
                -0.29558444023132326,
                -0.38861605525016787,
                1.201159954071045,
                1.1217397451400757,
                0.6064338088035584,
                -0.35309016704559328,
                0.5377370119094849,
                0.004519015550613403,
                0.7359226942062378,
                0.44711101055145266,
                0.04828440397977829,
                0.2352759838104248,
                0.21561682224273683,
                1.063381552696228,
                -0.6139659881591797,
                0.9082083106040955,
                0.4954334795475006,
                0.6064813137054443,
                1.6506389379501343,
                -0.16608034074306489,
                0.8589458465576172,
                0.6062222719192505
            ],
            "fitness": 95.44280242919922,
            "timeAlive": 9.173945426940918,
            "totalDistance": 18.09801483154297,
            "successfulJumps": 0,
            "checkpointsReached": 2,
            "uniqueAreasVisited": 4,
            "activeWeightsCount": 134,
            "weightComplexity": 0.9852941036224365,
            "outputLockStatus": [
                false,
                false,
                false,
                false
            ],
            "correctJumps": 0,
            "incorrectJumps": 0,
            "explorationEfficiency": 0.2210187166929245
        },
        {
            "layers": [
                8,
                8,
                6,
                4
            ],
            "flattenedWeights": [
                0.1888197660446167,
                1.0148056745529175,
                -0.7744741439819336,
                0.22621437907218934,
                -0.27235403656959536,
                1.4417550563812256,
                -0.8662176132202148,
                -1.1153579950332642,
                0.7495236396789551,
                1.1282823085784913,
                -0.15648314356803895,
                -0.7696743011474609,
                -0.48676520586013796,
                -0.18683570623397828,
                0.5754877328872681,
                -1.1862064599990845,
                0.11806740611791611,
                -0.5402312874794006,
                -0.6817780137062073,
                0.8163829445838928,
                1.006510853767395,
                1.0321050882339478,
                0.6089763045310974,
                -0.4527163505554199,
                0.22108043730258943,
                0.7519925832748413,
                -0.09530377388000488,
                0.2862355411052704,
                0.18119102716445924,
                -0.683192789554596,
                0.7568967938423157,
                -0.05757582187652588,
                -0.4886009097099304,
                -0.1165628731250763,
                1.0833479166030884,
                -1.13395094871521,
                -0.05270714312791824,
                -1.0137614011764527,
                -1.1550555229187012,
                0.03257177770137787,
                0.43117108941078188,
                0.24183383584022523,
                0.061344146728515628,
                -0.4545540511608124,
                0.6645681858062744,
                1.1647354364395142,
                0.04284537583589554,
                0.615246593952179,
                0.4821661710739136,
                -0.5754404664039612,
                -0.04944485053420067,
                0.5753737688064575,
                0.12007300555706024,
                0.2909071743488312,
                -0.050199877470731738,
                0.8382659554481506,
                0.08689500391483307,
                -0.4877570569515228,
                -0.18821746110916139,
                0.7962222099304199,
                0.7331538796424866,
                0.808028519153595,
                0.5264366269111633,
                0.23803406953811646,
                0.30511897802352908,
                0.4386835992336273,
                -0.053843025118112567,
                0.8815091252326965,
                -1.9872230291366578,
                -1.055822730064392,
                -0.1683591604232788,
                0.31858688592910769,
                0.8513134121894836,
                1.4567930698394776,
                0.6216682195663452,
                0.08721718192100525,
                0.2912372350692749,
                -0.5946685075759888,
                0.6421541571617127,
                -0.1378210186958313,
                -0.46225377917289736,
                0.420989066362381,
                -0.9024847149848938,
                -0.2113388478755951,
                0.6282710433006287,
                0.20111572742462159,
                -1.3313237428665162,
                -0.6339518427848816,
                -0.5662046074867249,
                -0.31454509496688845,
                0.6956064701080322,
                -0.2749820351600647,
                -0.13060103356838227,
                0.35993990302085879,
                -1.0183184146881104,
                1.3404643535614014,
                -0.3100966811180115,
                -0.10439920425415039,
                -0.10064500570297241,
                0.4413132071495056,
                0.3769226372241974,
                -0.34934502840042117,
                -0.7252391576766968,
                0.39678049087524416,
                -0.35154902935028078,
                0.25699931383132937,
                -1.073292851448059,
                -0.2307378500699997,
                -0.3656686842441559,
                0.5554880499839783,
                0.28643229603767397,
                0.8075610399246216,
                -0.7806268334388733,
                -0.8864234089851379,
                -0.21240177750587464,
                -0.4741896688938141,
                1.1408164501190186,
                1.182409644126892,
                0.6567876935005188,
                -0.43723586201667788,
                0.6554386615753174,
                0.21956245601177216,
                0.664243221282959,
                0.35134339332580569,
                0.0729328915476799,
                0.2931220531463623,
                0.13538256287574769,
                1.098040223121643,
                -0.7795169949531555,
                0.9030177593231201,
                0.48276957869529726,
                0.5671290755271912,
                1.6785107851028443,
                -0.14276757836341859,
                0.8532332181930542,
                0.5385339260101318
            ],
            "fitness": 95.43930053710938,
            "timeAlive": 9.173945426940918,
            "totalDistance": 18.097558975219728,
            "successfulJumps": 0,
            "checkpointsReached": 2,
            "uniqueAreasVisited": 4,
            "activeWeightsCount": 136,
            "weightComplexity": 1.0,
            "outputLockStatus": [
                false,
                false,
                false,
                false
            ],
            "correctJumps": 0,
            "incorrectJumps": 0,
            "explorationEfficiency": 0.221024289727211
        },
        {
            "layers": [
                8,
                8,
                6,
                4
            ],
            "flattenedWeights": [
                0.17822423577308656,
                1.0545732975006104,
                -0.7055246233940125,
                0.3160626292228699,
                -0.31254827976226809,
                1.280474066734314,
                -0.7367371320724487,
                -0.9814980030059815,
                1.0063573122024537,
                0.922333300113678,
                0.05800491198897362,
                -0.6624352931976318,
                -0.5039212107658386,
                -0.20166587829589845,
                0.5095583200454712,
                -1.0834977626800538,
                0.0069894976913928989,
                -0.49914422631263735,
                -0.9636313915252686,
                0.8382610082626343,
                1.0607643127441407,
                1.073020339012146,
                0.560772716999054,
                -0.5246965289115906,
                0.21629977226257325,
                0.6851463913917542,
                -0.19787928462028504,
                0.2002476453781128,
                0.26626670360565188,
                -0.7009949684143066,
                0.514570951461792,
                -0.3828178644180298,
                -0.4255691468715668,
                -0.0952518954873085,
                1.2752681970596314,
                -1.2142466306686402,
                -0.05798859894275665,
                -0.8041523098945618,
                -0.933941662311554,
                0.15577690303325654,
                0.4428807497024536,
                0.30309969186782839,
                0.03973536193370819,
                -0.41469666361808779,
                0.5822810530662537,
                1.2726304531097413,
                0.09603819251060486,
                0.6823896169662476,
                0.4821661710739136,
                -0.5990398526191711,
                -0.08830203115940094,
                0.667100191116333,
                0.06141708046197891,
                0.23356664180755616,
                -0.01631520688533783,
                0.8472012281417847,
                0.04220593720674515,
                -0.5426207184791565,
                -0.10240347683429718,
                0.6131794452667236,
                0.6918556690216065,
                0.8572437763214111,
                0.560587465763092,
                0.2716240882873535,
                0.38254451751708987,
                0.39548203349113467,
                0.0274338461458683,
                0.9887878894805908,
                -1.9893842935562134,
                -1.0709511041641236,
                -0.21288666129112245,
                0.28107646107673647,
                0.7543545961380005,
                1.5132098197937012,
                0.5878279805183411,
                0.06788884103298187,
                0.2719884216785431,
                -0.40431278944015505,
                0.5714618563652039,
                -0.11187059432268143,
                -0.5572073459625244,
                0.6209636926651001,
                -1.0422900915145875,
                -0.10985933244228363,
                0.6693886518478394,
                0.2023705244064331,
                -1.242823600769043,
                -0.9366635084152222,
                -0.5205394625663757,
                -0.44035446643829348,
                0.8494407534599304,
                -0.03548377752304077,
                0.003725241869688034,
                0.1377180516719818,
                -1.0183184146881104,
                1.1402504444122315,
                -0.221717968583107,
                -0.18377625942230225,
                -0.03277202695608139,
                0.4191587269306183,
                0.3059775233268738,
                -0.2895287871360779,
                -0.6254152655601502,
                0.5818770527839661,
                -0.5013373494148254,
                0.3438669741153717,
                -1.1689754724502564,
                -0.16988041996955872,
                -0.3352087140083313,
                0.6514719128608704,
                0.3491629362106323,
                0.8381882905960083,
                -0.8252884745597839,
                -1.1333523988723755,
                -0.28350093960762026,
                -0.5577760338783264,
                1.201159954071045,
                1.0667780637741089,
                0.6064338088035584,
                -0.36575427651405337,
                0.5570152997970581,
                0.24627068638801576,
                0.8103165626525879,
                0.3478499948978424,
                0.07724500447511673,
                0.2352759838104248,
                0.2652977705001831,
                1.1747931241989136,
                -0.7857683897018433,
                0.8557256460189819,
                0.43927669525146487,
                0.6064813137054443,
                1.6785107851028443,
                -0.06187126785516739,
                0.9926773905754089,
                0.6062222719192505
            ],
            "fitness": 95.43828582763672,
            "timeAlive": 9.173945426940918,
            "totalDistance": 18.098054885864259,
            "successfulJumps": 0,
            "checkpointsReached": 2,
            "uniqueAreasVisited": 4,
            "activeWeightsCount": 134,
            "weightComplexity": 0.9852941036224365,
            "outputLockStatus": [
                false,
                false,
                false,
                false
            ],
            "correctJumps": 0,
            "incorrectJumps": 0,
            "explorationEfficiency": 0.2210182249546051
        }
    ],
    "timestamp": "2025-06-19 05:44:53",
    "populationSize": 23,
    "aliveNPCs": 0,
    "generationDuration": 0.11700439453125,
    "mutationRate": 0.32100000977516177,
    "eliteCount": 3,
    "globalLockStatus": [
        false,
        false,
        false,
        false
    ],
    "fitnessRange": 82.02660369873047,
    "diversityIndex": 22.73663330078125,
    "averageTimeAlive": 8.712873458862305,
    "totalDistanceSum": 272.9344787597656,
    "totalSuccessfulJumps": 0,
    "populationDiversity": 0.2659047842025757,
    "learningRate": 0.00024704786483198404,
    "convergenceRate": 0.14236155152320863,
    "totalCheckpointsReached": 28,
    "averageDistance": 17.05840492248535,
    "totalDeaths": 16,
    "improvementRate": 0.02359771728515625,
    "explorationBonus": 136.6506805419922,
    "efficiencyScore": 9.80235481262207,
    "activeBehaviors": 3,
    "aliveAtEnd": 0,
    "memoryUsage": 8.0
}