{
    "generation": 550,
    "bestFitness": 172.822265625,
    "averageFitness": 56.85756301879883,
    "worstFitness": 10.66159725189209,
    "networks": [
        {
            "layers": [
                8,
                8,
                6,
                4
            ],
            "flattenedWeights": [
                0.10849050432443619,
                0.35402679443359377,
                1.1213607788085938,
                -0.37425485253334048,
                0.5866912007331848,
                0.6653412580490112,
                0.24014131724834443,
                -0.2776952385902405,
                -1.8511322736740113,
                0.9531581997871399,
                -0.9518618583679199,
                1.7624682188034058,
                1.2289212942123414,
                -0.46278372406959536,
                0.4876151978969574,
                0.10644471645355225,
                -1.3598248958587647,
                1.1292873620986939,
                -0.42104172706604006,
                0.532701313495636,
                1.603986382484436,
                -0.39875972270965578,
                0.7399414777755737,
                1.767112374305725,
                1.4228096008300782,
                -0.807017982006073,
                0.5007237195968628,
                -1.1637486219406129,
                0.6660040020942688,
                0.9412263631820679,
                -1.39595627784729,
                -0.884911835193634,
                -0.11823861300945282,
                0.554996907711029,
                0.3392229676246643,
                -0.6616523265838623,
                -0.9258622527122498,
                0.7360818982124329,
                0.6063114404678345,
                -0.17181986570358277,
                -1.1064329147338868,
                -2.3619778156280519,
                -0.11040037870407105,
                -0.9090288877487183,
                1.9854989051818848,
                0.9685103893280029,
                -0.7521011233329773,
                -0.45138055086135867,
                1.9628876447677613,
                1.0403565168380738,
                -0.8222492933273315,
                -1.204848051071167,
                0.5948576331138611,
                -2.1430394649505617,
                -0.01427292451262474,
                2.2184314727783205,
                0.16642142832279206,
                -0.8346719145774841,
                -0.018616124987602235,
                0.5006799697875977,
                -0.7973204255104065,
                -1.729465365409851,
                -1.2693248987197877,
                0.20144125819206239,
                0.48842287063598635,
                -0.6263809204101563,
                -0.93034827709198,
                -0.5062368512153626,
                1.0530301332473755,
                1.125563144683838,
                1.0157662630081177,
                0.5662241578102112,
                0.9650490283966065,
                0.8263770341873169,
                0.6921518445014954,
                -0.9067994356155396,
                -1.4041309356689454,
                -0.41936925053596499,
                -0.35179832577705386,
                -0.9451128244400024,
                -0.37512022256851199,
                0.8718488216400147,
                0.7812482714653015,
                0.7125031352043152,
                2.5908384323120119,
                0.15392985939979554,
                0.9455512166023254,
                -0.6599122285842896,
                -0.5115626454353333,
                -0.5950600504875183,
                -1.4498015642166138,
                0.22748246788978578,
                -0.6641839742660523,
                -2.2673251628875734,
                -2.287255048751831,
                0.1901579201221466,
                -0.07284089922904968,
                -0.9302632212638855,
                -1.8765493631362916,
                -0.03230394423007965,
                -1.570815920829773,
                0.7115883827209473,
                -1.0238418579101563,
                1.9826040267944337,
                -0.8307826519012451,
                -0.6269612908363342,
                -0.8550637364387512,
                1.2104793787002564,
                0.6443829536437988,
                0.9348371624946594,
                1.168806791305542,
                0.218722403049469,
                2.225878953933716,
                0.9444120526313782,
                1.3794317245483399,
                0.33674561977386477,
                0.3350927233695984,
                0.54183030128479,
                0.16721808910369874,
                -1.015494704246521,
                0.3601604998111725,
                3.151843547821045,
                -1.0898393392562867,
                -0.057491935789585116,
                1.3939154148101807,
                -0.08067481219768524,
                -0.822018027305603,
                -0.6213152408599854,
                2.248476505279541,
                0.3458355665206909,
                -0.07360543310642243,
                -2.4958207607269289,
                0.7806794047355652,
                0.1604708433151245,
                0.7575691342353821,
                -0.2228742241859436
            ],
            "fitness": 172.822265625,
            "npcType": 0
        },
        {
            "layers": [
                8,
                8,
                6,
                4
            ],
            "flattenedWeights": [
                -0.2290797233581543,
                -0.005887217819690704,
                1.0508785247802735,
                -0.06794846057891846,
                0.09608623385429383,
                0.6440017223358154,
                0.4359639286994934,
                -0.23245762288570405,
                -2.021986961364746,
                0.8032475709915161,
                -1.2107839584350587,
                1.4860730171203614,
                1.060342788696289,
                -0.4233931601047516,
                0.7414609789848328,
                0.1794445812702179,
                -1.3888169527053834,
                1.2959083318710328,
                0.09904030710458756,
                0.6122747659683228,
                1.9452353715896607,
                -0.48885977268218996,
                0.8691286444664002,
                2.636383295059204,
                1.5517070293426514,
                -0.7137697339057922,
                0.574461817741394,
                -1.6573984622955323,
                -0.0920516699552536,
                1.6580779552459717,
                -1.3625258207321168,
                -1.0282022953033448,
                0.030909694731235505,
                0.47757279872894289,
                0.4720020294189453,
                -0.6751331090927124,
                -1.2667865753173829,
                0.7359354496002197,
                0.8778852820396423,
                -0.04374488443136215,
                -1.0429476499557496,
                -3.0951790809631349,
                0.2562311887741089,
                -0.8885956406593323,
                1.5520479679107667,
                0.9707516431808472,
                -0.6565415859222412,
                -0.3848591446876526,
                1.896729826927185,
                1.2086601257324219,
                -0.9294370412826538,
                -1.0265384912490845,
                0.31627050042152407,
                -2.2001404762268068,
                0.19912561774253846,
                1.867539405822754,
                0.11450299620628357,
                -0.6445642113685608,
                -0.09539376944303513,
                0.5723133087158203,
                -0.7091046571731567,
                -1.6117510795593262,
                -1.1108644008636475,
                0.28343454003334048,
                0.27931174635887148,
                -0.6291605830192566,
                -0.868287980556488,
                -0.5273820161819458,
                1.111674189567566,
                0.7840497493743897,
                1.066917061805725,
                0.8086050748825073,
                0.8283881545066834,
                1.2684941291809083,
                0.5647901892662048,
                -0.865504264831543,
                -1.4656474590301514,
                -0.5183798670768738,
                -0.5449087619781494,
                -0.9975871443748474,
                -0.24135662615299226,
                0.8145826458930969,
                1.061730980873108,
                0.7089475989341736,
                2.684565544128418,
                -0.22532275319099427,
                0.29041481018066409,
                -0.7158406972885132,
                -0.6177233457565308,
                -0.7453052997589111,
                -1.4839427471160889,
                0.2985970377922058,
                -0.6343792080879211,
                -2.1381263732910158,
                -2.2736928462982179,
                0.5969913005828857,
                0.04949619621038437,
                -0.9010680317878723,
                -1.735959529876709,
                0.16449934244155885,
                -1.616155743598938,
                0.9549508690834045,
                -0.9118802547454834,
                2.0103511810302736,
                -0.8580130338668823,
                -0.7234519124031067,
                -0.8153867721557617,
                1.300064206123352,
                0.3714224696159363,
                1.0738804340362549,
                1.3198752403259278,
                0.2897593080997467,
                2.6520369052886965,
                1.081047534942627,
                1.3099044561386109,
                0.2915838360786438,
                0.3976937234401703,
                0.388192355632782,
                0.3140212595462799,
                -1.1327177286148072,
                0.37162089347839358,
                3.0216286182403566,
                -0.889090895652771,
                -0.057491935789585116,
                0.827778697013855,
                0.549469530582428,
                -0.8778897523880005,
                -0.4562970995903015,
                2.1578285694122316,
                0.7782512903213501,
                -0.06491414457559586,
                -1.8934745788574219,
                0.8800766468048096,
                0.23623085021972657,
                0.44752436876296999,
                -0.1884695291519165
            ],
            "fitness": 132.21763610839845,
            "npcType": 0
        },
        {
            "layers": [
                8,
                8,
                6,
                4
            ],
            "flattenedWeights": [
                0.13346001505851746,
                0.013548925518989563,
                1.0842262506484986,
                0.18624326586723329,
                0.7301600575447083,
                0.5199831128120422,
                0.055781327188014987,
                -0.28488481044769289,
                -1.9807013273239136,
                0.8264002203941345,
                -0.8553195595741272,
                1.35384202003479,
                1.2671667337417603,
                -0.48774611949920657,
                0.4520505666732788,
                0.2810884118080139,
                -1.119635820388794,
                1.219538927078247,
                -0.28884387016296389,
                0.5405620336532593,
                1.7907909154891968,
                -0.2585529685020447,
                0.7399414777755737,
                2.525432825088501,
                1.357904076576233,
                -0.7304602861404419,
                0.5981976389884949,
                -1.3327078819274903,
                0.2689797878265381,
                1.0293880701065064,
                -1.2129966020584107,
                -1.1180806159973145,
                0.12868312001228333,
                -0.08236358314752579,
                0.3356267511844635,
                -0.7142706513404846,
                -1.4421977996826172,
                0.7359354496002197,
                -0.033095166087150577,
                0.13084331154823304,
                -0.9991230964660645,
                -2.852097272872925,
                -0.024843253195285798,
                -1.0526094436645508,
                2.03488826751709,
                0.8637699484825134,
                -0.784308135509491,
                -0.3624061048030853,
                2.117884635925293,
                1.2322450876235963,
                -0.8168826699256897,
                -1.466842532157898,
                0.530873715877533,
                -2.1737191677093508,
                0.37787753343582156,
                1.8916599750518799,
                0.03221702575683594,
                -0.79083251953125,
                0.1720712035894394,
                0.6239908933639526,
                -0.9317136406898499,
                -1.7315707206726075,
                -1.2023024559020997,
                0.23478704690933228,
                0.5017504096031189,
                -0.6482672691345215,
                -0.7755560874938965,
                -0.5605178475379944,
                0.9381353259086609,
                1.1614911556243897,
                0.716325581073761,
                0.5955399870872498,
                1.0428396463394166,
                1.2634310722351075,
                0.41374894976615908,
                -0.8073706030845642,
                -1.346842885017395,
                -0.43291357159614565,
                -0.6172425746917725,
                -1.0058263540267945,
                -0.44251853227615359,
                1.2280470132827759,
                0.8496924638748169,
                0.7186535596847534,
                3.117386817932129,
                0.05890993773937225,
                0.3633812963962555,
                -0.5029582977294922,
                -0.27988123893737795,
                -0.8722350001335144,
                -1.082563877105713,
                0.1842772662639618,
                -0.763783872127533,
                -2.134995460510254,
                -2.205101490020752,
                0.3402051627635956,
                0.022441081702709199,
                -0.763678789138794,
                -2.312533378601074,
                -0.07229969650506973,
                -1.6449705362319947,
                0.8264055252075195,
                -1.0469969511032105,
                1.5457234382629395,
                -0.9057270288467407,
                -0.5869506597518921,
                -0.5725798010826111,
                1.3267912864685059,
                0.769049346446991,
                1.1046561002731324,
                1.4108165502548218,
                0.05091013014316559,
                2.3777027130126955,
                0.766886830329895,
                1.3555543422698975,
                0.46636274456977847,
                0.37803465127944949,
                0.7251829504966736,
                0.441025048494339,
                -0.9651554822921753,
                -0.19730190932750703,
                2.9523231983184816,
                -0.7427110075950623,
                0.29041218757629397,
                1.3579967021942139,
                0.3571179509162903,
                -1.105614185333252,
                -0.49033087491989138,
                2.240499496459961,
                0.691447377204895,
                -0.09379586577415467,
                -2.0736937522888185,
                0.7811409831047058,
                0.5001699328422546,
                1.1350197792053223,
                -0.2983231246471405
            ],
            "fitness": 117.30453491210938,
            "npcType": 0
        },
        {
            "layers": [
                8,
                8,
                6,
                4
            ],
            "flattenedWeights": [
                0.17601463198661805,
                -0.005887217819690704,
                0.9857165813446045,
                -0.060501329600811008,
                0.09608623385429383,
                0.4949645400047302,
                0.1547338366508484,
                -0.34516361355781557,
                -1.9564932584762574,
                0.7338536977767944,
                -1.2663836479187012,
                1.5535733699798585,
                1.3170323371887208,
                -0.32571282982826235,
                0.5536728501319885,
                0.5358849167823792,
                -1.274182915687561,
                1.1292873620986939,
                -0.061560653150081637,
                0.38217002153396609,
                1.8495699167251588,
                -0.4876520335674286,
                0.6005795001983643,
                2.5508909225463869,
                1.6403472423553467,
                -0.7258293032646179,
                0.33083367347717287,
                -1.6721363067626954,
                -0.13292643427848817,
                1.6580779552459717,
                -1.3214250802993775,
                -0.8724443316459656,
                -0.12932279706001283,
                0.4173913598060608,
                0.68965744972229,
                -0.8137288689613342,
                -1.1912332773208619,
                0.6770573854446411,
                0.8657965064048767,
                0.17451027035713197,
                -1.0429476499557496,
                -2.9927010536193849,
                -0.10096266120672226,
                -0.8144250512123108,
                1.5055749416351319,
                0.8647567629814148,
                -0.7765031456947327,
                -0.46253979206085207,
                1.9327095746994019,
                1.158576250076294,
                -0.36039167642593386,
                -1.230512261390686,
                0.3687729835510254,
                -2.2001404762268068,
                0.37787753343582156,
                1.862170696258545,
                0.1412794291973114,
                -0.6445642113685608,
                -0.03236965835094452,
                0.7241994142532349,
                -0.9004179835319519,
                -1.6326030492782593,
                -1.2618598937988282,
                0.14877191185951234,
                0.2103298008441925,
                -0.6573632955551148,
                -0.5570569038391113,
                -0.699343740940094,
                1.114832878112793,
                1.1768443584442139,
                1.066917061805725,
                0.7749232649803162,
                0.8283881545066834,
                0.9777899980545044,
                0.4185566306114197,
                -1.0960978269577027,
                -1.4656474590301514,
                -0.6747041940689087,
                -0.5449087619781494,
                -1.0391842126846314,
                -0.25466644763946535,
                1.247724175453186,
                0.9485177993774414,
                0.6501167416572571,
                2.2609715461730959,
                -0.06254357844591141,
                0.2163565754890442,
                -0.5962885022163391,
                -0.6177233457565308,
                -1.2095509767532349,
                -1.2699905633926392,
                0.17425736784934998,
                -0.6716116070747376,
                -2.2482523918151857,
                -2.423574686050415,
                0.043928273022174838,
                0.09123547375202179,
                -0.8141434788703919,
                -1.735959529876709,
                -0.11303503811359406,
                -1.4021046161651612,
                0.7546086311340332,
                -0.9911671876907349,
                1.9654475450515748,
                -0.7764415144920349,
                -0.30059289932250979,
                -0.4894210994243622,
                1.3317917585372925,
                0.47905227541923525,
                1.032213807106018,
                1.3198752403259278,
                0.21822907030582429,
                2.6746888160705568,
                0.9997498989105225,
                1.4095757007598878,
                0.2444705069065094,
                0.33220529556274416,
                0.26207977533340456,
                0.3140212595462799,
                -1.1102172136306763,
                0.1173357143998146,
                3.045119524002075,
                -1.0898393392562867,
                -0.11503187566995621,
                0.7885499596595764,
                0.3548502027988434,
                -0.945624828338623,
                -0.47393685579299929,
                2.2348010540008547,
                0.8223959803581238,
                -0.17077526450157166,
                -2.079477071762085,
                0.7156797647476196,
                0.2831154465675354,
                0.44752436876296999,
                -0.12352742999792099
            ],
            "fitness": 116.84158325195313,
            "npcType": 0
        },
        {
            "layers": [
                8,
                8,
                6,
                4
            ],
            "flattenedWeights": [
                0.1798509955406189,
                0.048693589866161349,
                0.9785484075546265,
                -0.09281842410564423,
                0.14504969120025636,
                0.5389508605003357,
                0.17871609330177308,
                -0.36113718152046206,
                -2.1003055572509767,
                0.8711670637130737,
                -0.8785041570663452,
                1.5437239408493043,
                1.0084595680236817,
                -0.49034836888313296,
                0.6070025563240051,
                0.5091246962547302,
                -0.955629289150238,
                1.1440985202789307,
                -0.39123594760894778,
                0.5032544136047363,
                1.6197336912155152,
                -0.5490809082984924,
                1.0351225137710572,
                1.8861244916915894,
                1.4091509580612183,
                -0.7468647360801697,
                0.4538992643356323,
                -1.4135369062423707,
                -0.16390544176101685,
                0.9062990546226502,
                -1.517609715461731,
                -0.8439411520957947,
                0.08322092890739441,
                0.37386074662208559,
                0.47796714305877688,
                -0.5856145620346069,
                -0.9506490230560303,
                0.7360818982124329,
                0.6063114404678345,
                0.13084331154823304,
                -1.101778268814087,
                -2.3619778156280519,
                0.27886542677879336,
                -0.8885956406593323,
                1.9854989051818848,
                0.8526383638381958,
                -0.7521011233329773,
                -0.3701222240924835,
                2.0335309505462648,
                1.0616217851638795,
                -0.9231088161468506,
                -1.3255001306533814,
                0.6262019276618958,
                -2.1700451374053957,
                0.4011830985546112,
                1.990619421005249,
                -0.355098158121109,
                -0.7584854364395142,
                -0.03236965835094452,
                0.5006799697875977,
                -1.1728503704071046,
                -1.7750147581100464,
                -1.2200701236724854,
                0.1655770093202591,
                0.5541917085647583,
                -0.6291605830192566,
                -0.8482039570808411,
                -0.4462604820728302,
                0.9935206174850464,
                0.7807044386863709,
                0.6802406311035156,
                0.5662241578102112,
                0.863275408744812,
                1.2797616720199586,
                0.6073344349861145,
                -0.865504264831543,
                -1.426106572151184,
                -0.4640657901763916,
                -0.5623281598091126,
                -0.4983983635902405,
                -0.44251853227615359,
                0.9352258443832398,
                0.7955097556114197,
                0.7377466559410095,
                2.7872543334960939,
                0.10753535479307175,
                0.2891807556152344,
                -0.6084557771682739,
                -0.2189265787601471,
                -0.7011333107948303,
                -1.2707774639129639,
                0.2594369053840637,
                -0.45032793283462527,
                -2.2162394523620607,
                -2.3131000995635988,
                0.1901579201221466,
                -0.15470102429389954,
                -0.9120800495147705,
                -1.8765493631362916,
                0.16449934244155885,
                -1.3614473342895508,
                0.8561879396438599,
                -1.0986920595169068,
                1.6498045921325684,
                -0.8091772198677063,
                -0.639477014541626,
                -0.8550637364387512,
                1.1559480428695679,
                0.5205970406532288,
                1.0845133066177369,
                1.3485314846038819,
                0.15180110931396485,
                2.6520369052886965,
                0.9610216021537781,
                1.5080657005310059,
                0.3044828772544861,
                0.28955578804016116,
                0.5082520246505737,
                0.04264882206916809,
                -1.0584146976470948,
                0.3601604998111725,
                3.0920004844665529,
                -1.1481534242630005,
                -0.027514256536960603,
                1.3993079662322999,
                0.549469530582428,
                -0.822018027305603,
                -0.5816615223884583,
                2.3622922897338869,
                0.8988248705863953,
                -0.023115865886211396,
                -2.556994676589966,
                0.861003577709198,
                0.17709997296333314,
                0.7575691342353821,
                -0.2228742241859436
            ],
            "fitness": 115.7776107788086,
            "npcType": 0
        },
        {
            "layers": [
                8,
                8,
                6,
                4
            ],
            "flattenedWeights": [
                -0.02848367765545845,
                -0.10198944061994553,
                0.5896912813186646,
                0.1665639579296112,
                0.8007311820983887,
                0.622026264667511,
                0.059722431004047397,
                -0.29615354537963869,
                -2.0562825202941896,
                0.64864182472229,
                -1.2927154302597047,
                1.6609188318252564,
                1.060146689414978,
                -0.36461567878723147,
                0.6931312084197998,
                0.05972637981176376,
                -1.3888169527053834,
                1.0611318349838257,
                -0.4532456398010254,
                0.4886156916618347,
                2.1265451908111574,
                -0.41943126916885378,
                0.8946110606193543,
                1.8904566764831544,
                1.5158647298812867,
                -0.7554309964179993,
                0.574461817741394,
                -1.0136815309524537,
                0.6904007196426392,
                0.38874179124832156,
                -1.4252021312713624,
                -0.9669049382209778,
                0.030909694731235505,
                0.39746931195259097,
                0.4855903685092926,
                -0.6490622162818909,
                -1.156980276107788,
                1.119766354560852,
                0.5460680723190308,
                0.09103895723819733,
                -1.0468240976333619,
                -3.0951790809631349,
                -0.11040037870407105,
                -0.8885956406593323,
                2.3520748615264894,
                0.7749698758125305,
                -0.8274808526039124,
                -0.35717740654945376,
                2.1705217361450197,
                1.273820161819458,
                -0.9294370412826538,
                -1.319078803062439,
                0.2599266469478607,
                -2.0847043991088869,
                -0.06765037029981613,
                1.867539405822754,
                -0.4721463918685913,
                -0.635959267616272,
                0.12574703991413117,
                0.48056089878082278,
                -0.7966581583023071,
                -1.8165547847747803,
                -1.2023024559020997,
                0.25097471475601199,
                0.33774393796920779,
                -0.6482672691345215,
                -0.7260696291923523,
                -0.6121597290039063,
                1.0290576219558716,
                0.7840497493743897,
                1.0425481796264649,
                0.5636545419692993,
                0.9620736241340637,
                1.2581127882003785,
                0.3591679632663727,
                -1.0307400226593018,
                -1.4691516160964966,
                -0.36581379175186159,
                -0.5386735200881958,
                -0.9451128244400024,
                -0.5322418212890625,
                0.9057803750038147,
                0.8728815913200378,
                0.7377466559410095,
                2.611632823944092,
                -0.14257001876831056,
                0.8748883008956909,
                -0.590194582939148,
                -0.2517739534378052,
                -0.7453052997589111,
                -1.4408273696899415,
                0.051854945719242099,
                -0.815946102142334,
                -2.257805585861206,
                -2.3321495056152345,
                0.5246143341064453,
                -0.4665466547012329,
                -0.8319910168647766,
                -1.8381153345108033,
                0.05531810224056244,
                -1.616155743598938,
                0.9549508690834045,
                -1.0453705787658692,
                1.7902989387512208,
                -0.8091772198677063,
                -0.6915781497955322,
                -0.36720094084739687,
                1.200687289237976,
                0.5351321697235107,
                1.1537461280822755,
                0.9652387499809265,
                0.07501921057701111,
                2.2973289489746095,
                0.8954974412918091,
                1.438943862915039,
                0.34106069803237917,
                0.3976937234401703,
                0.42561498284339907,
                0.4847184419631958,
                -1.029552698135376,
                0.3384194076061249,
                3.132169723510742,
                -0.957324743270874,
                0.29041218757629397,
                0.7410873174667358,
                0.5428538918495178,
                -0.7944003939628601,
                -0.4562970995903015,
                2.2238199710845949,
                1.02132248878479,
                -0.03643609955906868,
                -1.72946298122406,
                0.9242874383926392,
                0.5001699328422546,
                0.5910230875015259,
                -0.2151590883731842
            ],
            "fitness": 81.55326843261719,
            "npcType": 0
        },
        {
            "layers": [
                8,
                8,
                6,
                4
            ],
            "flattenedWeights": [
                -0.2290797233581543,
                0.13980792462825776,
                1.0841337442398072,
                0.022500261664390565,
                0.0375610776245594,
                0.6819943189620972,
                0.2860293984413147,
                -0.34009963274002077,
                -2.0915842056274416,
                0.6136563420295715,
                -1.2107839584350587,
                1.453355312347412,
                1.1224875450134278,
                -0.4930451512336731,
                0.5637803673744202,
                0.1794445812702179,
                -1.0117590427398682,
                1.1292873620986939,
                -0.12151167541742325,
                0.8053010702133179,
                1.9452353715896607,
                -0.4908067584037781,
                0.9600973725318909,
                2.5786094665527345,
                1.6403472423553467,
                -0.7258293032646179,
                0.3809596002101898,
                -1.5912508964538575,
                -0.18226277828216554,
                1.6580779552459717,
                -1.3356906175613404,
                -1.0282022953033448,
                -0.11823861300945282,
                0.4173913598060608,
                0.68965744972229,
                -0.6872849464416504,
                -0.9998971819877625,
                1.1066728830337525,
                0.8333945274353027,
                0.09516554325819016,
                -1.0429476499557496,
                -2.756293535232544,
                0.22474616765975953,
                -0.8559625744819641,
                2.2381017208099367,
                0.9325096607208252,
                -0.7765031456947327,
                -0.39208081364631655,
                1.871679663658142,
                1.2358505725860596,
                -0.845022439956665,
                -0.949119508266449,
                0.29745298624038699,
                -2.06653094291687,
                0.19912561774253846,
                1.862170696258545,
                -0.060835156589746478,
                -0.5837327241897583,
                0.12574703991413117,
                0.7241994142532349,
                -1.059264898300171,
                -1.6497782468795777,
                -1.1246362924575806,
                0.14877191185951234,
                0.27949100732803347,
                -0.8305517435073853,
                -0.5966219305992127,
                -0.6963099837303162,
                0.9108726382255554,
                1.229927897453308,
                0.7209733724594116,
                0.7082037925720215,
                0.8422785401344299,
                0.8797507286071777,
                0.5647901892662048,
                -1.0042458772659302,
                -1.5181941986083985,
                -0.5373234152793884,
                -0.6172425746917725,
                -1.085832953453064,
                -0.1982840597629547,
                1.376115322113037,
                0.9222788214683533,
                0.6995933055877686,
                2.335561752319336,
                -0.23634465038776399,
                0.5956095457077026,
                0.11911912262439728,
                -0.23399662971496583,
                -0.7947196364402771,
                -1.3705428838729859,
                0.18086740374565125,
                -0.6106183528900147,
                -2.4116368293762209,
                -2.2736928462982179,
                0.5686120986938477,
                0.06968274712562561,
                -0.9389612078666687,
                -1.6773946285247803,
                0.08261729031801224,
                -1.4445968866348267,
                0.5803431868553162,
                -1.0453705787658692,
                1.9654475450515748,
                -0.8417530655860901,
                -0.30059289932250979,
                -0.5835303068161011,
                1.3053034543991089,
                0.5375779867172241,
                1.0577118396759034,
                1.3166581392288209,
                0.13520988821983338,
                2.279778003692627,
                1.081047534942627,
                1.569037675857544,
                0.2915838360786438,
                0.333251953125,
                0.40950626134872439,
                0.3140212595462799,
                -1.166187047958374,
                0.2914343476295471,
                3.221712827682495,
                -0.9056745767593384,
                -0.04482278972864151,
                1.4347188472747803,
                -0.12062161415815354,
                -0.945624828338623,
                -0.5327335596084595,
                2.530587911605835,
                0.47149360179901125,
                -0.07131588459014893,
                -2.4495761394500734,
                0.8440008163452148,
                0.23623085021972657,
                0.44752436876296999,
                -0.013397708535194397
            ],
            "fitness": 81.45817565917969,
            "npcType": 0
        },
        {
            "layers": [
                8,
                8,
                6,
                4
            ],
            "flattenedWeights": [
                0.1283702254295349,
                0.13980792462825776,
                0.5879694819450378,
                -0.15913483500480653,
                0.269575297832489,
                0.816082775592804,
                0.19667670130729676,
                -0.23353999853134156,
                -1.8635367155075074,
                0.6136563420295715,
                -1.2644100189208985,
                1.6204825639724732,
                1.16997230052948,
                -0.4930451512336731,
                0.6001694798469544,
                0.3298901319503784,
                -1.0117590427398682,
                1.2666558027267457,
                -0.41594281792640688,
                0.77141273021698,
                1.7655444145202637,
                -0.44400015473365786,
                0.7852992415428162,
                1.7964316606521607,
                1.582716941833496,
                -0.8715909719467163,
                0.421271413564682,
                -1.094431757926941,
                -0.24001526832580567,
                1.0186781883239747,
                -1.5607892274856568,
                -1.0886636972427369,
                -0.6897387504577637,
                0.548333466053009,
                0.37269747257232668,
                -0.5197156667709351,
                -0.9998971819877625,
                0.8555953502655029,
                0.007669076323509216,
                0.24683746695518495,
                -0.8703316450119019,
                -2.5091090202331545,
                0.20219829678535462,
                -0.8559625744819641,
                2.2234277725219728,
                0.9751445651054382,
                -0.5619126558303833,
                -0.32062268257141116,
                2.147526979446411,
                1.2843959331512452,
                -0.845022439956665,
                -1.391132116317749,
                0.2650556266307831,
                -1.922367811203003,
                0.05435886234045029,
                2.2269890308380129,
                0.1027333214879036,
                -0.6772441864013672,
                0.17821426689624787,
                0.5841745138168335,
                -0.8911160826683044,
                -1.7553856372833253,
                -0.9114964008331299,
                0.19388538599014283,
                0.20191273093223573,
                -0.8272901773452759,
                -0.8800876140594482,
                -0.5638849139213562,
                0.9108726382255554,
                1.428549885749817,
                0.6507207155227661,
                0.820831835269928,
                0.8103488087654114,
                0.9076552987098694,
                0.5288562774658203,
                -1.0042458772659302,
                -1.3974828720092774,
                -0.4906999170780182,
                -0.5268067717552185,
                -0.4865783751010895,
                0.5376887321472168,
                0.7822983860969544,
                0.6209566593170166,
                0.6995933055877686,
                2.5691990852355959,
                0.21179960668087007,
                0.6924565434455872,
                -0.6778756976127625,
                -0.23963865637779237,
                -0.5913036465644836,
                -1.3635913133621216,
                0.04182075709104538,
                -0.6770350337028503,
                -2.4116368293762209,
                -2.359811782836914,
                0.3584280014038086,
                0.06968274712562561,
                -0.9116847515106201,
                -1.64899742603302,
                0.1739102005958557,
                -1.4623959064483643,
                0.914121150970459,
                -1.1555237770080567,
                1.8648794889450074,
                -0.7163138389587402,
                -0.5869506597518921,
                -0.4782283306121826,
                1.1461659669876099,
                0.5375779867172241,
                1.1082080602645875,
                1.3166581392288209,
                0.24925166368484498,
                2.2881886959075929,
                0.8816646337509155,
                1.338178277015686,
                0.34106069803237917,
                0.39088475704193118,
                0.4832044541835785,
                0.3414826989173889,
                -1.067444086074829,
                0.2914343476295471,
                3.137220859527588,
                -0.9593556523323059,
                0.3945887088775635,
                1.4347188472747803,
                0.3685593605041504,
                -0.8596275448799133,
                -0.5159198641777039,
                2.5642926692962648,
                0.47149360179901125,
                -0.2345374971628189,
                -2.4495761394500734,
                0.6822096705436707,
                0.3685925602912903,
                0.8938222527503967,
                -0.035848334431648257
            ],
            "fitness": 81.44096374511719,
            "npcType": 0
        },
        {
            "layers": [
                8,
                8,
                6,
                4
            ],
            "flattenedWeights": [
                -0.09221625328063965,
                0.05555032193660736,
                1.038066029548645,
                0.03702816367149353,
                0.33697667717933657,
                0.6115080118179321,
                0.24014131724834443,
                -0.2821974456310272,
                -1.9163166284561158,
                0.7338536977767944,
                -0.8535029292106628,
                1.5435066223144532,
                1.1541472673416138,
                -0.404509574174881,
                0.677683413028717,
                0.45668700337409975,
                -1.4152921438217164,
                1.228896141052246,
                -0.186259463429451,
                0.5620299577713013,
                1.9254730939865113,
                -0.4110559821128845,
                0.5562241077423096,
                1.965402364730835,
                1.431572437286377,
                -0.7826743721961975,
                0.421271413564682,
                -1.094431757926941,
                -0.12220874428749085,
                1.1930475234985352,
                -1.5986989736557007,
                -1.0855612754821778,
                -0.6360352635383606,
                0.4872112274169922,
                0.28003451228141787,
                -0.6474387645721436,
                -1.1912332773208619,
                0.7359354496002197,
                0.8154197931289673,
                -0.13553039729595185,
                -0.9548962712287903,
                -2.954963445663452,
                -0.10096266120672226,
                -0.9439085125923157,
                2.149158239364624,
                0.8133764266967773,
                -0.7705618143081665,
                -0.22273755073547364,
                2.142596483230591,
                1.147708773612976,
                -0.9010545015335083,
                -1.3195098638534547,
                0.4427376389503479,
                -2.0976295471191408,
                -0.008489303290843964,
                2.0828871726989748,
                0.005875337868928909,
                -0.6532865762710571,
                -0.03928639367222786,
                0.6425535082817078,
                -1.0061513185501099,
                -1.6848219633102418,
                -1.17658531665802,
                0.25408095121383669,
                0.530657947063446,
                -0.7474526762962341,
                -1.0128453969955445,
                -0.44939929246902468,
                0.9651228785514832,
                1.1075128316879273,
                0.6509047150611877,
                0.5776078104972839,
                0.8226075768470764,
                0.8879486322402954,
                0.6019620895385742,
                -0.9543581008911133,
                -1.426106572151184,
                -0.4906999170780182,
                -0.5977593660354614,
                -0.9137508273124695,
                -0.4560161828994751,
                0.7461344003677368,
                0.6537206768989563,
                0.822044312953949,
                2.7872543334960939,
                0.10384972393512726,
                0.5017238259315491,
                -0.5029582977294922,
                -0.47445130348205569,
                -0.7947196364402771,
                -1.3299087285995484,
                0.27250808477401736,
                -0.6632885336875916,
                -2.4116368293762209,
                -2.205101490020752,
                0.49237579107284548,
                0.03865201771259308,
                -0.816045343875885,
                -1.7894096374511719,
                0.15336385369300843,
                -1.3472926616668702,
                0.768509566783905,
                -1.0821974277496338,
                1.600494623184204,
                -0.8029288649559021,
                -0.4885246753692627,
                -0.7842836976051331,
                1.2779631614685059,
                0.42182403802871706,
                0.9348371624946594,
                1.2221300601959229,
                0.09175952523946762,
                2.2880611419677736,
                0.9610216021537781,
                1.2753467559814454,
                0.35981905460357668,
                0.4396384060382843,
                0.33271244168281557,
                0.3656498193740845,
                -1.245403528213501,
                0.3496735095977783,
                2.9508137702941896,
                -0.9159441590309143,
                -0.2011464685201645,
                0.7257679104804993,
                0.35545259714126589,
                -0.7424776554107666,
                -0.7423098087310791,
                2.235700845718384,
                0.5403580665588379,
                -0.09019386768341065,
                -2.082603931427002,
                0.8638405799865723,
                0.45241278409957888,
                0.7591796517372131,
                -0.2534800171852112
            ],
            "fitness": 81.42552947998047,
            "npcType": 0
        },
        {
            "layers": [
                8,
                8,
                6,
                4
            ],
            "flattenedWeights": [
                0.17601463198661805,
                0.08057045191526413,
                0.5879694819450378,
                -0.10087447613477707,
                0.6666619777679443,
                0.648954451084137,
                0.19667670130729676,
                -0.32114315032958987,
                -2.014940023422241,
                0.7337744832038879,
                -1.2553956508636475,
                1.6204825639724732,
                0.9896763563156128,
                -0.48414531350135805,
                0.6303354501724243,
                0.6613810062408447,
                -1.3888169527053834,
                1.3603298664093018,
                -0.5035348534584045,
                0.9164695739746094,
                1.7072495222091675,
                -0.31219878792762759,
                0.7852992415428162,
                2.5780186653137209,
                1.475353479385376,
                -0.8851748108863831,
                0.33440086245536806,
                -1.6061421632766724,
                0.37956076860427859,
                1.0186781883239747,
                -1.3625258207321168,
                -0.9507831335067749,
                0.1305321455001831,
                0.3960948884487152,
                0.4720020294189453,
                -0.6490622162818909,
                -0.8591123819351196,
                0.7359354496002197,
                0.8374935388565064,
                -0.04374488443136215,
                -0.9406559467315674,
                -3.0951790809631349,
                0.20219829678535462,
                -0.9690314531326294,
                2.0650436878204347,
                0.8644939661026001,
                -0.6565415859222412,
                -0.7389377355575562,
                2.1705217361450197,
                1.3772536516189576,
                -0.5412585139274597,
                -1.2618597745895386,
                0.31627050042152407,
                -1.922367811203003,
                0.3995298743247986,
                2.31506085395813,
                0.11450299620628357,
                -0.9662007093429565,
                -0.07915712147951126,
                0.658267617225647,
                -0.8911160826683044,
                -1.6191084384918213,
                -1.2023024559020997,
                0.28343454003334048,
                0.20191273093223573,
                -0.6291605830192566,
                -0.868287980556488,
                -0.5668572783470154,
                1.13352370262146,
                0.7840497493743897,
                1.1594161987304688,
                0.820831835269928,
                0.9125369191169739,
                1.3449838161468506,
                0.37479737401008608,
                -1.0305200815200806,
                -1.4136691093444825,
                -0.4640657901763916,
                -0.5386735200881958,
                -0.8585667610168457,
                0.4993636906147003,
                0.8802863359451294,
                1.0010484457015992,
                0.8485552072525024,
                2.684565544128418,
                0.21179960668087007,
                0.2891807556152344,
                -0.7445506453514099,
                -0.23963865637779237,
                -0.7453052997589111,
                -1.3635913133621216,
                0.2985970377922058,
                -0.7234746813774109,
                -2.0976078510284426,
                -2.5182011127471926,
                0.36317911744117739,
                -0.0867031142115593,
                -0.8681961894035339,
                -1.8090592622756959,
                0.1406465470790863,
                -1.5690562725067139,
                0.9791396856307983,
                -0.9118802547454834,
                1.7902989387512208,
                -0.8091772198677063,
                -0.5035491585731506,
                -0.36720094084739687,
                1.1266021728515626,
                0.4379745125770569,
                1.0738804340362549,
                1.1898436546325684,
                0.24925166368484498,
                2.6520369052886965,
                0.855658233165741,
                1.3260000944137574,
                0.271567165851593,
                0.39088475704193118,
                0.5082520246505737,
                0.3414826989173889,
                -1.0547513961791993,
                0.27672654390335085,
                3.0216286182403566,
                -0.9068004488945007,
                0.43455255031585696,
                1.0671720504760743,
                0.37065836787223818,
                -0.7944003939628601,
                -0.6247806549072266,
                2.63519024848938,
                0.6352603435516357,
                -0.2211417853832245,
                -2.0114905834198,
                0.8324442505836487,
                0.07489410787820816,
                0.8207356929779053,
                -0.25464311242103579
            ],
            "fitness": 81.28059387207031,
            "npcType": 0
        }
    ],
    "timestamp": "2025-06-15 06:06:12"
}