{
    "generation": 20,
    "bestFitness": 95.59468078613281,
    "averageFitness": 65.54039001464844,
    "worstFitness": 0.0,
    "networks": [
        {
            "layers": [
                8,
                8,
                6,
                4
            ],
            "flattenedWeights": [
                0.19432483613491059,
                1.1321330070495606,
                -0.6734461784362793,
                0.4839504063129425,
                -0.19466263055801392,
                1.0701470375061036,
                -0.784089982509613,
                -0.8583682179450989,
                0.9813364148139954,
                0.9876573085784912,
                0.08133971691131592,
                -1.038051962852478,
                -0.4868900775909424,
                -0.20944207906723023,
                0.2611008584499359,
                -1.1351991891860963,
                -0.1324390470981598,
                -0.3208759129047394,
                -0.7727026343345642,
                0.8286654353141785,
                1.0987975597381592,
                1.1468424797058106,
                0.640802800655365,
                -0.4598706066608429,
                0.10422790050506592,
                0.6857315897941589,
                -0.4008026123046875,
                0.30867305397987368,
                0.15842610597610475,
                -0.4361492395401001,
                0.5903791189193726,
                -0.3633907437324524,
                -0.2634325921535492,
                0.07401267439126969,
                1.134074091911316,
                -1.1045715808868409,
                -0.06199871748685837,
                -1.011313557624817,
                -0.7950878143310547,
                0.20395782589912415,
                0.5221326351165772,
                0.47250455617904665,
                0.18151545524597169,
                -0.3387918174266815,
                0.6879786849021912,
                1.2155706882476807,
                0.11405216157436371,
                0.6704466342926025,
                0.5414396524429321,
                -0.6579434275627136,
                -0.18224108219146729,
                0.42693042755126955,
                0.29005342721939089,
                0.24428392946720124,
                0.0093962661921978,
                0.6706534028053284,
                0.2217543125152588,
                -0.6312965154647827,
                -0.13532909750938416,
                0.7122768759727478,
                0.8061099648475647,
                0.9687659740447998,
                0.7172420024871826,
                0.18216539919376374,
                0.30511897802352908,
                0.3566362261772156,
                -0.12869739532470704,
                0.9174030423164368,
                -1.9035279750823975,
                -1.2930729389190674,
                -0.25002923607826235,
                0.34990763664245608,
                0.7134802341461182,
                1.5132098197937012,
                0.808186411857605,
                -0.21529746055603028,
                0.38759908080101015,
                -0.4954548478126526,
                0.7229528427124023,
                -0.1601390540599823,
                -0.6563020348548889,
                0.3889620900154114,
                -0.8706254959106445,
                -0.15524941682815553,
                0.744098961353302,
                0.4141855835914612,
                -1.1902395486831666,
                -0.8034200072288513,
                -0.5732614994049072,
                -0.42924150824546816,
                0.9515053629875183,
                -0.15365904569625855,
                -0.08084233105182648,
                0.15001943707466126,
                -1.136290192604065,
                0.9681469798088074,
                -0.28864172101020815,
                -0.18216480314731599,
                -0.06638986617326737,
                0.33666568994522097,
                0.22194994986057282,
                -0.21945014595985413,
                -0.6546279191970825,
                0.27709072828292849,
                -0.5554110407829285,
                0.26934799551963808,
                -1.147444486618042,
                -0.23151254653930665,
                -0.012149911373853684,
                0.43104618787765505,
                0.2212904691696167,
                0.9725309014320374,
                -0.7491986155509949,
                -1.0069612264633179,
                -0.19483722746372224,
                -0.45021796226501467,
                1.2834104299545289,
                1.0894861221313477,
                0.6683802008628845,
                -0.38188832998275759,
                0.5745078325271606,
                0.2150959074497223,
                0.6484050154685974,
                0.3890625536441803,
                -0.2229054570198059,
                0.3891145884990692,
                0.12368228286504746,
                0.9323508739471436,
                -0.8609341382980347,
                0.8725229501724243,
                0.4577385187149048,
                0.6706973314285278,
                1.7487236261367798,
                -0.038773566484451297,
                0.625670313835144,
                0.6193697452545166
            ],
            "fitness": 95.59468078613281,
            "timeAlive": 9.354864120483399,
            "totalDistance": 18.447439193725587,
            "successfulJumps": 0,
            "checkpointsReached": 2,
            "uniqueAreasVisited": 4,
            "activeWeightsCount": 135,
            "weightComplexity": 0.9926470518112183,
            "outputLockStatus": [
                false,
                false,
                false,
                false
            ],
            "correctJumps": 0,
            "incorrectJumps": 0,
            "explorationEfficiency": 0.2168322652578354
        },
        {
            "layers": [
                8,
                8,
                6,
                4
            ],
            "flattenedWeights": [
                0.22285430133342744,
                1.0712825059890748,
                -0.764639675617218,
                0.467602014541626,
                -0.19466263055801392,
                1.0701470375061036,
                -0.8058867454528809,
                -0.9911729097366333,
                0.7911848425865173,
                0.9608287811279297,
                0.2089582085609436,
                -0.9974073171615601,
                -0.4868900775909424,
                -0.18601980805397035,
                0.3803013861179352,
                -1.1351991891860963,
                0.1750698983669281,
                -0.6093854308128357,
                -0.7959038615226746,
                0.8573639988899231,
                1.1590311527252198,
                1.0625265836715699,
                0.6626552939414978,
                -0.41872134804725649,
                0.0561404749751091,
                0.6857315897941589,
                -0.12963074445724488,
                0.29634639620780947,
                0.28107282519340517,
                -0.376412957906723,
                0.6626368761062622,
                -0.2845141887664795,
                -0.2798289656639099,
                -0.0860937163233757,
                1.070114016532898,
                -1.1045715808868409,
                -0.12669923901557923,
                -0.9936449527740479,
                -0.8347049355506897,
                -0.029968127608299257,
                0.43408435583114626,
                0.5288790464401245,
                0.2542705833911896,
                -0.3536131680011749,
                0.6668859720230103,
                1.1532150506973267,
                0.16933377087116242,
                0.747016191482544,
                0.5414396524429321,
                -0.7325875163078308,
                -0.23471006751060487,
                0.42693042755126955,
                0.29005342721939089,
                0.2824072539806366,
                -0.0036253556609153749,
                0.6325230002403259,
                0.15329483151435853,
                -0.608989417552948,
                -0.2996724843978882,
                0.7645030617713928,
                0.8057452440261841,
                1.0148714780807496,
                0.7172420024871826,
                0.18216539919376374,
                0.23465436697006226,
                0.4204518496990204,
                -0.10469261556863785,
                0.8252484798431397,
                -1.9035279750823975,
                -1.2087287902832032,
                -0.25002923607826235,
                0.3690108060836792,
                0.7118828296661377,
                1.5132098197937012,
                0.7753919959068298,
                -0.058892957866191867,
                0.38759908080101015,
                -0.5046625137329102,
                0.6816399693489075,
                -0.1601390540599823,
                -0.6323061585426331,
                0.3889620900154114,
                -0.8119168877601624,
                -0.15524941682815553,
                0.744098961353302,
                0.294911652803421,
                -1.156135082244873,
                -0.8034200072288513,
                -0.5226858258247376,
                -0.5132381916046143,
                0.8745934963226318,
                -0.20273524522781373,
                -0.042434439063072208,
                0.15001943707466126,
                -1.0702321529388428,
                1.0677725076675416,
                -0.3330841064453125,
                -0.09807399660348892,
                0.014659315347671509,
                0.44082188606262209,
                0.22630059719085694,
                -0.1508636176586151,
                -0.6963297724723816,
                0.21528372168540955,
                -0.5103747844696045,
                0.4058179259300232,
                -1.2775275707244874,
                -0.32390737533569338,
                -0.13089300692081452,
                0.6569753289222717,
                0.19102828204631806,
                0.9725309014320374,
                -0.7491986155509949,
                -0.9174048900604248,
                -0.23933452367782594,
                -0.45953869819641116,
                1.2306602001190186,
                1.0336915254592896,
                0.8502181172370911,
                -0.15939778089523316,
                0.6481895446777344,
                0.2229471504688263,
                0.6484050154685974,
                0.30062130093574526,
                -0.016764622181653978,
                0.3891145884990692,
                0.19576606154441834,
                0.7327645421028137,
                -0.7746856808662415,
                0.8897389769554138,
                0.5988655686378479,
                0.6312753558158875,
                1.7487236261367798,
                -0.19295507669448853,
                0.672071099281311,
                0.5275760293006897
            ],
            "fitness": 95.57613372802735,
            "timeAlive": 9.354864120483399,
            "totalDistance": 18.408626556396486,
            "successfulJumps": 0,
            "checkpointsReached": 2,
            "uniqueAreasVisited": 4,
            "activeWeightsCount": 135,
            "weightComplexity": 0.9926470518112183,
            "outputLockStatus": [
                false,
                false,
                false,
                false
            ],
            "correctJumps": 0,
            "incorrectJumps": 0,
            "explorationEfficiency": 0.21728943288326264
        },
        {
            "layers": [
                8,
                8,
                6,
                4
            ],
            "flattenedWeights": [
                0.22285430133342744,
                1.0712825059890748,
                -0.6734461784362793,
                0.27811694145202639,
                -0.19466263055801392,
                1.4034383296966553,
                -0.8324322700500488,
                -0.9911729097366333,
                0.9592061042785645,
                0.924044132232666,
                0.023379530757665635,
                -0.8192694187164307,
                -0.24860507249832154,
                -0.20944207906723023,
                0.4815557599067688,
                -1.1351991891860963,
                0.1793525516986847,
                -0.48767101764678957,
                -0.7505127191543579,
                0.7878379225730896,
                1.0987975597381592,
                1.1012489795684815,
                0.6566221714019775,
                -0.41872134804725649,
                0.16923120617866517,
                0.6021379232406616,
                -0.12963074445724488,
                0.29093432426452639,
                0.15842610597610475,
                -0.445896178483963,
                0.6305439472198486,
                -0.2666819989681244,
                -0.18189194798469544,
                -0.09562023729085922,
                1.182785153388977,
                -1.1045715808868409,
                0.011515326797962189,
                -0.9936449527740479,
                -0.7867056131362915,
                0.11844831705093384,
                0.4636218249797821,
                0.43457701802253725,
                0.16169752180576325,
                -0.42759761214256289,
                0.6879786849021912,
                1.1225359439849854,
                0.04284537583589554,
                0.673642098903656,
                0.5414396524429321,
                -0.6579434275627136,
                0.08183448016643524,
                0.42693042755126955,
                0.22090426087379456,
                0.24911652505397798,
                -0.03318629041314125,
                0.663832426071167,
                0.2217543125152588,
                -0.6312965154647827,
                -0.2028142809867859,
                0.7122768759727478,
                0.8057452440261841,
                0.8772534132003784,
                0.5484736561775208,
                0.18216539919376374,
                0.30511897802352908,
                0.3279501497745514,
                -0.06893599033355713,
                0.8857635855674744,
                -1.8803846836090088,
                -1.2087287902832032,
                -0.25002923607826235,
                0.29031288623809817,
                0.8421357870101929,
                1.5132098197937012,
                0.7496524453163147,
                0.05045269429683685,
                0.3601938486099243,
                -0.42320960760116579,
                0.7229528427124023,
                -0.1601390540599823,
                -0.6563020348548889,
                0.3889620900154114,
                -0.8706254959106445,
                -0.15524941682815553,
                0.6459514498710632,
                0.294911652803421,
                -1.1899176836013795,
                -0.7757021188735962,
                -0.5034864544868469,
                -0.3671645224094391,
                0.8311640620231628,
                -0.1467898190021515,
                -0.042434439063072208,
                0.19056016206741334,
                -1.0843669176101685,
                1.1412968635559083,
                -0.3330841064453125,
                -0.09807399660348892,
                -0.06230948492884636,
                0.35877808928489687,
                0.2117382287979126,
                -0.23303130269050599,
                -0.6963297724723816,
                0.3700314462184906,
                -0.5402877926826477,
                0.24078595638275147,
                -1.3679660558700562,
                -0.23151254653930665,
                -0.16136690974235536,
                0.607887327671051,
                0.21401181817054749,
                0.8381882905960083,
                -0.7491986155509949,
                -0.8412672877311707,
                -0.2925870418548584,
                -0.4894457459449768,
                1.4121187925338746,
                1.097914695739746,
                0.7204890251159668,
                -0.2492908537387848,
                0.6481895446777344,
                0.33089742064476015,
                0.7642930746078491,
                0.4202931523323059,
                0.0075716301798820499,
                0.3645291328430176,
                0.19576606154441834,
                0.9323508739471436,
                -0.8618975877761841,
                0.876396894454956,
                0.5189210176467896,
                0.6312753558158875,
                1.7487236261367798,
                -0.09974218904972077,
                0.938263475894928,
                0.4271693229675293
            ],
            "fitness": 95.53034210205078,
            "timeAlive": 9.334681510925293,
            "totalDistance": 18.312480926513673,
            "successfulJumps": 0,
            "checkpointsReached": 2,
            "uniqueAreasVisited": 4,
            "activeWeightsCount": 135,
            "weightComplexity": 0.9926470518112183,
            "outputLockStatus": [
                false,
                false,
                false,
                false
            ],
            "correctJumps": 0,
            "incorrectJumps": 0,
            "explorationEfficiency": 0.2184302657842636
        },
        {
            "layers": [
                8,
                8,
                6,
                4
            ],
            "flattenedWeights": [
                0.1292523443698883,
                0.9968112707138062,
                -0.7794909477233887,
                0.27564653754234316,
                -0.19466263055801392,
                1.3109921216964722,
                -0.8209594488143921,
                -0.9911729097366333,
                0.9813364148139954,
                0.9344925880432129,
                0.09327071160078049,
                -0.7720541954040527,
                -0.3041343092918396,
                -0.20944207906723023,
                0.42701807618141177,
                -0.7119084596633911,
                0.14192894101142884,
                -0.4103671908378601,
                -0.6431111693382263,
                0.7878379225730896,
                1.0006632804870606,
                1.1468424797058106,
                0.6159384250640869,
                -0.41872134804725649,
                0.10144078731536865,
                0.717266857624054,
                -0.12963074445724488,
                0.286771297454834,
                0.17259633541107179,
                -0.31659895181655886,
                0.6626368761062622,
                -0.28177207708358767,
                -0.41928595304489138,
                0.020410537719726564,
                1.1201889514923096,
                -1.1045715808868409,
                -0.05270714312791824,
                -0.9314347505569458,
                -0.8932479619979858,
                0.07458386570215225,
                0.40130576491355898,
                0.48378002643585207,
                0.1854952871799469,
                -0.42759761214256289,
                0.5621576309204102,
                1.1225359439849854,
                -0.06635613739490509,
                0.7170317769050598,
                0.5905429124832153,
                -0.6829357743263245,
                -0.030187096446752549,
                0.582905113697052,
                0.29005342721939089,
                0.2527259588241577,
                -0.08037509024143219,
                0.769927442073822,
                0.2217543125152588,
                -0.6676672697067261,
                -0.2793746590614319,
                0.7122768759727478,
                0.8987916707992554,
                0.855477511882782,
                0.7503218054771423,
                0.09059374779462815,
                0.30511897802352908,
                0.3456800580024719,
                -0.029139798134565355,
                0.8857635855674744,
                -1.586748719215393,
                -1.499867558479309,
                -0.23764710128307343,
                0.3624701201915741,
                0.7634267807006836,
                1.390903115272522,
                0.8063081502914429,
                -0.23850145936012269,
                0.29508864879608157,
                -0.4834049940109253,
                0.694686233997345,
                -0.1601390540599823,
                -0.6563020348548889,
                0.2907606065273285,
                -0.9550104737281799,
                -0.3824269771575928,
                0.7327049970626831,
                0.3949124217033386,
                -1.156135082244873,
                -0.9182348251342773,
                -0.5479688048362732,
                -0.4839545488357544,
                0.8311640620231628,
                -0.059279896318912509,
                -0.042434439063072208,
                0.0879611074924469,
                -1.047652006149292,
                1.141189694404602,
                -0.4085896909236908,
                -0.1405690610408783,
                -0.1224224716424942,
                0.49950486421585085,
                0.30251041054725649,
                -0.13001999258995057,
                -0.7317438125610352,
                0.3700314462184906,
                -0.5560802817344666,
                0.15800955891609193,
                -1.1948908567428589,
                -0.28201887011528017,
                -0.20331457257270814,
                0.5188674926757813,
                0.21906810998916627,
                0.939278244972229,
                -0.7491986155509949,
                -0.8412672877311707,
                -0.2583368420600891,
                -0.41139841079711916,
                1.2316462993621827,
                0.9886167049407959,
                0.6169884204864502,
                -0.3054441213607788,
                0.7133644819259644,
                0.2912706732749939,
                0.6309610605239868,
                0.4540500044822693,
                0.027932576835155488,
                0.20906227827072144,
                0.16742004454135896,
                0.8538441061973572,
                -0.7467121481895447,
                0.8877817392349243,
                0.5025092959403992,
                0.7229024171829224,
                1.7682111263275147,
                -0.3502058684825897,
                0.625670313835144,
                0.5210350751876831
            ],
            "fitness": 95.51233673095703,
            "timeAlive": 9.354864120483399,
            "totalDistance": 18.341354370117189,
            "successfulJumps": 0,
            "checkpointsReached": 2,
            "uniqueAreasVisited": 4,
            "activeWeightsCount": 136,
            "weightComplexity": 1.0,
            "outputLockStatus": [
                false,
                false,
                false,
                false
            ],
            "correctJumps": 0,
            "incorrectJumps": 0,
            "explorationEfficiency": 0.21808640658855439
        },
        {
            "layers": [
                8,
                8,
                6,
                4
            ],
            "flattenedWeights": [
                0.1292523443698883,
                1.0409330129623414,
                -0.7087032198905945,
                0.43636971712112429,
                -0.2731079161167145,
                1.3944356441497803,
                -0.784089982509613,
                -0.9061847925186157,
                0.8147376775741577,
                1.056475281715393,
                0.08133971691131592,
                -1.0786999464035035,
                -0.4868900775909424,
                -0.2922438085079193,
                0.2570108473300934,
                -1.122499942779541,
                -0.13604024052619935,
                -0.3208759129047394,
                -0.593144953250885,
                0.8064785003662109,
                1.0141751766204835,
                1.1883567571640015,
                0.5442107319831848,
                -0.4598706066608429,
                -0.006235189735889435,
                0.717266857624054,
                -0.31216657161712649,
                0.29634639620780947,
                0.15842610597610475,
                -0.4361492395401001,
                0.6842358708381653,
                -0.3633907437324524,
                -0.3031558394432068,
                -0.12857113778591157,
                1.182785153388977,
                -1.1045715808868409,
                -0.05270714312791824,
                -0.9360895156860352,
                -0.7566028833389282,
                0.20395782589912415,
                0.3906583786010742,
                0.42107051610946658,
                0.021990060806274415,
                -0.4114510416984558,
                0.574761152267456,
                1.2155706882476807,
                -0.002832029014825821,
                0.6751226782798767,
                0.5370988249778748,
                -0.6354220509529114,
                0.06466005742549896,
                0.5236279964447022,
                0.2772930860519409,
                0.2674234211444855,
                -0.08682411909103394,
                0.7390578389167786,
                0.06408808380365372,
                -0.5068517923355103,
                -0.3166893720626831,
                0.816685676574707,
                0.8061099648475647,
                0.8907138109207153,
                0.6219813227653503,
                0.11558869481086731,
                0.30511897802352908,
                0.26784875988960268,
                -0.12869739532470704,
                0.8857635855674744,
                -1.6339030265808106,
                -1.2930729389190674,
                -0.3055694103240967,
                0.2893289029598236,
                0.6978533864021301,
                1.5132098197937012,
                0.7496524453163147,
                -0.30510300397872927,
                0.3601938486099243,
                -0.4954548478126526,
                0.6350004076957703,
                -0.1601390540599823,
                -0.6157107949256897,
                0.3889620900154114,
                -0.8102272748947144,
                -0.6393545866012573,
                0.7327049970626831,
                0.4141855835914612,
                -1.151672124862671,
                -0.8034200072288513,
                -0.6593025922775269,
                -0.38979023694992068,
                0.9515053629875183,
                -0.15365904569625855,
                -0.029692716896533967,
                0.14281095564365388,
                -1.0697575807571412,
                1.1281120777130128,
                -0.3095342814922333,
                -0.2790757715702057,
                -0.06638986617326737,
                0.5104691982269287,
                0.2117382287979126,
                -0.21945014595985413,
                -0.7110085487365723,
                0.3700314462184906,
                -0.5554110407829285,
                0.16701501607894898,
                -1.147444486618042,
                -0.23592090606689454,
                -0.012149911373853684,
                0.41847169399261477,
                0.2212904691696167,
                0.9725309014320374,
                -0.8985937237739563,
                -1.0474812984466553,
                -0.32746362686157229,
                -0.4894457459449768,
                1.196295142173767,
                1.008071780204773,
                0.6683802008628845,
                -0.38188832998275759,
                0.9160764813423157,
                0.25188419222831728,
                0.7141987681388855,
                0.34043964743614199,
                0.025239162147045137,
                0.3398551344871521,
                0.05901762843132019,
                0.9323508739471436,
                -0.9441328048706055,
                0.9441758394241333,
                0.5988655686378479,
                0.7238912582397461,
                1.670819878578186,
                -0.3502058684825897,
                0.625670313835144,
                0.572196900844574
            ],
            "fitness": 95.45731353759766,
            "timeAlive": 9.215703964233399,
            "totalDistance": 18.136821746826173,
            "successfulJumps": 0,
            "checkpointsReached": 2,
            "uniqueAreasVisited": 4,
            "activeWeightsCount": 134,
            "weightComplexity": 0.9852941036224365,
            "outputLockStatus": [
                false,
                false,
                false,
                false
            ],
            "correctJumps": 0,
            "incorrectJumps": 0,
            "explorationEfficiency": 0.22054581344127656
        },
        {
            "layers": [
                8,
                8,
                6,
                4
            ],
            "flattenedWeights": [
                0.18751630187034608,
                0.9968112707138062,
                -0.7766066789627075,
                0.3182639479637146,
                -0.19466263055801392,
                1.3109921216964722,
                -0.8414266705513,
                -0.9652305245399475,
                0.9597411751747131,
                0.9873366355895996,
                0.09327071160078049,
                -0.7720541954040527,
                -0.3041343092918396,
                -0.20944207906723023,
                0.42701807618141177,
                -0.7119084596633911,
                0.14192894101142884,
                -0.5196149945259094,
                -0.6431111693382263,
                0.8544275164604187,
                1.0716462135314942,
                1.1468424797058106,
                0.5299902558326721,
                -0.41872134804725649,
                0.18467849493026734,
                0.717266857624054,
                -0.12963074445724488,
                0.2666435241699219,
                0.17259633541107179,
                -0.2914133071899414,
                0.6626368761062622,
                -0.28177207708358767,
                -0.41928595304489138,
                0.020410537719726564,
                1.1086201667785645,
                -1.1045715808868409,
                -0.05270714312791824,
                -0.9314347505569458,
                -0.8546391725540161,
                0.21134430170059205,
                0.47639206051826479,
                0.4434494972229004,
                0.1854952871799469,
                -0.42759761214256289,
                0.6606621742248535,
                1.1225359439849854,
                -0.08681219816207886,
                0.6751226782798767,
                0.49969807267189028,
                -0.6829357743263245,
                -0.030187096446752549,
                0.594994306564331,
                0.3065318167209625,
                0.2527259588241577,
                -0.08037509024143219,
                0.7672398090362549,
                0.27070730924606326,
                -0.6676672697067261,
                -0.2793746590614319,
                0.649867594242096,
                0.8987916707992554,
                0.855477511882782,
                0.7503218054771423,
                0.18732121586799622,
                0.30511897802352908,
                0.44425320625305178,
                -0.029139798134565355,
                0.8857635855674744,
                -1.5629022121429444,
                -1.4940152168273926,
                -0.23764710128307343,
                0.2726867198944092,
                0.7634267807006836,
                1.3717650175094605,
                0.6743873357772827,
                -0.21529746055603028,
                0.29508864879608157,
                -0.42320960760116579,
                0.694686233997345,
                -0.1601390540599823,
                -0.6563020348548889,
                0.3687172830104828,
                -0.9550104737281799,
                -0.3824269771575928,
                0.7686269879341126,
                0.3949124217033386,
                -1.156135082244873,
                -0.9182348251342773,
                -0.4624869227409363,
                -0.4839545488357544,
                0.8671478629112244,
                -0.14526835083961488,
                -0.015602167695760727,
                0.15001943707466126,
                -1.047652006149292,
                1.0627127885818482,
                -0.31640493869781496,
                -0.1405690610408783,
                -0.04821174591779709,
                0.5209454894065857,
                0.30251041054725649,
                -0.04380454868078232,
                -0.6882215738296509,
                0.3700314462184906,
                -0.4534907639026642,
                0.15800955891609193,
                -1.2708625793457032,
                -0.2206059992313385,
                -0.20331457257270814,
                0.49278390407562258,
                0.21906810998916627,
                0.939278244972229,
                -0.7491986155509949,
                -0.8412672877311707,
                -0.29236170649528506,
                -0.44851917028427126,
                1.1577973365783692,
                0.9186182022094727,
                0.5431008338928223,
                -0.3054441213607788,
                0.6705811619758606,
                0.2912706732749939,
                0.6309610605239868,
                0.5192891955375671,
                -0.012378282845020295,
                0.20906227827072144,
                0.16742004454135896,
                0.9529429078102112,
                -0.7621710300445557,
                0.8877817392349243,
                0.5789851546287537,
                0.6838948130607605,
                1.7934939861297608,
                -0.3502058684825897,
                0.625670313835144,
                0.5210350751876831
            ],
            "fitness": 95.45584106445313,
            "timeAlive": 9.354864120483399,
            "totalDistance": 18.2533016204834,
            "successfulJumps": 0,
            "checkpointsReached": 2,
            "uniqueAreasVisited": 4,
            "activeWeightsCount": 136,
            "weightComplexity": 1.0,
            "outputLockStatus": [
                false,
                false,
                false,
                false
            ],
            "correctJumps": 0,
            "incorrectJumps": 0,
            "explorationEfficiency": 0.21913844347000123
        },
        {
            "layers": [
                8,
                8,
                6,
                4
            ],
            "flattenedWeights": [
                0.1292523443698883,
                0.9968112707138062,
                -0.7766066789627075,
                0.43636971712112429,
                -0.2139221727848053,
                1.3109921216964722,
                -0.8316453099250794,
                -0.7329678535461426,
                0.8220109939575195,
                0.946442723274231,
                0.08133971691131592,
                -0.7539110779762268,
                -0.3041343092918396,
                -0.1948128491640091,
                0.42701807618141177,
                -0.7307806015014648,
                0.09415650367736817,
                -0.5221214294433594,
                -0.7052174210548401,
                0.805923581123352,
                1.1892907619476319,
                1.0557488203048707,
                0.41484248638153078,
                -0.34278354048728945,
                0.01228446513414383,
                0.7722576260566711,
                0.04587991535663605,
                0.286771297454834,
                0.1356847882270813,
                -0.6080231070518494,
                0.6806237697601318,
                -0.28177207708358767,
                -0.41928595304489138,
                -0.2471800148487091,
                1.1187350749969483,
                -1.0864107608795167,
                -0.05270714312791824,
                -0.9314347505569458,
                -0.9495939016342163,
                0.11844831705093384,
                0.49800610542297366,
                0.48378002643585207,
                0.21148180961608888,
                -0.31268951296806338,
                0.6266616582870483,
                1.0447958707809449,
                -0.07660655677318573,
                0.6751226782798767,
                0.5414396524429321,
                -0.6829357743263245,
                -0.030187096446752549,
                0.582905113697052,
                0.29005342721939089,
                0.2674234211444855,
                -0.20852428674697877,
                0.8421455025672913,
                0.2217543125152588,
                -0.7060245871543884,
                -0.13102108240127564,
                0.7912154197692871,
                0.8987916707992554,
                0.827631950378418,
                0.6163030862808228,
                0.14198768138885499,
                0.30511897802352908,
                0.3456800580024719,
                -0.10793456435203552,
                0.9174030423164368,
                -1.6689735651016236,
                -1.458017349243164,
                -0.15207931399345399,
                0.2726867198944092,
                0.7634267807006836,
                1.4039644002914429,
                0.8610261082649231,
                -0.0503530278801918,
                0.29508864879608157,
                -0.5129694938659668,
                0.692447304725647,
                -0.1601390540599823,
                -0.5805984139442444,
                0.4245852530002594,
                -0.9080427289009094,
                -0.32707148790359499,
                0.8908615112304688,
                0.3770650625228882,
                -1.077746033668518,
                -0.9182348251342773,
                -0.4857660233974457,
                -0.4839545488357544,
                0.8031171560287476,
                -0.14526835083961488,
                -0.042434439063072208,
                0.19847412407398225,
                -1.047652006149292,
                1.0668003559112549,
                -0.31640493869781496,
                -0.1405690610408783,
                -0.09404285252094269,
                0.534299910068512,
                0.30251041054725649,
                -0.2186342477798462,
                -0.6675563454627991,
                0.08925313502550125,
                -0.49026530981063845,
                0.15800955891609193,
                -1.171871304512024,
                -0.2206059992313385,
                -0.20331457257270814,
                0.5642412304878235,
                0.1872003674507141,
                0.9657795429229736,
                -0.653048038482666,
                -0.8412672877311707,
                -0.38546448945999148,
                -0.4894457459449768,
                1.3033252954483033,
                0.9886167049407959,
                0.5623971223831177,
                -0.3054441213607788,
                0.7133644819259644,
                0.30071112513542178,
                0.6309610605239868,
                0.2638183832168579,
                -0.012378282845020295,
                0.20906227827072144,
                0.14215047657489777,
                0.89316725730896,
                -0.7810669541358948,
                0.8363121151924133,
                0.5274170637130737,
                0.6557467579841614,
                1.7682111263275147,
                -0.24670901894569398,
                0.6848856806755066,
                0.47846242785453799
            ],
            "fitness": 95.44878387451172,
            "timeAlive": 9.215703964233399,
            "totalDistance": 18.126161575317384,
            "successfulJumps": 0,
            "checkpointsReached": 2,
            "uniqueAreasVisited": 4,
            "activeWeightsCount": 136,
            "weightComplexity": 1.0,
            "outputLockStatus": [
                false,
                false,
                false,
                false
            ],
            "correctJumps": 0,
            "incorrectJumps": 0,
            "explorationEfficiency": 0.2206755131483078
        },
        {
            "layers": [
                8,
                8,
                6,
                4
            ],
            "flattenedWeights": [
                0.04441309720277786,
                1.0712825059890748,
                -0.8433911204338074,
                0.27564653754234316,
                -0.28138989210128786,
                1.3232908248901368,
                -0.8414266705513,
                -0.9873917102813721,
                1.0537176132202149,
                0.924044132232666,
                0.023379530757665635,
                -0.7720541954040527,
                -0.3041343092918396,
                -0.27548494935035708,
                0.42701807618141177,
                -1.106067180633545,
                0.14482861757278443,
                -0.41125211119651797,
                -0.6699468493461609,
                0.7878379225730896,
                1.0802556276321412,
                1.1012489795684815,
                0.6159384250640869,
                -0.3809029161930084,
                0.16923120617866517,
                0.7387098670005798,
                -0.12963074445724488,
                0.19147875905036927,
                0.20793630182743073,
                -0.3791162967681885,
                0.6626368761062622,
                -0.28177207708358767,
                -0.3677930533885956,
                -0.09562023729085922,
                1.182785153388977,
                -1.0460597276687623,
                -0.05270714312791824,
                -0.8520168662071228,
                -0.8236685991287231,
                0.10095183551311493,
                0.47639206051826479,
                0.5089267492294312,
                0.055460646748542789,
                -0.42759761214256289,
                0.6606621742248535,
                1.339274287223816,
                -0.07304894924163819,
                0.6751226782798767,
                0.5905429124832153,
                -0.6829357743263245,
                0.114985391497612,
                0.5212196111679077,
                0.3626973628997803,
                0.27319636940956118,
                -0.08037509024143219,
                0.7938063740730286,
                0.06408808380365372,
                -0.6676672697067261,
                -0.3584529459476471,
                0.7122768759727478,
                0.8205022811889648,
                0.9539256691932678,
                0.5484736561775208,
                0.18732121586799622,
                0.30511897802352908,
                0.15626275539398194,
                -0.12869739532470704,
                0.8857635855674744,
                -1.6024837493896485,
                -1.4736864566802979,
                -0.2902345657348633,
                0.29031288623809817,
                0.7634267807006836,
                1.5132098197937012,
                0.7496524453163147,
                -0.21529746055603028,
                0.3977316617965698,
                -0.42320960760116579,
                0.694686233997345,
                -0.15254586935043336,
                -0.6563020348548889,
                0.3889620900154114,
                -1.0055416822433472,
                -0.5176525115966797,
                0.744705080986023,
                0.294911652803421,
                -1.156135082244873,
                -0.8194527626037598,
                -0.622502863407135,
                -0.4839545488357544,
                0.8311640620231628,
                -0.14526835083961488,
                -0.03592666983604431,
                0.15001943707466126,
                -1.0497393608093262,
                1.1249130964279175,
                -0.25542229413986208,
                -0.1405690610408783,
                -0.09404285252094269,
                0.49950486421585085,
                0.30251041054725649,
                -0.20341552793979646,
                -0.6882215738296509,
                0.3700314462184906,
                -0.49026530981063845,
                0.15800955891609193,
                -1.143744945526123,
                -0.2206059992313385,
                -0.08646046370267868,
                0.5642412304878235,
                0.16469240188598634,
                0.8799885511398315,
                -0.6623640656471252,
                -0.8412672877311707,
                -0.2501573860645294,
                -0.4894457459449768,
                1.2316462993621827,
                1.0131956338882447,
                0.6169884204864502,
                -0.3054441213607788,
                0.7133644819259644,
                0.32929012179374697,
                0.6309610605239868,
                0.45745545625686648,
                -0.08033116906881333,
                0.15874484181404115,
                0.19576606154441834,
                0.9323508739471436,
                -0.7810669541358948,
                0.9441758394241333,
                0.466061532497406,
                0.7194018959999085,
                1.7563472986221314,
                -0.3502058684825897,
                0.625670313835144,
                0.4253941476345062
            ],
            "fitness": 95.44026184082031,
            "timeAlive": 9.215703964233399,
            "totalDistance": 18.114439010620118,
            "successfulJumps": 0,
            "checkpointsReached": 2,
            "uniqueAreasVisited": 4,
            "activeWeightsCount": 136,
            "weightComplexity": 1.0,
            "outputLockStatus": [
                false,
                false,
                false,
                false
            ],
            "correctJumps": 0,
            "incorrectJumps": 0,
            "explorationEfficiency": 0.22081832587718965
        },
        {
            "layers": [
                8,
                8,
                6,
                4
            ],
            "flattenedWeights": [
                0.14029650390148164,
                0.9769906997680664,
                -0.8927043676376343,
                0.4853041172027588,
                -0.06294501572847367,
                1.3109921216964722,
                -0.8414266705513,
                -1.0812556743621827,
                0.9813364148139954,
                0.9346132874488831,
                0.09327071160078049,
                -0.7720541954040527,
                -0.39598900079727175,
                -0.1993243545293808,
                0.49121394753456118,
                -0.9239888191223145,
                0.14192894101142884,
                -0.45993897318840029,
                -0.6431111693382263,
                0.6914452314376831,
                0.9833008050918579,
                1.1468424797058106,
                0.5561273694038391,
                -0.41872134804725649,
                0.10144078731536865,
                0.717266857624054,
                -0.2054840326309204,
                0.286771297454834,
                0.20793630182743073,
                -0.31659895181655886,
                0.6626368761062622,
                -0.28177207708358767,
                -0.41928595304489138,
                -0.1770727038383484,
                1.1971631050109864,
                -1.1045715808868409,
                -0.30640605092048647,
                -0.9763306975364685,
                -0.872125506401062,
                0.11844831705093384,
                0.5598717927932739,
                0.48378002643585207,
                0.1854952871799469,
                -0.42759761214256289,
                0.5823983550071716,
                1.1715587377548218,
                -0.17830601334571839,
                0.7504468560218811,
                0.5111514329910278,
                -0.6829357743263245,
                -0.030187096446752549,
                0.5236279964447022,
                0.29005342721939089,
                0.2527259588241577,
                -0.08037509024143219,
                0.7102848291397095,
                0.26418083906173708,
                -0.47217661142349245,
                -0.33787909150123598,
                0.7122768759727478,
                0.8205022811889648,
                0.9408858418464661,
                0.7503218054771423,
                0.10339920967817307,
                0.3395191431045532,
                0.1673561930656433,
                -0.025413494557142259,
                0.9174030423164368,
                -1.5629022121429444,
                -1.3372933864593506,
                -0.23764710128307343,
                0.25573962926864626,
                0.7540941834449768,
                1.3740614652633668,
                0.8355254530906677,
                -0.08422188460826874,
                0.31939396262168887,
                -0.473845511674881,
                0.694686233997345,
                -0.013874262571334839,
                -0.6563020348548889,
                0.3687172830104828,
                -0.9550104737281799,
                -0.3179716467857361,
                0.7965015172958374,
                0.3949124217033386,
                -1.0982048511505128,
                -0.9182348251342773,
                -0.5479688048362732,
                -0.4839545488357544,
                0.8311640620231628,
                -0.20273524522781373,
                -0.042434439063072208,
                0.19394677877426148,
                -1.047652006149292,
                1.1715041399002076,
                -0.28821516036987307,
                -0.1006104126572609,
                -0.09213558584451676,
                0.5092105269432068,
                0.23654359579086305,
                -0.13001999258995057,
                -0.6493428349494934,
                0.008636027574539185,
                -0.49026530981063845,
                0.33438146114349368,
                -1.1948908567428589,
                -0.227891743183136,
                -0.2744462788105011,
                0.5642412304878235,
                0.2215098738670349,
                0.939278244972229,
                -0.7491986155509949,
                -0.7787486910820007,
                -0.4204646050930023,
                -0.44851917028427126,
                1.373355507850647,
                0.9886167049407959,
                0.6407663822174072,
                -0.13781458139419557,
                0.6481895446777344,
                0.2912706732749939,
                0.6968076229095459,
                0.3940246105194092,
                -0.012378282845020295,
                0.11134994775056839,
                0.16742004454135896,
                0.7877358198165894,
                -0.8390983939170837,
                1.017322063446045,
                0.5025092959403992,
                0.6312753558158875,
                1.7096974849700928,
                -0.24670901894569398,
                0.6419159173965454,
                0.5210350751876831
            ],
            "fitness": 95.43646240234375,
            "timeAlive": 9.215703964233399,
            "totalDistance": 18.098026275634767,
            "successfulJumps": 0,
            "checkpointsReached": 2,
            "uniqueAreasVisited": 4,
            "activeWeightsCount": 135,
            "weightComplexity": 0.9926470518112183,
            "outputLockStatus": [
                false,
                false,
                false,
                false
            ],
            "correctJumps": 0,
            "incorrectJumps": 0,
            "explorationEfficiency": 0.22101858258247376
        },
        {
            "layers": [
                8,
                8,
                6,
                4
            ],
            "flattenedWeights": [
                0.22285430133342744,
                1.0712825059890748,
                -0.7766066789627075,
                0.3882467746734619,
                -0.19466263055801392,
                1.3109921216964722,
                -0.8769217133522034,
                -0.9911729097366333,
                1.0299348831176758,
                0.924044132232666,
                0.040993958711624148,
                -0.8192694187164307,
                -0.3041343092918396,
                -0.20944207906723023,
                0.4084326922893524,
                -0.7119084596633911,
                0.14223402738571168,
                -0.48767101764678957,
                -0.6431111693382263,
                0.8286654353141785,
                1.0716462135314942,
                1.1468424797058106,
                0.6652239561080933,
                -0.41872134804725649,
                0.0561404749751091,
                0.717266857624054,
                -0.0504939928650856,
                0.286771297454834,
                0.15842610597610475,
                -0.31659895181655886,
                0.6626368761062622,
                -0.13456162810325623,
                -0.41928595304489138,
                0.020410537719726564,
                1.0369837284088135,
                -1.1045715808868409,
                -0.020394563674926759,
                -0.9314347505569458,
                -0.7819713950157166,
                0.11844831705093384,
                0.5653086304664612,
                0.48378002643585207,
                0.18151545524597169,
                -0.38058406114578249,
                0.6879786849021912,
                1.1225359439849854,
                0.11405216157436371,
                0.70867919921875,
                0.6059020161628723,
                -0.6829357743263245,
                -0.23471006751060487,
                0.5499215126037598,
                0.3396944999694824,
                0.2527259588241577,
                -0.12595099210739137,
                0.7672398090362549,
                0.2217543125152588,
                -0.6312965154647827,
                -0.18081197142601014,
                0.6204530596733093,
                0.7073938250541687,
                0.8392767906188965,
                0.6563277840614319,
                0.18216539919376374,
                0.30511897802352908,
                0.37593984603881838,
                -0.029139798134565355,
                0.9015092253684998,
                -1.6127268075942994,
                -1.2087287902832032,
                -0.25002923607826235,
                0.34990763664245608,
                0.7134802341461182,
                1.3825069665908814,
                0.7371253371238709,
                0.10234768688678742,
                0.38759908080101015,
                -0.42320960760116579,
                0.6535624861717224,
                -0.1601390540599823,
                -0.6563020348548889,
                0.3889620900154114,
                -0.9582938551902771,
                -0.15524941682815553,
                0.744098961353302,
                0.294911652803421,
                -1.1405816078186036,
                -0.9458910226821899,
                -0.5479688048362732,
                -0.46422138810157778,
                0.8745934963226318,
                -0.14526835083961488,
                -0.042434439063072208,
                0.29946568608283999,
                -1.047652006149292,
                1.0668003559112549,
                -0.3330841064453125,
                -0.1405690610408783,
                -0.07556217908859253,
                0.5686126947402954,
                0.30251041054725649,
                -0.13001999258995057,
                -0.7358251214027405,
                0.3700314462184906,
                -0.5402877926826477,
                0.26934799551963808,
                -1.1948908567428589,
                -0.23151254653930665,
                -0.20331457257270814,
                0.5642412304878235,
                0.15634363889694215,
                0.8381882905960083,
                -0.7491986155509949,
                -0.8412672877311707,
                -0.23933452367782594,
                -0.45068249106407168,
                1.2316462993621827,
                0.9930670261383057,
                0.5987884998321533,
                -0.3054441213607788,
                0.7133644819259644,
                0.2912706732749939,
                0.6309610605239868,
                0.4540500044822693,
                -0.012378282845020295,
                0.37738049030303957,
                0.28910696506500246,
                0.9529429078102112,
                -0.8729506134986877,
                1.032250165939331,
                0.5025092959403992,
                0.7194018959999085,
                1.7487236261367798,
                -0.06217808276414871,
                0.5929478406906128,
                0.5210350751876831
            ],
            "fitness": 95.4328842163086,
            "timeAlive": 9.215703964233399,
            "totalDistance": 18.098020553588868,
            "successfulJumps": 0,
            "checkpointsReached": 2,
            "uniqueAreasVisited": 4,
            "activeWeightsCount": 136,
            "weightComplexity": 1.0,
            "outputLockStatus": [
                false,
                false,
                false,
                false
            ],
            "correctJumps": 0,
            "incorrectJumps": 0,
            "explorationEfficiency": 0.22101864218711854
        }
    ],
    "timestamp": "2025-06-19 05:44:03",
    "populationSize": 23,
    "aliveNPCs": 0,
    "generationDuration": 0.138092041015625,
    "mutationRate": 0.32100000977516177,
    "eliteCount": 3,
    "globalLockStatus": [
        false,
        false,
        false,
        false
    ],
    "fitnessRange": 95.59468078613281,
    "diversityIndex": 43.42878341674805,
    "averageTimeAlive": 7.303164482116699,
    "totalDistanceSum": 228.7643280029297,
    "totalSuccessfulJumps": 0,
    "populationDiversity": 0.6616168022155762,
    "learningRate": 0.0014390437863767148,
    "convergenceRate": 0.0010449901456013322,
    "totalCheckpointsReached": 24,
    "averageDistance": 14.297770500183106,
    "totalDeaths": 16,
    "improvementRate": 0.13736724853515626,
    "explorationBonus": 104.8646240234375,
    "efficiencyScore": 8.974245071411133,
    "activeBehaviors": 7,
    "aliveAtEnd": 0,
    "memoryUsage": 8.0
}