{
    "generation": 43,
    "bestFitness": 225.96510314941407,
    "averageFitness": 39.98907470703125,
    "worstFitness": 0.0,
    "networks": [
        {
            "layers": [
                8,
                8,
                6,
                4
            ],
            "flattenedWeights": [
                -0.277846097946167,
                -0.5464584827423096,
                -0.2702989876270294,
                0.1681792438030243,
                0.9145863652229309,
                0.015452936291694641,
                -0.8586018085479736,
                1.006952166557312,
                -0.4430905282497406,
                0.7188048362731934,
                0.6934562921524048,
                0.4521610140800476,
                0.41077083349227908,
                -0.12891928851604463,
                0.5840606689453125,
                0.730482816696167,
                0.6249896883964539,
                -0.44278672337532046,
                0.25615209341049197,
                0.952649712562561,
                0.8303051590919495,
                0.33224910497665408,
                -0.3639574646949768,
                -0.7400311827659607,
                0.30198293924331667,
                -0.08360518515110016,
                0.8890038132667542,
                -0.45941656827926638,
                0.03693719208240509,
                -1.057337999343872,
                -0.5799788236618042,
                0.6765039563179016,
                -0.8646902441978455,
                0.2969980537891388,
                -0.5945828557014465,
                -0.665159285068512,
                0.6771652102470398,
                -1.0972216129302979,
                -0.26583731174468996,
                0.8229354023933411,
                -0.5980915427207947,
                0.7876639366149902,
                -0.6962065696716309,
                -0.23953479528427125,
                -0.31730103492736819,
                -0.7952136397361755,
                -0.13250678777694703,
                0.08356749266386032,
                0.34313923120498659,
                -0.6186639666557312,
                -0.5323948860168457,
                -0.0037891417741775514,
                0.9356808662414551,
                -0.28593751788139346,
                1.1139731407165528,
                0.7481735944747925,
                0.4869769215583801,
                0.8881605863571167,
                0.691659152507782,
                -0.4603784382343292,
                -0.2757197618484497,
                0.2918323576450348,
                -0.12030220776796341,
                -0.6147484183311462,
                -0.611818790435791,
                0.23729154467582704,
                -0.28805938363075259,
                -1.1216716766357422,
                1.0520669221878052,
                -0.3349446654319763,
                -0.04302053526043892,
                0.13311070203781129,
                0.3674737215042114,
                -0.5290213227272034,
                0.6391535401344299,
                0.4490136504173279,
                -0.0015468820929527283,
                -0.371013879776001,
                -0.09284943342208862,
                -0.3595750629901886,
                -0.6121843457221985,
                -0.20370566844940186,
                0.03194665163755417,
                -1.0630135536193848,
                -1.3818281888961793,
                -0.05434165149927139,
                -0.1608780026435852,
                -0.9085047841072083,
                0.8650978803634644,
                0.1630135178565979,
                0.11381392180919647,
                -0.8957147002220154,
                0.45355233550071719,
                -0.4074234962463379,
                0.43978509306907656,
                -0.9212455153465271,
                0.49873098731040957,
                -0.662580668926239,
                -0.09183448553085327,
                0.7458866834640503,
                -0.6805535554885864,
                -0.6496214270591736,
                -1.366817831993103,
                -1.1848416328430176,
                0.2663637697696686,
                -0.5397522449493408,
                -0.2843061089515686,
                0.5865057110786438,
                -0.32457101345062258,
                -0.7282983064651489,
                0.1894342005252838,
                -0.6080726981163025,
                0.37389540672302248,
                -0.42726844549179079,
                -0.7339721322059631,
                -1.0752767324447632,
                0.5950503945350647,
                0.2537177503108978,
                -0.7616052627563477,
                0.0663374587893486,
                1.131973147392273,
                -1.040426254272461,
                -0.558068573474884,
                0.5325765609741211,
                0.9064605236053467,
                -1.1182187795639039,
                0.7056401968002319,
                0.9113682508468628,
                0.3728651702404022,
                0.1713002771139145,
                -0.630935788154602,
                -1.0468230247497559,
                0.9577144980430603,
                -1.157843828201294,
                -0.35053616762161257,
                -0.3061909079551697
            ],
            "fitness": 225.96510314941407,
            "npcType": 0
        },
        {
            "layers": [
                8,
                8,
                6,
                4
            ],
            "flattenedWeights": [
                -0.277846097946167,
                -0.6344699263572693,
                -0.25483524799346926,
                0.1705993413925171,
                1.0677952766418458,
                0.05909157916903496,
                -0.19745144248008729,
                0.7736961841583252,
                -0.3731676936149597,
                0.7562424540519714,
                0.6692602038383484,
                0.37045347690582278,
                0.3780679702758789,
                -0.24468377232551576,
                0.6280393004417419,
                0.5905823111534119,
                0.5154963135719299,
                -0.2597599923610687,
                0.21740449965000153,
                1.0396642684936524,
                0.8303051590919495,
                0.45275744795799258,
                -0.5081923604011536,
                -0.547180712223053,
                0.21382924914360047,
                -0.910173773765564,
                0.8120285868644714,
                -0.47494953870773318,
                0.941996157169342,
                0.6253884434700012,
                -0.6258856654167175,
                0.6915962100028992,
                -1.0609776973724366,
                0.03184068948030472,
                -0.2864076495170593,
                -0.44391268491744997,
                0.7680624723434448,
                -0.9814609289169312,
                -0.2640674412250519,
                0.8564974069595337,
                -0.5867239832878113,
                -0.7024977207183838,
                -0.7734133005142212,
                0.6580223441123962,
                -0.3552356958389282,
                -0.812240719795227,
                -0.05937681347131729,
                0.10543970763683319,
                0.5313698649406433,
                -0.6186639666557312,
                -0.4826945960521698,
                -0.21371296048164369,
                1.0009762048721314,
                -0.37072524428367617,
                1.0772708654403687,
                0.9950172305107117,
                0.4234870374202728,
                1.0072234869003297,
                0.6996974945068359,
                -0.8808888792991638,
                -0.37211668491363528,
                0.36315640807151797,
                -0.1724206805229187,
                -0.6113362908363342,
                -0.6028486490249634,
                0.4038916230201721,
                -0.5269781351089478,
                -1.0633171796798707,
                0.8772848844528198,
                0.40213871002197268,
                0.4330805838108063,
                0.1985626220703125,
                0.4098149538040161,
                -0.44473159313201907,
                0.7509239315986633,
                0.42185279726982119,
                -0.3243330419063568,
                -0.3099338412284851,
                -0.23223981261253358,
                0.06465715914964676,
                -0.3053605556488037,
                -0.3154580891132355,
                0.0007626377046108246,
                -1.063819408416748,
                -1.2726006507873536,
                -0.14384779334068299,
                -0.31778404116630556,
                -0.8759257197380066,
                0.6920595765113831,
                0.06252141296863556,
                -0.04138610139489174,
                -0.6660678386688232,
                0.271045058965683,
                -0.380096435546875,
                0.5133180618286133,
                -0.8950806260108948,
                0.5315733551979065,
                -0.7000206112861633,
                0.13416925072669984,
                0.7504523992538452,
                -0.6721274256706238,
                -0.5692987442016602,
                -1.2557073831558228,
                -1.1936945915222169,
                0.31531766057014468,
                -0.6318328380584717,
                -0.24343541264533997,
                0.5350320935249329,
                -0.26352307200431826,
                -0.654634416103363,
                0.08155004680156708,
                -0.5155684351921082,
                0.13409960269927979,
                0.24033549427986146,
                -0.8074901103973389,
                0.2498076856136322,
                0.5950503945350647,
                0.2597971558570862,
                -0.7183611392974854,
                0.1101251021027565,
                1.4438499212265015,
                -1.0316306352615357,
                -0.602846622467041,
                0.5208594799041748,
                1.0122228860855103,
                -0.8083857893943787,
                0.43812617659568789,
                0.8596164584159851,
                0.27798306941986086,
                0.09295525401830673,
                -0.5742579698562622,
                -0.9318865537643433,
                1.0256671905517579,
                -1.1610262393951417,
                -0.45223483443260195,
                -0.25033795833587649
            ],
            "fitness": 188.2140350341797,
            "npcType": 0
        },
        {
            "layers": [
                8,
                8,
                6,
                4
            ],
            "flattenedWeights": [
                0.01719455048441887,
                -0.5815510153770447,
                0.25215327739715578,
                0.08091248571872711,
                1.0177509784698487,
                -0.18854859471321107,
                -0.8044816255569458,
                0.5511707663536072,
                -0.5727785229682922,
                1.183423638343811,
                0.7317504286766052,
                0.2923724949359894,
                0.3872591257095337,
                -0.16306433081626893,
                0.8373298645019531,
                0.5614415407180786,
                0.5745291113853455,
                -0.513271152973175,
                0.18206417560577393,
                0.8941157460212708,
                0.7723678946495056,
                0.38368386030197146,
                -0.3094610869884491,
                -0.5775414705276489,
                0.14158007502555848,
                0.08432282507419586,
                0.8990866541862488,
                0.01629340648651123,
                0.12520891427993775,
                -0.9587673544883728,
                -0.8525199890136719,
                0.5071139335632324,
                -0.9845293760299683,
                0.028924912214279176,
                -0.5202065706253052,
                -0.42836618423461916,
                0.8602990508079529,
                -0.9012478590011597,
                -1.4535104036331177,
                0.5176928043365479,
                -0.4928464889526367,
                0.7148438096046448,
                -0.776749312877655,
                -0.2727521061897278,
                -0.27389273047447207,
                -0.9077197909355164,
                -0.05937681347131729,
                0.07786531001329422,
                0.5544204711914063,
                -0.6689668893814087,
                -0.4861401617527008,
                -0.043608203530311587,
                0.8440507650375366,
                -0.10264609754085541,
                1.2322121858596802,
                0.8218781352043152,
                0.37332683801651,
                0.849694550037384,
                0.6466794610023499,
                -0.8254591226577759,
                -0.7231338024139404,
                0.23522958159446717,
                -0.19897061586380006,
                -0.7768765091896057,
                0.4155726432800293,
                0.21297726035118104,
                -0.5269781351089478,
                -1.313441514968872,
                0.8021413683891296,
                0.5749589204788208,
                0.009513571858406067,
                0.18834081292152406,
                0.3275604546070099,
                -0.44473159313201907,
                0.8066855669021606,
                0.42186158895492556,
                0.09696480631828308,
                -0.3298478424549103,
                -0.2649487257003784,
                -0.25152334570884707,
                -0.5458934307098389,
                -0.23943127691745759,
                -0.06582868844270706,
                -1.0712509155273438,
                -1.290231704711914,
                -0.012052968144416809,
                -0.294769823551178,
                -0.8668114542961121,
                0.7743746042251587,
                0.04627854377031326,
                -0.23161712288856507,
                -0.9654382467269898,
                0.2616095542907715,
                -0.09779495745897293,
                0.5590587854385376,
                -0.9165435433387756,
                0.455341100692749,
                -0.7000206112861633,
                0.13416925072669984,
                0.7928302884101868,
                -0.6079798936843872,
                -0.6778275370597839,
                -1.3305869102478028,
                -1.1848416328430176,
                0.6367056965827942,
                -0.4855440557003021,
                -0.36562374234199526,
                0.5342012047767639,
                -0.4852251708507538,
                -0.7326207756996155,
                0.09601686894893646,
                -0.7596359252929688,
                0.11054543405771256,
                -0.429992139339447,
                -0.7765002250671387,
                -0.9676793217658997,
                0.8138858079910278,
                0.26004478335380556,
                -0.8711681962013245,
                0.31391239166259768,
                1.1790130138397217,
                -1.1345375776290894,
                -0.6718273758888245,
                0.4216573238372803,
                0.8533880710601807,
                -0.7776461839675903,
                0.6932123303413391,
                0.9964290261268616,
                0.3615126311779022,
                0.07275455445051193,
                -0.48725301027297976,
                -1.0751961469650269,
                1.0089926719665528,
                -1.0785305500030518,
                -0.5331748723983765,
                -0.14778339862823487
            ],
            "fitness": 178.36453247070313,
            "npcType": 0
        },
        {
            "layers": [
                8,
                8,
                6,
                4
            ],
            "flattenedWeights": [
                0.038860175758600238,
                -0.6845524907112122,
                -0.21637898683547975,
                0.2631503939628601,
                0.9838396906852722,
                -0.14444714784622193,
                -0.733407735824585,
                0.872103750705719,
                -0.41058874130249026,
                0.745956540107727,
                0.7548901438713074,
                0.3946753144264221,
                0.38914912939071658,
                0.1753532737493515,
                0.6579442024230957,
                0.5905823111534119,
                0.5988150835037231,
                -0.7548942565917969,
                0.18409404158592225,
                0.9506744742393494,
                1.017869234085083,
                0.44855934381484988,
                -0.46375399827957156,
                -0.5317671298980713,
                -0.11297708004713059,
                0.08432282507419586,
                0.8107888102531433,
                -0.4291301369667053,
                1.144346833229065,
                -0.9647949934005737,
                -0.8996603488922119,
                0.4523335099220276,
                -0.9523396492004395,
                0.3472630977630615,
                -0.5157761573791504,
                -0.3898676037788391,
                0.8386328816413879,
                -0.9504015445709229,
                -1.4159246683120728,
                0.5243963599205017,
                -0.5369130373001099,
                -0.5007219314575195,
                -0.7569803595542908,
                -0.21114733815193177,
                -0.25744330883026125,
                -0.7634007334709168,
                -0.030100971460342408,
                0.17168375849723817,
                0.3095766007900238,
                -0.6186639666557312,
                -1.0713340044021607,
                -0.2392943799495697,
                0.8580735325813294,
                -0.048958923667669299,
                1.0468584299087525,
                0.8991445899009705,
                0.3717208504676819,
                0.2960602045059204,
                0.6670755743980408,
                -0.986458957195282,
                -0.47973397374153139,
                -0.03220134228467941,
                -0.18120625615119935,
                -0.6147484183311462,
                0.39110180735588076,
                -0.36370566487312319,
                -0.5269781351089478,
                -1.282532811164856,
                0.7336344718933106,
                0.46803778409957888,
                0.36236172914505007,
                -0.07066740095615387,
                0.2142040729522705,
                -0.5006194710731506,
                0.6130810379981995,
                0.42186158895492556,
                -0.2598607838153839,
                -0.36763471364974978,
                -0.2846241593360901,
                0.18419954180717469,
                -0.5386046767234802,
                -0.39738336205482485,
                0.09587963670492172,
                -0.6834654211997986,
                -1.290231704711914,
                0.275594562292099,
                -0.4117271602153778,
                -0.7654704451560974,
                0.8543909192085266,
                -0.05882163345813751,
                0.08639953285455704,
                -0.6443032026290894,
                0.32279178500175478,
                -0.20070388913154603,
                0.33093634247779848,
                -0.9324973225593567,
                0.4989878833293915,
                -0.7963581681251526,
                0.03818977624177933,
                0.6729720234870911,
                -0.939283013343811,
                -0.6778275370597839,
                -0.9896934628486633,
                -1.3421595096588135,
                0.23951047658920289,
                -0.7519648671150208,
                -0.2923494577407837,
                0.5135891437530518,
                -0.23422977328300477,
                -0.812067985534668,
                0.056360479444265369,
                -0.6071046590805054,
                0.15393207967281342,
                -0.5197557806968689,
                -0.7645353674888611,
                -0.8886427283287048,
                0.5959513783454895,
                0.13727757334709168,
                -0.77647864818573,
                -0.16245663166046143,
                1.3378095626831055,
                -0.8486992120742798,
                -0.558068573474884,
                0.4921804666519165,
                1.0987507104873658,
                -0.8675278425216675,
                0.7361943125724793,
                1.1277633905410767,
                0.49548712372779848,
                0.34248754382133486,
                -0.7176049947738648,
                -0.9781908392906189,
                0.8799148201942444,
                -1.1193240880966187,
                -0.4476414918899536,
                -0.25033795833587649
            ],
            "fitness": 164.2872772216797,
            "npcType": 0
        },
        {
            "layers": [
                8,
                8,
                6,
                4
            ],
            "flattenedWeights": [
                0.20377874374389649,
                -0.6031704545021057,
                0.47723791003227236,
                0.21912874281406403,
                0.9977782964706421,
                0.11536119133234024,
                -0.7814797163009644,
                1.006952166557312,
                -0.40770888328552248,
                1.1281920671463013,
                0.6934562921524048,
                0.4710253179073334,
                0.41077083349227908,
                -0.049428604543209079,
                0.6359804272651672,
                0.8095026612281799,
                0.4623293876647949,
                -0.40832871198654177,
                0.3378673493862152,
                0.8886157870292664,
                0.9263470768928528,
                0.33224910497665408,
                -0.40226754546165469,
                -0.7400311827659607,
                0.30198293924331667,
                -0.03728415071964264,
                0.9553945064544678,
                -0.5089495182037354,
                0.03693719208240509,
                -1.057337999343872,
                -0.5650568008422852,
                0.6765039563179016,
                -0.7843766808509827,
                0.16969317197799684,
                -0.5202065706253052,
                -0.665159285068512,
                0.7567667365074158,
                -1.005190372467041,
                -0.26583731174468996,
                0.8740536570549011,
                -0.6542168855667114,
                0.7876639366149902,
                -0.6759964823722839,
                -0.23953479528427125,
                -0.2619066536426544,
                -0.7552717328071594,
                0.03732706233859062,
                0.07841244339942932,
                0.34313923120498659,
                -0.6459169387817383,
                -0.4941810071468353,
                -0.043608203530311587,
                0.6324146389961243,
                -0.07984400540590286,
                1.0425310134887696,
                0.8413878679275513,
                0.4869769215583801,
                0.9312131404876709,
                0.7335666418075562,
                -0.4603784382343292,
                -0.2757197618484497,
                0.32262077927589419,
                -0.1317238062620163,
                -0.6856316328048706,
                -0.611818790435791,
                0.15782201290130616,
                -0.379732221364975,
                -1.1111104488372803,
                0.9586097002029419,
                0.46803778409957888,
                -0.04302053526043892,
                0.1474417895078659,
                0.5203739404678345,
                -0.5186824202537537,
                0.7009707093238831,
                0.457129567861557,
                0.0058110058307647709,
                -0.34453848004341128,
                1.064396619796753,
                0.10291896760463715,
                -0.6121843457221985,
                -0.15733075141906739,
                0.03194665163755417,
                -0.9847718477249146,
                -1.290231704711914,
                -0.05434165149927139,
                -0.23260127007961274,
                -0.8747543096542358,
                0.5723190903663635,
                0.09567824751138687,
                0.11381392180919647,
                -0.8844634890556336,
                0.3747903108596802,
                -0.4074234962463379,
                0.5230564475059509,
                -0.9556559920310974,
                0.4989878833293915,
                -0.579616904258728,
                0.06591906398534775,
                0.6477712392807007,
                -0.6805535554885864,
                -0.5786324143409729,
                -1.366817831993103,
                -1.1765621900558472,
                0.3335288166999817,
                -0.5850551128387451,
                -0.3652317225933075,
                0.5355332493782044,
                -0.356687068939209,
                -0.7836386561393738,
                0.12263653427362442,
                -0.6583418250083923,
                0.34476345777511599,
                -0.42726844549179079,
                -0.7952781319618225,
                -0.9762427806854248,
                0.8187311887741089,
                0.3933272659778595,
                -0.7616052627563477,
                0.16445331275463105,
                0.38380247354507449,
                -1.040426254272461,
                -0.5212327837944031,
                0.5931114554405212,
                0.9451191425323486,
                -1.1182187795639039,
                0.6610416173934937,
                0.8887926936149597,
                0.3728651702404022,
                0.10528359562158585,
                -0.6328715085983276,
                -1.1265414953231812,
                1.0322984457015992,
                -1.1113691329956055,
                -0.31493961811065676,
                -0.3061909079551697
            ],
            "fitness": 156.34494018554688,
            "npcType": 0
        },
        {
            "layers": [
                8,
                8,
                6,
                4
            ],
            "flattenedWeights": [
                0.20377874374389649,
                -0.5966919660568237,
                0.47723791003227236,
                0.12301073223352432,
                0.9977782964706421,
                0.03538362681865692,
                -0.7411285638809204,
                1.1468578577041627,
                -0.40770888328552248,
                1.2332763671875,
                0.7403044104576111,
                0.31848999857902529,
                0.3780679702758789,
                -0.24468377232551576,
                0.6280393004417419,
                0.5197846293449402,
                0.5239748358726502,
                -0.40832871198654177,
                0.21740449965000153,
                0.9325377941131592,
                0.8303051590919495,
                0.06644962728023529,
                -0.40226754546165469,
                -0.6966488361358643,
                0.2705385088920593,
                -0.910173773765564,
                0.9103037118911743,
                -0.5089495182037354,
                0.941996157169342,
                0.6253884434700012,
                -0.5883700251579285,
                0.6741265058517456,
                -0.8630067110061646,
                0.14672818779945374,
                -0.33528411388397219,
                -0.690095841884613,
                0.9725470542907715,
                -0.8691704869270325,
                -0.26583731174468996,
                0.7774327993392944,
                -0.5980915427207947,
                -0.8752418756484985,
                -0.6759964823722839,
                0.6580223441123962,
                -0.3990817070007324,
                -0.8389403223991394,
                0.07888218015432358,
                0.10315418988466263,
                0.42019733786582949,
                -0.4116019010543823,
                -0.5323948860168457,
                -0.21371296048164369,
                0.8025143146514893,
                -0.40455254912376406,
                1.0160189867019654,
                0.8413878679275513,
                0.4869769215583801,
                1.0072234869003297,
                0.6996974945068359,
                -0.4837450385093689,
                -0.2757197618484497,
                0.2918323576450348,
                -0.217325359582901,
                -0.6113362908363342,
                -0.611818790435791,
                0.15782201290130616,
                -0.2781379818916321,
                -1.094206690788269,
                1.0409263372421265,
                0.48620888590812685,
                0.4145212769508362,
                0.13311070203781129,
                0.9059639573097229,
                -0.5290213227272034,
                0.6523997187614441,
                0.457129567861557,
                0.020553700625896455,
                -0.3413603901863098,
                1.064396619796753,
                -0.2972398102283478,
                -0.6121843457221985,
                -0.15733075141906739,
                0.13738776743412019,
                -0.9847718477249146,
                -1.196193814277649,
                -0.14384779334068299,
                -0.2460728883743286,
                -0.5483387112617493,
                0.6931049227714539,
                0.10713609308004379,
                -0.04138610139489174,
                -0.8836994171142578,
                0.3747903108596802,
                -0.4074234962463379,
                0.43978509306907656,
                -0.9134271144866943,
                0.5291895270347595,
                -0.662580668926239,
                0.06591906398534775,
                0.7948523759841919,
                -0.6721274256706238,
                -1.0064066648483277,
                -1.2647581100463868,
                -1.1848416328430176,
                0.2801763415336609,
                -0.5850551128387451,
                -0.323133647441864,
                0.5964593887329102,
                -0.356687068939209,
                -0.9918232560157776,
                0.12263653427362442,
                -0.6583418250083923,
                0.1827709972858429,
                0.2842004895210266,
                -0.756834864616394,
                -1.0046780109405518,
                0.5950503945350647,
                0.31910747289657595,
                -0.7616052627563477,
                0.2618033289909363,
                0.36035192012786868,
                -1.040426254272461,
                -0.6530163884162903,
                0.5015683770179749,
                0.8605728149414063,
                -1.160597562789917,
                0.6556445956230164,
                0.8457067012786865,
                0.3728651702404022,
                0.1759631633758545,
                -0.6554263234138489,
                -1.1265414953231812,
                1.0027981996536255,
                -1.1629945039749146,
                -0.34775134921073916,
                -0.32249635457992556
            ],
            "fitness": 151.25662231445313,
            "npcType": 0
        },
        {
            "layers": [
                8,
                8,
                6,
                4
            ],
            "flattenedWeights": [
                0.05046997219324112,
                -0.6182335019111633,
                0.29533281922340395,
                0.11909375339746475,
                1.086649775505066,
                -0.0686090812087059,
                -0.8044816255569458,
                0.8906494379043579,
                -0.6882807612419128,
                0.8422088623046875,
                0.7317504286766052,
                0.4189380407333374,
                0.2959667146205902,
                -0.16306433081626893,
                0.7633997797966003,
                0.6591719388961792,
                0.7335348725318909,
                -0.585004985332489,
                0.18206611275672913,
                1.02854323387146,
                0.8928990960121155,
                0.45223698019981387,
                -0.35337135195732119,
                -0.5775414705276489,
                0.07510437071323395,
                -0.01510707288980484,
                0.8365646004676819,
                -0.036955662071704867,
                0.927470326423645,
                -0.8752321004867554,
                -0.5204315185546875,
                0.5280928015708923,
                -0.5565365552902222,
                0.03184068948030472,
                -0.5202065706253052,
                -0.44593408703804018,
                0.5144374966621399,
                -0.900005578994751,
                -0.1843326985836029,
                0.6979879140853882,
                -0.5721443891525269,
                0.7136852741241455,
                -0.7937598824501038,
                -0.2727521061897278,
                -0.2058265060186386,
                -0.8122483491897583,
                -0.05937681347131729,
                0.09079435467720032,
                0.5544204711914063,
                -0.4150888919830322,
                -0.644984245300293,
                -0.043608203530311587,
                0.7750073671340942,
                -0.02242668718099594,
                1.1468780040740967,
                0.9477935433387756,
                0.45033150911331179,
                0.366018682718277,
                0.7917160987854004,
                -0.9329257607460022,
                -0.2757197618484497,
                0.2918323576450348,
                -0.12574371695518495,
                -0.6147484183311462,
                -0.6080591082572937,
                0.2620772123336792,
                -0.5269781351089478,
                -1.2220690250396729,
                0.9786625504493713,
                0.465508371591568,
                0.09342517703771591,
                0.23753610253334046,
                0.3275604546070099,
                -0.44473159313201907,
                0.6197559237480164,
                0.44680875539779665,
                0.12438473105430603,
                -0.41664230823516848,
                -0.22927743196487428,
                -0.27681058645248415,
                -0.6462095975875855,
                -0.23819740116596223,
                0.00435483455657959,
                -1.1180568933486939,
                -1.2659322023391724,
                0.1101548969745636,
                -0.4146941900253296,
                -0.7978483438491821,
                0.6749832034111023,
                0.13298749923706056,
                0.12007966637611389,
                -0.946258008480072,
                0.47250795364379885,
                -0.13630187511444093,
                0.4693625867366791,
                -0.9745643734931946,
                0.944618284702301,
                -0.7000206112861633,
                0.13416925072669984,
                0.7275081276893616,
                -0.6418662667274475,
                -0.6778275370597839,
                -1.3305869102478028,
                -1.171920895576477,
                0.5984163880348206,
                -0.6473177671432495,
                -0.2809652090072632,
                0.5350320935249329,
                -0.41678673028945925,
                -0.7326207756996155,
                0.10771641135215759,
                -0.6799271106719971,
                0.34476345777511599,
                -0.32232436537742617,
                -0.6841737627983093,
                0.17039185762405396,
                0.8234579563140869,
                0.26491862535476687,
                -0.7943828701972961,
                0.23574058711528779,
                1.2864352464675904,
                -1.0634956359863282,
                -0.5187005400657654,
                0.5216630697250366,
                1.14385986328125,
                -0.8695265054702759,
                0.6632766127586365,
                0.9489113092422485,
                0.3525320291519165,
                0.06353913247585297,
                -0.6744834780693054,
                -1.1048799753189088,
                1.1306490898132325,
                -1.1779316663742066,
                -0.29177790880203249,
                -0.25033795833587649
            ],
            "fitness": 149.7498321533203,
            "npcType": 0
        },
        {
            "layers": [
                8,
                8,
                6,
                4
            ],
            "flattenedWeights": [
                -0.0743355005979538,
                -0.5527864098548889,
                0.327191025018692,
                0.2583824396133423,
                0.9793478846549988,
                -0.08988678455352783,
                -0.7853309512138367,
                1.1568939685821534,
                -0.3032437860965729,
                1.2235604524612427,
                0.8389245271682739,
                0.34675508737564089,
                0.5204782485961914,
                -0.18632878363132478,
                0.49685314297676089,
                0.5535440444946289,
                0.6193495988845825,
                -0.6636528968811035,
                0.326257586479187,
                0.9651545286178589,
                1.505510926246643,
                0.047045424580574039,
                -0.396240234375,
                -0.4961227774620056,
                0.509337842464447,
                -0.03620275855064392,
                1.0810251235961915,
                -0.5842766761779785,
                1.085587501525879,
                -0.8450832962989807,
                -0.5799788236618042,
                0.7148222923278809,
                -0.7697350382804871,
                0.161433607339859,
                -0.5900453329086304,
                -0.6750243306159973,
                0.9606581926345825,
                -0.9504015445709229,
                -0.17816802859306336,
                0.7736920118331909,
                -0.5030277967453003,
                -0.631285548210144,
                -0.7045729160308838,
                0.7082973122596741,
                -0.29813113808631899,
                -0.867107093334198,
                0.03213164210319519,
                -0.0981968566775322,
                0.6161139011383057,
                -0.5435768961906433,
                -0.6240979433059692,
                -0.13673906028270722,
                0.8931269645690918,
                -0.02242668718099594,
                1.0926687717437745,
                0.8600221872329712,
                0.519955575466156,
                0.9075507521629334,
                0.6466794610023499,
                -0.6870981454849243,
                -0.5333498120307922,
                -0.05743088573217392,
                -0.18384353816509248,
                -0.8454889059066773,
                -0.6007806658744812,
                0.15970563888549806,
                -0.5310645699501038,
                -1.313441514968872,
                0.9080332517623901,
                -0.362283855676651,
                0.07531062513589859,
                0.14732980728149415,
                0.3311102092266083,
                -0.6024545431137085,
                0.7009707093238831,
                0.2808283567428589,
                0.031451523303985599,
                -0.3403465449810028,
                -0.2964054346084595,
                -0.34855300188064577,
                -0.4007379114627838,
                -0.41707533597946169,
                -0.0421108677983284,
                -1.0202746391296387,
                -1.5639270544052125,
                -0.0699993446469307,
                -0.2944622039794922,
                -1.1405702829360963,
                0.8543909192085266,
                0.2379036694765091,
                0.012307196855545044,
                -0.8820375204086304,
                0.2580033838748932,
                0.0540471151471138,
                0.4135623574256897,
                -0.8058232665061951,
                0.5310506224632263,
                -0.7009555697441101,
                -0.09681489318609238,
                0.7736782431602478,
                -0.8157331347465515,
                -0.44043976068496706,
                -1.4215660095214844,
                -1.1884589195251465,
                0.33277973532676699,
                -0.5170699954032898,
                -0.3033314049243927,
                0.4269558787345886,
                -0.305560827255249,
                -0.6417951583862305,
                0.1330069899559021,
                -0.578517496585846,
                0.23095925152301789,
                -0.42726844549179079,
                -0.7745791077613831,
                -1.0325654745101929,
                0.6990519165992737,
                0.2716711461544037,
                -0.7183611392974854,
                0.18459796905517579,
                1.1412885189056397,
                -1.032292127609253,
                -0.5994634032249451,
                0.6329374313354492,
                0.8247200846672058,
                -0.8241156339645386,
                0.6347612142562866,
                0.8251374959945679,
                0.4628444015979767,
                0.11525597423315048,
                -0.4650929868221283,
                -1.1338156461715699,
                1.1234747171401978,
                -0.9071485996246338,
                -0.31951332092285159,
                -0.13140809535980225
            ],
            "fitness": 146.9130096435547,
            "npcType": 0
        },
        {
            "layers": [
                8,
                8,
                6,
                4
            ],
            "flattenedWeights": [
                0.038860175758600238,
                -0.8114851713180542,
                0.3468029797077179,
                0.24962806701660157,
                0.9838396906852722,
                -0.1575702577829361,
                -0.6427932977676392,
                0.7718704342842102,
                -0.49170050024986269,
                0.8511481881141663,
                0.7641602158546448,
                0.49434491991996767,
                0.3780679702758789,
                -0.07475215941667557,
                0.7201551795005798,
                0.8767995834350586,
                0.5659531354904175,
                -0.513271152973175,
                0.1976701021194458,
                0.952649712562561,
                0.8517788648605347,
                0.45429110527038576,
                -0.4568747878074646,
                -0.5317671298980713,
                0.04334601014852524,
                0.08432282507419586,
                0.8592237234115601,
                -0.4930335283279419,
                0.9019763469696045,
                -0.9597329497337341,
                -0.5204315185546875,
                0.48050737380981448,
                -0.64839106798172,
                -0.025683537125587465,
                -0.4840666353702545,
                -0.4188392460346222,
                0.9457703232765198,
                -0.9409846663475037,
                -1.4159246683120728,
                0.669804573059082,
                -0.5369130373001099,
                -0.5117886662483215,
                -0.7740083932876587,
                -0.2727521061897278,
                -0.304235577583313,
                -0.8122483491897583,
                0.021570704877376558,
                0.17168375849723817,
                0.39705994725227358,
                -0.4567587077617645,
                -0.632236659526825,
                -0.13120664656162263,
                0.8031259775161743,
                -0.5229365229606628,
                1.0468755960464478,
                0.8603177070617676,
                0.4187833368778229,
                0.3104034960269928,
                0.6729763746261597,
                -0.9597888588905335,
                -0.5972380042076111,
                0.2918323576450348,
                -0.18120625615119935,
                -0.6147484183311462,
                -0.4938865900039673,
                -0.4211490750312805,
                -0.9154885411262512,
                -1.3726962804794312,
                0.8905813097953796,
                0.46803778409957888,
                0.17282459139823914,
                0.07310178875923157,
                0.4076283574104309,
                -0.5006194710731506,
                0.7846680283546448,
                0.42186158895492556,
                -0.2598607838153839,
                -0.27565258741378786,
                -0.39196619391441347,
                0.10729347914457321,
                -0.5178084969520569,
                -0.2428528368473053,
                0.08802194148302078,
                -1.0092145204544068,
                -1.2357131242752076,
                0.10450945049524307,
                -0.17933917045593263,
                -0.7654704451560974,
                0.7862077355384827,
                0.04101882129907608,
                0.11381392180919647,
                -0.8718218803405762,
                0.25261080265045168,
                -0.18286369740962983,
                0.3567783534526825,
                -1.0986900329589844,
                0.45352059602737429,
                -0.9200617074966431,
                -0.22773438692092896,
                0.80926114320755,
                -0.6082990169525147,
                -0.6857983469963074,
                -0.976085364818573,
                -1.1202930212020875,
                0.5984163880348206,
                -0.6135969161987305,
                -0.2931194305419922,
                0.5395603775978088,
                -0.507667601108551,
                -0.6689014434814453,
                0.12263653427362442,
                -0.6501619219779968,
                0.13637897372245789,
                -0.5337311625480652,
                -0.7844759225845337,
                -0.8883366584777832,
                0.8886139392852783,
                -0.01955842226743698,
                -0.77647864818573,
                -0.16245663166046143,
                1.070013165473938,
                -1.083928108215332,
                -0.6125650405883789,
                0.41526490449905398,
                1.1711379289627076,
                -0.7269337177276611,
                0.6874096393585205,
                0.9695674777030945,
                0.32307472825050356,
                -0.013607218861579895,
                -0.5767935514450073,
                -0.8936878442764282,
                1.3221746683120728,
                -1.1779316663742066,
                -0.591492772102356,
                -0.2215403914451599
            ],
            "fitness": 146.08395385742188,
            "npcType": 0
        },
        {
            "layers": [
                8,
                8,
                6,
                4
            ],
            "flattenedWeights": [
                -0.277846097946167,
                -0.7718439102172852,
                0.4242534339427948,
                0.2583824396133423,
                0.8190313577651978,
                0.11536119133234024,
                -0.8586018085479736,
                0.9200617074966431,
                -0.5887553095817566,
                1.1266752481460572,
                0.8535475134849548,
                0.5004473924636841,
                0.38142818212509158,
                -0.1939239799976349,
                0.8833115696907044,
                0.8417662978172302,
                0.5849994421005249,
                -0.40832871198654177,
                0.17151887714862824,
                1.042626976966858,
                0.8303051590919495,
                0.2734345495700836,
                -0.5360814332962036,
                -0.7064089775085449,
                -0.06818285584449768,
                -0.10112062096595764,
                0.9103037118911743,
                -0.5828884243965149,
                0.027291905134916307,
                -0.8540927171707153,
                -0.5799788236618042,
                0.3596123158931732,
                -0.9970343708992004,
                0.14385931193828584,
                -0.5945828557014465,
                -0.7332541942596436,
                0.9725470542907715,
                -1.0055757761001588,
                -0.3050519824028015,
                0.9278905987739563,
                -0.5980915427207947,
                -0.498670756816864,
                -0.6981557607650757,
                -0.2825413942337036,
                -0.2697226405143738,
                -0.7355328798294067,
                -0.1842072308063507,
                0.12626458704471589,
                0.2086898535490036,
                -0.4116019010543823,
                -0.6285052299499512,
                -0.06264200061559677,
                0.8727855682373047,
                -0.35528674721717837,
                1.1154645681381226,
                0.9391531348228455,
                0.5436060428619385,
                0.8799383640289307,
                0.7917160987854004,
                -0.4344967007637024,
                -0.40198153257369997,
                0.17100219428539277,
                -0.19744834303855897,
                -0.6584371328353882,
                -0.6740501523017883,
                0.26134827733039858,
                -0.4528701901435852,
                -1.2331149578094483,
                1.0520669221878052,
                0.46803778409957888,
                0.09269657731056214,
                0.03915167599916458,
                0.3168179988861084,
                -0.6009349226951599,
                0.7170789837837219,
                0.27862828969955447,
                -0.030779585242271425,
                -0.36776217818260195,
                -0.12682324647903443,
                -0.3595750629901886,
                -0.46851441264152529,
                -0.15733075141906739,
                -0.07305056601762772,
                -1.0262876749038697,
                -1.3689274787902833,
                0.22401463985443116,
                -0.20422634482383729,
                -0.9085047841072083,
                0.7361553907394409,
                0.1630135178565979,
                0.15733933448791505,
                -0.6914815306663513,
                0.40247389674186709,
                -0.014065772294998169,
                0.484872967004776,
                -0.9522894024848938,
                0.9329318404197693,
                -0.7623952031135559,
                -0.009644672274589539,
                0.7941392064094544,
                -0.6805535554885864,
                -0.7136958241462708,
                -1.3329612016677857,
                -1.1664130687713624,
                0.3880554139614105,
                -0.5567291975021362,
                -0.27506735920906069,
                0.532591700553894,
                -0.23422977328300477,
                -0.7326207756996155,
                0.2514834403991699,
                -0.5755869150161743,
                0.4178452491760254,
                -0.32232436537742617,
                -0.8831419348716736,
                0.15640825033187867,
                0.49715542793273928,
                0.2110564261674881,
                -0.8227190971374512,
                0.3152622878551483,
                1.2177485227584839,
                -1.065890908241272,
                -0.633984386920929,
                0.5325765609741211,
                0.9557015299797058,
                -0.8419623374938965,
                0.6065646409988403,
                0.8201943635940552,
                -0.195597842335701,
                0.09005291014909744,
                -0.630935788154602,
                -1.0760242938995362,
                1.0598987340927125,
                -0.9160054922103882,
                -0.35053616762161257,
                -0.22402331233024598
            ],
            "fitness": 138.2185821533203,
            "npcType": 0
        }
    ],
    "timestamp": "2025-06-15 00:34:30"
}